ccopy_reg
_reconstructor
p0
(clightgbm.sklearn
LGBMClassifier
p1
c__builtin__
object
p2
Ntp3
Rp4
(dp5
Vboosting_type
p6
Vgbdt
p7
sVobjective
p8
NsVnum_leaves
p9
L31L
sVmax_depth
p10
L-1L
sVlearning_rate
p11
F0.01
sVn_estimators
p12
L200L
sVsubsample_for_bin
p13
L200000L
sVmin_split_gain
p14
F0.0
sVmin_child_weight
p15
F0.001
sVmin_child_samples
p16
L11L
sVsubsample
p17
F1.0
sVsubsample_freq
p18
L0L
sVcolsample_bytree
p19
F0.5
sVreg_alpha
p20
F0.0
sVreg_lambda
p21
F0.0
sVrandom_state
p22
L0L
sVn_jobs
p23
L-1L
sVsilent
p24
I00
sVimportance_type
p25
Vsplit
p26
sV_Booster
p27
g0
(clightgbm.basic
Booster
p28
g2
Ntp29
Rp30
(dp31
Vhandle
p32
Vtree\u000aversion=v2\u000anum_class=1\u000anum_tree_per_iteration=1\u000alabel_index=0\u000amax_feature_idx=76\u000aobjective=binary sigmoid:1\u000afeature_names=dias_entre_denu_y_sini COD_POST_OCURRENCIA_RC_CLUSTER_2019 dist_fformal_fsini CODIGO_VEHICULO COD_PROD dist_fformal_fdenu COD_POST_OCURRENCIA COD_POST_POLIZA_RC_CLUSTER_2019 CAPITAL_VEHICULO CAPITAL_ASEGURADO_COTIZACION TIPO_EXPED OCUPACION_ASEG COD_CAUSA_SINI COD_POST_TERC FALTANTE DANOS_MATERIALES COD_POST_TERC_RC_CLUSTER_2019 CODIGO_REAPERTURA ANTIG_pol cond_C1 TIPO_LESION COD_POST_POLIZA_DP_CLUSTER_2019 CANT_RENOVACION COD_POST_POLIZA ESTADO_CIVIL FECHA_SINI_Dayofyear TELEFONO_TERC TIPO_SINIESTRO COD_POST_POLIZA_RT_CLUSTER_2019 COD_POST_OCURRENCIA_DP_CLUSTER_2019 cond_C6 FECHA_SINI_Day CONV_COMISIONARIO FECHA_SINI_Elapsed cond_C15 CAPITAL_ACCESORIOS cond_C10 preg_15 MCA_JUICIO COD_POST_OCURRENCIA_RT_CLUSTER_2019 FECHA_SINI_Dayofweek CODIGO_CARATULA COD_POST_TERC_DP_CLUSTER_2019 COD_ZONA_RC cond_C14 SEXO NEGOCIO DESCRIPCION_TIPO cant_cond cond_37 ESTAD_VEH_ASEG preg_9 cond_C7 cond_C13 COD_POST_TERC_RT_CLUSTER_2019 cond_C16 cond_C9 total_condicion TIPO_LESION_MAXIMA cond_11 SEGMENTO preg_34 FECHA_SINI_Week cond_C11 COD_ZONA_ROBO cond_C8 cond_12 existe_FECHA_FORMAL cond_09 COD_ZONA_CASCO cant_sini_1y PRENDARIO SEXO_TERC COD_COBRO_ANTERIOR CERRADURA_DERECHA CERRADURA_BAUL COD_COBRO\u000afeature_infos=[0:478] [-1:30] [-5894:586] [-1:98708] [-1:99020] [-5894:586] [1:9420] [1:30] [-1:10133] [-1:5010] [0:6] [-1:99999] [4:508] [-1:9420] [0:1] [-1:38283] [-1:30] [-1:5] [-1:8646] [-1:3] [-1:2] [1:30] [-1:223] [1000:9420] [-1:9] [1:365] [-1:88298] [0:9] [1:10] [-1:30] [-1:3] [1:31] [-1:107] [1514764800:1548892800] [-1:1] [-1:204] [-1:0] [-1:5] [-1:2] [-1:10] [0:6] [-1:27] [-1:30] [-1:31] [-1:3] [-1:1] [-1:75] [-1:25] [0:3] [-1:0] [-1:5] [-1:5] [-1:3] [-1:3] [-1:10] [-1:1] [-1:3] [0:3] [-1:2] [-1:1] [-1:6] [-1:654] [1:52] [-1:3] [-1:31] [-1:1] [-1:0] [0:1] [-1:3] [-1:24] [0:4441] [-1:1] [-1:1] [-1:5] [-1:1] [-1:1] [-1:5]\u000atree_sizes=2576 2614 2603 2631 2605 2668 2591 2620 2624 2632 2656 2604 2637 2603 2639 2614 2618 2636 2662 2625 2606 2602 2631 2600 2617 2594 2635 2603 2587 2593 2626 2596 2623 2587 2624 2606 2622 2637 2646 2620 2612 2665 2614 2600 2625 2620 2651 2629 2636 2609 2592 2668 2619 2604 2607 2641 2674 2603 2676 2601 2587 2664 2647 2611 2604 2608 2624 2620 2646 2609 2653 2627 2625 2603 2622 2590 2590 2649 2621 2590 2624 2636 2628 2609 2626 2610 2664 2652 2596 2653 2639 2657 2634 2633 2597 2660 2639 2637 2661 2623 2613 2652 2637 2627 2617 2637 2611 2622 2640 2618 2621 2659 2647 2675 2647 2633 2641 2611 2631 2642 2663 2650 2662 2610 2648 2612 2618 2659 2617 2626 2639 2621 2673 2620 2615 2626 2601 2601 2628 2626 2646 2623 2658 2633 2630 2625 2619 2662 2650 2647 2602 2614 2640 2623 2613 2600 2611 2647 2615 2638 2636 2654 2607 2626 2601 2645 2635 2623 2643 2594 2624 2651 2588 2596 2682 2627 2654 2623 2649 2635 2650 2609 2634 2633 2624 2620 2646 2602 2654 2635 2609 2634 2619 2604 2649 2641 2642 2612 2625 2645\u000a\u000aTree=0\u000anum_leaves=31\u000anum_cat=0\u000asplit_feature=10 10 7 10 34 2 58 58 0 34 0 19 43 14 5 14 4 34 17 33 21 27 17 4 8 11 5 8 43 4\u000asplit_gain=373467 29342.8 10842 7391.2 4038.89 3489.89 3240.66 1922.74 1799.6 1787.09 1532.3 1404.81 1334.09 1642.28 1304.44 1491.38 2530.27 1841.39 1288.29 1270.49 1154.43 1105.28 1043.41 1105.15 946.077 938.477 893.358 853.592 839.038 923.5\u000athreshold=4.5000000000000009 1.5000000000000002 29.500000000000004 3.5000000000000004 -1.0000000180025095e-35 1.5000000000000002 -1.0000000180025095e-35 -1.0000000180025095e-35 1.0000000180025095e-35 -1.0000000180025095e-35 12.500000000000002 -1.0000000180025095e-35 3.5000000000000004 1.0000000180025095e-35 39.500000000000007 1.0000000180025095e-35 72036.500000000015 -1.0000000180025095e-35 2.5000000000000004 1543924800.0000002 15.500000000000002 4.5000000000000009 1.0000000180025095e-35 8164.5000000000009 513.50000000000011 32.500000000000007 8.5000000000000018 1553.5000000000002 6.5000000000000009 29206.500000000004\u000adecision_type=2 2 2 2 2 2 2 2 2 2 2 2 2 2 2 2 2 2 2 2 2 2 2 2 2 2 2 2 2 2\u000aleft_child=1 2 4 5 8 6 18 10 24 12 -5 -4 -2 28 15 22 -17 25 -3 20 -11 -10 -7 26 -1 -18 -24 -13 29 -14\u000aright_child=9 3 11 7 -6 14 -8 -9 21 19 -12 27 13 -15 -16 16 17 -19 -20 -21 -22 -23 23 -25 -26 -27 -28 -29 -30 -31\u000aleaf_value=-0.86362489126574471 -0.85047185852915319 -0.89101521001238637 -0.84854312919871377 -0.8788645641975118 -0.88746837439278992 -0.88822501251786734 -0.85371406658582616 -0.8475777117143013 -0.86951492212378467 -0.85824841001293461 -0.85371973991696171 -0.85187694718945017 -0.89215088512708618 -0.85197817324262748 -0.89058304620714723 -0.88675738933488968 -0.87591827856964366 -0.89215088512708618 -0.85408494816730685 -0.85588633882466658 -0.88588895609021001 -0.87945109928949483 -0.85583693689345974 -0.89215088512708618 -0.88415586948767699 -0.86067977204264501 -0.89215088512708618 -0.89215088512708618 -0.85684976054897333 -0.86543931713522337\u000aleaf_count=501 20026 373159 801 6165 13396 22349 234 110 13696 462 281 73 743 3445 16070 8581 2134 1641 98 5188 1207 5044 360 1067 8159 1742 423 617 1404 1751\u000ainternal_value=0 -0.964793 0.38857 -1.1637 0.0423455 -1.20787 -1.28668 0.597363 0.379634 2.58651 0.259023 2.63055 2.66389 2.24214 -0.730252 -0.542324 -0.0781848 0.707046 -1.29765 2.01848 0.663551 0.639194 -0.874012 0.365308 -0.388698 1.13329 1.3886 0.240689 1.50543 0.827995\u000ainternal_count=510927 476701 42287 434414 40796 427858 373491 6556 27400 34226 6446 1491 27369 7343 54367 38297 14098 5517 373257 6857 1669 18740 24199 1850 8660 3876 783 690 3898 2494\u000ashrinkage=1\u000a\u000a\u000aTree=1\u000anum_leaves=31\u000anum_cat=0\u000asplit_feature=10 10 7 10 34 2 58 12 34 3 58 42 19 43 14 17 34 14 4 2 33 24 31 31 42 22 43 7 58 4\u000asplit_gain=363619 28967.4 10493.4 7297.69 3967.23 3466.59 3178.44 2460.42 1700.27 1683.68 1582.41 1552.38 1344.5 1267.28 1568.3 1263.82 1249.23 1866.69 2529.5 1517.77 1220.46 1154.22 1744.56 1107.45 1089.26 1034.81 1033.84 1021.73 958.695 886.164\u000athreshold=4.5000000000000009 1.5000000000000002 29.500000000000004 3.5000000000000004 -1.0000000180025095e-35 1.5000000000000002 -1.0000000180025095e-35 201.50000000000003 -1.0000000180025095e-35 5623.5000000000009 -1.0000000180025095e-35 21.500000000000004 -1.0000000180025095e-35 3.5000000000000004 1.0000000180025095e-35 2.5000000000000004 -1.0000000180025095e-35 1.0000000180025095e-35 28652.500000000004 18.500000000000004 1543924800.0000002 5.5000000000000009 27.500000000000004 16.500000000000004 23.500000000000004 3.5000000000000004 17.000000000000004 12.500000000000002 -1.0000000180025095e-35 72221.000000000015\u000adecision_type=2 2 2 2 2 2 2 2 2 2 2 2 2 2 2 2 2 2 2 2 2 2 2 2 2 2 2 2 2 2\u000aleft_child=1 2 4 5 9 6 15 -5 13 21 -9 25 -4 -2 -15 -3 17 28 -19 23 27 22 26 24 -20 29 -1 -10 -7 -11\u000aright_child=8 3 12 7 -6 16 -8 10 20 11 -12 -13 -14 14 -16 -17 -18 18 19 -21 -22 -23 -24 -25 -26 -27 -28 -29 -30 -31\u000aleaf_value=-0.0078600787740635437 0.026942525485322354 -0.012960555432651483 0.028808186428819212 0.021478445365653989 -0.009416019629804635 -0.010215242464531911 0.023799841875115222 -0.0042576949968057068 0.022229619696472268 0.0095087714198247505 0.027943997268903922 0.010755473098672943 0.0023797501989610442 0.014811601319253343 0.025483465277271619 0.023439823473984382 -0.012169376098417726 -0.0090211660294347139 -0.01418466707127547 -0.0018655666917964785 0.021689671264312208 0.015546412737566491 0.022571804251668472 0.021303353619095234 0.020607817695736223 -0.0045838965152792781 0.01995972496298273 -0.0041734283564842734 0.0071888638773719019 -0.014169118179056441\u000aleaf_count=3587 20026 373159 801 888 13396 22618 234 5572 286 2611 96 2865 690 3898 3445 98 17222 7658 1031 3689 5188 3032 397 1029 206 13788 226 1383 914 894\u000ainternal_value=0 -0.959019 0.384042 -1.15769 0.0419016 -1.20184 -1.28068 0.58991 2.53367 0.37524 -0.0877222 0.0715875 2.57637 2.60865 2.1994 -1.29165 -0.725176 -0.531138 -0.0104788 0.703701 1.9818 0.988741 0.307114 1.47666 0.0416224 -0.184177 -0.351976 0.655092 -0.913046 0.599057\u000ainternal_count=510927 476701 42287 434414 40796 427858 373491 6556 34226 27400 5668 20158 1491 27369 7343 373257 54367 37145 13613 5955 6857 7242 4210 2266 1237 17293 3813 1669 23532 3505\u000ashrinkage=0.01\u000a\u000a\u000aTree=2\u000anum_leaves=31\u000anum_cat=0\u000asplit_feature=10 20 7 34 10 10 2 34 3 43 5 34 24 31 4 28 29 42 60 7 5 43 22 25 23 49 34 8 29 8\u000asplit_gain=354177 33889.2 9691.67 5185.49 4347.86 2633.81 2575.67 1620.4 1486.71 1206.07 1183.46 1122.16 1084.78 1583.39 1084.74 1306.24 1052.39 1022.95 970.308 1032.16 938.711 928.344 915.134 1000.97 891.051 888.011 877.258 808.756 792.505 789.256\u000athreshold=4.5000000000000009 -1.0000000180025095e-35 29.500000000000004 -1.0000000180025095e-35 3.5000000000000004 2.5000000000000004 1.5000000000000002 -1.0000000180025095e-35 5623.5000000000009 3.5000000000000004 39.500000000000007 -1.0000000180025095e-35 5.5000000000000009 27.500000000000004 29962.500000000004 8.5000000000000018 16.500000000000004 21.500000000000004 2.5000000000000004 16.500000000000004 1.5000000000000002 17.000000000000004 7.5000000000000009 181.50000000000003 1760.0000000000002 -1.0000000180025095e-35 -1.0000000180025095e-35 1553.5000000000002 25.500000000000004 2178.5000000000005\u000adecision_type=2 2 2 2 2 2 2 2 2 2 2 2 2 2 2 2 2 2 2 2 2 2 2 2 2 2 2 2 2 2\u000aleft_child=1 4 3 5 6 8 -1 9 12 -2 14 -4 13 21 20 16 26 22 19 -6 29 -3 23 -10 -20 -9 -16 -13 -19 -8\u000aright_child=7 2 11 -5 18 -7 10 25 17 -11 -12 27 -14 -15 15 -17 -18 28 24 -21 -22 -23 -24 -25 -26 -27 -28 -29 -30 -31\u000aleaf_value=-0.012857405693627644 0.026388839328396158 -0.0067167979049348623 0.027035097258160841 -0.0092428060301379348 -0.014151158088351766 0.029265898003024308 -0.014078894702466892 0.019997851660443124 0.0080425612688235556 0.021583157673659811 -0.01341938849171167 0.025302181545573222 0.014358703484514181 0.02117135183811384 0.0025026569339067955 0.016126449563173436 -0.011288147951850241 0.010331981267339608 -0.01416076646955013 0.018037028476837618 -0.011584028567192588 0.01916811126212125 -0.0046049718489328999 -0.0076536827636646074 0.0031791384181220307 -0.014138176979483399 -0.01405818557278171 -0.014099945594776602 -0.01418672665613442 0.006060395295288879\u000aleaf_count=373257 20026 3971 1058 16290 585 157 1373 6483 4000 7343 13418 76 3421 443 6517 629 5826 3283 2093 889 16651 236 12433 2299 2879 374 1845 591 700 1781\u000ainternal_value=0 -0.953319 0.379605 0.0900875 -1.18846 0.449584 -1.22129 2.48314 0.348308 2.55588 -0.776602 2.44419 0.905138 0.276229 -0.592591 -0.217816 -0.393362 0.0836071 0.252611 1.2293 -0.929822 -0.302034 -0.12489 0.389835 -0.232711 1.94644 -0.00759709 0.274126 0.801248 -0.020792\u000ainternal_count=510927 476701 48958 47233 427743 30943 421297 34226 30786 27369 48040 1725 8071 4650 34622 14817 14188 22715 6446 1474 19805 4207 18732 6299 4972 6857 8362 667 3983 3154\u000ashrinkage=0.01\u000a\u000a\u000aTree=3\u000anum_leaves=31\u000anum_cat=0\u000asplit_feature=10 10 7 10 55 67 41 41 3 16 55 37 19 18 8 6 14 6 55 14 46 11 45 41 6 14 35 18 3 24\u000asplit_gain=345116 28239.9 9852.56 7115.41 3829.75 3099.67 3486.6 1740.53 1599.62 1570.17 1546.99 1931.18 1244.98 1234.56 1173.84 1161.09 1355.99 2398.2 1146.68 1696.43 2407.13 1097.76 1016.55 947.468 896.254 888.81 882.838 856.118 842.743 1089.11\u000athreshold=4.5000000000000009 1.5000000000000002 29.500000000000004 3.5000000000000004 -1.0000000180025095e-35 1.0000000180025095e-35 1.0000000180025095e-35 1.0000000180025095e-35 5623.5000000000009 22.500000000000004 -1.0000000180025095e-35 -1.0000000180025095e-35 -1.0000000180025095e-35 537.50000000000011 4084.5000000000005 1900.5000000000002 1.0000000180025095e-35 5000.5000000000009 -1.0000000180025095e-35 1.0000000180025095e-35 36.500000000000007 36.500000000000007 1.0000000180025095e-35 1.0000000180025095e-35 1438.0000000000002 1.0000000180025095e-35 167.50000000000003 244.50000000000003 2694.5000000000005 5.5000000000000009\u000adecision_type=2 2 2 2 2 2 2 2 2 2 2 2 2 2 2 2 2 2 2 2 2 2 2 2 2 2 2 2 2 2\u000aleft_child=1 2 4 5 8 6 -3 25 21 26 15 -12 -4 14 -11 24 17 -17 19 23 -21 28 -22 -7 -2 -5 -10 -25 -1 -30\u000aright_child=10 3 12 7 -6 18 -8 -9 9 13 11 -13 -14 -15 -16 16 -18 -19 -20 20 22 -23 -24 27 -26 -27 -28 -29 29 -31\u000aleaf_value=-0.0070085750810123405 0.022034476077940544 -0.012787921124014735 0.027637105512785688 -0.014138836055031374 -0.0093028784911931561 -0.010329641288994241 0.02765617596649813 0.028582567840730384 -0.0027665466589746274 0.020874399614117585 0.020813618119102067 -0.0037571478776070285 0.0022778426797205849 -0.0079557566562403429 -0.0056336254493482198 0.0021888805666264682 0.024710060522287185 0.022399349304236645 -0.012152768427551768 -0.007413352586696371 -0.008443458569476767 0.01567166591236516 0.011330651351524815 0.018732406054622484 0.026728049460707549 0.0051053005978018333 0.021929331942649389 -0.014158751762978294 -0.0046263747740125215 0.016835598309570123\u000aleaf_count=2046 5060 369718 801 1341 13396 24078 108 110 16894 1055 5571 1286 690 1201 827 2677 3771 1864 18143 10204 1343 2692 3333 333 13997 5105 181 598 1452 1052\u000ainternal_value=0 -0.947689 0.375432 -1.14589 0.0411404 -1.19003 -1.26765 0.575451 0.366864 0.0702419 2.43475 1.91228 2.47622 1.03573 1.54741 2.50541 2.15418 1.5835 -0.752672 -0.572561 -0.0927475 0.961819 0.785583 -0.929488 2.59497 0.249806 -0.198629 0.682482 0.36047 0.885355\u000ainternal_count=510927 476701 42287 434414 40796 427858 369826 6556 27400 20158 34226 6857 1491 3083 1882 27369 8312 4541 58032 39889 14880 7242 4676 25009 19057 6446 17075 931 4550 2504\u000ashrinkage=0.01\u000a\u000a\u000aTree=4\u000anum_leaves=31\u000anum_cat=0\u000asplit_feature=36 66 51 58 21 30 6 34 5 19 15 5 12 39 4 6 39 4 34 9 6 6 21 4 39 8 4 14 5 62\u000asplit_gain=268539 67972.4 25878.4 6530.02 4938.24 3704.94 2758.9 2051.21 1871.81 1766.98 1673.23 1936.19 1833.61 1426.49 1317.35 1444.85 1231.21 1183.32 1158.27 1146.32 1043.18 872.054 864.167 773.921 1000.28 913.542 1114.25 760.415 863.951 732.308\u000athreshold=-1.0000000180025095e-35 -1.0000000180025095e-35 1.0000000180025095e-35 -1.0000000180025095e-35 10.500000000000002 -1.0000000180025095e-35 2600.5000000000005 -1.0000000180025095e-35 -1.0000000180025095e-35 -1.0000000180025095e-35 867.50000000000011 18.500000000000004 501.50000000000006 5.5000000000000009 72036.500000000015 1000.5000000000001 3.5000000000000004 5235.0000000000009 -1.0000000180025095e-35 2448.0000000000005 1430.5000000000002 1130.5000000000002 13.500000000000002 72039.500000000015 2.5000000000000004 6591.5000000000009 73524.000000000015 1.0000000180025095e-35 11.500000000000002 35.500000000000007\u000adecision_type=2 2 2 2 2 2 2 2 2 2 2 2 2 2 2 2 2 2 2 2 2 2 2 2 2 2 2 2 2 2\u000aleft_child=1 2 3 8 6 -5 -4 22 -1 16 11 12 14 23 15 -10 21 -17 27 -8 -15 -7 -6 -2 -25 -26 -27 28 -16 -18\u000aright_child=13 -3 4 5 7 9 19 -9 10 -11 -12 -13 -14 20 18 17 29 -19 -20 -21 -22 -23 -24 24 25 26 -28 -29 -30 -31\u000aleaf_value=-0.01187282053087649 0.022917264922616448 0.025071831232249299 0.024910356201641882 0.027615234026064108 -0.0093903066631960026 -0.0041416022719566754 -0.0094670617518054674 -0.010545895187359142 0.022402187928217038 -0.0099942652411676141 -0.011457201635719772 -0.0088730364831718783 -0.014033202326014507 0.018659359972146742 -0.014029254093709413 0.014284031518591356 -0.0064493644832973518 -0.014002034196382221 -0.013966715653335451 0.014090484712165443 0.025964002779565402 0.021216050366063294 0.0064314852139391032 0.023221257893106566 0.016347083414651596 -0.014510558389690478 0.020325836430995083 0.022591491296434178 0.01976433047925592 0.022919643369474017\u000aleaf_count=389721 8267 4160 1425 218 1643 683 1682 4742 241 6004 29378 16747 2748 2880 702 396 2837 3223 669 887 11963 685 10937 1877 3841 1052 186 790 243 100\u000ainternal_value=0 -0.758373 -0.942129 -1.08363 0.763242 0.281694 1.844 0.207131 -1.13193 -0.159891 -0.778356 -0.426535 0.208903 2.36862 0.618067 -0.197607 0.572967 -0.76428 1.34656 0.31651 2.52549 1.50476 0.506806 2.11778 1.7988 1.41047 -0.0314067 1.70711 0.376266 -0.288743\u000ainternal_count=510927 480861 476701 455385 21316 10527 3994 17322 444858 10309 55137 25759 9012 30066 6264 3860 4305 3619 2404 2569 14843 1368 12580 15223 6956 5079 1238 1735 945 2937\u000ashrinkage=0.01\u000a\u000a\u000aTree=5\u000anum_leaves=31\u000anum_cat=0\u000asplit_feature=37 20 61 57 34 72 16 72 70 52 34 35 5 29 17 74 0 3 26 62 43 22 9 50 22 0 60 5 22 74\u000asplit_gain=244696 22016.1 16003.6 11129.5 6982.08 5874.02 5413.07 2755.42 2724.91 3711 2705.22 2329.49 1752.17 1749.08 1712.54 1622.1 1605.06 1584.57 1430.2 1372.24 1370.87 1141.74 1150.36 1131.7 1066.6 1051.84 989.117 950.638 949.209 910.235\u000athreshold=-1.0000000180025095e-35 -1.0000000180025095e-35 74.500000000000014 1.5000000000000002 -1.0000000180025095e-35 1.0000000180025095e-35 29.500000000000004 -1.0000000180025095e-35 4.5000000000000009 -1.0000000180025095e-35 -1.0000000180025095e-35 167.50000000000003 -1.0000000180025095e-35 24.500000000000004 2.5000000000000004 -1.0000000180025095e-35 1.0000000180025095e-35 5602.5000000000009 16250.000000000002 41.500000000000007 3.5000000000000004 21.500000000000004 2204.5000000000005 2.5000000000000004 14.500000000000002 27.500000000000004 5.5000000000000009 -1.0000000180025095e-35 3.5000000000000004 -1.0000000180025095e-35\u000adecision_type=2 2 2 2 2 2 2 2 2 2 2 2 2 2 2 2 2 2 2 2 2 2 2 2 2 2 2 2 2 2\u000aleft_child=1 2 3 5 6 11 7 -3 9 -5 20 13 -7 14 19 25 18 27 -9 29 -2 23 -23 -19 26 -6 -15 -18 -13 -1\u000aright_child=10 4 -4 8 15 12 -8 16 -10 -11 -12 28 -14 24 -16 -17 17 21 -20 -21 -22 22 -24 -25 -26 -27 -28 -29 -30 -31\u000aleaf_value=-0.0054313471026842652 0.025098166688366234 0.028043715546426241 0.020612248878827857 0.017820415771093719 -0.010770528269200687 -0.013682992430822117 0.025993384446856154 -0.0064052501403313944 -0.013903187371012855 -0.0071642668742492015 -0.0039097511312335739 -0.013929533200145261 -0.0083850967464598608 -0.0027561696749436176 0.019577903384075033 0.027212126611556777 0.01605838614486698 -0.0074928220697300122 0.011634916050398918 -0.0054237762403753463 0.019574352559923316 -0.011976807815823885 0.0070928822040868872 0.0081458565720889005 -0.0076547477181609794 0.0052341715502878814 0.0092215654263092233 0.0021918448661499002 0.010696881095735102 -0.010407742416445313\u000aleaf_count=16829 17170 160 2061 3391 15505 163188 783 8478 2425 3398 1286 928 33430 14425 290 61 3447 2233 1229 36436 6561 3864 1386 8373 16895 1394 2038 2049 2169 139045\u000ainternal_value=0 -0.685095 -0.861458 -0.916326 0.389414 -0.982386 0.758655 0.521696 0.803535 1.14632 2.39055 -0.764633 -1.26834 -0.795194 -0.876261 -0.764989 0.411911 0.639158 -0.261365 -0.890057 2.41978 0.316443 -0.476204 0.594763 -0.383667 -0.882204 -0.0598965 1.26519 0.658696 -0.980607\u000ainternal_count=510927 485910 436948 434887 48962 425673 32002 31219 9214 6789 25017 229055 196618 225958 192600 16960 31059 21352 9707 192310 23731 15856 5250 10606 33358 16899 16463 5496 3097 155874\u000ashrinkage=0.01\u000a\u000a\u000aTree=6\u000anum_leaves=31\u000anum_cat=0\u000asplit_feature=10 10 1 10 34 2 1 42 24 19 5 15 1 54 2 1 15 19 2 7 35 21 21 26 1 5 46 25 45 10\u000asplit_gain=321236 27334.1 9845.5 6990.24 3421.81 3369.23 1576.91 1490.63 1340.55 1304.83 1285.26 2656.36 2040.2 1029.03 1136.93 997.186 995.856 920.885 901.837 901.107 850.843 806.963 773.11 995.55 759.544 754.684 753.563 1101.77 692.414 691.435\u000athreshold=4.5000000000000009 1.5000000000000002 29.500000000000004 3.5000000000000004 -1.0000000180025095e-35 1.5000000000000002 22.500000000000004 19.500000000000004 2.5000000000000004 -1.0000000180025095e-35 39.500000000000007 5.0000000000000009 15.500000000000002 7.5000000000000009 7.5000000000000009 26.500000000000004 1.0000000180025095e-35 -1.0000000180025095e-35 8.5000000000000018 29.500000000000004 167.50000000000003 16.500000000000004 25.500000000000004 37978.500000000007 24.500000000000004 20.500000000000004 36.500000000000007 257.50000000000006 1.0000000180025095e-35 2.5000000000000004\u000adecision_type=2 2 2 2 2 2 2 2 2 2 2 2 2 2 2 2 2 2 2 2 2 2 2 2 2 2 2 2 2 2\u000aleft_child=1 2 4 5 7 29 8 19 -2 -4 11 12 17 -13 -15 -5 24 26 -18 20 28 -9 23 -23 -14 -26 27 -7 -1 -3\u000aright_child=6 3 9 15 -6 10 -8 21 -10 -11 -12 13 16 14 -16 -17 18 -19 -20 -21 -22 22 -24 -25 25 -27 -28 -29 -30 -31\u000aleaf_value=-0.0060050573268568518 0.017663190702688999 -0.013587825589983072 0.0263182619426982 0.0033265559910386241 -0.0091140281472869931 -0.0074355040595470642 0.024724803912030271 -0.01420848640109653 0.023155005807253742 0.0012117683957852945 -0.012326008428533208 -0.011596022000409026 -0.0097282501036768543 0.012479735312203533 -0.010234176502244619 0.023225413052543224 0.027793907395980484 -0.0066109106978740097 -0.013976914383618927 0.027212839169197017 0.020438225444857263 0.01633950523451129 -0.0057928185252747559 -0.014246784313341667 0.0082890125660300372 -0.013985787876306711 0.020942415146066703 0.028098867423626727 0.0016630568408966479 -0.011682956464452048\u000aleaf_count=6167 10394 170521 890 6273 13339 1170 15329 591 8503 753 16070 21495 7546 902 2187 283 98 1027 364 50 268 2790 844 544 1464 1024 939 81 16051 202970\u000ainternal_value=0 -0.932025 0.366664 -1.1298 0.0147225 -1.17415 2.30784 0.323901 2.08488 2.35566 -0.701074 -0.513591 0.0986377 -0.968661 0.016721 0.576863 -0.404939 1.09523 1.51708 0.0986231 0.0485757 1.06245 1.21763 1.43592 -0.596793 0.225798 1.47946 0.384724 -0.0147253 -1.25327\u000ainternal_count=510927 476701 42287 434414 40644 427858 34226 27305 18897 1643 54367 38297 13713 24584 3089 6556 10496 3217 462 22536 22486 4769 4178 3334 10034 2488 2190 1251 22218 373491\u000ashrinkage=0.01\u000a\u000a\u000aTree=7\u000anum_leaves=31\u000anum_cat=0\u000asplit_feature=37 12 12 20 75 34 16 11 34 2 56 0 24 26 39 2 17 26 26 75 42 0 39 32 13 25 9 9 17 32\u000asplit_gain=232460 24469.5 39291.9 31071.7 17121.4 7020.25 5231.46 2831.1 2590.08 2467.13 1711.11 1555.76 1508.56 1403.3 1114.9 1080.61 1384.87 1522.51 1067.93 1040.43 1004.49 979.358 924.728 850.942 1104.78 825.309 775.816 1268.4 738.578 711.589\u000athreshold=-1.0000000180025095e-35 217.50000000000003 207.50000000000003 -1.0000000180025095e-35 -1.0000000180025095e-35 -1.0000000180025095e-35 29.500000000000004 5499.0000000000009 -1.0000000180025095e-35 1.5000000000000002 -1.0000000180025095e-35 1.0000000180025095e-35 5.5000000000000009 16250.000000000002 3.5000000000000004 16.500000000000004 1.0000000180025095e-35 34298.000000000007 39894.500000000007 1.0000000180025095e-35 23.500000000000004 27.500000000000004 4.5000000000000009 106.50000000000001 1765.5000000000002 215.50000000000003 1925.5000000000002 1869.5000000000002 2.5000000000000004 13.500000000000002\u000adecision_type=2 2 2 2 2 2 2 2 2 2 2 2 2 2 2 2 2 2 2 2 2 2 2 2 2 2 2 2 2 2\u000aleft_child=1 2 4 9 -1 6 10 19 14 -3 -5 13 22 26 -2 16 20 -18 -14 -4 -11 -7 -13 24 -22 -23 27 -12 -6 -9\u000aright_child=8 3 7 5 28 21 -8 29 -10 15 11 12 18 -15 -16 -17 17 -19 -20 -21 23 25 -24 -25 -26 -27 -28 -29 -30 -31\u000aleaf_value=0.020311775512457254 0.020045696745866474 -0.012603388497785551 0.019756209838947613 0.026614477576593635 -0.012807487744331093 -0.010193174109528127 0.025038813182171316 -0.014281337164184038 -0.0040677428109552214 -0.0088133780702232666 -0.0058501432656982632 0.0051646213232628014 0.011361501666650738 0.011474958318707252 0.024345806435194187 -0.010223065721178962 -0.013968690882561618 0.021103219000599253 -0.014159744345109845 -0.013868254135128915 0.018367373836377529 0.014447771096542194 -0.0054717081019781347 -0.0069958274162054872 -0.013934737944896552 -0.013949141761078056 -0.014107462111294664 0.021429587632489758 0.029735908365663356 0.0066405682721892489\u000aleaf_count=2071 8439 311576 10252 138 60799 15552 783 913 1286 13887 4340 6818 8823 1229 15292 29143 874 533 824 463 671 648 4876 2220 688 746 3874 258 17 2894\u000ainternal_value=0 -0.675869 0.216422 -0.913408 -0.849947 0.344121 0.713252 1.73449 2.30503 -1.18441 0.475811 0.403747 0.626665 -0.259848 2.33326 -0.751242 -0.394908 1.04654 1.03303 1.93974 -0.593675 -0.832399 0.155104 0.228376 1.06117 0.524817 -0.636896 -0.156238 -1.26676 0.357205\u000ainternal_count=510927 485910 77409 408501 62887 48909 31963 14522 25017 359592 31180 31042 21341 9701 23731 48016 18873 1407 9647 10715 17466 16946 11694 3579 1359 1394 8472 4598 60816 3807\u000ashrinkage=0.01\u000a\u000a\u000aTree=8\u000anum_leaves=31\u000anum_cat=0\u000asplit_feature=36 49 20 7 19 30 2 7 57 12 19 14 2 32 13 13 13 30 53 12 0 17 7 17 60 46 16 12 2 7\u000asplit_gain=243818 59102 31041.9 8188.64 4617.59 2229.42 1982.87 1754.78 1524.96 2054.81 1313.58 1206.68 1855.15 1234.96 1174.71 1284.21 1181.09 1091.52 4090.63 2165.72 1334.79 1259.26 965.991 938.286 1031.7 1383.03 931.051 888.14 878.554 873\u000athreshold=-1.0000000180025095e-35 -1.0000000180025095e-35 -1.0000000180025095e-35 29.500000000000004 -1.0000000180025095e-35 -1.0000000180025095e-35 1.5000000000000002 21.500000000000004 1.5000000000000002 204.50000000000003 -1.0000000180025095e-35 1.0000000180025095e-35 20.500000000000004 106.50000000000001 1642.5000000000002 2215.0000000000005 1846.5000000000002 -1.0000000180025095e-35 -1.0000000180025095e-35 201.50000000000003 6.5000000000000009 2.5000000000000004 27.500000000000004 1.0000000180025095e-35 4.5000000000000009 46.500000000000007 8.5000000000000018 502.50000000000006 4.5000000000000009 29.500000000000004\u000adecision_type=2 2 2 2 2 2 2 2 2 2 2 2 2 2 2 2 2 2 2 2 2 2 2 2 2 2 2 2 2 2\u000aleft_child=1 2 6 4 5 -4 8 -2 17 -10 -5 -8 13 26 23 16 -16 18 19 -1 -21 -20 -15 24 -7 -26 -13 -17 -25 -9\u000aright_child=7 -3 3 10 -6 14 11 29 9 -11 -12 12 -14 22 15 27 -18 -19 21 20 -22 -23 -24 28 25 -27 -28 -29 -30 -31\u000aleaf_value=0.018711127790761208 0.019391231138475039 0.023651286959116426 0.025892527649627361 0.024978834797363104 -0.006982689715645125 0.0047117020515581014 -0.010126308786105436 0.024017707210942867 0.012157443305476348 -0.010641494228548256 0.0003822883551019009 -0.014018765098173059 -0.0093686047809319935 -0.011103783869781439 0.0055801361778325979 -0.0055099097637024167 0.019811919037910613 -0.013534774997716588 -0.011894592690667656 -0.0080728085472452256 0.018791659104367954 0.025437064989035672 0.022514037895518361 0.029013072575286066 -0.0092229322272879694 0.0060016115929889544 0.012654673877929968 0.016581456976513299 -0.014077439288318594 0.0030434134972773877\u000aleaf_count=862 16020 3672 215 904 20767 7140 31041 13499 1215 5346 821 724 10780 3005 3287 3250 1473 168387 198800 5172 336 72 125 90 7868 2449 2365 397 298 547\u000ainternal_value=0 -0.739856 -0.910155 0.358711 0.0872509 0.500517 -1.14104 2.21024 -1.1971 -0.272462 2.20794 -0.746531 -0.340021 0.364291 0.386001 0.847824 1.26258 -1.21812 -1.11305 0.275015 -0.395492 -1.18125 -0.663288 0.0981337 0.00348438 -0.422845 0.95797 -0.0647646 1.91935 2.38337\u000ainternal_count=510927 480861 477189 48959 47234 26467 428230 30066 380190 6561 1725 48040 16999 6219 26252 8407 4760 373629 205242 6370 5508 198872 3130 17845 17457 10317 3089 3647 388 14046\u000ashrinkage=0.01\u000a\u000a\u000aTree=9\u000anum_leaves=31\u000anum_cat=0\u000asplit_feature=36 49 51 7 38 42 34 13 57 7 0 15 19 19 17 7 53 8 33 7 34 39 22 28 14 0 8 7 3 14\u000asplit_gain=237890 57830 23942 6185.75 6050.54 3685.85 2124.93 1982.99 1714.97 1686.88 1623.75 1584.15 1864.94 1487.26 1325.22 1172.44 1358.24 1526.35 1162.66 1407.98 1142.74 1000.23 962.633 903.513 1076.23 1015.14 854.386 841.661 904.458 784.559\u000athreshold=-1.0000000180025095e-35 -1.0000000180025095e-35 1.0000000180025095e-35 29.500000000000004 -1.0000000180025095e-35 2.5000000000000004 -1.0000000180025095e-35 1429.5000000000002 1.5000000000000002 21.500000000000004 1.0000000180025095e-35 867.50000000000011 -1.0000000180025095e-35 -1.0000000180025095e-35 2.5000000000000004 14.500000000000002 -1.0000000180025095e-35 2510.5000000000005 1544875200.0000002 27.500000000000004 -1.0000000180025095e-35 3.5000000000000004 41.500000000000007 2.5000000000000004 1.0000000180025095e-35 9.5000000000000018 513.50000000000011 29.500000000000004 2059.5000000000005 1.0000000180025095e-35\u000adecision_type=2 2 2 2 2 2 2 2 2 2 2 2 2 2 2 2 2 2 2 2 2 2 2 2 2 2 2 2 2 2\u000aleft_child=1 2 4 6 7 -6 10 8 14 29 26 12 15 21 -1 23 -17 -18 19 -10 -3 -7 -12 25 -25 -9 -4 -11 -29 -2\u000aright_child=9 20 3 -5 5 13 -8 11 18 27 22 -13 -14 -15 -16 16 17 -19 -20 -21 -22 -23 -24 24 -26 -27 -28 28 -30 -31\u000aleaf_value=-0.011799104508410364 0.015454883715916396 0.023754156576825339 0.017074361493677467 0.023582089471336252 0.025815540759974498 0.013393450888630492 -0.0093328349385992798 -0.0081438805798512998 -0.010243471718820112 0.023593041075445909 0.010176230395833541 -0.011437990065543191 -0.011068978932114715 -0.0097862870981062812 0.015049300373581551 -0.0082876844242205025 0.016742452164046413 -0.014237138786610638 0.0088382872379796189 0.021817206564355023 -0.014424735861885869 -0.0029252653083718591 -0.0083062132427588319 -0.00073834663265676635 0.020104055818276029 0.020379947259416015 -0.0067815092981507695 0.028208092941565562 -0.014900493594265176 0.020551808715772078\u000aleaf_count=382028 6253 3298 265 1116 237 1364 5445 2690 6860 13499 8188 25006 12337 5994 344 9947 834 1098 1444 206 374 2933 1291 1483 851 217 5011 16 531 9767\u000ainternal_value=0 -0.735153 -0.904919 0.725118 -1.04413 0.26724 0.268863 -1.09159 -1.14907 2.17234 0.541267 -0.723854 -0.426394 -0.201801 -1.17364 -0.0572203 -0.440793 0.725961 -0.28867 -0.72893 2.3236 0.476313 0.872578 0.577918 1.18824 -0.239039 -0.385162 2.34136 0.300986 1.90731\u000ainternal_count=510927 480861 477189 21316 455873 10528 20200 445345 390882 30066 14755 54463 29457 10291 382372 17120 11879 1932 8510 7066 3672 4297 9479 5241 2334 2907 5276 14046 547 16020\u000ashrinkage=0.01\u000a\u000a\u000aTree=10\u000anum_leaves=31\u000anum_cat=0\u000asplit_feature=36 37 20 7 55 48 72 19 72 7 42 2 7 3 13 18 7 19 65 14 2 33 32 0 35 17 52 65 0 17\u000asplit_gain=232172 50567.7 29794.3 7666.96 4614.72 3479.8 2876.76 3409.91 2348.73 1623.85 1614.6 1604.57 1507.01 1351.99 1306.75 1500.14 1555.91 1249.09 1149.13 1102.91 1663.63 1145.9 1033.84 991.607 936.319 933.57 919.047 3430.68 1763.02 1221.39\u000athreshold=-1.0000000180025095e-35 -1.0000000180025095e-35 -1.0000000180025095e-35 29.500000000000004 -1.0000000180025095e-35 1.0000000180025095e-35 1.0000000180025095e-35 -1.0000000180025095e-35 -1.0000000180025095e-35 21.500000000000004 8.5000000000000018 1.5000000000000002 28.500000000000004 5623.5000000000009 1642.5000000000002 610.50000000000011 16.500000000000004 -1.0000000180025095e-35 1.0000000180025095e-35 1.0000000180025095e-35 15.500000000000002 1537358400.0000002 106.50000000000001 1.0000000180025095e-35 167.50000000000003 1.0000000180025095e-35 -1.0000000180025095e-35 -1.0000000180025095e-35 12.500000000000002 2.5000000000000004\u000adecision_type=2 2 2 2 2 2 2 2 2 2 2 2 2 2 2 2 2 2 2 2 2 2 2 2 2 2 2 2 2 2\u000aleft_child=1 2 5 4 8 11 7 18 -4 -2 -9 26 -8 23 24 16 -16 -5 -7 -13 21 22 -21 -10 -15 -24 27 29 -29 -1\u000aright_child=9 -3 3 17 -6 6 12 10 13 -11 -12 19 -14 14 15 -17 -18 -19 -20 20 -22 -23 25 -25 -26 -27 -28 28 -30 -31\u000aleaf_value=-0.011841381161024825 0.018765339400270725 0.022918697747028576 0.025847812870725174 0.024138860844635728 -0.0088216917412776204 -0.0093218270755763485 -0.013029390459719768 0.02002347866798989 -0.0018229396138114047 0.023009957335152122 -0.01374189687801758 -0.010506874106648212 0.017537948068347652 -0.0037557707617428917 -0.0091392688243984877 -0.0080496222559279327 0.013767730214868712 0.00023386327210144037 0.0082612905249049937 0.014465695983076975 -0.0090969439216423316 -0.013851898286820683 -0.013807570285865323 0.011407979885382001 0.021725199904254672 0.021253600048992381 -0.013427560469964775 -0.0016456830939332616 0.026413742496220131 0.024638511227031791\u000aleaf_count=195502 16020 3226 158 904 16291 7510 13569 1073 2590 14046 823 28354 310 15139 1529 2486 3390 821 1250 1619 10301 1416 1501 5481 171 134 159796 5266 179 72\u000ainternal_value=0 -0.730489 -0.881272 0.358653 0.0950094 -1.10863 -0.387799 0.242102 0.426191 2.13582 1.55831 -1.16268 -1.12086 0.324024 0.0711719 0.60791 0.996614 2.1344 -0.531064 -0.784294 -0.365039 0.43107 0.835867 0.849846 -0.28338 -0.492361 -1.21372 -1.11643 0.269066 -1.17575\u000ainternal_count=510927 480861 477635 48960 47235 428675 24535 10656 30944 30066 1896 404140 13879 30786 22715 7405 4919 1725 8760 43325 14971 4670 3254 8071 15310 1635 360815 201019 5445 195574\u000ashrinkage=0.01\u000a\u000a\u000aTree=11\u000anum_leaves=31\u000anum_cat=0\u000asplit_feature=63 12 74 59 7 38 34 30 2 7 16 3 8 5 35 24 24 3 25 7 3 64 17 26 5 71 28 2 29 13\u000asplit_gain=226656 23287.3 41378.2 25019 7964.41 3659.74 3084.14 2545.19 2206.98 1565.29 1330.83 1756.34 1587.08 1168.71 1066.62 993.426 877.605 961.806 867.364 807.086 875.33 761.208 757.996 1666.46 962.877 892.747 1195.76 1236.94 803.234 729.153\u000athreshold=-1.0000000180025095e-35 205.50000000000003 -1.0000000180025095e-35 -1.0000000180025095e-35 29.500000000000004 -1.0000000180025095e-35 -1.0000000180025095e-35 -1.0000000180025095e-35 1.5000000000000002 21.500000000000004 22.500000000000004 12562.500000000002 4084.5000000000005 39.500000000000007 167.50000000000003 2.5000000000000004 5.5000000000000009 2005.5000000000002 346.50000000000006 29.500000000000004 2059.5000000000005 19.500000000000004 1.0000000180025095e-35 34298.000000000007 8.5000000000000018 1.0000000180025095e-35 8.5000000000000018 35.500000000000007 16.500000000000004 1846.5000000000002\u000adecision_type=2 2 2 2 2 2 2 2 2 2 2 2 2 2 2 2 2 2 2 2 2 2 2 2 2 2 2 2 2 2\u000aleft_child=1 2 -1 5 6 8 10 -7 -3 15 11 16 29 22 -13 18 17 -5 -2 -11 -21 -19 25 -24 -25 -10 27 -27 -29 -12\u000aright_child=9 3 -4 4 -6 7 -8 -9 13 19 12 14 -14 -15 -16 -17 -18 21 -20 20 -22 -23 23 24 -26 26 -28 28 -30 -31\u000aleaf_value=0.021721939322428989 0.015988065933905112 -0.012152599281574328 -0.011763898910203796 0.026309694914874209 0.021711240326231694 0.024239992186039911 -0.0087279690082914269 -0.0035311617016707663 -0.0090223432661327135 0.0227954076715015 0.0074513134057330004 -0.0049662115338589457 -0.0090146622664419047 -0.01305030509264022 0.022720070480246504 0.020766095919997531 0.010955683494187485 -0.0048828157423687936 -0.015080165805900466 0.027242350834009148 -0.014940376702570771 0.017942674997199697 -0.013800227421965497 0.022192605638920348 -0.013804567509653977 -0.0074902412115749589 0.017674606768884132 0.018755789190862921 -0.013752896366303684 0.020994042219624875\u000aleaf_count=5277 8597 342200 37538 75 1487 190 12973 6553 22268 13499 1877 13059 1452 13574 144 7015 4030 4472 408 16 531 256 1637 448 459 8489 440 544 498 921\u000ainternal_value=0 -0.725912 0.442539 -0.906191 0.349099 -1.11429 0.0281512 0.183206 -1.14863 2.10059 0.323769 0.114709 1.05387 -0.734806 -0.381048 1.84673 0.637383 0.0568709 1.55557 2.26215 0.272475 -0.199852 -0.550166 0.367738 1.54129 -0.648649 -0.183756 -0.413041 1.12625 1.47207\u000ainternal_count=510927 480861 42815 438046 40746 397300 39259 6743 390557 30066 26286 22036 4250 48357 13203 16020 8833 4803 9005 14046 547 4728 34783 2544 907 32239 9971 9531 1042 2798\u000ashrinkage=0.01\u000a\u000a\u000aTree=12\u000anum_leaves=31\u000anum_cat=0\u000asplit_feature=36 37 20 55 48 12 21 6 30 2 11 21 75 13 13 55 6 5 4 11 28 13 2 6 43 12 21 30 65 12\u000asplit_gain=221330 48498 29069.5 6666.29 3425.65 6802.15 2980.89 3157.51 2101.22 1587.04 1533.27 1516.8 1501.72 1496.86 1497.7 1161.89 1142.86 1301.94 1006.83 1042.84 1083.23 972.068 967.723 949.786 969.152 943.258 938.272 920.789 3377.35 1158.19\u000athreshold=-1.0000000180025095e-35 -1.0000000180025095e-35 -1.0000000180025095e-35 -1.0000000180025095e-35 1.0000000180025095e-35 204.50000000000003 10.500000000000002 2174.0000000000005 -1.0000000180025095e-35 1.5000000000000002 5499.0000000000009 13.500000000000002 -1.0000000180025095e-35 1846.5000000000002 3368.0000000000005 -1.0000000180025095e-35 1000.5000000000001 2.5000000000000004 28652.500000000004 32.500000000000007 8.5000000000000018 2700.5000000000005 36.500000000000007 1430.5000000000002 3.5000000000000004 502.50000000000006 19.500000000000004 -1.0000000180025095e-35 -1.0000000180025095e-35 201.50000000000003\u000adecision_type=2 2 2 2 2 2 2 2 2 2 2 2 2 2 2 2 2 2 2 2 2 2 2 2 2 2 2 2 2 2\u000aleft_child=1 2 4 6 9 12 7 -4 -8 27 23 -10 -6 22 -15 26 17 -11 -18 -20 -21 -7 -13 -2 -25 -9 -12 28 -1 -30\u000aright_child=10 -3 3 -5 5 21 8 25 11 16 15 13 -14 14 -16 -17 18 -19 19 20 -22 -23 -24 24 -26 -27 -28 -29 29 -31\u000aleaf_value=-0.011649103785897232 0.016193802178926624 0.02217486807280377 0.022181775655507489 -0.0080971728115770553 0.020172432837870152 -0.011106575790058979 0.025102414959632568 -0.00068806535875927919 -0.011492862933004905 0.023657500665398151 0.013588683895911726 0.0033452204899541626 -0.006648549101003676 0.017583490097766698 -0.0049180811591208635 0.0059973572507856588 -0.011758995922592993 -0.013699959769803592 -0.0099682605694848183 -0.0030250036705794406 0.017943371898464833 0.0033798269636927921 -0.0080280085720766965 0.023334920825339625 0.018503512200871021 0.018439644279173752 0.020616059083209074 -0.013332584246433292 0.016047799886766835 -0.0023698260745485798\u000aleaf_count=195574 3431 3226 1446 16958 1068 20682 138 4094 3149 250 4327 15734 1106 1827 1475 1988 22655 779 10891 8327 423 1679 3660 10555 5489 479 4276 159796 763 4682\u000ainternal_value=0 -0.721377 -0.871209 0.351449 -1.09808 -0.381199 0.701462 1.45259 0.386579 -1.15214 2.06661 0.275162 1.5381 0.40136 1.24026 1.71506 -0.774595 0.899972 -0.844197 -0.521778 -0.0619443 -0.952985 0.171157 2.18018 2.23853 0.34475 1.82615 -1.20328 -1.10542 0.269311\u000ainternal_count=510927 480861 477635 48960 428675 24535 32002 6019 25983 404140 30066 25845 2174 22696 3302 10591 43325 1029 42296 19641 8750 22361 19394 19475 16044 4573 8603 360815 201019 5445\u000ashrinkage=0.01\u000a\u000a\u000aTree=13\u000anum_leaves=31\u000anum_cat=0\u000asplit_feature=10 10 12 34 2 21 23 38 21 5 14 32 34 38 34 37 17 3 42 18 17 31 17 23 31 24 8 51 62 39\u000asplit_gain=272390 26633 6952.17 5186.18 3243.16 3104.55 3263.26 2802.68 1584.39 1262.67 1358.43 1888.37 1220.22 1190.79 1187.82 1679.79 1181.16 1125.06 1108.16 1169.27 1094.53 1005.65 986.33 976.271 887.449 868.8 839.746 1110.9 826.901 818.736\u000athreshold=3.5000000000000004 1.5000000000000002 217.50000000000003 -1.0000000180025095e-35 1.5000000000000002 10.500000000000002 2200.5000000000005 1.5000000000000002 16.500000000000004 39.500000000000007 1.0000000180025095e-35 106.50000000000001 -1.0000000180025095e-35 1.5000000000000002 -1.0000000180025095e-35 -1.0000000180025095e-35 2.5000000000000004 2126.0000000000005 19.500000000000004 183.50000000000003 1.0000000180025095e-35 21.500000000000004 1.0000000180025095e-35 1642.5000000000002 16.500000000000004 2.5000000000000004 4363.5000000000009 4.5000000000000009 31.500000000000004 5.5000000000000009\u000adecision_type=2 2 2 2 2 2 2 2 2 2 2 2 2 2 2 2 2 2 2 2 2 2 2 2 2 2 2 2 2 2\u000aleft_child=1 3 14 5 7 6 -1 16 17 10 22 12 24 -4 25 -16 -3 28 19 -10 -21 -8 -6 -24 -12 29 -20 -28 -7 -2\u000aright_child=2 4 13 -5 9 8 21 -9 18 -11 11 -13 -14 -15 15 -17 -18 -19 26 20 -22 -23 23 -25 -26 -27 27 -29 -30 -31\u000aleaf_value=0.022690673991367535 0.016554736207810741 -0.012324021752025405 -0.0038102632071191386 -0.0079640730213024133 -0.0095863178134546843 -0.014228226717618194 -0.003781379597528558 0.021792044719104852 0.0090532233260604174 -0.012036370661415897 0.0005780615855025419 -0.0084157908826107148 -0.0095482887099150246 0.023189140048968267 0.017549999909181047 -0.0048123402355239172 0.022547699398307138 -0.0099006156043404524 0.014211738144431208 -0.0037982221172308912 0.025535375258002268 0.01255549146690731 0.017539234999205483 -0.0080790535036193746 0.0147383441488197 0.022369534658895112 -0.014264703569403809 0.027812825323546946 0.024336578237392641 0.021009255589698069\u000aleaf_count=1086 7693 373218 5564 13953 22349 381 3264 175 3654 16070 2495 7550 2017 78 5571 1286 98 5676 2992 8489 93 1368 452 1398 2036 12724 1152 34 145 7866\u000ainternal_value=0 -0.929543 1.97594 0.342832 -1.13694 0.66466 1.43434 -1.21669 0.298951 -0.668271 -0.481354 -0.0364577 0.556071 -0.0703364 2.04757 1.60395 -1.22781 -0.602557 0.534009 0.224206 -0.213945 0.333916 -0.807825 0.404642 0.91025 2.106 1.13715 -0.332004 1.27503 1.94216\u000ainternal_count=510927 470145 40782 42287 427858 28334 5718 373491 22616 54367 38297 14098 6548 5642 35140 6857 373316 6202 16414 12236 8582 4632 24199 1850 4531 28283 4178 1186 526 15559\u000ashrinkage=0.01\u000a\u000a\u000aTree=14\u000anum_leaves=31\u000anum_cat=0\u000asplit_feature=36 49 59 1 38 30 34 44 12 5 1 0 52 75 1 17 0 34 51 5 42 0 4 50 7 8 0 7 25 0\u000asplit_gain=211192 52124.7 23314.2 7896.08 4401.94 3050.3 2788.59 2108.41 2613.13 1824.8 1788.84 1710.43 1146.51 5068.63 1289.34 1183.23 1117.27 1069.11 1022.7 1022 996.903 958.044 1139.3 925.968 987.501 988.497 992.107 989.768 888.853 858.727\u000athreshold=-1.0000000180025095e-35 -1.0000000180025095e-35 -1.0000000180025095e-35 29.500000000000004 -1.0000000180025095e-35 -1.0000000180025095e-35 -1.0000000180025095e-35 -1.0000000180025095e-35 204.50000000000003 -1.0000000180025095e-35 22.500000000000004 1.0000000180025095e-35 -1.0000000180025095e-35 -1.0000000180025095e-35 26.500000000000004 2.5000000000000004 12.500000000000002 -1.0000000180025095e-35 1.0000000180025095e-35 39.500000000000007 21.500000000000004 1.5000000000000002 72282.500000000015 3.5000000000000004 14.500000000000002 4887.5000000000009 1.0000000180025095e-35 24.500000000000004 151.50000000000003 139.50000000000003\u000adecision_type=2 2 2 2 2 2 2 2 2 2 2 2 2 2 2 2 2 2 2 2 2 2 2 2 2 2 2 2 2 2\u000aleft_child=1 2 4 6 7 -6 11 9 -9 12 23 20 13 14 16 -15 -1 -3 28 21 -4 22 -11 -2 -25 26 -26 -27 -13 -8\u000aright_child=10 17 3 -5 5 -7 29 8 -10 19 -12 18 -14 15 -16 -17 -18 -19 -20 -21 -22 -23 -24 24 25 27 -28 -29 -30 -31\u000aleaf_value=-0.0015780656724504903 0.018858895233873012 0.021898901986979861 -0.0085980642836011832 0.020865541620861162 0.023683628580169837 -0.0034466896609947131 -0.0096786646288682717 0.01624760561306943 -0.011361470709980582 -0.013006358888566188 0.021822076160871 0.0046601751194329331 -0.013196054905870105 -0.011508025752033042 0.025912663553960442 0.024282647422810645 0.021543419400042847 -0.014665682538480437 0.008599279208171445 -0.012916905102096355 0.0076799717940298278 -0.0027863275946067483 -0.0017690706017482042 0.017688394631506951 0.018068142452445497 -0.011141509413241683 -0.0031674571245882527 0.018088192650226934 -0.0078516862582145106 0.018774186600181722\u000aleaf_count=4687 11130 3298 7147 1594 219 6557 12742 862 3606 14111 12891 4850 167675 201150 197 71 267 374 9455 13588 1213 18445 4996 2440 890 1646 907 162 3564 193\u000ainternal_value=0 -0.712479 -0.87961 0.337602 -1.06511 0.316229 0.0069676 -1.10068 0.124857 -1.12037 2.00196 0.288182 -1.1777 -1.06917 0.567276 -1.1426 0.215608 2.14089 0.542425 -0.750087 -0.488432 -0.586354 -0.938168 1.74651 1.33317 0.773932 1.29193 -0.301281 0.0488645 -0.85653\u000ainternal_count=510927 480861 477189 40758 436431 6776 39164 429655 4468 425187 30066 26229 374047 206372 5151 201221 4954 3672 17869 51140 8360 37552 19107 17175 6045 3605 1797 1808 8414 12935\u000ashrinkage=0.01\u000a\u000a\u000aTree=15\u000anum_leaves=31\u000anum_cat=0\u000asplit_feature=37 12 12 20 74 55 16 55 13 6 30 6 3 6 22 16 8 31 27 50 33 13 39 4 55 31 6 6 3 42\u000asplit_gain=191722 21867.3 32940.3 28256.5 15005.8 6059.28 4189.85 2296.25 1758.3 1477.91 1343.76 1243.34 1221.42 1095.75 1017.48 1202.37 904.892 1010.81 865.929 972.183 1170.4 848.625 773.353 755.153 964.92 890.962 940.31 1022.16 816.647 778.794\u000athreshold=-1.0000000180025095e-35 217.50000000000003 207.50000000000003 -1.0000000180025095e-35 -1.0000000180025095e-35 -1.0000000180025095e-35 29.500000000000004 -1.0000000180025095e-35 1429.5000000000002 1438.0000000000002 -1.0000000180025095e-35 1000.5000000000001 5623.5000000000009 1900.5000000000002 21.500000000000004 19.500000000000004 4143.0000000000009 15.500000000000002 6.5000000000000009 2.5000000000000004 1539518400.0000002 1610.0000000000002 4.5000000000000009 28652.500000000004 -1.0000000180025095e-35 14.500000000000002 4183.0000000000009 3700.5000000000005 2017.5000000000002 24.500000000000004\u000adecision_type=2 2 2 2 2 2 2 2 2 2 2 2 2 2 2 2 2 2 2 2 2 2 2 2 2 2 2 2 2 2\u000aleft_child=1 2 4 8 -1 6 10 13 -3 -4 -5 -10 -12 -2 15 -14 -16 22 19 -11 -21 -17 -18 28 25 -25 27 29 -13 -27\u000aright_child=7 3 9 5 -6 -7 -8 -9 11 18 12 23 14 -15 16 21 17 -19 -20 20 -22 -23 -24 24 -26 26 -28 -29 -30 -31\u000aleaf_value=0.018102766303453425 0.021342300447764761 -0.012081990021095546 0.005809864386917241 0.023163687181186065 -0.012273305351546176 -0.0079580908754426933 0.02210637441824909 -0.0048769230509352916 0.014103724410338034 0.020182814261090091 0.0085591268998109656 0.013398700072659205 -2.0287507133632791e-05 0.016913775046544264 -0.0098196408937538549 -0.0072171184700505165 0.018707545947968595 -0.014068984913042573 0.020418156075124098 8.0742066173381696e-05 0.014222288457071802 0.012563354366358073 -0.014036205421520486 -0.008803854563718112 -0.013561752981786759 -0.0039784330859668057 -0.0077858268556877568 0.021580300163115979 -0.011720912728442664 0.012777100471774244\u000aleaf_count=2071 16112 310966 3477 138 60816 16946 783 1286 528 1404 8231 319 10940 7619 5621 1005 597 996 3098 2669 3874 3218 434 8363 6293 3642 4033 364 24238 846\u000ainternal_value=0 -0.641687 0.199991 -0.872979 -0.812912 0.317497 0.652244 2.02107 -1.14235 1.54306 0.437163 -0.770742 0.372064 2.04677 0.134285 0.365888 -0.482882 0.450569 1.69062 1.41744 1.09873 0.997276 1.25474 -0.823446 -0.569778 -0.34904 0.0372879 0.495889 -1.10533 0.113642\u000ainternal_count=510927 485910 77409 408501 62887 48909 31963 25017 359592 14522 31180 48626 31042 23731 22811 15163 7648 2027 11045 7947 6543 4223 1031 48098 23541 17248 8885 4852 24557 4488\u000ashrinkage=0.01\u000a\u000a\u000aTree=16\u000anum_leaves=31\u000anum_cat=0\u000asplit_feature=12 12 66 59 1 53 38 34 1 30 5 0 24 21 24 14 4 19 16 29 1 19 50 18 16 0 13 21 5 4\u000asplit_gain=162507 44434.7 41277 23289.1 7548.42 6197.47 3474.53 2694.27 2488.35 2260.86 2035.74 1664.91 1412.47 1245.33 1193.18 1155.72 1766.79 1554.53 1049.88 1006.91 956.767 954.201 903.017 882.387 870.163 844.639 809.336 781.92 717.531 713.144\u000athreshold=217.50000000000003 207.50000000000003 -1.0000000180025095e-35 -1.0000000180025095e-35 29.500000000000004 -1.0000000180025095e-35 -1.0000000180025095e-35 -1.0000000180025095e-35 22.500000000000004 -1.0000000180025095e-35 -1.0000000180025095e-35 1.0000000180025095e-35 5.5000000000000009 25.500000000000004 2.5000000000000004 1.0000000180025095e-35 28652.500000000004 -1.0000000180025095e-35 23.500000000000004 13.500000000000002 17.500000000000004 -1.0000000180025095e-35 2.5000000000000004 883.50000000000011 7.5000000000000009 139.50000000000003 1924.0000000000002 4.5000000000000009 37.500000000000007 29069.000000000004\u000adecision_type=2 2 2 2 2 2 2 2 2 2 2 2 2 2 2 2 2 2 2 2 2 2 2 2 2 2 2 2 2 2\u000aleft_child=1 2 5 6 7 -1 10 11 14 -8 -2 18 22 20 -3 -12 -17 24 -5 -10 23 -6 -13 27 -18 -9 -22 -14 -26 -30\u000aright_child=3 8 -4 4 21 -7 9 25 19 -11 15 12 13 -15 -16 16 17 -19 -20 -21 26 -23 -24 -25 28 -27 -28 -29 29 -31\u000aleaf_value=0.016528492743476505 -0.011997772658290629 0.012775394425328178 0.02050643869291292 -0.00860697310994059 0.022585029696403629 -0.012226178501197147 0.022465400285128438 -0.0095816628943134093 0.0025607599883565981 -0.0034186453111105493 -0.0099595003495951979 -0.014133244130565477 0.014922299354236666 -0.014328882056339235 0.018054782875289561 -0.010159533291701909 -0.013840544524080296 -0.010866171853822042 0.0082757352623834216 0.020944495173646747 0.015071092066476419 0.0011049377164016046 0.0023361817213119669 0.01470010523965915 0.01247285964164538 0.018576479317542895 -0.014347691530975568 -0.014275300814415975 0.033546550264018822 -0.013633403370088084\u000aleaf_count=1121 309899 12197 4160 7216 865 60860 189 12742 806 6553 33175 1849 216 978 9429 10092 878 3128 1138 13853 4119 729 7962 530 2789 193 461 1744 11 1045\u000ainternal_value=0 1.26757 0.0138044 -0.868102 0.331142 -1.04088 -1.08947 0.00646595 1.8583 0.172608 -1.12664 0.281614 0.53157 0.954675 1.57113 -0.7397 -0.345293 0.239666 -0.485823 2.07078 1.10045 2.03187 0.021659 0.141083 0.726927 -0.846594 1.3962 -0.694558 0.961246 -0.622991\u000ainternal_count=510927 102426 66141 408501 40742 61981 367759 39148 36285 6742 361017 26213 17859 8048 21626 51118 17943 7851 8354 14659 7070 1594 9811 2490 4723 12935 4580 1960 3845 1056\u000ashrinkage=0.01\u000a\u000a\u000aTree=17\u000anum_leaves=31\u000anum_cat=0\u000asplit_feature=36 66 59 19 38 38 56 26 0 3 0 22 43 14 23 61 38 52 65 17 0 26 25 17 28 32 3 26 51 32\u000asplit_gain=197476 51895.8 22906.8 4963.07 4332.87 2994.04 2851.79 1749.53 1313.36 1137.81 1046.14 1044.62 1044.36 1353.93 1746.88 1050.41 1027.92 975.904 4558.79 1148.19 974.739 963.131 1041.03 1033.46 910.607 1074.98 911.241 838.107 806.475 798.017\u000athreshold=-1.0000000180025095e-35 -1.0000000180025095e-35 -1.0000000180025095e-35 -1.0000000180025095e-35 -1.0000000180025095e-35 -1.0000000180025095e-35 -1.0000000180025095e-35 9244.5000000000018 1.5000000000000002 5784.5000000000009 212.50000000000003 2.5000000000000004 1.5000000000000002 1.0000000180025095e-35 5004.5000000000009 383.00000000000006 1.5000000000000002 -1.0000000180025095e-35 -1.0000000180025095e-35 2.5000000000000004 27.500000000000004 18203.500000000004 135.50000000000003 1.0000000180025095e-35 8.5000000000000018 32.500000000000007 2017.5000000000002 47227.500000000007 -1.0000000180025095e-35 14.500000000000002\u000adecision_type=2 2 2 2 2 2 2 2 2 2 2 2 2 2 2 2 2 2 2 2 2 2 2 2 2 2 2 2 2 2\u000aleft_child=1 2 4 5 7 8 -6 10 -4 -10 17 -11 -2 14 15 29 -7 18 19 -1 -5 22 -9 24 26 27 -23 -26 -18 -14\u000aright_child=12 -3 3 20 6 16 -8 21 9 11 -12 -13 13 -15 -16 -17 28 -19 -20 -21 -22 23 -24 -25 25 -27 -28 -29 -30 -31\u000aleaf_value=-0.011370967203577451 0.020074990527008868 0.020199425777289805 0.00019205324561572879 -0.0075034506946043853 0.022693614639835005 0.021781556224170849 -0.0033946483177087557 -0.013573365743187365 0.01478899506215255 0.01366871273635295 0.010060387684321893 -0.0013942653892149073 -0.015493750154173685 0.019046189328269365 0.016895679552401784 0.024857214484039464 -0.01425427747354034 -0.01272467487179464 0.0027753388690962455 0.023652799309384336 0.0091449134100861848 0.016232187851826632 0.0079677607418687582 0.0019860186565306935 0.024608461138158698 -0.013493560117801019 -0.011644462785553708 -0.013689243812987004 0.013956645272917394 0.0036175655157963151\u000aleaf_count=202494 19237 4160 12621 16396 218 965 6557 1589 2575 1171 601 4751 1289 5205 2227 45 716 185848 7758 73 1013 253 2382 3101 180 1205 23296 388 550 2063\u000ainternal_value=0 -0.699807 -0.876394 0.327196 -1.06396 0.721525 0.305028 -1.10002 0.430115 0.85454 -1.14395 0.3626 1.91454 1.62968 1.12219 0.219239 1.79443 -1.15018 -1.04778 -1.12888 -0.592792 -0.634464 0.212753 -0.788588 -0.956337 0.278721 -1.09456 1.50854 0.484764 -0.132986\u000ainternal_count=510927 480861 476701 40758 435943 23349 6775 429168 21118 8497 396774 5922 30066 10829 5624 3397 2231 396173 210325 202567 17409 32394 3971 28423 25322 1773 23549 568 1266 3352\u000ashrinkage=0.01\u000a\u000a\u000aTree=18\u000anum_leaves=31\u000anum_cat=0\u000asplit_feature=63 66 38 12 42 7 52 65 2 34 52 65 12 34 7 17 34 3 18 62 2 6 2 42 7 2 9 42 33 30\u000asplit_gain=193097 50878 13875.7 4797.12 4736.69 4251.34 2590.07 3281.69 2220.6 1721.97 1458.77 5758.54 1717.18 1333.19 1324.95 1197.78 1124.73 1119.98 1064.14 971.437 896.716 1150.41 886.4 881.592 927.757 1123.61 853.207 764.866 797.819 998.078\u000athreshold=-1.0000000180025095e-35 -1.0000000180025095e-35 -1.0000000180025095e-35 501.50000000000006 10.500000000000002 29.500000000000004 -1.0000000180025095e-35 -1.0000000180025095e-35 1.5000000000000002 -1.0000000180025095e-35 -1.0000000180025095e-35 -1.0000000180025095e-35 201.50000000000003 -1.0000000180025095e-35 21.500000000000004 2.5000000000000004 -1.0000000180025095e-35 5623.5000000000009 579.50000000000011 30.500000000000004 16.500000000000004 4183.0000000000009 -1.0000000180025095e-35 24.500000000000004 13.500000000000002 3.5000000000000004 810.50000000000011 21.500000000000004 1517832000.0000002 1.0000000180025095e-35\u000adecision_type=2 2 2 2 2 2 2 2 2 2 2 2 2 2 2 2 2 2 2 2 2 2 2 2 2 2 2 2 2 2\u000aleft_child=1 2 3 8 16 6 7 -5 10 17 11 15 -13 18 -2 -1 -4 22 26 -7 21 23 -9 24 -10 -26 -6 28 -19 -30\u000aright_child=14 -3 4 5 13 19 -8 9 20 -11 -12 12 -14 -15 -16 -17 -18 27 -20 -21 -22 -23 -24 -25 25 -27 -28 -29 29 -31\u000aleaf_value=-0.011498424031828323 0.016570848042281389 0.019902381333242115 0.022265145970608899 -0.010387153306041029 -0.014207931331876993 0.016317407803719878 -0.012313517924850054 0.010485451837764302 0.0072828215631033288 -0.0097986066466410737 -0.013112558177280742 0.016480858866549385 -0.0015285290519786231 -0.0088331098984494403 0.020323176727792172 0.024923158650448668 -0.0041225969384180933 0.0085165045780187382 -0.0074548523085041099 -0.0064369182313808015 -0.008968101005571669 -0.010072643402002706 -0.0082357860687564104 0.010013875520301288 0.0070326299790608006 -0.011988584348785804 0.011329021420655023 0.0098144719662662007 -0.0058861057268988813 0.020069588284917714\u000aleaf_count=177828 16020 4160 742 24359 695 1427 27103 4140 1833 6900 147659 882 12115 5263 14046 54 686 1419 2232 930 27306 7346 1193 1846 1219 5672 2874 1278 11504 196\u000ainternal_value=0 -0.695574 -0.871577 -0.957105 0.734535 -0.509471 -0.636701 -0.392765 -1.06885 0.0084806 -1.13592 -1.01066 0.13532 -0.0098925 1.88664 -1.14037 1.98043 0.23156 0.46757 1.23468 -0.637482 -0.302673 0.803808 0.0595254 -0.254852 -0.677595 0.891979 -0.0755934 -0.250105 -0.453581\u000ainternal_count=510927 480861 476701 464209 12492 80449 78092 50989 383760 26630 338538 190879 12997 11064 30066 177882 1428 19730 5801 2357 45222 17916 5333 10570 8724 6891 3569 14397 13119 11700\u000ashrinkage=0.01\u000a\u000a\u000aTree=19\u000anum_leaves=31\u000anum_cat=0\u000asplit_feature=10 10 7 10 2 55 0 3 5 14 46 14 55 37 17 51 17 26 0 45 0 19 26 55 24 39 22 5 46 7\u000asplit_gain=239316 24857.2 6578.5 4072.88 3165.09 2956.43 1467.87 1637.65 1244.19 1307.04 1839.34 1103.42 1101.92 1545.86 1086.08 980.45 966.866 1094.67 897.101 830.609 816.175 797.559 787.35 761.855 757.847 809.444 747.955 741.356 865.205 925.749\u000athreshold=3.5000000000000004 1.5000000000000002 29.500000000000004 4.5000000000000009 1.5000000000000002 -1.0000000180025095e-35 1.0000000180025095e-35 5602.5000000000009 39.500000000000007 1.0000000180025095e-35 21.500000000000004 1.0000000180025095e-35 -1.0000000180025095e-35 -1.0000000180025095e-35 2.5000000000000004 1.0000000180025095e-35 1.0000000180025095e-35 29278.500000000004 1.0000000180025095e-35 1.0000000180025095e-35 139.50000000000003 -1.0000000180025095e-35 1149.5000000000002 -1.0000000180025095e-35 2.5000000000000004 5.5000000000000009 15.500000000000002 180.50000000000003 5.5000000000000009 27.500000000000004\u000adecision_type=2 2 2 2 2 2 2 2 2 2 2 2 2 2 2 2 2 2 2 2 2 2 2 2 2 2 2 2 2 2\u000aleft_child=1 2 5 11 14 6 22 -8 9 16 -11 -2 24 -14 -3 27 -6 -18 -13 -12 -7 -4 -1 -21 25 -5 -17 28 -9 -30\u000aright_child=3 4 21 12 8 20 7 15 -10 10 19 18 13 -15 -16 26 17 -19 -20 23 -22 -23 -24 -25 -26 -27 -28 -29 29 -31\u000aleaf_value=-0.0069519391740813039 -0.013833070462461454 -0.011924779821019816 0.021602575436992306 0.014898499061907829 -0.0093066476416598914 -0.0095831338120561521 0.011907169820953941 0.0034340113720076754 -0.011794679277301942 -0.0062823115866307653 -0.007789574863548321 -0.0054707744577526989 0.015955375347412839 -0.0052856053021643904 0.0210024129000046 0.0096424447027031006 -0.01354230494928731 0.01466065839302645 0.010970931424877584 0.0138297209607765 0.017790261662353431 0.0016236211199863323 0.0073138260606894559 -0.0058673857223728908 0.020523115675878622 0.019324917622815799 -0.0017773064308579465 0.023770821605043777 -0.014092113387896421 0.015174231278543874\u000aleaf_count=7412 1341 373393 801 7445 22349 13195 4812 2143 16070 9470 1287 1651 5571 1286 98 3797 1130 720 3564 2306 201 690 1248 1035 12288 7636 3053 70 4644 221\u000ainternal_value=0 -0.900379 0.323659 1.80901 -1.1072 0.0385639 0.314187 0.54228 -0.640111 -0.453641 -0.0160556 0.528033 1.87416 1.4535 -1.18787 0.178719 -0.778562 0.426372 0.772448 0.750962 -0.849734 1.94949 -0.384125 1.06321 1.93056 1.77856 0.580276 -0.369827 -0.513291 -1.07818\u000ainternal_count=510927 470145 42287 40782 427858 40796 27400 18740 54367 38297 14098 6556 34226 6857 373491 13928 24199 1850 5215 4628 13396 1491 8660 3341 27369 15081 6850 7078 7008 4865\u000ashrinkage=0.01\u000a\u000a\u000aTree=20\u000anum_leaves=31\u000anum_cat=0\u000asplit_feature=10 20 1 12 19 2 24 21 19 5 1 24 17 41 0 4 17 19 26 28 1 71 57 21 1 33 4 16 2 12\u000asplit_gain=234293 26724.3 7084.73 5651.75 3098.14 2389.69 1491.3 1156.51 1148.25 1127.43 1114.59 1080.81 1074.39 1070.79 1163.31 976.958 1408.12 1349.47 1330.51 1085.1 923.373 863.117 859.589 846.994 903.612 752.657 737.588 719.424 691.874 660.172\u000athreshold=3.5000000000000004 -1.0000000180025095e-35 29.500000000000004 217.50000000000003 -1.0000000180025095e-35 1.5000000000000002 5.5000000000000009 26.500000000000004 -1.0000000180025095e-35 39.500000000000007 22.500000000000004 2.5000000000000004 2.5000000000000004 25.500000000000004 6.5000000000000009 29962.500000000004 1.0000000180025095e-35 -1.0000000180025095e-35 47925.000000000007 8.5000000000000018 17.500000000000004 -1.0000000180025095e-35 1.0000000180025095e-35 16.500000000000004 6.5000000000000009 1545220800.0000002 73500.500000000015 1.0000000180025095e-35 37.500000000000007 504.50000000000006\u000adecision_type=2 2 2 2 2 2 2 2 2 2 2 2 2 2 2 2 2 2 2 2 2 2 2 2 2 2 2 2 2 2\u000aleft_child=1 5 4 10 6 12 21 20 -4 15 11 22 -1 14 -5 16 -7 19 -18 23 -8 -3 26 24 -17 -10 -2 -25 -23 -30\u000aright_child=3 2 8 13 -6 9 7 -9 25 -11 -12 -13 -14 -15 -16 17 18 -19 -20 -21 -22 28 -24 27 -26 -27 -28 -29 29 -31\u000aleaf_value=-0.011989475225010749 0.012429678447698142 -0.014082970710631651 0.021256368708777833 -0.0076934801904525452 -0.0064887254919038188 -0.010536688695111443 0.00046740395839563713 -0.014203997961301444 -0.014238833176593 -0.012658865566083564 0.019783919134623022 0.01864951609033878 0.020643851615448603 0.021833199652046619 0.01679294579558081 -0.013616501656000429 -0.013500184917350224 -0.011676308709103267 0.019776398239490418 0.019405974802522378 0.011040899928080041 0.002354111745063195 0.01850354327800801 0.033204307707084012 0.0063187389519426523 0.020312376661102489 -0.0069917025998043475 -0.011207771703183173 -0.014135983420614959 0.026688157472518386\u000aleaf_count=373159 7842 2134 1007 5181 20685 18349 3547 1137 781 13418 15589 8803 98 60 401 1362 1008 4868 448 392 7023 10263 2214 16 4609 121 692 3570 2128 22\u000ainternal_value=0 -0.895628 0.281773 1.78369 0.00620026 -1.12788 0.35062 0.73591 1.87846 -0.687105 1.84599 1.66841 -1.1943 -0.0674378 -0.365593 -0.504872 -0.839016 -0.145229 0.717618 0.191875 0.848894 -0.0794544 1.39682 -0.0188569 0.347043 -0.081663 1.17387 -0.899733 0.0732767 -1.04547\u000ainternal_count=510927 470145 48848 40782 46939 421297 26254 11707 1909 48040 35140 19551 373257 5642 5582 34622 19805 14817 1456 9949 10570 14547 10748 9557 5971 902 8534 3586 12413 2150\u000ashrinkage=0.01\u000a\u000a\u000aTree=21\u000anum_leaves=31\u000anum_cat=0\u000asplit_feature=10 20 19 12 21 6 67 21 11 22 23 3 20 6 4 19 45 28 21 12 51 4 18 3 6 31 3 3 6 3\u000asplit_gain=229418 26415.3 5755.61 5492.54 2557.67 2478.6 2135.02 1370.57 1137.75 1106.56 954.889 1137.26 941.201 903.182 1141.38 1412.25 1149.15 939.815 971.82 896.452 1048.72 886.19 1183.81 961.724 806.937 799.415 792.011 745.227 730.454 713.855\u000athreshold=3.5000000000000004 -1.0000000180025095e-35 -1.0000000180025095e-35 217.50000000000003 10.500000000000002 2174.0000000000005 1.0000000180025095e-35 13.500000000000002 5499.0000000000009 22.500000000000004 1406.5000000000002 24097.500000000004 -1.0000000180025095e-35 1000.5000000000001 28652.500000000004 -1.0000000180025095e-35 1.0000000180025095e-35 8.5000000000000018 16.500000000000004 503.50000000000006 4.5000000000000009 6395.0000000000009 59.500000000000007 18121.500000000004 1020.5000000000001 22.500000000000004 28652.500000000004 2017.5000000000002 1430.5000000000002 20805.500000000004\u000adecision_type=2 2 2 2 2 2 2 2 2 2 2 2 2 2 2 2 2 2 2 2 2 2 2 2 2 2 2 2 2 2\u000aleft_child=1 6 4 8 5 -3 -1 -6 28 10 -9 24 -5 -8 27 16 -16 18 -18 20 -4 -10 26 -24 -12 -7 -23 -15 -2 -25\u000aright_child=3 2 19 12 7 25 13 9 21 -11 11 -13 -14 14 15 -17 17 -19 -20 -21 -22 22 23 29 -26 -27 -28 -29 -30 -31\u000aleaf_value=-0.011883536556818595 0.015031208321831109 0.020329519541356374 -0.0083693443023326528 -0.003546202093976521 -0.011040289386877438 -0.0031456717627794989 0.0070293760243504821 0.017331086084933243 0.018096982595336823 -0.0018308869011447243 -0.014248151407076318 -0.0079358676422444808 0.01985147444718172 0.011421910532342075 -0.011458370570866579 -0.012320090160545234 0.0037558792875308192 0.01741099771953827 -0.0092617136621294723 0.008021313004592143 0.016576720557779371 -0.016292997498644223 0.016891677514867209 -0.016295971035158782 0.0082961558358643495 0.012651764909884762 0.016341194739387006 -0.011656702075751703 0.019553805288276178 0.0093746951620221203\u000aleaf_count=369718 4370 1230 20127 5546 2732 3006 1246 1070 4286 6587 796 2323 96 380 4267 8505 5879 492 3967 1152 308 964 2844 491 8477 1040 108 26843 19422 2655\u000ainternal_value=0 -0.890928 0.278831 1.75913 0.678893 1.38027 -1.1231 0.351095 1.82028 0.475332 0.715934 0.532426 -0.0668584 -0.719968 -0.776104 -0.456041 -0.125387 0.166388 -0.0324591 -0.614331 -0.74134 1.54019 1.24437 1.36783 0.730325 0.308519 -0.565211 -1.10393 1.90563 0.764513\u000ainternal_count=510927 470145 48848 40782 27261 5276 421297 21985 35140 19253 12666 11596 5642 51579 50333 23110 14605 10338 9846 21587 20435 11348 7062 5990 9273 4046 1072 27223 23792 3146\u000ashrinkage=0.01\u000a\u000a\u000aTree=22\u000anum_leaves=31\u000anum_cat=0\u000asplit_feature=36 66 20 7 34 2 72 11 3 14 2 72 53 17 32 45 34 7 24 3 7 25 60 7 9 32 18 9 9 64\u000asplit_gain=176830 47136.3 26802.6 5798.78 3766.79 2012.64 1604.11 1373.82 1137.81 1136.52 1688.31 1105.66 3534.93 1071.94 1050.12 1128.65 1037.42 945.614 899.824 1053.97 873.394 939.986 868.934 911.321 815.371 1157.99 767.716 1097.34 1148.28 1109.34\u000athreshold=-1.0000000180025095e-35 -1.0000000180025095e-35 -1.0000000180025095e-35 29.500000000000004 -1.0000000180025095e-35 1.5000000000000002 -1.0000000180025095e-35 5499.0000000000009 5623.5000000000009 1.0000000180025095e-35 20.500000000000004 -1.0000000180025095e-35 -1.0000000180025095e-35 2.5000000000000004 106.50000000000001 1.0000000180025095e-35 -1.0000000180025095e-35 27.500000000000004 5.5000000000000009 2005.5000000000002 22.500000000000004 352.50000000000006 2.5000000000000004 16.500000000000004 1706.0000000000002 39.500000000000007 537.50000000000011 1925.5000000000002 3416.5000000000005 7.5000000000000009\u000adecision_type=2 2 2 2 2 2 2 2 2 2 2 2 2 2 2 2 2 2 2 2 2 2 2 2 2 2 2 2 2 2\u000aleft_child=1 2 5 4 6 11 -4 20 18 -7 14 12 22 -14 15 -11 -9 -16 19 -8 21 -2 23 -1 -17 -26 27 29 -29 -10\u000aright_child=7 -3 3 -5 -6 9 8 16 26 10 -12 -13 13 -15 17 24 -18 -19 -20 -21 -22 -23 -24 -25 25 -27 -28 28 -30 -31\u000aleaf_value=-0.013835897200035703 0.017094248791993925 0.018825021180181468 0.021818708102148882 0.018110669308933153 -0.0082937105278831653 -0.0094581242617991779 0.024516710485052339 0.015598878913210346 0.0099417007557506838 -0.013770508472693753 -0.0086996159686129788 -0.012862541411701034 -0.011120231230715085 0.022281680009868299 -0.010527955508943095 0.020873980061614238 0.0042547077790745999 0.023024996478307497 0.012312829087962704 -0.0011088810308753885 0.020304888289177214 -0.016025287798204745 -0.0022007441735510465 0.016780194444238436 -0.008301913747974763 0.022979928746538356 -0.0041033548528510736 -0.0076947707288972959 0.0086613562343259617 -0.0090900286102622036\u000aleaf_count=587 10934 4160 157 1725 16290 31041 106 8603 4843 920 10780 170385 202789 73 3005 657 1988 125 3421 4544 8173 368 4979 890 1340 172 9088 5734 1507 1543\u000ainternal_value=0 -0.679129 -0.852884 0.313252 0.0777879 -1.08464 0.370031 1.78282 0.287645 -0.678057 -0.278117 -1.14447 -1.03634 -1.10375 0.392139 0.928362 1.45747 -0.589103 0.762848 0.194731 1.88768 1.68684 0.245411 1.15861 1.30771 0.364051 0.0547083 0.294038 -0.26022 0.728777\u000ainternal_count=510927 480861 476701 48958 47233 427743 30943 30066 30786 48040 16999 379703 209318 202862 6219 3089 10591 3130 8071 4650 19475 11302 6456 1477 2169 1512 22715 13627 7241 6386\u000ashrinkage=0.01\u000a\u000a\u000aTree=23\u000anum_leaves=31\u000anum_cat=0\u000asplit_feature=10 20 1 12 34 2 5 19 1 17 6 19 32 45 5 20 28 29 2 1 16 10 33 57 34 33 32 23 26 26\u000asplit_gain=220071 25808.6 6609.24 5227.52 3140.54 2358.16 1116.36 1083.35 1057.07 1043.48 1041.42 921.074 1117.36 1125.35 913.351 901.463 880.359 988.65 1001.15 850.373 794.928 740.32 724.43 715.743 700.55 691.437 621.842 790.845 621.811 791.742\u000athreshold=3.5000000000000004 -1.0000000180025095e-35 29.500000000000004 217.50000000000003 -1.0000000180025095e-35 1.5000000000000002 39.500000000000007 -1.0000000180025095e-35 22.500000000000004 2.5000000000000004 1000.5000000000001 -1.0000000180025095e-35 106.50000000000001 1.0000000180025095e-35 2.5000000000000004 -1.0000000180025095e-35 8.5000000000000018 16.500000000000004 35.500000000000007 8.5000000000000018 25.500000000000004 2.5000000000000004 1545220800.0000002 2.5000000000000004 -1.0000000180025095e-35 1540123200.0000002 61.500000000000007 3705.5000000000005 64586.500000000007 74086.000000000015\u000adecision_type=2 2 2 2 2 2 2 2 2 2 2 2 2 2 2 2 2 2 2 2 2 2 2 2 2 2 2 2 2 2\u000aleft_child=1 5 4 8 21 9 10 -4 23 -1 14 12 13 -12 -7 -5 17 18 19 -15 -19 -3 -9 24 -2 28 27 -21 -14 -30\u000aright_child=3 2 7 15 -6 6 -8 22 -10 -11 11 -13 25 16 -16 -17 -18 20 -20 26 -22 -23 -24 -25 -26 -27 -28 -29 29 -31\u000aleaf_value=-0.011851465656694401 0.015736934369389815 0.0024582665030796098 0.020433162998887068 -0.0035255116389336571 -0.0082240725936018073 0.022517779643066584 -0.012545642127224288 -0.014213051224910171 0.018994831338074555 0.020158537452819078 -0.010899028973168285 -0.011013928165786582 -0.012315246742075465 -0.013564726622158081 -0.013451959054650485 0.019302880830257045 0.019181745362577805 -0.013510799703151324 0.02242740853034118 -0.013765771808554901 0.014213337927508897 0.022748504972220453 0.01953717247238785 0.019403345443455868 0.0091814619107184331 0.033436931076542019 0.022417620477620987 0.0095921754565176723 0.011138463639174357 -0.013353468075640279\u000aleaf_count=373159 13681 30668 1007 5546 16222 269 13418 781 15589 98 3359 11555 9084 1415 521 96 375 2965 386 1080 251 49 121 2684 3186 18 185 1087 787 1285\u000ainternal_value=0 -0.881653 0.273081 1.71203 0.00546849 -1.11365 -0.673671 1.80542 1.77126 -1.18046 -0.491956 -0.567832 -0.343999 0.04614 1.21181 -0.0697257 0.363404 0.131406 0.60728 0.178827 -0.846826 0.281942 -0.0949605 1.59929 1.4968 -0.871137 0.668057 0.207817 -0.942129 0.00334941\u000ainternal_count=510927 470145 48848 40782 46939 421297 48040 1909 35140 373257 34622 33832 22277 11103 790 5642 7744 7369 4153 3767 3216 30717 902 19551 16867 11174 2352 2167 11156 2072\u000ashrinkage=0.01\u000a\u000a\u000aTree=24\u000anum_leaves=31\u000anum_cat=0\u000asplit_feature=12 12 59 12 75 1 53 58 68 2 1 30 5 3 6 54 8 9 50 22 28 29 19 11 71 13 2 3 5 11\u000asplit_gain=139413 36231.1 21148.5 9495.34 25698.5 6315.37 4830.06 3203.08 2472.78 2154.7 2071.8 1978.19 1113.16 1038.2 1027.42 992.857 1038.83 991.822 953.242 1595.3 992.183 912.841 904.566 1341.85 999.162 953.514 1144.83 943.574 885.177 787.102\u000athreshold=217.50000000000003 200.50000000000003 -1.0000000180025095e-35 207.50000000000003 -1.0000000180025095e-35 29.500000000000004 -1.0000000180025095e-35 -1.0000000180025095e-35 -1.0000000180025095e-35 1.5000000000000002 22.500000000000004 -1.0000000180025095e-35 39.500000000000007 5602.5000000000009 1000.5000000000001 6.5000000000000009 1344.0000000000002 2174.5000000000005 3.5000000000000004 9.5000000000000018 2.5000000000000004 13.500000000000002 -1.0000000180025095e-35 32.500000000000007 1.0000000180025095e-35 4180.0000000000009 39.500000000000007 2017.5000000000002 2.5000000000000004 36.500000000000007\u000adecision_type=2 2 2 2 2 2 2 2 2 2 2 2 2 2 2 2 2 2 2 2 2 2 2 2 2 2 2 2 2 2\u000aleft_child=1 6 7 4 -3 8 -1 9 13 -2 18 -9 14 29 28 16 -15 -17 -5 -20 -21 -12 23 27 -25 -26 -27 -16 -11 -4\u000aright_child=2 3 5 10 -6 -7 -8 11 -10 12 21 -13 -14 15 22 17 -18 -19 19 20 -22 -23 -24 24 25 26 -28 -29 -30 -31\u000aleaf_value=0.015561032278590198 -0.011639765261691375 0.018219446464336621 0.0024171331420000585 0.015441899150260507 -0.013130799204867987 0.018338809142169201 -0.011108542343139365 0.020700050324199536 -0.0082013164551368728 0.022096060527692828 0.0014923609787734669 -0.0032897580430838592 -0.012517877365692652 -0.014124583029280822 0.022137716819885685 0.012996074746969897 3.0104585748627203e-05 -0.014226399320377859 -0.0026016584510943825 0.018551017709467443 0.0083107942387672367 0.018784450432435838 -0.010972299390643014 -0.0046443773963809496 0.013797326013798343 -0.013508764411522814 0.027416309587528279 -0.0090886940455635213 -0.013404218653567413 0.012844979198124051\u000aleaf_count=960 312660 4326 4290 13873 23308 1594 37547 189 13143 269 806 6553 13574 2873 145 1610 13952 754 2438 1352 3963 13853 11594 5127 1737 1657 73 13662 519 2526\u000ainternal_value=0 1.1524 -0.83133 1.44858 0.624978 0.305257 -0.855156 -1.05118 0.0040795 -1.08845 1.6657 0.160886 -0.6738 0.265882 -0.492131 0.0217621 -0.173927 0.896369 1.40708 1.01719 1.28639 1.85634 -0.567525 -0.346363 0.193264 0.801837 -0.470734 -0.802868 1.19734 0.754872\u000ainternal_count=510927 102426 408501 63919 27634 40742 38507 367759 39148 361017 36285 6742 48357 26005 34783 19189 16825 2364 21626 7753 5315 14659 33995 22401 8594 3467 1730 13807 788 6816\u000ashrinkage=0.01\u000a\u000a\u000aTree=25\u000anum_leaves=31\u000anum_cat=0\u000asplit_feature=10 20 34 12 21 2 6 15 5 21 11 12 21 54 12 25 71 20 72 60 24 5 25 34 5 42 3 3 6 2\u000asplit_gain=211439 25247 4918.65 4903.25 2387.75 2338.29 2331.86 1721.79 2580.3 1465.32 1060.14 1018.63 1118.04 1071.64 983.221 953.782 903.48 855.039 833.865 980.31 857.865 829.451 807.67 751.089 723.371 1557.4 881.992 769.823 681.389 679.716\u000athreshold=3.5000000000000004 -1.0000000180025095e-35 -1.0000000180025095e-35 217.50000000000003 10.500000000000002 1.5000000000000002 2174.0000000000005 867.50000000000011 18.500000000000004 13.500000000000002 5499.0000000000009 501.50000000000006 16.500000000000004 6.5000000000000009 502.50000000000006 54.500000000000007 1.0000000180025095e-35 -1.0000000180025095e-35 1.0000000180025095e-35 4.5000000000000009 5.5000000000000009 39.500000000000007 177.50000000000003 -1.0000000180025095e-35 4.5000000000000009 23.500000000000004 18313.500000000004 1452.5000000000002 1430.5000000000002 13.500000000000002\u000adecision_type=2 2 2 2 2 2 2 2 2 2 2 2 2 2 2 2 2 2 2 2 2 2 2 2 2 2 2 2 2 2\u000aleft_child=1 5 4 10 6 -1 -3 8 11 -6 28 12 -7 -14 15 -8 -10 -5 -11 -20 -21 22 -18 -12 25 27 -27 -9 -2 -15\u000aright_child=3 2 -4 17 9 7 14 24 16 18 23 -13 13 29 -16 -17 21 -19 19 20 -22 -23 -24 -25 -26 26 -28 -29 -30 -31\u000aleaf_value=-0.011717411465283205 0.014209940182822053 0.018677972920111759 -0.0075471503820809362 -0.0033974079603976168 -0.011336246318629959 0.01469367042285467 0.012373046958267542 0.031374774395706434 -0.013215028125955966 0.010805124720659866 0.015415328049422746 -0.013363213545033413 -0.013382406206228522 0.016230463103570542 0.017686014284357347 -0.007639844966370336 0.015550582259395538 0.018784324076240741 0.0063498620540021512 -0.0075039753203007429 0.0028506779009603296 -0.0099354336962819943 -0.013443214301621705 0.006695179160979922 -0.012845177146471645 0.015870521551601548 -0.013426415026051273 -0.013382145272598827 0.018549544066766819 -0.0133845327200506\u000aleaf_count=373257 4370 1443 16957 5546 3151 2217 695 21 9378 2916 9238 1313 1947 564 472 3390 735 96 8414 5642 5768 2773 686 2110 20628 815 718 5716 19422 529\u000ainternal_value=0 -0.872766 0.268026 1.66863 0.566323 -1.10467 1.23195 -0.665106 -0.236216 0.278929 1.72549 0.576773 0.820758 -0.0698436 0.257649 -0.180131 -0.877567 -0.0617753 0.397922 0.245989 -0.137199 -0.141888 0.793597 1.45677 -1.04745 -0.497777 0.869941 -1.17851 1.80726 0.966059\u000ainternal_count=510927 470145 48848 40782 31891 421297 6000 48040 20142 25891 35140 6570 5257 3040 4557 4085 13572 5642 22740 19824 11410 4194 1421 11348 27898 7270 1533 5737 23792 1093\u000ashrinkage=0.01\u000a\u000a\u000aTree=26\u000anum_leaves=31\u000anum_cat=0\u000asplit_feature=37 12 12 51 74 41 7 42 34 11 42 34 0 52 74 15 7 26 6 34 27 6 5 22 6 23 6 14 6 6\u000asplit_gain=150936 18666.4 26113.6 19560.7 12480.6 4323.52 4067.27 2102.87 2082.25 1957.24 1939.71 1625.21 1387.33 1193.67 2475.53 1183.9 1485.73 1045.56 1023.24 974.802 969.842 930.817 925.76 842.475 820.371 816.144 787.417 761.835 2040.61 758.966\u000athreshold=-1.0000000180025095e-35 217.50000000000003 207.50000000000003 1.0000000180025095e-35 -1.0000000180025095e-35 1.0000000180025095e-35 29.500000000000004 2.5000000000000004 -1.0000000180025095e-35 5499.0000000000009 2.5000000000000004 -1.0000000180025095e-35 1.0000000180025095e-35 -1.0000000180025095e-35 -1.0000000180025095e-35 867.50000000000011 14.500000000000002 1149.5000000000002 4183.0000000000009 -1.0000000180025095e-35 1.5000000000000002 1900.5000000000002 25.500000000000004 41.500000000000007 1883.0000000000002 3000.5000000000005 1867.5000000000002 1.0000000180025095e-35 5000.5000000000009 1438.0000000000002\u000adecision_type=2 2 2 2 2 2 2 2 2 2 2 2 2 2 2 2 2 2 2 2 2 2 2 2 2 2 2 2 2 2\u000aleft_child=1 2 4 5 -1 10 11 -7 21 29 13 12 17 14 -3 16 18 -5 20 22 -12 -2 24 -14 -9 -22 -19 28 -23 -4\u000aright_child=8 3 9 6 -6 7 -8 19 -10 -11 15 -13 23 -15 -16 -17 -18 26 -20 -21 25 27 -24 -25 -26 -27 -28 -29 -30 -31\u000aleaf_value=0.015524611177543415 0.018395155584543493 -0.0025647150677149356 0.007591289379834938 -0.0089173511934376171 -0.011772523753351097 0.020781091095199981 0.01882987402168013 0.002415683177268528 -0.006011491487135031 0.0020192271469525692 0.018666113714826297 -0.0085544183889684072 0.0089620424914531611 -0.012623698345394223 -0.010923146453154883 -0.01052992454640202 -0.0072850402170908813 -0.014261821897347617 -0.0039075299010636871 -0.0098087359673705958 0.011375582413362164 -0.0014516521350053263 -0.0064926263212677238 -0.0083154142517793093 0.021130815426986103 -0.013457314706849305 0.020045001022799692 0.017098992184263598 0.016239037146280378 0.01602508123633415\u000aleaf_count=2071 16112 15855 2547 4574 60816 207 1116 2296 1286 3807 810 5445 8187 159562 135819 29215 27932 433 5533 4939 646 2624 2814 1291 237 1321 269 3251 1744 8168\u000ainternal_value=0 -0.600284 0.179012 -0.822536 -0.767705 -0.984568 0.61705 0.140662 1.73664 1.33236 -1.03555 0.238343 0.46588 -1.11659 -0.975309 -0.703622 -0.464154 -0.393225 0.205247 -0.191592 0.927535 1.76061 0.251314 0.764611 0.826819 -0.0335072 1.11058 1.44 1.05157 1.49295\u000ainternal_count=510927 485910 77409 408501 62887 387186 21315 10493 25017 14522 376693 20199 14754 311236 151674 65457 36242 5276 8310 10286 2777 23731 5347 9478 2533 1967 702 7619 4368 10715\u000ashrinkage=0.01\u000a\u000a\u000aTree=27\u000anum_leaves=31\u000anum_cat=0\u000asplit_feature=10 10 19 10 16 67 38 27 15 5 16 38 11 17 38 13 50 64 64 60 23 23 28 9 16 9 60 17 13 5\u000asplit_gain=203162 22664.7 4154.6 3243.12 3148.93 2747.59 2559.88 1386.2 1123.65 2071.38 1831.05 1188.78 1043.62 1028.02 953.375 940.252 861.192 854.465 1161.69 837.177 852.719 851.626 827.264 749.642 745.055 821.863 793.074 1097.77 769.577 739.294\u000athreshold=3.5000000000000004 1.5000000000000002 -1.0000000180025095e-35 4.5000000000000009 29.500000000000004 1.0000000180025095e-35 1.5000000000000002 4.5000000000000009 5.0000000000000009 39.500000000000007 14.500000000000002 -1.0000000180025095e-35 5499.0000000000009 2.5000000000000004 1.5000000000000002 4180.0000000000009 3.5000000000000004 18.500000000000004 8.5000000000000018 2.5000000000000004 1760.0000000000002 3500.5000000000005 8.5000000000000018 2448.0000000000005 23.500000000000004 1984.5000000000002 4.5000000000000009 1.0000000180025095e-35 1642.5000000000002 -1.0000000180025095e-35\u000adecision_type=2 2 2 2 2 2 2 2 2 2 2 2 2 2 2 2 2 2 2 2 2 2 2 2 2 2 2 2 2 2\u000aleft_child=1 2 4 14 7 6 13 17 9 10 15 -10 -5 -3 19 -7 -14 18 24 21 -21 -2 -12 -20 26 -26 29 28 -28 -1\u000aright_child=3 5 -4 12 -6 8 -8 -9 11 -11 22 -13 16 -15 -16 -17 -18 -19 23 20 -22 -23 -24 -25 25 -27 27 -29 -30 -31\u000aleaf_value=0.0099997626032965158 0.016158902120674702 -0.011666339452197635 -0.0054272010660329703 0.017656343313715211 0.019871876228494699 0.018957571305946854 0.021322815988313034 -0.0042652175943119148 -0.010355678242724028 -0.011571969848803517 -0.0062436337749676744 0.010221665788775315 0.015718296318329855 0.020107483699244179 0.020657440724766524 0.0021292414799278497 0.0092106571195465642 0.014519877394391173 -0.014112481557159122 -0.01402077134793024 0.0031023632532301147 -0.013776206284911286 0.0080963801414816912 0.0045209929002104606 0.016489535082833601 -0.0055709810851009367 -0.0077929728129184153 0.026260099238611674 0.010712587353677727 -0.0076546317949476254\u000aleaf_count=4292 900 369633 17972 23008 548 899 96 5996 30871 11011 10810 705 7177 97 91 2459 4041 1502 2414 2098 2892 575 1277 1105 1429 756 4537 58 581 1097\u000ainternal_value=0 -0.863925 0.299401 1.62695 0.646178 -1.07005 -1.15028 0.413156 -0.643567 -0.345854 0.0563285 -0.940422 1.68374 -1.16182 0.487068 1.02897 1.41672 0.605448 0.460954 0.233064 -0.224778 1.12589 -0.387237 -0.60094 0.644293 1.30413 0.42239 -0.139299 -0.401473 0.793185\u000ainternal_count=510927 470145 42287 40782 24315 427858 369826 23767 58032 26456 15445 31576 34226 369730 6556 3358 11218 17771 16269 6465 4990 1475 12087 3519 12750 2185 10565 5176 5118 5389\u000ashrinkage=0.01\u000a\u000a\u000aTree=28\u000anum_leaves=31\u000anum_cat=0\u000asplit_feature=10 10 7 12 26 34 38 13 26 15 42 13 34 16 7 33 7 23 38 25 70 50 22 23 18 35 13 26 32 45\u000asplit_gain=199131 22398.9 5364.42 4567.26 2641.48 2573.22 1198.5 1482.06 1135.5 1129.01 1037.82 1067.83 994.409 897.697 856.795 836.859 836.744 833.231 724.297 712.375 712.078 696.753 1657.53 696.472 854.13 764.531 681.763 667.576 639.035 593.333\u000athreshold=3.5000000000000004 1.5000000000000002 29.500000000000004 217.50000000000003 9244.5000000000018 -1.0000000180025095e-35 -1.0000000180025095e-35 1000.5000000000001 18926.000000000004 1.0000000180025095e-35 19.500000000000004 1846.5000000000002 -1.0000000180025095e-35 16.500000000000004 28.500000000000004 1543924800.0000002 21.500000000000004 1720.0000000000002 1.5000000000000002 139.50000000000003 3.5000000000000004 3.5000000000000004 4.5000000000000009 1287.5000000000002 335.50000000000006 167.50000000000003 1433.0000000000002 15924.500000000002 16.500000000000004 1.0000000180025095e-35\u000adecision_type=2 2 2 2 2 2 2 2 2 2 2 2 2 2 2 2 2 2 2 2 2 2 2 2 2 2 2 2 2 2\u000aleft_child=1 2 5 12 6 10 -3 -8 9 -6 23 17 20 -11 18 16 -14 19 -5 26 21 -2 28 24 -1 29 -12 -15 -23 -25\u000aright_child=3 4 -4 14 8 -7 7 -9 -10 13 11 -13 15 27 -16 -17 -18 -19 -20 -21 -22 22 -24 25 -26 -27 -28 -29 -30 -31\u000aleaf_value=0.018157191207314419 0.017916029165919663 -0.011421777554161443 0.017405281385973907 -0.0053769312243290013 0.013681297729610326 -0.008108387086028573 0.016610407009091638 -0.0080544665880573161 -0.0067855374726806996 -0.013254813450227321 -0.014246113598638652 0.016328438779672223 0.0090342475749246656 -0.013246869403874744 0.02285670300554786 0.014097106157478688 -0.015854490890308392 -0.014384131825071672 0.017740898362345315 -0.0075382498050551704 -0.016984108465324638 0.0062054390498396984 0.015844528672065004 -0.0059558262192765396 -0.014059882029752918 0.018711840799362025 0.015928669506356751 0.024224427164349867 -0.016961415832649627 0.001212593817914156\u000aleaf_count=504 18544 389006 1491 5455 1387 13396 370 4119 29963 2456 412 1350 872 388 110 5188 797 1124 77 1027 253 548 8133 6043 497 258 855 169 805 15330\u000ainternal_value=0 -0.859505 0.296322 1.6066 -1.06553 0.0352915 -1.12501 -0.157311 -0.509148 0.360347 0.287636 0.889453 1.661 -0.530875 -0.0647577 1.26716 0.230758 0.233425 -0.294967 0.661914 1.71291 1.71776 1.4979 0.10187 1.20113 0.0125516 1.2054 1.16265 -0.276972 -0.0501483\u000ainternal_count=510927 470145 42287 40782 427858 40796 393495 4489 34363 4400 27400 4768 35140 3013 5642 6857 1669 3418 5532 2294 28283 28030 9486 22632 1001 21631 1267 557 1353 21373\u000ashrinkage=0.01\u000a\u000a\u000aTree=29\u000anum_leaves=31\u000anum_cat=0\u000asplit_feature=10 10 12 34 2 13 6 41 15 2 29 12 41 4 15 34 41 2 54 33 21 13 71 29 6 31 2 24 43 21\u000asplit_gain=195207 22134.6 4451.09 3897.41 3026.94 2520.6 2751.54 2177.04 1161.08 2025.41 1325.01 1216.47 1178.05 981.37 1457.38 970.587 881.414 873.371 1490.27 816.074 925.48 789.134 773.361 752.907 1266.4 737.045 734.592 733.942 726.297 724.711\u000athreshold=3.5000000000000004 1.5000000000000002 217.50000000000003 -1.0000000180025095e-35 1.5000000000000002 1846.5000000000002 2174.0000000000005 1.0000000180025095e-35 5.0000000000000009 16.500000000000004 5.5000000000000009 501.50000000000006 1.0000000180025095e-35 72036.500000000015 1.0000000180025095e-35 -1.0000000180025095e-35 25.500000000000004 7.5000000000000009 7.5000000000000009 1543924800.0000002 15.500000000000002 1717.0000000000002 1.0000000180025095e-35 10.500000000000002 3301.0000000000005 25.500000000000004 157.50000000000003 2.5000000000000004 30.500000000000004 23.500000000000004\u000adecision_type=2 2 2 2 2 2 2 2 2 2 2 2 2 2 2 2 2 2 2 2 2 2 2 2 2 2 2 2 2 2\u000aleft_child=1 3 15 5 7 23 -7 -3 9 11 22 13 17 14 -6 27 -4 18 29 20 -17 -20 -11 24 -1 26 -8 -2 -12 -10\u000aright_child=2 4 16 -5 8 6 25 -9 12 10 28 -13 -14 -15 -16 19 -18 -19 21 -21 -22 -23 -24 -25 -26 -27 -28 -29 -30 -31\u000aleaf_value=0.015567928653331854 0.015454886549747573 -0.011546290951404673 -0.0034153467673932046 -0.0072891203449008835 -0.0094589880515167975 0.017864421236790141 -0.0092098868223646577 0.017075576926628106 -0.013238578049624599 -0.013254376103599233 -0.009078121910499377 -0.013410460323761631 0.010564117663138748 0.016562824288546482 0.023705642799077945 0.013173274837324235 0.019452477527123875 -0.012718437358611372 0.02022185546182087 0.013921721985801074 -0.010119839841103267 -0.013431775560273798 0.020751217261047623 0.00051007768008086223 -0.0018997335659990875 0.011975665293616307 0.01886772107879113 0.018081828806904256 0.016276629408768818 0.0043017866018002357\u000aleaf_count=1189 15559 373257 5582 13953 2217 2023 3152 234 5643 488 18481 1437 679 1351 151 462 60 21358 415 5188 1207 474 407 18631 2574 633 132 12724 192 1074\u000ainternal_value=0 -0.855088 1.58682 0.293297 -1.061 0.561193 1.22254 -1.1433 -0.597595 -0.287109 -0.663495 0.609247 -0.910016 0.960572 0.0229098 1.64037 -0.0641997 -1.01043 -0.421862 1.2517 0.228339 1.26942 1.20008 0.223213 0.809068 -0.0568477 -0.560432 1.69158 -0.83166 -0.926589\u000ainternal_count=510927 470145 40782 42287 427858 28334 5940 373491 54367 24724 19568 5156 29643 3719 2368 35140 5642 28964 7606 6857 1669 889 895 22394 3763 3917 3284 28283 18673 6717\u000ashrinkage=0.01\u000a\u000a\u000aTree=30\u000anum_leaves=31\u000anum_cat=0\u000asplit_feature=63 57 20 12 1 34 1 67 1 56 3 56 74 12 17 14 4 19 31 19 24 24 31 11 4 4 62 1 13 4\u000asplit_gain=149679 33562.8 22584.9 7727.16 4439.56 2568.17 2076.42 1591.87 1408.63 1387.28 1184 1059.22 3308.01 1353.2 1032.46 1007.92 1495.03 1291.62 1012.48 1004.4 966.081 924.153 973.127 985.12 913.365 899.504 857.452 752.344 718.902 715.227\u000athreshold=-1.0000000180025095e-35 2.5000000000000004 -1.0000000180025095e-35 205.50000000000003 29.500000000000004 -1.0000000180025095e-35 27.500000000000004 1.0000000180025095e-35 22.500000000000004 -1.0000000180025095e-35 28446.500000000004 -1.0000000180025095e-35 -1.0000000180025095e-35 201.50000000000003 2.5000000000000004 1.0000000180025095e-35 28652.500000000004 -1.0000000180025095e-35 16.500000000000004 -1.0000000180025095e-35 2.5000000000000004 5.5000000000000009 27.500000000000004 9.5000000000000018 73338.500000000015 73500.500000000015 23.500000000000004 14.500000000000002 1666.0000000000002 72357.000000000015\u000adecision_type=2 2 2 2 2 2 2 2 2 2 2 2 2 2 2 2 2 2 2 2 2 2 2 2 2 2 2 2 2 2\u000aleft_child=1 2 7 -3 5 9 29 11 20 -4 21 12 13 -1 -14 -9 -17 18 -18 -6 25 22 -11 -24 27 -2 -8 -23 -20 -5\u000aright_child=8 3 4 6 19 -7 26 15 -10 10 -12 -13 14 -15 -16 16 17 -19 28 -21 -22 24 23 -25 -26 -27 -28 -29 -30 -31\u000aleaf_value=0.014188812160594233 0.011766572675430449 0.016585817508596341 0.019918772958092596 -0.0096222806573917855 0.018843535681428703 -0.007304820187610802 0.019490953571881322 -0.0094788820445176631 0.017640332789104089 -0.0021765366050817002 -0.01408344091851434 -0.012550779133015964 -0.010793089589001577 -0.0032476006183422262 0.021886548332216243 -0.0095680384454778639 -0.0029824683739230746 -0.010277933106255011 -0.013588493388705934 -0.0051176957690559667 0.015953715978209434 -0.0028073995551751475 -0.014148674136789592 0.017598279157313285 -0.014268923360836119 -0.0085862018686411624 -0.014222766738241459 0.0090607658315045251 0.015411353033072677 0.002576149758451511\u000aleaf_count=862 8870 4869 151 8987 837 14293 387 32075 12891 12794 2019 165096 198886 5508 72 10160 2631 3124 487 737 7548 2267 589 682 982 757 444 8112 1596 2214\u000ainternal_value=0 -0.648602 -0.838119 1.08078 0.300666 0.0777855 -0.241505 -1.05301 1.60869 0.330212 0.243172 -1.1099 -1.00109 0.240963 -1.07058 -0.692619 -0.319606 0.225937 0.670567 1.66025 1.38855 0.32183 -0.0164893 1.13869 0.635808 1.11445 1.44288 0.73394 1.28156 -0.642328\u000ainternal_count=510927 480861 463960 16901 43463 41889 12032 420497 30066 27596 27445 370424 205328 6370 198958 50073 17998 7838 4714 1574 17175 25426 14065 1271 11361 9627 831 10379 2083 11201\u000ashrinkage=0.01\u000a\u000a\u000aTree=31\u000anum_leaves=31\u000anum_cat=0\u000asplit_feature=10 20 1 12 34 5 15 5 12 13 3 17 1 50 71 1 28 21 1 12 28 34 9 3 3 5 13 3 50 5\u000asplit_gain=187679 23604.5 5578.26 4233.74 2785.79 2110.99 1591.69 2025.33 1215.08 1198 1086.57 1004.64 969.132 945.389 891.811 894.399 886.912 847.414 836.057 682.388 638.495 603.245 624.043 601.887 986.319 592.939 1022.4 762.043 583.758 581.756\u000athreshold=3.5000000000000004 -1.0000000180025095e-35 29.500000000000004 217.50000000000003 -1.0000000180025095e-35 -1.0000000180025095e-35 867.50000000000011 18.500000000000004 501.50000000000006 1429.5000000000002 26908.500000000004 2.5000000000000004 22.500000000000004 3.5000000000000004 1.0000000180025095e-35 14.500000000000002 2.5000000000000004 16.500000000000004 26.500000000000004 503.50000000000006 2.5000000000000004 -1.0000000180025095e-35 1128.5000000000002 28376.500000000004 28398.000000000004 4.5000000000000009 1717.0000000000002 18313.500000000004 4.5000000000000009 1.0000000180025095e-35\u000adecision_type=2 2 2 2 2 2 2 2 2 2 2 2 2 2 2 2 2 2 2 2 2 2 2 2 2 2 2 2 2 2\u000aleft_child=1 5 4 12 10 11 7 8 9 -7 -3 -1 13 -2 -9 16 -16 -11 28 -12 -15 -4 -23 -6 -25 26 27 29 -5 -8\u000aright_child=3 2 21 18 23 6 25 14 -10 17 19 -13 -14 20 15 -17 -18 -19 -20 -21 -22 22 -24 24 -26 -27 -28 -29 -30 -31\u000aleaf_value=-0.011500355391942911 0.015521109482397228 0.0036854902073021191 0.018052642688858506 -0.0080584513792684477 -0.0095295037603351871 -0.013251314944341593 -0.013131897270215029 -0.013046010702945367 -0.013121281957495338 0.015467351998384893 -0.010163751907626322 0.019828723841149611 0.017223357859748382 0.015147206803700391 -0.013256864096244237 -0.009964444030645064 0.017110309078282773 0.0013745064952130031 0.017802299712094318 0.015065550844598048 0.0075407847192877613 0.018922548326696906 -0.014056775241581086 0.024839474610023712 -0.0073958428850233009 -0.012629203569961256 -0.011608558938280264 -0.013149942816191456 0.0058869508577796339 0.014505916412318883\u000aleaf_count=370440 13153 26482 1174 4111 14671 1383 509 9378 1938 1992 4022 97 15589 1571 720 2799 675 2497 237 213 4827 122 613 201 1350 20628 6195 1103 1294 943\u000ainternal_value=0 -0.846473 0.253197 1.5488 0.00457679 -1.07806 -0.667094 -0.262041 0.408016 0.703164 0.261066 -1.14516 1.60075 1.438 -0.854922 -0.121721 0.872657 0.992296 -0.0633372 -0.716653 1.04241 1.64473 0.107273 -0.789392 0.312334 -1.03282 -0.576448 0.347904 -0.350701 0.973004\u000ainternal_count=510927 470145 48848 40782 46939 421297 50760 21382 7810 5872 30717 370537 35140 19551 13572 4194 1395 4489 5642 4235 6398 1909 735 16222 1551 29378 8750 2555 5405 1452\u000ashrinkage=0.01\u000a\u000a\u000aTree=32\u000anum_leaves=31\u000anum_cat=0\u000asplit_feature=63 66 20 1 55 26 30 1 24 0 0 26 26 6 17 24 26 30 53 17 0 33 60 0 35 32 18 9 18 17\u000asplit_gain=143710 39311.5 23851.3 5354.35 2995.83 1736.99 1360.43 1356.54 1212.82 1095.14 1032.44 1029.03 949.233 1059.9 964.505 934.602 871.936 860.323 2874.65 990.12 978.312 810.683 746.14 744.703 711.85 974.127 769.366 830.755 939.321 693.343\u000athreshold=-1.0000000180025095e-35 -1.0000000180025095e-35 -1.0000000180025095e-35 29.500000000000004 -1.0000000180025095e-35 9244.5000000000018 -1.0000000180025095e-35 22.500000000000004 5.5000000000000009 1.0000000180025095e-35 212.50000000000003 1149.5000000000002 18203.500000000004 1000.5000000000001 1.0000000180025095e-35 2.5000000000000004 39894.500000000007 -1.0000000180025095e-35 -1.0000000180025095e-35 2.5000000000000004 12.500000000000002 1526385600.0000002 4.5000000000000009 80.500000000000014 167.50000000000003 106.50000000000001 1025.5000000000002 1872.5000000000002 883.50000000000011 1.0000000180025095e-35\u000adecision_type=2 2 2 2 2 2 2 2 2 2 2 2 2 2 2 2 2 2 2 2 2 2 2 2 2 2 2 2 2 2\u000aleft_child=1 2 5 4 6 10 -4 15 24 11 17 -10 21 14 -14 29 -11 18 20 -20 22 -7 -1 -6 25 26 27 -8 -29 -2\u000aright_child=7 -3 3 -5 23 12 8 -9 9 16 -12 -13 13 -15 -16 -17 -18 -19 19 -21 -22 -23 -24 -25 -26 -27 -28 28 -30 -31\u000aleaf_value=0.0054467421259143814 0.011193515659807467 0.016622478457154123 0.01946883265459207 0.016342436623397932 -0.0091561657911166886 -0.013162441819231416 0.0088270804696860272 0.017223025514841919 -0.0095132222051433086 0.0088638802619322339 0.010877439559943303 0.0111649617105517 -0.01320659606372037 -0.0081667829018815304 0.025902108892377637 0.01557536687962705 -0.014223273889237276 -0.012132552172515961 -0.010646687062500278 0.021120441844959644 0.019975668431314379 0.007527478631319297 -0.0076295174335815853 0.0092520888755898475 0.019640793561413378 -0.0079708278048411848 -0.014015228860907055 -0.0053074731551069985 0.021097935604629726 -0.016980494925163021\u000aleaf_count=2437 9261 4160 157 1911 15536 1341 3036 12891 3463 8744 600 706 535 27693 95 7548 821 185848 202494 73 272 2627 3728 686 174 7435 1425 4690 174 366\u000ainternal_value=0 -0.641264 -0.809373 0.284587 0.0436005 -1.03982 0.302534 1.57015 0.224789 0.555376 -1.08647 -0.317082 -0.563416 -0.722623 1.19488 1.35458 0.792018 -1.09314 -0.992205 -1.05612 0.17424 0.29191 -0.0936303 -0.784697 -0.136262 -0.206044 0.144581 0.313244 -0.235155 1.0855\u000ainternal_count=510927 480861 476701 48958 47047 427743 30825 30066 30668 13734 395452 4169 32291 28323 630 17175 9565 394852 209004 202567 6437 3968 6165 16222 16934 16760 9325 7900 4864 9627\u000ashrinkage=0.01\u000a\u000a\u000aTree=33\u000anum_leaves=31\u000anum_cat=0\u000asplit_feature=10 10 1 2 10 38 0 5 15 1 13 5 11 14 21 27 25 25 15 50 22 0 42 2 1 1 25 13 5 13\u000asplit_gain=180507 21140.7 5334.79 2978.15 2798.88 2210.37 1320 1189.05 2319.73 1803.87 1082.89 1674.87 1007.45 979.981 971.777 838.8 833.98 874.922 822.644 809.902 1210.69 793.168 754.089 696.536 683.835 683.08 788.091 676.428 672.033 667.795\u000athreshold=3.5000000000000004 1.5000000000000002 29.500000000000004 1.5000000000000002 4.5000000000000009 1.5000000000000002 1.0000000180025095e-35 39.500000000000007 5.0000000000000009 15.500000000000002 1717.0000000000002 4.5000000000000009 5499.0000000000009 1.0000000180025095e-35 26.500000000000004 2.5000000000000004 275.50000000000006 14.500000000000002 1.0000000180025095e-35 3.5000000000000004 4.5000000000000009 1.0000000180025095e-35 17.500000000000004 8.5000000000000018 24.500000000000004 22.500000000000004 354.50000000000006 1715.0000000000002 20.500000000000004 3368.0000000000005\u000adecision_type=2 2 2 2 2 2 2 2 2 2 2 2 2 2 2 2 2 2 2 2 2 2 2 2 2 2 2 2 2 2\u000aleft_child=1 2 6 5 13 -3 -1 8 9 22 11 -10 25 -2 15 16 17 -8 24 -14 -21 -15 -5 -20 -11 26 -6 -13 -26 -19\u000aright_child=4 3 -4 7 12 -7 14 -9 10 18 -12 27 19 21 -16 -17 -18 29 23 20 -22 -23 -24 -25 28 -27 -28 -29 -30 -31\u000aleaf_value=-0.0055998434451697537 -0.013708564187817653 -0.011381240006732681 0.016562078382888132 0.013433936270102961 0.014976553594956454 0.018060243172255155 -0.013869905023329795 -0.0112814891012502 0.0083961415637125846 -0.0088034002964045982 -0.011996719027343901 -0.013078570708615501 0.014534131937632609 -0.0056475884214153369 -0.010756073600137913 -0.0031292351527717533 -0.0041612851236015524 0.0081295509337749958 0.024246236565963156 -0.017145918775507148 0.010025706492028068 0.0097999226980356475 -0.013335243456734498 -0.013318323490701498 0.0084024819432397379 0.01757602662101285 -0.016868635856533667 0.027675388343831948 -0.01335341736285355 -0.0028802265177305113\u000aleaf_count=12701 1341 373316 1643 2600 12417 175 1072 16070 2272 7546 17265 5026 7177 1651 2586 6918 3885 11206 98 724 3317 3564 617 364 1464 10267 324 21 1024 2276\u000ainternal_value=0 -0.837958 0.282258 -1.0436 1.5125 -1.12666 0.00947009 -0.581162 -0.397034 0.179536 -0.852538 -0.220342 1.56468 0.455406 0.204655 0.290477 0.458188 0.605252 -0.315127 1.30407 0.826298 0.68022 1.11499 1.40762 -0.502395 1.64464 1.4812 -1.12376 0.284311 0.68435\u000ainternal_count=510927 470145 42287 427858 40782 373491 40644 54367 38297 13713 24584 7319 34226 6556 27943 25357 18439 14554 10496 11218 4041 5215 3217 462 10034 23008 12741 5047 2488 13482\u000ashrinkage=0.01\u000a\u000a\u000aTree=34\u000anum_leaves=31\u000anum_cat=0\u000asplit_feature=12 12 20 12 74 1 65 55 5 1 14 4 55 31 28 12 1 47 46 41 8 5 9 52 65 11 75 6 17 47\u000asplit_gain=116161 28879.9 22695.9 7202.45 21249.9 5239.25 4123.01 2788.54 2054.22 1776.38 1064.99 1600.2 1317.89 882.853 928.057 766.959 746.473 738.622 738.417 701.341 750.45 696.318 880.016 682.464 688.905 657.286 642.026 635.322 965.619 614.419\u000athreshold=217.50000000000003 200.50000000000003 -1.0000000180025095e-35 207.50000000000003 -1.0000000180025095e-35 29.500000000000004 -1.0000000180025095e-35 -1.0000000180025095e-35 -1.0000000180025095e-35 22.500000000000004 1.0000000180025095e-35 28652.500000000004 -1.0000000180025095e-35 16.500000000000004 8.5000000000000018 208.50000000000003 29.500000000000004 2.5000000000000004 5.5000000000000009 25.500000000000004 1530.0000000000002 16.500000000000004 3500.5000000000005 -1.0000000180025095e-35 -1.0000000180025095e-35 5499.0000000000009 1.0000000180025095e-35 1000.5000000000001 1.0000000180025095e-35 18.000000000000004\u000adecision_type=2 2 2 2 2 2 2 2 2 2 2 2 2 2 2 2 2 2 2 2 2 2 2 2 2 2 2 2 2 2\u000aleft_child=1 6 8 4 -3 7 -1 19 23 15 27 17 13 14 -13 -5 25 18 -12 29 -21 -15 -23 24 -2 -11 -17 28 -10 -4\u000aright_child=2 3 5 9 -6 -7 -8 -9 10 16 11 12 -14 21 -16 26 -18 -19 -20 20 -22 22 -24 -25 -26 -27 -28 -29 -30 -31\u000aleaf_value=-0.010650176762134977 -0.010553558978230829 0.016162056894315414 0.0025247339893827219 0.03204440935905848 -0.012792987782727428 0.015952738493882696 0.01368338518040736 -0.0077779727527118427 -0.013145336646795711 0.017584136852811384 0.019787098809998262 -0.0075474878838059792 -0.012987339776446973 0.016540271706018621 0.019814524406308664 0.012313403609086273 0.0009369562721719425 -0.011930195231957484 -0.012995458474638103 -0.014093419216487229 0.013057094603688695 -0.013356294012769243 0.023694663240029456 -0.01241520678411318 -0.0032807980785539482 0.013654732464498848 -0.013793350325198912 -0.0098039658822107328 0.024543382762068001 -0.0080608604161998536\u000aleaf_count=37536 135819 4326 26206 126 23308 1911 971 16211 745 8878 249 2802 2412 1229 187 20997 757 9160 683 557 1555 1057 103 167491 5546 5024 503 32021 88 2469\u000ainternal_value=0 1.03622 -0.788961 1.2911 0.568145 0.264619 -0.810691 0.0233097 -1.05562 1.4759 -0.653532 -0.267464 0.290355 0.645825 -0.191541 1.23904 1.65057 -0.939213 0.562904 0.27533 1.02781 1.19881 -0.13332 -1.13486 -1.01605 1.66998 1.21763 -0.913424 0.58196 0.186619\u000ainternal_count=510927 102426 408501 63919 27634 48909 38507 46998 359592 36285 50736 17882 7790 5378 2989 21626 14659 10092 932 30787 2112 2389 1160 308856 141365 13902 21500 32854 833 28675\u000ashrinkage=0.01\u000a\u000a\u000aTree=35\u000anum_leaves=31\u000anum_cat=0\u000asplit_feature=10 10 7 10 5 55 41 15 5 29 42 13 5 28 55 37 14 41 19 42 70 25 50 18 40 42 5 9 19 8\u000asplit_gain=173796 20668.3 4627.33 2671.36 2599.95 2309.85 2230.74 1206.13 2100.58 1923.3 985.833 985.559 998.407 971.296 961.791 1361.43 956.643 774.806 708.945 688.439 651.231 630.077 628.526 1557.58 803.481 626.374 1335.62 804.634 626.271 710.184\u000athreshold=3.5000000000000004 1.5000000000000002 29.500000000000004 4.5000000000000009 -1.0000000180025095e-35 -1.0000000180025095e-35 1.0000000180025095e-35 867.50000000000011 39.500000000000007 17.500000000000004 19.500000000000004 1846.5000000000002 24.500000000000004 7.5000000000000009 -1.0000000180025095e-35 -1.0000000180025095e-35 1.0000000180025095e-35 1.0000000180025095e-35 -1.0000000180025095e-35 12.500000000000002 3.5000000000000004 2.5000000000000004 3.5000000000000004 92.500000000000014 5.5000000000000009 23.500000000000004 4.5000000000000009 1832.5000000000002 -1.0000000180025095e-35 1553.5000000000002\u000adecision_type=2 2 2 2 2 2 2 2 2 2 2 2 2 2 2 2 2 2 2 2 2 2 2 2 2 2 2 2 2 2\u000aleft_child=1 2 5 16 6 10 -3 8 9 -6 -1 12 -12 -11 20 -16 -2 25 -15 -8 22 -14 -5 24 -24 -9 27 -27 -4 -30\u000aright_child=3 4 28 14 7 -7 19 17 -10 13 11 -13 21 18 15 -17 -18 -19 -20 -21 -22 -23 23 -25 -26 26 -28 -29 29 -31\u000aleaf_value=0.00087246679094248394 -0.013657115135896999 -0.011289873628554175 0.017900769321100754 0.016563747576212623 0.0064550969839686934 -0.0078203431752186907 0.020671944748380904 -0.01213282797237962 -0.011340441267691646 -0.01319275248750279 0.009136923022884956 0.015590927026963864 0.025761912428728904 0.0092413276991019418 0.012758220768106491 -0.0066988837576894425 0.006672278567101713 0.0082551951028969894 -0.013172585876525207 -0.01368408774372985 -0.017591762834443296 -0.01432530121356106 -0.012279260770453399 0.014612617725869904 0.014570651098052056 0.013259310494612757 