ccopy_reg
_reconstructor
p0
(clightgbm.sklearn
LGBMClassifier
p1
c__builtin__
object
p2
Ntp3
Rp4
(dp5
Vboosting_type
p6
Vgbdt
p7
sVobjective
p8
NsVnum_leaves
p9
L31L
sVmax_depth
p10
L-1L
sVlearning_rate
p11
F0.1
sVn_estimators
p12
L60L
sVsubsample_for_bin
p13
L200000L
sVmin_split_gain
p14
F0.0
sVmin_child_weight
p15
F0.001
sVmin_child_samples
p16
L20L
sVsubsample
p17
F1.0
sVsubsample_freq
p18
L0L
sVcolsample_bytree
p19
F1.0
sVreg_alpha
p20
F0.0
sVreg_lambda
p21
F0.0
sVrandom_state
p22
L0L
sVn_jobs
p23
L-1L
sVsilent
p24
I00
sVimportance_type
p25
Vsplit
p26
sV_Booster
p27
g0
(clightgbm.basic
Booster
p28
g2
Ntp29
Rp30
(dp31
Vhandle
p32
Vtree\u000aversion=v2\u000anum_class=1\u000anum_tree_per_iteration=1\u000alabel_index=0\u000amax_feature_idx=44\u000aobjective=binary sigmoid:1\u000afeature_names=total_condicion cond_C10 CODIGO_VEHICULO CODIGO_REAPERTURA preg_34 COD_POST_OCURRENCIA COD_POST_POLIZA OCUPACION_ASEG COD_POST_OCURRENCIA_RC_CLUSTER_2019 FECHA_SINI_Elapsed ANTIG_pol FECHA_SINI_Dayofyear CODIGO_CARATULA COD_POST_POLIZA_RC_CLUSTER_2019 COD_RIES_sini preg_33 TIPO_SINIESTRO SEGMENTO CAPITAL_VEHICULO ESTAD_VEH_ASEG ESTADO_CIVIL COD_PROD CAPITAL_ASEGURADO_COTIZACION preg_15 FALTANTE CANT_RENOVACION CAPITAL_ACCESORIOS DESCRIPCION_TIPO preg_32 COD_ZONA_ROBO SEXO cond_C15 cant_sini_1y cond_C11 COD_POST_OCURRENCIA_RT_CLUSTER_2019 COD_POST_POLIZA_DP_CLUSTER_2019 COD_COBRO_ANTERIOR COD_RAMO_sini FECHA_SINI_Week FECHA_SINI_Month COD_ZONA_RC cond_C12 cond_C13 COD_POST_POLIZA_RT_CLUSTER_2019 preg_31\u000afeature_infos=[0:12] [0:5] [391:70735] [-1:5] [-1:658] [1:9420] [1000:9420] [-1:99999] [-1:30] [1483228800:1535673600] [-1:7608] [1:365] [-1:26] [1:30] [1:691] [-1:1] [0:7] [-1:6] [-1:10126] [-1:5] [-1:9] [-1:74737] [-1:5008] [-1:5] [0:1] [-1:206] [-1:201] [0:23] [-1:1] [-1:31] [-1:1] [-1:1] [0:4441] [0:5] [-1:10] [1:30] [-1:5] [1:9] [1:52] [1:12] [-1:31] [0:5] [0:3] [1:10] [-1:1]\u000atree_sizes=2539 2547 2561 2558 2564 2568 2555 2565 2578 2570 2564 2564 2582 2582 2567 2565 2574 2553 2548 2559 2565 2557 2554 2539 2558 2603 2527 2568 2542 2556 2586 2559 2560 2545 2555 2536 2542 2555 2575 2528 2519 2533 2519 2537 2531 2547 2533 2502 2531 2495 2515 2539 2486 2541 2546 2512 2506 2492 2513 2474\u000a\u000aTree=0\u000anum_leaves=31\u000anum_cat=0\u000asplit_feature=0 1 8 7 5 19 4 5 4 16 15 16 20 0 21 17 25 18 9 28 6 10 14 5 2 26 19 21 24 7\u000asplit_gain=12607.8 2376.14 1267.63 937.081 522.858 512.829 387.63 373.321 348.004 423.52 271.79 247.168 205.208 187.347 173.565 160.487 220.89 162.283 159.796 149.831 146.116 136.032 130.83 129.902 124.6 121.778 116.276 114.05 113.129 145.446\u000athreshold=4.5000000000000009 1.0000000180025095e-35 22.500000000000004 5499.0000000000009 1993.5000000000002 3.5000000000000004 409.50000000000006 8768.0000000000018 22.500000000000004 6.0000000000000009 1.0000000180025095e-35 6.0000000000000009 5.5000000000000009 2.5000000000000004 6165.0000000000009 5.5000000000000009 5.5000000000000009 3835.0000000000005 1496750400.0000002 1.0000000180025095e-35 1827.0000000000002 362.50000000000006 29.500000000000004 8768.0000000000018 24096.000000000004 120.50000000000001 3.5000000000000004 8064.5000000000009 1.0000000180025095e-35 44.500000000000007\u000adecision_type=2 2 2 2 2 2 2 2 2 2 2 2 2 2 2 2 2 2 2 2 2 2 2 2 2 2 2 2 2 2\u000aleft_child=1 2 5 4 8 6 10 -7 15 18 12 14 -1 28 -5 16 17 20 -10 23 -4 -9 -2 27 26 -18 -20 -14 -12 -30\u000aright_child=22 -3 3 11 -6 7 -8 21 9 -11 13 -13 19 -15 -16 -17 25 -19 24 -21 -22 -23 -24 -25 -26 -27 -28 -29 29 -31\u000aleaf_value=-0.6627174769096309 -0.34789743873363571 -0.3470628483861497 -0.68205885250851694 -0.63469171865567453 -0.72506706487673289 -0.71207749402390275 -0.46187809866097346 -0.71915454675446455 -0.62856240332326574 -0.45428876292259573 -0.7091377660417939 -0.51915755025781418 -0.59268419705421238 -0.56711921320319714 -0.69621388972344034 -0.54982451073423477 -0.59895016476442553 -0.72948725186403496 -0.50188856103346158 -0.4859117501084585 -0.52028765550800116 -0.49279094742043034 -0.75920349011639188 -0.48247820352845033 -0.62581598763477175 -0.46555388150117416 -0.58339369570358779 -0.65213416279637815 -0.63594404676055405 -0.7042132101050631\u000aleaf_count=3889 964 155 465 2390 999 9947 175 140 1051 667 3938 238 1880 378 4551 1350 4593 966 984 179 215 210 34 128 527 118 743 2123 2423 2067\u000ainternal_value=0 -0.300081 -0.35611 -0.0362993 0.213403 -0.630068 -0.444841 -0.985355 0.293154 0.647383 -0.485271 -0.598477 -0.258883 -0.724713 -0.681352 0.0686649 -0.0564612 -0.667923 0.355746 -0.0120383 -0.0638509 0.573264 2.54836 -0.097656 0.567653 0.113642 0.738704 -0.169953 -0.794656 -0.597915\u000ainternal_count=48487 47489 47334 19857 12678 27477 17180 10297 11679 3972 17005 7179 8199 8806 6941 7707 6357 1646 3305 4310 680 350 998 4131 2254 4711 1727 4003 8428 4490\u000ashrinkage=1\u000a\u000a\u000aTree=1\u000anum_leaves=31\u000anum_cat=0\u000asplit_feature=0 1 8 7 19 5 5 4 4 16 15 16 20 0 21 4 17 25 18 7 21 5 6 19 2 10 6 0 10 0\u000asplit_gain=9641.61 1832.41 1061.11 769.478 445.281 434.475 316.879 309.779 273.568 319.941 231.191 203.029 170.658 157.574 150.161 130.684 127.984 183.358 140.362 124.243 163.198 162.109 120.077 119.162 115.693 115.244 114.591 109.046 108.872 108.111\u000athreshold=4.5000000000000009 1.0000000180025095e-35 22.500000000000004 5499.0000000000009 3.5000000000000004 1993.5000000000002 8768.0000000000018 409.50000000000006 22.500000000000004 6.0000000000000009 1.0000000180025095e-35 6.0000000000000009 5.5000000000000009 2.5000000000000004 6355.0000000000009 269.50000000000006 5.5000000000000009 5.5000000000000009 3835.0000000000005 54999.000000000007 6340.0000000000009 1618.5000000000002 1743.0000000000002 4.5000000000000009 2053.5000000000005 207.50000000000003 1878.5000000000002 1.0000000180025095e-35 362.50000000000006 1.0000000180025095e-35\u000adecision_type=2 2 2 2 2 2 2 2 2 2 2 2 2 2 2 2 2 2 2 2 2 2 2 2 2 2 2 2 2 2\u000aleft_child=1 2 4 5 7 8 25 10 16 15 12 14 -1 -12 23 -10 17 18 22 21 27 -14 -4 26 -17 -6 -5 -21 -8 -19\u000aright_child=-2 -3 3 11 6 -7 28 -9 9 -11 13 -13 19 -15 -16 24 -18 29 -20 20 -22 -23 -24 -25 -26 -27 -28 -29 -30 -31\u000aleaf_value=-0.053323290856704987 0.21531413234509308 0.21744194819432106 -0.11193023785966703 -0.035277136101028665 -0.13253662989494328 -0.11294827772274324 -0.10717517575826828 0.12347164079047322 0.19430648176172652 0.12980265109679134 -0.073441641735189883 0.074996461480715218 -0.028750699206402153 0.033330453929910964 -0.088605946969616378 0.15855930293728251 0.048479320844729959 -0.00081157618825080562 -0.11728135920836238 -0.028667920381840597 -0.11584693486091635 0.050722457600253491 0.044241421380530048 -0.12793236051920254 0.018306941168102754 -0.085650214315286716 0.069113370251250208 0.13706113497420155 0.097469680112942533 0.069175651748532893\u000aleaf_count=3889 998 155 299 2120 3336 999 140 175 48 667 8428 238 1432 378 4049 85 1350 4115 966 528 774 1494 381 475 3172 6611 297 82 210 596\u000ainternal_value=0 -0.274027 -0.325291 -0.0335862 -0.57968 0.190242 -0.916987 -0.406852 0.2611 0.571551 -0.444216 -0.549686 -0.235352 -0.668371 -0.627214 0.316516 0.0612549 -0.0513903 -0.616115 -0.01123 -0.479911 0.170499 -0.0585966 -0.322139 0.253655 -1.00299 -0.179509 0.110182 0.506821 0.101836\u000ainternal_count=48487 47489 47334 19857 27477 12678 10297 17180 11679 3972 17005 7179 8199 8806 6941 3305 7707 6357 1646 4310 1384 2926 680 2892 3257 9947 2417 610 350 4711\u000ashrinkage=0.1\u000a\u000a\u000aTree=2\u000anum_leaves=31\u000anum_cat=0\u000asplit_feature=0 1 8 7 19 34 5 4 23 16 9 15 16 43 5 20 29 9 24 15 5 43 6 21 8 10 6 17 7 24\u000asplit_gain=7628.32 1457.3 889.076 633.366 389.039 365.138 269.793 249.665 244.78 598.604 231.366 196.475 167.277 146.39 151.214 141.72 140.597 132.236 151.557 129.426 164.345 156.445 122.769 127.756 112.585 113.09 109.25 108.953 124.475 108.129\u000athreshold=4.5000000000000009 1.0000000180025095e-35 22.500000000000004 5499.0000000000009 3.5000000000000004 4.5000000000000009 8768.0000000000018 409.50000000000006 2.5000000000000004 6.0000000000000009 1494590400.0000002 1.0000000180025095e-35 6.0000000000000009 7.5000000000000009 1416.5000000000002 5.5000000000000009 2.5000000000000004 1504612800.0000002 1.0000000180025095e-35 1.0000000180025095e-35 1695.0000000000002 7.5000000000000009 1652.0000000000002 6165.0000000000009 4.5000000000000009 726.50000000000011 1870.5000000000002 4.5000000000000009 54999.000000000007 1.0000000180025095e-35\u000adecision_type=2 2 2 2 2 2 2 2 2 2 2 2 2 2 2 2 2 2 2 2 2 2 2 2 2 2 2 2 2 2\u000aleft_child=1 2 4 5 7 -4 -6 11 16 10 -10 15 17 24 -15 -1 -7 18 -5 20 -12 -21 -19 26 29 -26 -24 -17 -29 -13\u000aright_child=-2 -3 3 12 6 8 -8 -9 9 -11 19 13 -14 14 -16 27 -18 22 -20 21 -22 -23 23 -25 25 -27 -28 28 -30 -31\u000aleaf_value=-0.048894324972229203 0.18851621296225868 0.19040277508273445 -0.090374067409111164 0.036884482171451821 -0.09382085873750283 -0.061512065861241139 0.045133854918674512 0.10829349587911984 -0.03764221749482554 0.11443772156762247 -0.049865871506937887 -0.057834954398411888 0.066244123113225375 -0.075216225832578351 0.095423494096774586 0.046843087768354844 0.021794709539135582 0.045126464745451816 -0.11417290155912906 0.03961735962462274 0.069792898021679234 -0.037610890008288711 -0.046884443449560304 -0.078268784881685871 -0.090693734334059806 -0.03343140756603407 0.057707525354705504 0.0039431349143818966 -0.071616781540532845 0.089767781197178931\u000aleaf_count=3889 998 155 1220 216 9947 1606 350 175 2163 1215 439 477 238 367 261 881 979 422 2310 1489 2055 1512 951 2658 5929 1583 384 2303 1126 189\u000ainternal_value=0 -0.25065 -0.297551 -0.0310794 -0.533955 0.170132 -0.855686 -0.372268 0.243115 0.357265 0.14245 -0.406738 -0.505512 -0.616535 0.180753 -0.214127 -0.24844 -0.577998 -0.956417 0.302774 0.55011 0.0564937 -0.390167 -0.50752 -0.695431 -0.771492 -0.082012 -0.0106905 -0.166807 0.0035418\u000ainternal_count=48487 47489 47334 19857 27477 12678 10297 17180 11458 8873 7658 17005 7179 8806 628 8199 2585 6941 2526 5495 2494 3001 4415 3993 8178 7512 1335 4310 3429 666\u000ashrinkage=0.1\u000a\u000a\u000aTree=3\u000anum_leaves=31\u000anum_cat=0\u000asplit_feature=0 1 8 7 3 19 5 5 4 16 4 8 33 22 16 24 2 21 10 30 2 5 36 11 19 13 6 9 28 15\u000asplit_gain=6169.96 1181.91 744.734 522.231 379.984 342.999 310.437 192.736 190.968 190.316 190.287 150.97 145.439 163.126 138.164 119.826 180.624 118.784 116.253 113.71 109.567 108.149 101.411 108.005 101.131 100.457 99.4734 98.713 104.857 97.4866\u000athreshold=4.5000000000000009 1.0000000180025095e-35 22.500000000000004 5499.0000000000009 2.5000000000000004 3.5000000000000004 1993.5000000000002 8768.0000000000018 22.500000000000004 6.0000000000000009 364.50000000000006 4.5000000000000009 1.0000000180025095e-35 2057.0000000000005 6.0000000000000009 1.0000000180025095e-35 18122.500000000004 6355.0000000000009 207.50000000000003 1.0000000180025095e-35 24096.000000000004 8332.5000000000018 3.5000000000000004 282.50000000000006 4.5000000000000009 22.500000000000004 1439.5000000000002 1500206400.0000002 1.0000000180025095e-35 1.0000000180025095e-35\u000adecision_type=2 2 2 2 2 2 2 2 2 2 2 2 2 2 2 2 2 2 2 2 2 2 2 2 2 2 2 2 2 2\u000aleft_child=1 2 4 6 5 10 8 18 27 20 11 15 13 19 17 16 21 24 -7 25 -10 -1 -15 -24 -5 -13 -19 -4 -29 -9\u000aright_child=-2 -3 3 14 -6 7 -8 29 9 -11 -12 12 -14 22 -16 -17 -18 26 -20 -21 -22 -23 23 -25 -26 -27 -28 28 -30 -31\u000aleaf_value=-0.097385504145010071 0.16896264120471161 0.17074254153020074 -0.022447375777628915 -0.013087896751744208 0.25515949850977232 -0.12300737785518881 -0.10110187433109744 0.10800014322625269 0.040487847684775299 0.10130606822554458 0.087992042134664855 -0.076491606630531381 0.047043538468969318 -0.090073681430805061 0.058779453798241801 0.07689024549519799 -0.13136189388928096 0.039610845299895982 -0.073851274534964526 -0.018654364536386771 -0.035171367827535063 0.13779502383014527 -0.057258511696019955 0.061140859776013745 -0.11748316800259176 0.057168284897164239 -0.086080083829853715 0.011822405991873362 0.11417726324929037 -0.057300888458623828\u000aleaf_count=118 998 155 2892 2417 24 3334 999 124 2543 667 197 2647 439 4470 238 432 434 196 6607 6169 762 119 1739 236 475 164 3853 4635 180 224\u000ainternal_value=0 -0.229488 -0.272364 -0.0288653 -0.492022 -0.509077 0.152277 -0.818408 0.209456 0.465754 -0.356752 -0.388299 -0.440826 -0.4773 -0.465448 0.215984 -0.353758 -0.533191 -0.88976 -0.319655 0.267973 0.65073 -0.723237 -0.375603 -0.260802 -0.652831 -0.772876 0.041959 0.179676 0.306227\u000ainternal_count=48487 47489 47334 19857 27477 27453 12678 10289 11679 3972 17164 16967 15864 15425 7179 1103 671 6941 9941 8980 3305 237 6445 1975 2892 2811 4049 7707 4815 348\u000ashrinkage=0.1\u000a\u000a\u000aTree=4\u000anum_leaves=31\u000anum_cat=0\u000asplit_feature=0 1 7 8 5 5 21 19 23 16 9 17 26 5 29 16 15 11 15 10 20 29 29 24 21 15 28 2 14 43\u000asplit_gain=5066.75 971.455 655.787 535.074 260.541 259.276 257.072 215.271 170.562 427.974 177.304 168.314 153.549 131.923 130.864 130.781 126.394 121.12 111.794 108.129 107.762 107.69 101.796 205.945 101.436 100.783 115.828 96.1308 96.0893 89.9346\u000athreshold=4.5000000000000009 1.0000000180025095e-35 5499.0000000000009 22.500000000000004 1993.5000000000002 8503.5000000000018 6395.0000000000009 3.5000000000000004 2.5000000000000004 6.0000000000000009 1499688000.0000002 4.5000000000000009 105.00000000000001 1705.0000000000002 1.5000000000000002 6.0000000000000009 1.0000000180025095e-35 145.50000000000003 1.0000000180025095e-35 221.50000000000003 5.5000000000000009 2.5000000000000004 8.5000000000000018 1.0000000180025095e-35 5630.0000000000009 1.0000000180025095e-35 1.0000000180025095e-35 18314.500000000004 29.500000000000004 7.5000000000000009\u000adecision_type=2 2 2 2 2 2 2 2 2 2 2 2 2 2 2 2 2 2 2 2 2 2 2 2 2 2 2 2 2 2\u000aleft_child=1 2 3 5 8 7 11 14 21 10 12 24 -10 -12 17 -8 -7 -1 -15 -9 22 -5 -16 -24 -4 26 -22 -18 -2 -20\u000aright_child=28 -3 6 4 -6 16 15 19 9 -11 13 -13 -14 18 20 -17 27 -19 29 -21 25 -23 23 -25 -26 -27 -28 -29 -30 -31\u000aleaf_value=-0.039047874549596247 0.15545244866774413 0.15567944060525948 -0.043740373184614066 -0.054589906375531551 -0.095498454684856585 0.1140195203961194 -0.084865713677295646 -0.11479559088653941 -0.039774589935125705 0.093154400208618815 -0.025609838014001848 -0.049304704337022796 0.099980408748076011 0.065526748291550085 -0.077328737084655041 0.020777075048363999 0.06893140712026645 0.1042293309650171 0.043225666744015484 -0.054408462644029779 -0.002520242090088433 0.017636420627781191 -0.083419503305419751 0.04176493590359906 0.049691202789250669 -0.041355892882438482 0.1258010156734149 -0.077584870681752016 -0.18299328132973 -0.02738856325251332\u000aleaf_count=351 964 155 637 1619 999 255 10037 2086 2758 1241 1177 4577 169 1710 2972 337 191 315 954 4383 2444 1019 1096 783 923 2788 116 365 34 1032\u000ainternal_value=0 -0.210167 -0.24933 -0.105764 0.136678 -0.335825 -0.581922 -0.398603 0.187774 0.281494 0.100041 -0.289542 -0.264071 0.27171 -0.250872 -0.794249 0.503224 0.452861 0.401371 -0.716791 -0.31033 -0.220092 -0.530875 -0.195721 0.185222 -0.140899 0.0857368 -0.0758785 1.53933 0.116844\u000ainternal_count=48487 47489 47334 30823 12678 18145 16511 17334 11679 9041 7800 6137 2927 4873 10865 10374 811 666 3696 6469 10199 2638 4851 1879 1560 5348 2560 556 998 1986\u000ashrinkage=0.1\u000a\u000a\u000aTree=5\u000anum_leaves=31\u000anum_cat=0\u000asplit_feature=0 1 3 8 7 19 34 10 4 18 0 6 5 25 15 2 9 43 11 25 27 18 9 8 24 5 9 22 9 4\u000asplit_gain=4208.79 806.303 572.308 531.54 329.893 273.305 212.201 154.418 153.51 149.491 191.681 181.318 146.183 142.654 129.704 120.734 130.422 120.416 126.351 112.377 111.862 137.726 179.506 107.084 108.219 107.018 106.144 104.628 93.8252 96.6458\u000athreshold=4.5000000000000009 1.0000000180025095e-35 2.5000000000000004 22.500000000000004 5499.0000000000009 3.5000000000000004 4.5000000000000009 371.50000000000006 409.50000000000006 3565.0000000000005 1.0000000180025095e-35 1658.0000000000002 8312.0000000000018 34.500000000000007 1.0000000180025095e-35 12367.000000000002 1530187200.0000002 5.5000000000000009 69.500000000000014 20.500000000000004 5.5000000000000009 8250.0000000000018 1506513600.0000002 5.5000000000000009 1.0000000180025095e-35 1410.5000000000002 1496750400.0000002 1412.5000000000002 1490184000.0000002 292.50000000000006\u000adecision_type=2 2 2 2 2 2 2 2 2 2 2 2 2 2 2 2 2 2 2 2 2 2 2 2 2 2 2 2 2 2\u000aleft_child=1 2 3 5 6 8 -5 -7 14 11 20 -8 -9 26 19 16 -6 23 -19 27 21 22 -11 24 -16 -20 -13 -1 -29 -30\u000aright_child=-2 -3 -4 4 15 7 9 12 -10 10 -12 13 -14 -15 17 -17 -18 18 25 -21 -22 -23 -24 -25 -26 -27 -28 28 29 -31\u000aleaf_value=0.028369692925014612 0.14197819233516212 0.14367077426592453 0.23337288012865703 -0.076036818750270088 -0.024774764350417436 -0.099752997415888209 -0.050716430487251787 -0.059350027010329154 0.084539798411856659 -0.07739679622288026 0.062132967422831191 0.013489591562521441 0.056018107797742814 -0.018626020051280372 -0.059230878964601219 -0.057914566897268177 0.095741231886349101 -0.10563133765907079 -0.083042991986567269 -0.052946322674035068 -0.063716076531732377 0.098033583438517993 0.015805697674479424 -0.075817515537625585 0.072961725737322555 0.035676305505618622 0.06511110520306225 -0.10334840092483027 -0.019075717835458299 0.12217634514323908\u000aleaf_count=1817 998 155 39 1220 1945 5403 809 4626 174 1177 721 1522 260 1046 627 4973 258 514 410 2360 1566 219 1526 5866 241 1144 2860 535 3376 100\u000ainternal_value=0 -0.192575 -0.228331 -0.244824 -0.0384579 -0.436229 0.10417 -0.724082 -0.300233 0.157211 -0.0632288 0.312747 -0.47199 0.399254 -0.328494 -0.395651 -0.0395693 -0.504907 -0.115432 -0.169605 -0.218469 -0.0367551 -0.168826 -0.645907 -0.0534333 0.11498 0.504616 -0.0413354 -0.220684 -0.120881\u000ainternal_count=48487 47489 47334 47295 19842 27453 12666 10289 17164 11446 5209 6237 4886 5428 16990 7176 2203 8802 2068 8188 4488 2922 2703 6734 868 1554 4382 5828 4011 3476\u000ashrinkage=0.1\u000a\u000a\u000aTree=6\u000anum_leaves=31\u000anum_cat=0\u000asplit_feature=0 1 7 8 21 5 5 19 19 30 23 16 2 16 10 29 24 29 5 5 29 16 10 15 9 18 2 17 38 9\u000asplit_gain=3523.22 674.002 499.971 347.015 221.148 191.687 188.816 162.301 141.989 135.854 158.358 226.228 147.9 111.91 105.183 104.672 112.998 318.1 118.497 123.967 103.997 101.922 99.1529 96.9963 95.4145 133.863 88.4499 90.9051 87.6479 117.925\u000athreshold=4.5000000000000009 1.0000000180025095e-35 5499.0000000000009 22.500000000000004 6355.0000000000009 8503.5000000000018 1993.5000000000002 3.5000000000000004 3.5000000000000004 1.0000000180025095e-35 2.5000000000000004 6.0000000000000009 4890.5000000000009 6.0000000000000009 1280.5000000000002 2.5000000000000004 1.0000000180025095e-35 8.5000000000000018 2800.5000000000005 5402.5000000000009 9.5000000000000018 6.0000000000000009 221.50000000000003 1.0000000180025095e-35 1504612800.0000002 5399.5000000000009 2004.5000000000002 4.5000000000000009 26.500000000000004 1511524800.0000002\u000adecision_type=2 2 2 2 2 2 2 2 2 2 2 2 2 2 2 2 2 2 2 2 2 2 2 2 2 2 2 2 2 2\u000aleft_child=1 2 3 5 8 7 9 15 26 14 -11 12 -12 -6 24 21 18 -18 -17 -20 28 -1 -9 -7 -5 -26 -4 -28 -19 -30\u000aright_child=-2 -3 4 6 13 23 -8 22 -10 10 11 -13 -14 -15 -16 16 17 20 19 -21 -22 -23 -24 -25 25 -27 27 -29 29 -31\u000aleaf_value=-0.011952848642896377 0.13205196101904221 0.13378694970007504 0.15131097986726413 -0.046607195141215918 -0.076341071045701772 0.099568817244873209 -0.086221235535720184 -0.10583106213404614 -0.097463999617191821 -0.020274406809012036 0.069806609538912198 0.087089182967680104 0.0058319405806479315 0.021785784766297417 -0.13767023649996066 0.0016516308533435641 -0.045985666846721868 0.18066217643799337 -0.12026527186670649 -0.031571926517595501 0.022840733993391316 0.081663162301019832 -0.045167976968809843 -0.006897929774949592 0.034411519002351378 -0.11654620978466457 0.019601450045685895 -0.033683958371762156 -0.14389082614762269 0.18085471503309916\u000aleaf_count=1110 998 155 58 1299 10096 255 999 2086 1100 2014 949 954 4705 338 278 838 4013 133 1685 1116 1398 428 4383 556 1216 264 1442 3477 113 31\u000ainternal_value=0 -0.176391 -0.208992 -0.0835207 -0.507133 -0.273965 0.110187 -0.330058 -0.232343 0.151826 0.247807 0.350238 0.19482 -0.710428 -0.164695 -0.20225 -0.285123 -0.13149 -0.574544 -0.80205 0.452057 0.211885 -0.618625 0.446484 -0.081289 0.173428 -0.118712 -0.15584 1.22995 0.0913252\u000ainternal_count=48487 47489 47334 30823 16511 18145 12678 17334 6077 11679 8622 6608 5654 10434 3057 10865 9327 5688 3639 2801 1675 1538 6469 811 2779 1480 4977 4919 277 144\u000ashrinkage=0.1\u000a\u000a\u000aTree=7\u000anum_leaves=31\u000anum_cat=0\u000asplit_feature=0 1 3 7 8 35 5 8 22 24 29 27 34 18 0 6 15 19 25 25 37 5 21 10 11 21 21 5 5 11\u000asplit_gain=2967.7 566.573 443.616 402.451 285.036 186.416 153.421 149.927 127.445 125.245 183.311 130.851 128.751 125.213 151.516 140.343 113.428 108.178 107.638 106.964 98.5218 95.6577 117.367 127.284 95.2743 107.938 94.7236 95.2168 94.5975 92.6168\u000athreshold=4.5000000000000009 1.0000000180025095e-35 2.5000000000000004 5499.0000000000009 22.500000000000004 19.500000000000004 1993.5000000000002 3.5000000000000004 1390.0000000000002 1.0000000180025095e-35 8.5000000000000018 13.500000000000002 4.5000000000000009 3565.0000000000005 1.0000000180025095e-35 1658.0000000000002 1.0000000180025095e-35 3.5000000000000004 34.500000000000007 9.5000000000000018 1.5000000000000002 5220.5000000000009 29101.500000000004 266.50000000000006 161.50000000000003 73498.000000000015 6085.0000000000009 2051.5000000000005 1715.0000000000002 151.50000000000003\u000adecision_type=2 2 2 2 2 2 2 2 2 2 2 2 2 2 2 2 2 2 2 2 2 2 2 2 2 2 2 2 2 2\u000aleft_child=1 2 3 4 7 16 13 -1 -9 12 -11 21 -10 15 19 20 26 -7 -17 28 -6 22 -12 -24 -14 -26 27 -5 -15 -28\u000aright_child=-2 -3 -4 5 6 17 -8 8 9 10 11 -13 24 14 -16 18 -18 -19 -20 -21 -22 -23 23 -25 25 -27 29 -29 -30 -31\u000aleaf_value=0.036041109093596001 0.12363523049133394 0.12543210431779178 0.20330948920522071 0.038535722646561965 -0.094122846239176799 -0.011056778110000599 -0.081595339064066089 -0.0077129013586356562 -0.089302463401910809 -0.046999723268128547 -0.079839603126459671 0.11736016394227876 -0.072726318895671715 -0.10686650233975381 0.051990722540740844 0.04279962509825308 -0.097453847770304761 -0.059179706528370513 -0.017262049408100191 0.0027554327967454387 0.028513528906844162 -0.076552506402857073 -0.099400056455459088 0.12447319752470057 0.017036802715367234 0.27629647858328676 -0.11065486610431519 -0.10128613345628196 -0.026201832799008496 -0.033975204458787149\u000aleaf_count=878 998 155 39 591 592 4922 999 5109 4089 5897 275 264 409 871 731 4415 4355 3362 1050 2216 303 504 140 268 268 26 1419 284 1489 1569\u000ainternal_value=0 -0.161616 -0.191332 -0.206454 -0.0934356 -0.478296 0.0824199 -0.268616 -0.320037 -0.442483 -0.286647 0.258156 -0.724598 0.119406 -0.0818868 0.259671 -0.716715 -0.275036 0.338118 -0.220133 -0.424838 -0.0511706 0.336535 0.798452 0.0295028 0.709761 -0.468197 0.0390576 -0.511731 -0.675361\u000ainternal_count=48487 47489 47334 47295 30793 16502 12666 18127 17249 12140 7348 1451 4792 11667 5307 6360 8218 8284 5465 4576 895 1187 683 408 703 294 3863 875 2360 2988\u000ashrinkage=0.1\u000a\u000a\u000aTree=8\u000anum_leaves=31\u000anum_cat=0\u000asplit_feature=0 1 15 4 4 16 3 22 13 7 24 6 26 9 25 17 17 17 10 34 29 30 10 11 28 9 5 18 4 13\u000asplit_gain=2515.54 483.35 365.718 370.647 318.432 278.364 173.173 169.932 164.968 161.621 170.335 156.486 155.817 146.522 136.697 112.881 180.617 133.034 162.591 183.668 113.192 110.988 102.414 113.796 98.6887 98.0507 91.5058 90.1681 90.1493 90.1458\u000athreshold=3.5000000000000004 1.0000000180025095e-35 1.0000000180025095e-35 354.00000000000006 282.50000000000006 6.0000000000000009 1.5000000000000002 1581.0000000000002 18.500000000000004 33.500000000000007 1.0000000180025095e-35 1880.0000000000002 109.50000000000001 1501934400.0000002 32.500000000000007 5.5000000000000009 4.5000000000000009 3.5000000000000004 120.50000000000001 4.5000000000000009 20.500000000000004 1.0000000180025095e-35 426.50000000000006 217.50000000000003 1.0000000180025095e-35 1507550400.0000002 4560.5000000000009 2016.5000000000002 269.50000000000006 4.5000000000000009\u000adecision_type=2 2 2 2 2 2 2 2 2 2 2 2 2 2 2 2 2 2 2 2 2 2 2 2 2 2 2 2 2 2\u000aleft_child=1 2 4 5 6 9 7 14 24 10 11 28 22 -12 21 16 17 18 -9 -20 29 -1 -11 -24 -7 -22 -5 -28 -4 -18\u000aright_child=-2 -3 3 26 -6 8 -8 15 -10 12 13 -13 -14 -15 -16 -17 20 -19 19 -21 25 -23 23 -25 -26 -27 27 -29 -30 -31\u000aleaf_value=-0.016262643825253494 0.11113900657710095 0.11820573289496833 -0.073117229703030681 0.12350825892017253 0.082778265311942933 -0.096270455664132323 0.17454659336455258 -0.088661662196858532 0.036795236221662926 -0.08347794057967188 -0.045899001697382556 -0.096562630846905972 0.089368234491084553 0.021305907158055627 -0.035012789488760264 0.028574636326928107 0.025524943518495408 0.050487215170576555 -0.079942473466798961 0.031249036434369645 0.094766699303537705 0.034185086678119134 -0.06873449947289903 2.6236291962242168e-05 0.10824108518043976 -0.055127498847896486 0.12753852249454264 -0.17253655591275113 0.034336764001460983 -0.065894598674146571\u000aleaf_count=1989 1362 155 530 245 862 833 31 1310 1568 8470 2171 2838 149 2346 2055 1069 319 930 1004 1747 257 4397 2988 1421 68 346 20 102 560 6345\u000ainternal_value=0 -0.154926 -0.182413 -0.359415 -0.0220881 -0.406595 -0.0774959 -0.0924596 0.124659 -0.495287 -0.29157 -0.636669 -0.651995 -0.0673342 0.0934157 -0.237651 -0.298657 -0.0278999 -0.208114 0.0233336 -0.509345 0.205021 -0.687225 -0.439137 -0.677595 0.253146 0.923159 -0.426717 -0.0879573 -0.592715\u000ainternal_count=48487 47125 46970 24309 22661 23942 21799 21768 2469 21473 8445 3928 13028 4517 8441 13327 12258 4991 4061 2751 7267 6386 12879 4409 901 603 367 122 1090 6664\u000ashrinkage=0.1\u000a\u000a\u000aTree=9\u000anum_leaves=31\u000anum_cat=0\u000asplit_feature=0 1 3 19 10 4 26 34 15 23 7 36 33 15 7 5 36 23 18 16 35 2 16 6 8 8 15 22 24 7\u000asplit_gain=2149.12 405.455 320.721 320.065 339.395 238.422 215.468 195.896 172.756 165.157 201.78 157.155 145.429 140.841 123.661 118.221 113.978 113.024 111.79 111.068 101.885 100.44 99.0092 109.739 99.6177 98.0772 117.525 90.2231 89.9716 161.892\u000athreshold=4.5000000000000009 1.0000000180025095e-35 2.5000000000000004 3.5000000000000004 97.500000000000014 354.00000000000006 71.500000000000014 5.5000000000000009 1.0000000180025095e-35 2.5000000000000004 54999.000000000007 2.5000000000000004 1.0000000180025095e-35 1.0000000180025095e-35 54999.000000000007 1707.0000000000002 -1.0000000180025095e-35 2.5000000000000004 9637.5000000000018 6.0000000000000009 12.500000000000002 5730.5000000000009 6.0000000000000009 1415.0000000000002 21.500000000000004 17.500000000000004 1.0000000180025095e-35 488.00000000000006 1.0000000180025095e-35 33.500000000000007\u000adecision_type=2 2 2 2 2 2 2 2 2 2 2 2 2 2 2 2 2 2 2 2 2 2 2 2 2 2 2 2 2 2\u000aleft_child=1 2 3 5 -5 6 8 14 9 -1 15 13 19 17 25 -11 -14 -9 -12 28 -7 -8 23 24 -19 26 -6 -23 -10 -30\u000aright_child=-2 -3 -4 4 7 20 21 11 12 10 18 -13 16 -15 -16 -17 -18 22 -20 -21 -22 27 -24 -25 -26 -27 -28 -29 29 -31\u000aleaf_value=-0.030238706266880574 0.11015283213448422 0.11182836032595576 0.17335079983295859 -0.10774170541726179 0.041601240142883252 -0.080388198559956658 0.092181096867068366 -0.054201683053153496 -0.069874899236696889 -0.0045909770928414025 -0.03074041315703803 -0.059101753178838604 -0.14850279419704113 -0.024616521244284525 -0.10538470814801558 0.048635066467929568 0.10494340800870175 -0.045102539322015738 0.13175926399196769 0.0094092388575147783 0.12337239782989771 -0.15527995023655153 0.1387784843347114 0.020822907217995429 0.24296453643866223 -0.068772969447015997 -0.047503087313055165 0.025891001873974952 0.0060686524260250294 -0.05479070801724522\u000aleaf_count=4576 998 155 39 3573 869 92 518 470 4233 1970 3814 1964 99 2729 2125 3068 238 82 85 1329 206 131 126 1776 60 2792 1797 1422 2289 4862\u000ainternal_value=0 -0.136159 -0.160777 -0.173926 -0.399148 -0.0627963 -0.0897551 -0.280716 -0.141667 -0.00804452 0.124205 -0.0768487 -0.312764 0.0729721 -0.547856 0.315315 0.67791 0.352327 -0.236459 -0.357067 0.970041 0.407627 0.502347 0.34734 1.63231 -0.39088 -0.112831 0.159941 -0.434686 -0.308778\u000ainternal_count=48487 47489 47334 47295 18363 28932 28634 14790 26563 13513 8937 7207 13050 5243 7583 5038 337 2514 3899 12713 298 2071 2044 1918 142 5458 2666 1553 11384 7151\u000ashrinkage=0.1\u000a\u000a\u000aTree=10\u000anum_leaves=31\u000anum_cat=0\u000asplit_feature=0 1 12 8 20 18 17 25 8 2 5 30 15 24 4 26 14 18 27 28 10 33 4 8 18 2 6 6 25 9\u000asplit_gain=1829.9 344.292 296.36 273.048 172.063 165.191 178.68 189.207 98.6547 120.479 98.6552 122.476 96.5941 140.978 132.842 131.92 93.1302 89.4392 97.5756 92.8579 88.9809 87.4724 86.0013 89.3424 102.417 144.798 114.594 115.708 84.3277 86.042\u000athreshold=4.5000000000000009 1.0000000180025095e-35 1.0000000180025095e-35 22.500000000000004 5.5000000000000009 3565.0000000000005 5.5000000000000009 9.5000000000000018 4.5000000000000009 24372.500000000004 1252.5000000000002 1.0000000180025095e-35 1.0000000180025095e-35 1.0000000180025095e-35 427.50000000000006 120.50000000000001 29.500000000000004 4527.0000000000009 11.000000000000002 1.0000000180025095e-35 761.50000000000011 3.5000000000000004 278.00000000000006 7.5000000000000009 4178.0000000000009 18297.500000000004 5508.0000000000009 5534.0000000000009 16.500000000000004 1498824000.0000002\u000adecision_type=2 2 2 2 2 2 2 2 2 2 2 2 2 2 2 2 2 2 2 2 2 2 2 2 2 2 2 2 2 2\u000aleft_child=1 2 3 4 21 12 7 -7 -6 10 -10 -12 13 -5 15 -14 -2 -9 20 -20 -19 22 23 -1 25 -25 -27 -28 29 -8\u000aright_child=16 -3 -4 5 8 6 28 17 9 -11 11 -13 14 -15 -16 -17 -18 18 19 -21 -22 -23 -24 24 -26 26 27 -29 -30 -31\u000aleaf_value=-0.010058368952005077 0.10617734863363711 0.10609904575185301 0.23410592937494226 0.097980169445475107 0.041109952997453153 -0.055928403609761604 -0.066650085656432989 -0.037241304044647448 -0.076581050784550686 -0.057447705468344268 -0.043043797902641262 0.01494037084211465 -0.020077803645966518 0.017718578686326265 0.13436417933374589 0.10707735872154933 -0.22834520523564361 0.059972004701219529 -0.047810746521716588 0.11727604175341769 -0.061406135392994943 0.11214677149946546 0.0019946382904171556 -0.066182822881313427 -0.08221580034307148 -0.023218877852853557 0.26790951275604186 0.028439237087337352 -0.069529169191216142 0.1152395135396031\u000aleaf_count=1659 964 155 24 428 835 5008 113 1591 813 2820 2146 4802 4511 5015 63 126 34 1148 1077 70 246 65 1284 4646 6116 1972 46 261 142 307\u000ainternal_value=0 -0.124708 -0.147108 -0.15647 -0.301823 -0.00825996 -0.193509 -0.274129 -0.126836 -0.188133 -0.0720267 -0.00317195 0.133833 0.274191 -0.0599423 -0.123383 1.04307 -0.00642169 0.184739 -0.266601 0.442182 -0.455486 -0.471766 -0.52363 -0.59286 -0.42248 -0.0202363 0.943387 0.620078 0.881106\u000ainternal_count=48487 47489 47334 47310 27465 19845 9702 9140 11416 10581 7761 6948 10143 5443 4700 4637 998 4132 2541 1147 1394 16049 15984 14700 13041 6925 2279 307 562 420\u000ashrinkage=0.1\u000a\u000a\u000aTree=11\u000anum_leaves=31\u000anum_cat=0\u000asplit_feature=0 1 7 3 17 26 21 15 23 10 4 13 5 9 2 30 19 6 0 2 21 42 33 23 4 9 16 14 35 6\u000asplit_gain=1561.94 292.768 268.75 194.921 181.813 153.169 152.689 138.63 239.894 151.846 114.596 111.115 110.235 106.488 113.398 105.736 100.211 99.0424 87.3284 85.8576 87.5103 84.9173 88.7469 90.421 78.2864 94.1208 77.7812 77.5639 73.5809 72.6018\u000athreshold=4.5000000000000009 1.0000000180025095e-35 5499.0000000000009 2.5000000000000004 5.5000000000000009 109.50000000000001 6395.0000000000009 1.0000000180025095e-35 2.5000000000000004 207.50000000000003 282.50000000000006 4.5000000000000009 4614.0000000000009 1528977600.0000002 5811.5000000000009 1.0000000180025095e-35 3.5000000000000004 5186.5000000000009 1.0000000180025095e-35 2050.5000000000005 5530.0000000000009 1.0000000180025095e-35 1.0000000180025095e-35 3.5000000000000004 364.50000000000006 1494331200.0000002 6.0000000000000009 29.500000000000004 6.5000000000000009 1663.5000000000002\u000adecision_type=2 2 2 2 2 2 2 2 2 2 2 2 2 2 2 2 2 2 2 2 2 2 2 2 2 2 2 2 2 2\u000aleft_child=1 2 3 4 5 7 16 8 11 19 15 -1 21 -8 -15 -10 -4 -14 -17 -9 26 22 23 24 25 -11 -21 -2 -18 -12\u000aright_child=27 -3 6 -5 -6 -7 13 9 10 12 29 -13 17 14 -16 18 28 -19 -20 20 -22 -23 -24 -25 -26 -27 -28 -29 -30 -31\u000aleaf_value=0.11092090633642625 0.10085893767044421 0.10086999210695669 -0.004520068505923582 0.15985265566487375 0.023864539012403221 0.073681642266929359 -0.065563011968741522 0.10077404850018062 -0.03019600124053522 -0.056446796476713537 -0.053278701201238371 -0.043525707197237945 -0.120233790748512 0.081923599862354646 -0.043816985879393214 0.010451410536917132 0.20734487376616287 -0.027276192960530271 0.071820478776279506 -0.046998618937353506 -0.081404935424186448 0.15037489383763067 0.09509625171651126 -0.088488489883089272 0.10086395537426228 0.0036470749796608201 0.099878206816002332 -0.20214345708847456 -0.09537955315102728 0.091634505182703288\u000aleaf_count=78 964 155 5028 30 4646 392 8927 62 1955 1437 148 4665 967 331 1116 4171 26 1686 621 522 3945 49 176 650 89 3946 108 34 1083 480\u000ainternal_value=0 -0.113925 -0.13426 -0.0422359 -0.0554105 -0.124528 -0.366106 -0.14908 -0.0143832 -0.295226 0.167463 -0.374362 -0.157749 -0.552118 -0.0315623 0.0842074 -0.136761 -0.552875 0.213227 -0.62224 -0.674931 -0.0404243 -0.0704173 -0.118728 -0.0500055 -0.0969286 -0.0253493 0.990487 -0.819591 0.732794\u000ainternal_count=48487 47489 47334 30823 30793 26147 16511 25755 12118 13637 7375 4743 9000 10374 1447 6747 6137 2653 4792 4637 4575 6347 6298 6122 5472 5383 630 998 1109 628\u000ashrinkage=0.1\u000a\u000a\u000aTree=12\u000anum_leaves=31\u000anum_cat=0\u000asplit_feature=1 33 34 9 7 15 26 28 4 34 28 7 14 18 5 42 10 10 19 22 24 11 26 8 36 44 37 10 22 17\u000asplit_gain=1359.54 308.132 253.052 201.255 200.438 159.158 133.9 117.373 113.635 110.951 115.184 111.583 110.694 101.259 95.8705 95.5038 103.507 110.744 146.009 94.0488 91.0237 90.7089 88.1482 84.5022 79.9455 76.6104 82.3123 93.6049 73.0136 74.9806\u000athreshold=1.0000000180025095e-35 1.0000000180025095e-35 5.5000000000000009 1498564800.0000002 54999.000000000007 1.0000000180025095e-35 71.500000000000014 1.0000000180025095e-35 8.5000000000000018 2.5000000000000004 1.0000000180025095e-35 28.500000000000004 7.5000000000000009 9560.0000000000018 1650.5000000000002 1.0000000180025095e-35 1308.5000000000002 207.50000000000003 3.5000000000000004 3358.5000000000005 1.0000000180025095e-35 200.50000000000003 40.000000000000007 13.500000000000002 4.5000000000000009 1.0000000180025095e-35 1.5000000000000002 1339.5000000000002 2776.5000000000005 5.5000000000000009\u000adecision_type=2 2 2 2 2 2 2 2 2 2 2 2 2 2 2 2 2 2 2 2 2 2 2 2 2 2 2 2 2 2\u000aleft_child=1 2 4 6 5 9 14 15 -7 -1 11 22 -3 -6 -4 16 17 18 28 25 -16 24 -11 -24 -13 26 -10 -28 -5 -30\u000aright_child=-2 12 3 7 13 8 -8 -9 19 10 -12 21 -14 -15 20 -17 -18 -19 -20 -21 -22 -23 23 -25 -26 -27 27 -29 29 -31\u000aleaf_value=0.042133319305625874 0.1061814463607615 0.064531656217045305 -0.079776997819160395 0.014996951381825855 -0.068732727569035049 -0.062849514254829014 0.047837961797473433 0.053917783524787391 0.025745072245168955 -0.047939198995073644 0.097373130815849043 -0.064312792508276637 -0.11182321776161933 0.082881771909599125 0.02957651830700897 0.13443917413956064 -0.059275800678030635 0.018774721186018486 -0.069419297175093458 -0.091365522605494423 -0.037886819596032233 0.090249932734333668 -0.14505425102111821 0.056617643802714668 0.058650250477678023 -0.081450176575354513 -0.060881548716381365 0.1663634062020527 -0.084526697392963701 0.10087960507166097\u000aleaf_count=1390 688 1277 2099 2614 6832 4965 484 1205 2191 3734 157 562 145 130 690 84 1026 8107 1897 792 3710 379 117 403 250 597 1209 40 664 49\u000ainternal_value=0 -0.0944575 -0.131414 -0.00328084 -0.292964 -0.184367 -0.28559 0.101287 -0.378937 0.0150386 -0.119755 -0.188999 0.55061 -0.6343 -0.380706 0.0474071 0.0307842 0.0687381 -0.156973 -0.159628 -0.240427 0.291301 -0.351388 0.292704 -0.119266 -0.0467628 0.0570492 -0.428034 0.03398 -0.565489\u000ainternal_count=48487 47799 46377 22629 23748 16786 6983 15646 9794 6992 5602 5445 1422 6962 6499 14441 14357 13331 5224 4829 4400 1191 4254 520 812 4037 3440 1249 3327 713\u000ashrinkage=0.1\u000a\u000a\u000aTree=13\u000anum_leaves=31\u000anum_cat=0\u000asplit_feature=1 0 3 12 19 10 32 4 30 5 2 24 43 34 9 36 13 37 7 21 9 9 15 6 35 22 15 25 16 6\u000asplit_gain=1171.74 253.026 211.49 200.685 199.28 265.555 176.995 172.212 137.656 133.705 137.046 138.626 139.686 126.523 119.494 118.334 104.375 102.318 106.019 95.0631 93.1516 92.5842 89.7923 87.5281 80.1535 76.8538 75.2617 80.1836 76.8201 77.353\u000athreshold=1.0000000180025095e-35 3.5000000000000004 2.5000000000000004 1.0000000180025095e-35 3.5000000000000004 97.500000000000014 1.0000000180025095e-35 354.00000000000006 1.0000000180025095e-35 1521.0000000000002 24077.500000000004 1.0000000180025095e-35 6.5000000000000009 5.5000000000000009 1526644800.0000002 2.5000000000000004 16.500000000000004 8.5000000000000018 54999.000000000007 6025.0000000000009 1530187200.0000002 1484308800.0000002 1.0000000180025095e-35 1756.0000000000002 5.5000000000000009 3539.5000000000005 -1.0000000180025095e-35 59.500000000000007 6.0000000000000009 1415.0000000000002\u000adecision_type=2 2 2 2 2 2 2 2 2 2 2 2 2 2 2 2 2 2 2 2 2 2 2 2 2 2 2 2 2 2\u000aleft_child=1 2 3 4 6 -6 7 8 24 -10 17 12 -12 16 25 22 -7 18 -11 -20 21 -21 26 -17 -1 -13 27 -15 29 -28\u000aright_child=-2 -3 -4 -5 5 13 -8 -9 9 10 11 14 -14 15 -16 23 -18 -19 19 20 -22 -23 -24 -25 -26 -27 28 -29 -30 -31\u000aleaf_value=-0.13225367954340672 0.10173173164802787 0.054916955846828097 0.14913979201753183 0.20480679758438369 -0.097503466199398328 -0.016830795331799989 -0.072446582862955106 0.088899317285789842 -0.028917040653322325 0.034934672180255165 -0.091546123683513198 -0.0022131113157856873 0.045114168410274491 -0.074026300176865581 0.070396302676181063 -0.093163368854518994 -0.071263773607537814 -0.079633868668673516 0.032540110640311551 0.21169943231107982 0.067470745066042878 -0.072713917916113605 -0.018416821100663002 -0.002095811329383484 -0.023620868973946038 -0.10550998433644453 0.13774399196072459 0.19491550520703704 0.12213404434008801 0.016997965320786502\u000aleaf_count=408 688 829 38 22 3560 3424 1657 269 4164 6437 1927 2537 225 446 568 1234 4115 390 963 23 205 1612 2717 703 6857 410 142 21 124 1772\u000ainternal_value=0 -0.0863533 -0.117456 -0.128227 -0.135834 -0.321928 -0.0471887 -0.0152506 -0.0396233 0.0362844 0.107473 -0.147906 -0.617636 -0.21761 0.0548615 -0.0527007 -0.445888 0.220803 0.251474 -0.0887697 -0.411491 -0.626026 0.077417 -0.518771 -0.277957 -0.126222 0.302444 -0.448761 0.424622 0.287914\u000ainternal_count=48487 47799 46970 46932 46910 18258 28652 26995 26726 19461 15297 5667 2152 14698 3515 7159 7539 9630 9240 2803 1840 1635 5222 1937 7265 2947 2505 467 2038 1914\u000ashrinkage=0.1\u000a\u000a\u000aTree=14\u000anum_leaves=31\u000anum_cat=0\u000asplit_feature=1 33 15 16 28 5 4 2 10 11 7 25 18 23 5 43 28 10 29 17 8 24 2 22 14 35 36 18 11 11\u000asplit_gain=1011.31 227.293 199.853 182.269 177.67 119.879 119.54 128.285 130.65 118.537 118.364 155.982 135.818 138.404 117.024 110.036 96.1564 94.0583 93.8121 92.6989 92.1705 90.2959 89.8803 99.6283 89.7689 85.6345 79.4869 71.6115 69.5618 72.175\u000athreshold=1.0000000180025095e-35 1.0000000180025095e-35 1.0000000180025095e-35 6.0000000000000009 1.0000000180025095e-35 1658.0000000000002 364.50000000000006 2065.5000000000005 488.50000000000006 217.50000000000003 54999.000000000007 66.500000000000014 3565.0000000000005 2.5000000000000004 2800.5000000000005 5.5000000000000009 1.0000000180025095e-35 28.500000000000004 10.500000000000002 5.5000000000000009 5.5000000000000009 1.0000000180025095e-35 12650.500000000002 2621.0000000000005 7.5000000000000009 20.500000000000004 1.5000000000000002 3908.5000000000005 341.50000000000006 138.50000000000003\u000adecision_type=2 2 2 2 2 2 2 2 2 2 2 2 2 2 2 2 2 2 2 2 2 2 2 2 2 2 2 2 2 2\u000aleft_child=1 2 4 6 5 17 7 -4 15 -10 11 12 13 25 19 20 -16 -1 -15 -5 21 -9 23 -12 -3 -7 -25 -14 29 -29\u000aright_child=-2 24 3 14 -6 10 -8 8 9 -11 22 -13 27 18 16 -17 -18 -19 -20 -21 -22 -23 -24 26 -26 -27 -28 28 -30 -31\u000aleaf_value=-0.11893525931743039 0.097575860453296651 0.056467481915478096 0.041871835572864724 0.014330708847848907 0.064905534570977294 0.030411205283495953 0.067788897087315489 -0.070231687985364694 -0.036199054157406423 0.020609739102751129 -0.011016659499997722 -0.14889144332206011 -0.077425781586287892 0.059877309143023652 -0.1003538845341363 -0.033472197487567031 0.10947873213616161 -0.020513212146154352 -0.065907661998019715 0.10067253656247757 -0.084547362358249736 0.073391279485674837 -0.047528665608729981 -0.1347188471797077 -0.104374178975424 -0.043913321929205586 0.15307602904791748 -0.024101956528777991 -0.14885317440533516 0.025351003043000371\u000aleaf_count=619 688 1277 610 1588 781 945 219 595 4849 2049 1566 274 526 2526 715 6148 61 6205 235 235 6833 217 3240 63 145 985 170 1884 151 2088\u000ainternal_value=0 -0.0791111 -0.111278 -0.250047 0.00906748 -0.0342489 -0.329352 -0.3548 -0.39126 -0.167734 0.0507296 0.144635 0.173408 0.347088 0.163461 -0.525813 -0.63729 -0.269259 0.536883 0.326853 -0.738165 -0.0694197 -0.235181 0.108254 0.479184 -0.0384825 1.1253 -0.0663826 0.0074664 0.0449512\u000ainternal_count=48487 47799 46377 24119 22258 21477 21520 21301 20691 6898 14653 9614 9340 4691 2599 13793 776 6824 2761 1823 7645 812 5039 1799 1422 1930 233 4649 4123 3972\u000ashrinkage=0.1\u000a\u000a\u000aTree=15\u000anum_leaves=31\u000anum_cat=0\u000asplit_feature=0 3 12 19 10 16 23 35 0 20 2 2 30 32 34 7 17 6 10 24 18 21 9 21 22 13 21 2 9 2\u000asplit_gain=881.646 179.422 173.262 173.88 225.25 133.503 150.079 190.119 133.016 126.1 157.927 107.616 144.034 97.9345 96.4665 110.104 96.412 102.875 94.5909 92.0358 83.7228 82.6996 81.1569 103.438 79.5552 78.3191 81.1108 87.3061 73.6042 91.9424\u000athreshold=4.5000000000000009 2.5000000000000004 1.0000000180025095e-35 3.5000000000000004 97.500000000000014 6.0000000000000009 2.5000000000000004 16.500000000000004 1.0000000180025095e-35 5.5000000000000009 2018.5000000000002 28348.500000000004 1.0000000180025095e-35 1.0000000180025095e-35 5.5000000000000009 54999.000000000007 4.5000000000000009 1713.5000000000002 304.50000000000006 1.0000000180025095e-35 8848.0000000000018 8015.0000000000009 1508068800.0000002 5115.0000000000009 3265.5000000000005 5.5000000000000009 29072.500000000004 24365.500000000004 1531828800.0000002 14221.500000000002\u000adecision_type=2 2 2 2 2 2 2 2 2 2 2 2 2 2 2 2 2 2 2 2 2 2 2 2 2 2 2 2 2 2\u000aleft_child=1 2 3 5 -5 8 21 -8 9 13 -11 12 22 24 15 18 -16 -18 -6 -9 -14 28 23 -12 -1 26 27 -17 -7 -30\u000aright_child=-2 -3 -4 4 14 6 7 19 -10 10 11 -13 20 -15 16 25 17 -19 -20 -21 -22 -23 -24 -25 -26 -27 -28 -29 29 -31\u000aleaf_value=-0.021172215072032693 0.082586924831941702 0.13820930720950678 0.17652887189798983 -0.089921128753230856 -0.078279278856747264 -0.060546217623721102 -0.047171713111346249 0.028398151781224623 0.018683780199577879 0.1495047665881474 0.19463777421967732 -0.056530860715079748 0.0096746580435499649 -0.10840383049636473 0.011993450068550545 -0.13823437270187253 -0.080148463214776533 -0.00058160289462484997 -0.0077388467371390136 0.095791309247719558 0.097782034372445745 0.018985877371962077 -0.010338021975015032 -0.099519976309476968 -0.084179275276183407 -0.11387592988302289 -0.12385706773582957 0.27215612716046672 -0.15408210188868421 0.17513820931187651\u000aleaf_count=7175 998 41 26 3581 1610 1242 722 799 4175 102 32 1812 5794 914 4328 40 1547 1344 3866 712 263 1420 1344 1163 1251 1913 132 42 54 45\u000ainternal_value=0 -0.082355 -0.092332 -0.0999791 -0.275817 -0.018571 0.219824 0.478565 -0.0860177 -0.161343 -0.0256366 -0.0612801 0.013717 -0.344556 -0.18182 -0.383874 -0.0388929 -0.349163 -0.236637 0.677074 0.150806 -0.0969564 -0.410247 -0.847008 -0.28319 -0.924222 0.307635 1.50105 -0.447226 0.807912\u000ainternal_count=48487 47489 47448 47422 18403 29019 4994 2233 24025 19850 10510 10408 8596 9340 14822 7603 7219 2891 5476 1511 6057 2761 2539 1195 8426 2127 214 82 1341 99\u000ashrinkage=0.1\u000a\u000a\u000aTree=16\u000anum_leaves=31\u000anum_cat=0\u000asplit_feature=1 11 22 10 30 0 17 15 43 10 26 8 13 24 22 5 24 9 35 10 17 23 18 13 21 29 11 5 5 4\u000asplit_gain=786.111 162.124 127.983 120.649 105.115 93.0723 134.909 87.5667 121.352 98.034 83.1733 82.2992 119.983 100.642 81.8345 76.385 81.1439 74.2436 74.038 71.763 70.5758 113.975 70.6873 80.0243 117.237 77.3373 70.0583 67.3235 66.8409 65.7327\u000athreshold=1.0000000180025095e-35 180.50000000000003 1098.5000000000002 302.50000000000006 1.0000000180025095e-35 1.0000000180025095e-35 5.5000000000000009 1.0000000180025095e-35 8.5000000000000018 426.50000000000006 105.00000000000001 4.5000000000000009 21.500000000000004 1.0000000180025095e-35 1001.0000000000001 1888.5000000000002 1.0000000180025095e-35 1484136000.0000002 18.500000000000004 817.50000000000011 5.5000000000000009 2.5000000000000004 9289.5000000000018 24.500000000000004 73180.500000000015 8.5000000000000018 47.500000000000007 5305.0000000000009 1082.5000000000002 292.50000000000006\u000adecision_type=2 2 2 2 2 2 2 2 2 2 2 2 2 2 2 2 2 2 2 2 2 2 2 2 2 2 2 2 2 2\u000aleft_child=1 2 4 15 14 6 7 8 28 -9 11 13 18 -5 -1 16 -4 -6 -13 -12 21 -14 23 24 25 -23 -19 -15 -3 -10\u000aright_child=-2 5 3 10 17 -7 -8 9 29 -11 19 12 20 27 -16 -17 -18 26 -20 -21 -22 22 -24 -25 -26 -27 -28 -29 -30 -31\u000aleaf_value=-0.056093728079839235 0.090928357963400486 -0.131956267727114 0.012621934100219181 -0.04672515601616406 -0.11389379805999121 0.030524360822053634 0.034634934387195233 -0.050562350492658295 -0.088330827672783316 0.00053676090830471243 0.08527077947006971 -0.027006200464340213 -0.093403033709557784 0.20386838276519154 0.054249234214566004 -0.071463070444528057 -0.04165150294116346 0.059175249940400458 -0.082536653276972335 -0.094358960321677177 0.055023705368933078 -0.027323366716265868 0.11500931202424441 -0.029364028330642441 0.094381970810509475 0.1528637123180781 0.0087229043526609023 0.047647198729749984 0.016138123624481103 0.10247882062785968\u000aleaf_count=1542 688 181 1245 318 180 3157 2445 4428 792 2716 290 3578 635 51 243 3850 6248 1056 1960 124 432 1007 89 2140 405 73 2587 169 5835 23\u000ainternal_value=0 -0.0681976 -0.169657 -0.247728 0.0666939 0.0607274 -0.00900843 -0.0983981 0.0461646 -0.276901 -0.110612 -0.15301 -0.200898 0.481557 -0.35416 -0.416495 -0.306869 0.211722 -0.448645 0.571359 -0.0085791 -0.0976647 0.0137841 -0.0438704 0.268137 -0.111904 0.254638 1.03972 0.133935 -0.691238\u000ainternal_count=48487 47799 28222 22614 5608 19577 16420 13975 6831 7144 11271 10857 10319 538 1785 11343 7493 3823 5538 414 4781 4349 3714 3625 1485 1080 3643 220 6016 815\u000ashrinkage=0.1\u000a\u000a\u000aTree=17\u000anum_leaves=31\u000anum_cat=0\u000asplit_feature=1 3 33 15 4 9 34 25 26 4 11 35 11 11 10 26 23 14 16 35 9 10 16 10 9 21 5 43 8 9\u000asplit_gain=678.986 153.913 152.209 155.103 144.88 137.534 154.326 137.878 123.415 92.3393 89.9697 123.13 114.385 112.376 82.0321 77.5803 80.2914 76.517 75.8294 121.622 95.4926 98.797 74.0446 72.5435 93.9911 80.2419 71.1468 70.4477 74.4943 69.3728\u000athreshold=1.0000000180025095e-35 2.5000000000000004 1.0000000180025095e-35 1.0000000180025095e-35 282.50000000000006 1504612800.0000002 4.5000000000000009 29.500000000000004 11.500000000000002 411.50000000000006 182.50000000000003 28.500000000000004 212.50000000000003 16.500000000000004 493.50000000000006 71.500000000000014 2.5000000000000004 7.5000000000000009 6.0000000000000009 23.500000000000004 1491307200.0000002 672.50000000000011 6.0000000000000009 930.50000000000011 1530532800.0000002 72184.000000000015 1272.5000000000002 8.5000000000000018 5.5000000000000009 1493812800.0000002\u000adecision_type=2 2 2 2 2 2 2 2 2 2 2 2 2 2 2 2 2 2 2 2 2 2 2 2 2 2 2 2 2 2\u000aleft_child=1 2 3 4 10 8 7 27 9 -5 13 12 -12 14 -1 16 -15 -4 20 29 21 -18 -8 -9 -25 -26 -14 28 -7 -20\u000aright_child=-2 -3 17 5 -6 6 22 23 -10 -11 11 -13 26 15 -16 -17 18 -19 19 -21 -22 -23 -24 24 25 -27 -28 -29 -30 -31\u000aleaf_value=0.064599842879078787 0.087278136681084945 0.13103719508534292 0.047394863893954309 -0.05686654471520719 0.058423767730529999 5.5969635560855103e-05 -0.0014148506253951953 0.15749200297268273 0.0063062482127644705 0.059072672025351561 0.050927980526987528 -0.072758756163413582 -0.095008105250029895 -0.055400687368879466 -0.031549745061715088 0.034695943249353232 -0.10463948834968805 -0.10297919483214757 0.0668568808695746 0.11477436034603535 -0.010426194361350106 0.010953755767595077 0.047386485349132847 -0.035597599655851027 -0.014829103046546461 0.24542996295080882 0.0069982849803640656 0.12202886957037669 -0.076932342229837594 -0.13242761938775524\u000aleaf_count=827 688 41 1275 9464 858 680 6035 108 1623 122 1977 665 380 3028 500 593 1299 145 65 142 5749 367 787 685 92 58 5572 64 4385 213\u000ainternal_value=0 -0.062191 -0.0712999 -0.0980889 0.00896145 -0.223395 -0.0842853 -0.390331 -0.408988 -0.523543 -0.031427 0.109318 0.166962 -0.141139 0.346155 -0.211572 -0.260126 0.393301 -0.15632 0.464078 -0.219164 -0.689753 0.0813249 0.299663 0.0500299 1.2648 0.0270232 -0.577237 -0.623824 -0.530353\u000ainternal_count=48487 47799 47758 46338 22235 24103 12894 6072 11209 9586 21377 8594 7929 12783 1327 11456 10863 1420 7835 420 7415 1666 6822 943 835 150 5952 5129 5065 278\u000ashrinkage=0.1\u000a\u000a\u000aTree=18\u000anum_leaves=31\u000anum_cat=0\u000asplit_feature=0 7 35 4 15 23 4 9 19 11 29 25 11 18 2 35 35 30 21 16 6 18 11 10 9 10 24 10 22 13\u000asplit_gain=589.617 152.169 124.807 123.524 131.201 121.648 106.657 100.357 94.4963 87.1022 86.8698 89.5523 86.0506 100.003 94.1134 85.5995 80.1409 79.9253 77.0173 76.6472 80.0004 73.337 103.564 70.0297 67.5157 69.4309 66.7957 66.2291 76.3703 70.0429\u000athreshold=4.5000000000000009 54999.000000000007 19.500000000000004 8.5000000000000018 1.0000000180025095e-35 2.5000000000000004 262.50000000000006 1520424000.0000002 1.5000000000000002 351.50000000000006 3.5000000000000004 27.500000000000004 292.50000000000006 2253.5000000000005 2742.5000000000005 14.500000000000002 4.5000000000000009 1.0000000180025095e-35 6165.0000000000009 6.0000000000000009 1870.5000000000002 5399.5000000000009 130.50000000000003 211.50000000000003 1487246400.0000002 915.50000000000011 1.0000000180025095e-35 1364.5000000000002 1298.0000000000002 29.500000000000004\u000adecision_type=2 2 2 2 2 2 2 2 2 2 2 2 2 2 2 2 2 2 2 2 2 2 2 2 2 2 2 2 2 2\u000aleft_child=1 3 9 4 5 10 -5 12 -7 16 -1 -12 13 17 -14 -11 21 -6 -18 -10 -21 -3 -23 -15 26 -26 -19 28 -8 -29\u000aright_child=-2 2 -4 6 7 8 27 -9 19 15 11 -13 14 23 -16 -17 18 24 -20 20 -22 22 -24 -25 25 -27 -28 29 -30 -31\u000aleaf_value=-0.03748137805833171 0.072589751107055983 -0.064323502861697135 -0.0086034971692360105 0.11309408813439586 -0.093260432557913359 -0.090688616656328269 0.038363732298368702 0.0072151775329416523 0.016489321650169659 -0.12355439253816797 0.027903471530191567 -0.063945515997985272 0.14926196227926464 -0.11730820887326528 -0.017594478663020104 0.17509222134318456 -0.026922577678624528 -0.057982043002365258 -0.082386035345694913 0.10489163009821961 -0.067012820567294878 -0.1198402718222505 0.19524575702669728 -0.054442178246011635 -0.057017773930315235 0.05783676615342849 0.15107407235887083 -0.051945211722508156 0.004935845222606778 0.26636114447405701\u000aleaf_count=3992 998 264 7536 170 515 312 2460 2055 4822 97 1549 541 77 1837 854 97 1730 96 4929 278 118 110 130 2631 631 262 108 868 8400 20\u000ainternal_value=0 -0.0654107 -0.263213 -0.00112191 -0.0967168 0.0207091 0.141957 -0.303095 0.196512 -0.503198 -0.179824 0.0965607 -0.439315 -0.548076 0.109956 0.852778 -0.554725 -0.141375 -0.631171 0.24309 0.798688 0.318139 1.10687 -0.752583 0.109717 -0.160787 0.927016 0.112143 0.147796 -0.416891\u000ainternal_count=48487 47489 14893 32596 20678 11612 11918 9066 5530 7357 6082 2090 7011 6080 931 194 7163 1612 6659 5218 396 504 240 4468 1097 893 204 11748 10860 888\u000ashrinkage=0.1\u000a\u000a\u000aTree=19\u000anum_leaves=31\u000anum_cat=0\u000asplit_feature=1 12 30 2 3 8 28 7 11 26 2 17 34 6 21 2 35 2 10 18 7 9 9 35 5 14 25 35 22 35\u000asplit_gain=530.534 144.246 130.508 137.285 117.663 113.552 107.875 97.0538 99.4419 90.0945 83.6333 99.4587 87.3896 86.2031 97.4852 119.299 76.1265 85.4212 85.6838 80.4379 83.2946 77.1035 67.5014 66.8647 89.515 66.5601 65.7103 64.9945 80.3085 64.851\u000athreshold=1.0000000180025095e-35 1.0000000180025095e-35 1.0000000180025095e-35 12446.500000000002 2.5000000000000004 28.500000000000004 1.0000000180025095e-35 5499.0000000000009 151.50000000000003 109.50000000000001 24424.500000000004 5.5000000000000009 2.5000000000000004 1715.0000000000002 25656.500000000004 12622.500000000002 5.5000000000000009 18402.500000000004 28.500000000000004 6350.5000000000009 43.500000000000007 1526817600.0000002 1509883200.0000002 4.5000000000000009 2585.0000000000005 4.5000000000000009 3.5000000000000004 27.500000000000004 1051.0000000000002 17.500000000000004\u000adecision_type=2 2 2 2 2 2 2 2 2 2 2 2 2 2 2 2 2 2 2 2 2 2 2 2 2 2 2 2 2 2\u000aleft_child=1 2 16 9 5 6 7 8 10 -4 13 -12 -13 -5 15 -15 -1 19 -19 21 -21 -18 -8 24 -9 -10 -17 28 -23 -25\u000aright_child=-2 -3 3 4 -6 -7 22 23 25 -11 11 12 -14 14 -16 26 17 18 -20 20 -22 27 -24 29 -26 -27 -28 -29 -30 -31\u000aleaf_value=-0.10449580506058348 0.08139110764444088 0.16525066287352844 0.0135204046746095 -0.042420838506086106 0.13494174315062038 -0.12197869845400276 -0.0036873302892424056 0.30010674343810995 0.011861627393893877 0.098225302960953928 -0.070886127567323987 0.21087135318401984 -0.01360052573701717 -0.13806408884634458 -0.026681176846153377 -0.055732451413110756 -0.050438539302360946 -0.12841156869227152 0.0083241048601983315 -0.060768672716014563 0.09163309441911606 0.069790313540758223 0.057489445696381314 -0.077436368932409919 0.00060017420302198494 -0.14767065197274384 0.074699327651294695 0.1101767589206991 -0.048570085149851928 -0.027313854642255025\u000aleaf_count=752 688 25 9834 1950 25 709 1264 20 6686 186 2727 33 241 157 1414 180 6644 335 4150 248 274 190 847 2399 246 138 804 100 905 4316\u000ainternal_value=0 -0.0536517 -0.0606328 -0.000582726 -0.0888039 -0.102486 -0.0853277 -0.136429 -0.0561757 0.171437 -0.225706 -0.532351 0.411649 -0.075427 0.127496 0.44858 -0.240826 -0.209423 0.0200853 -0.337702 0.354321 -0.400155 0.276536 -0.373006 0.689073 0.097498 0.602252 0.0331748 -0.150579 -0.421628\u000ainternal_count=48487 47799 47774 34176 24156 24131 23422 21311 14330 10020 7506 3001 274 4505 2555 1141 13598 12846 4485 8361 522 7839 2111 6981 266 6824 984 1195 1095 6715\u000ashrinkage=0.1\u000a\u000a\u000aTree=20\u000anum_leaves=31\u000anum_cat=0\u000asplit_feature=1 12 3 19 10 32 17 37 17 44 10 27 10 5 21 9 34 13 43 6 10 9 18 10 5 8 6 25 10 9\u000asplit_gain=457.681 120.432 111.615 115.575 205.704 109.608 105.693 130.349 102.379 77.3369 69.6379 69.4718 90.3988 71.4118 69.3245 80.241 68.8007 87.848 82.9115 68.9812 68.6047 88.1901 67.2616 120.31 77.3905 132.153 72.3356 66.1406 71.8817 71.3414\u000athreshold=1.0000000180025095e-35 1.0000000180025095e-35 2.5000000000000004 3.5000000000000004 90.500000000000014 1.0000000180025095e-35 4.5000000000000009 5.0000000000000009 5.5000000000000009 1.0000000180025095e-35 702.50000000000011 2.5000000000000004 777.50000000000011 1521.0000000000002 6050.0000000000009 1498564800.0000002 5.5000000000000009 14.500000000000002 5.5000000000000009 6602.5000000000009 395.50000000000006 1515240000.0000002 6120.0000000000009 302.50000000000006 1833.0000000000002 6.5000000000000009 1439.5000000000002 6.5000000000000009 143.50000000000003 1509451200.0000002\u000adecision_type=2 2 2 2 2 2 2 2 2 2 2 2 2 2 2 2 2 2 2 2 2 2 2 2 2 2 2 2 2 2\u000aleft_child=1 2 3 5 -5 6 7 11 22 14 -7 12 -1 -13 15 -6 17 -16 19 -19 -20 -22 26 -24 -25 -26 27 28 29 -8\u000aright_child=-2 -3 -4 4 9 10 8 -9 -10 -11 -12 13 -14 -15 16 -17 -18 18 20 -21 21 -23 23 24 25 -27 -28 -29 -30 -31\u000aleaf_value=0.10766530968064794 0.077986674054359398 0.15323483017565329 0.11955835593768122 -0.088439136094545956 -0.12749544576500235 -0.087666484905571954 -0.12006151610613845 -0.024276374762178463 0.01261097974303791 -0.083911224618417976 0.001459088944214022 -0.022880333586354981 -0.15848294626966419 0.0378447330193677 0.0059956860395750031 -0.021910278141893856 0.0087805630701084277 -0.072656493607210978 -0.082386678345434783 0.22330694809564139 0.15201051074617955 -0.12992361741013078 -0.088243161408847456 0.061588901812335721 0.059638549771852269 -0.11430112712091989 -0.001041468797335696 -0.066644880661148181 0.11225984674290988 0.035800817425550129\u000aleaf_count=330 688 25 40 3255 629 1180 314 1835 6774 860 539 839 68 3096 2794 1218 6040 3176 248 30 151 92 1961 336 229 699 8993 1661 136 251\u000ainternal_value=0 -0.0489907 -0.0553228 -0.0627712 -0.209629 0.00331472 0.0283607 0.222118 -0.0411813 -0.127141 -0.52955 0.357458 0.899891 0.277641 -0.0941562 -0.503405 -0.0403347 -0.233364 -0.503234 -0.676927 0.322634 0.918412 -0.147201 -0.447848 0.00253279 -0.415469 -0.0838805 -0.421253 0.0956188 -0.321217\u000ainternal_count=48487 47799 47774 47734 18493 29241 27522 6168 21354 15238 1719 4333 398 3935 14378 1847 12531 6491 3697 3206 491 243 14580 3225 1264 928 11355 2362 701 565\u000ashrinkage=0.1\u000a\u000a\u000aTree=21\u000anum_leaves=31\u000anum_cat=0\u000asplit_feature=0 15 16 4 4 7 26 24 6 5 13 29 10 11 21 9 41 36 2 34 6 0 34 18 11 11 11 10 1 30\u000asplit_gain=401.819 113.315 123.18 113.016 95.7506 99.9602 94.945 92.1547 129.971 125.599 91.9313 86.9814 64.967 73.9145 81.5286 63.8935 63.6811 66.4981 63.4746 102.346 72.6239 81.1394 64.6813 63.0978 60.2511 88.6651 78.9168 85.0936 65.5514 61.8939\u000athreshold=4.5000000000000009 1.0000000180025095e-35 6.0000000000000009 282.50000000000006 364.50000000000006 33.500000000000007 109.50000000000001 1.0000000180025095e-35 1880.0000000000002 1410.5000000000002 18.500000000000004 8.5000000000000018 426.50000000000006 217.50000000000003 6015.0000000000009 1501934400.0000002 2.5000000000000004 4.5000000000000009 12186.500000000002 6.5000000000000009 1875.5000000000002 2.5000000000000004 7.5000000000000009 766.00000000000011 182.50000000000003 212.50000000000003 16.500000000000004 493.50000000000006 1.0000000180025095e-35 1.0000000180025095e-35\u000adecision_type=2 2 2 2 2 2 2 2 2 2 2 2 2 2 2 2 2 2 2 2 2 2 2 2 2 2 2 2 2 2\u000aleft_child=1 3 4 24 5 7 12 8 18 -9 23 15 -7 16 -15 -11 -14 -18 19 -3 21 22 -20 -4 26 -26 27 -1 29 -28\u000aright_child=-2 2 10 -5 -6 6 -8 9 -10 11 -12 -13 13 14 -16 -17 17 -19 20 -21 -22 -23 -24 -25 25 -27 28 -29 -30 -31\u000aleaf_value=0.060592642518471011 0.063934682409533206 0.14410631735292009 0.099519331426347626 0.053227795239280951 0.064871828241392801 -0.057147889234006648 0.072417291071379314 -0.12593045605620692 -0.074163950207865759 -0.030204100810700952 0.034129099260374614 0.071389587703197338 -0.052411687082829117 -0.081400124957590289 0.038583904475454463 0.023188791043507288 -0.13213975693261162 0.20433630431898334 -0.13306308188339994 -0.068027280351693559 0.1446894457437192 0.11986692042836156 0.00048347390799009533 -0.069681715576870001 0.040552103972436804 -0.0001761159973907397 -0.042578469063133062 -0.035893137064682931 0.069027708969366844 -0.0086818683596799201\u000aleaf_count=849 998 153 49 885 225 8520 152 442 2863 1650 1675 694 2968 342 1086 1780 53 24 488 139 43 40 239 909 2192 6625 3409 530 96 8369\u000ainternal_value=0 -0.0526852 -0.161409 0.0363387 -0.230209 -0.255065 -0.394797 -0.0872287 -0.374651 0.0783465 0.178292 0.154768 -0.431277 -0.225555 0.138564 0.0209182 -0.447915 1.02652 0.125724 0.756597 -0.210251 -0.434527 -0.723185 -0.45708 0.000935541 0.115106 -0.0869035 0.312457 -0.1451 -0.171578\u000ainternal_count=48487 47489 24534 22955 21901 21676 13145 8531 3965 4566 2633 4124 12993 4473 1428 3430 3045 77 1102 292 810 767 727 958 22070 8817 13253 1379 11874 11778\u000ashrinkage=0.1\u000a\u000a\u000aTree=22\u000anum_leaves=31\u000anum_cat=0\u000asplit_feature=1 33 7 9 4 15 7 16 35 4 9 11 35 2 7 10 2 24 14 26 18 2 13 6 2 2 18 5 2 40\u000asplit_gain=348.897 103.072 102.811 118.042 90.3123 99.7852 118.653 85.9059 76.8801 75.0613 70.7461 65.4634 73.8276 66.7157 71.2842 63.7168 62.0419 77.2897 61.1368 60.0428 63.0145 73.0702 65.9952 59.9574 57.9592 67.4623 55.1853 53.8397 53.7712 53.7016\u000athreshold=1.0000000180025095e-35 1.0000000180025095e-35 44.500000000000007 1500379200.0000002 8.5000000000000018 1.0000000180025095e-35 24.500000000000004 6.0000000000000009 17.500000000000004 262.50000000000006 1520424000.0000002 351.50000000000006 14.500000000000002 5820.0000000000009 54999.000000000007 792.50000000000011 5602.5000000000009 1.0000000180025095e-35 7.5000000000000009 22.000000000000004 3785.5000000000005 26437.500000000004 6.5000000000000009 1824.5000000000002 28445.500000000004 28376.500000000004 855.50000000000011 1853.0000000000002 24104.500000000004 8.5000000000000018\u000adecision_type=2 2 2 2 2 2 2 2 2 2 2 2 2 2 2 2 2 2 2 2 2 2 2 2 2 2 2 2 2 2\u000aleft_child=1 2 4 -4 5 6 19 8 11 -6 -7 13 -13 14 23 26 -12 -18 -3 20 24 -22 -23 -5 25 -1 -8 28 -9 -29\u000aright_child=-2 18 3 7 9 10 15 27 -10 -11 16 12 -14 -15 -16 -17 17 -19 -20 -21 21 22 -24 -25 -26 -27 -28 29 -30 -31\u000aleaf_value=-7.2756935721467208e-05 0.071926119322437157 0.041956302583209114 -0.052692523777460087 -0.13769257334241064 0.10001052851621423 -0.041924645453802568 -0.10664607853404678 0.097382614277084001 -0.0031376727608453166 0.01033720768449531 0.07212124741404663 -0.11897639504779055 0.16733132351142296 -0.067672881275574498 -0.034185020604207472 -0.029264734729719272 -0.088550646224610202 0.015560923113919279 -0.097047849637787606 0.026911056745817171 -0.059126591976031651 0.11547228357352209 -0.017403663122457409 0.15101022995656113 -0.1132738476520414 0.1816117175713815 0.065857869729479365 -0.12128087050841152 -0.081266748055728824 0.07091787223408702\u000aleaf_count=3974 688 1277 5315 55 155 5952 73 281 7329 10233 291 106 73 3562 854 359 639 810 145 1138 2399 83 940 122 224 30 1072 158 82 68\u000ainternal_value=0 -0.0418034 -0.0641613 -0.207652 -0.000188168 -0.0890768 0.0184921 -0.100599 -0.157194 0.130972 -0.289985 -0.416231 0.79317 -0.486421 -0.00545333 0.431225 0.0499422 -0.15842 0.347453 -0.0771066 -0.148135 -0.374354 0.0654909 1.02003 -0.0106434 0.0303473 0.586868 0.486284 0.77298 -0.339266\u000ainternal_count=48487 47799 46377 18005 28372 17984 10292 12690 12101 10388 7692 4772 179 4593 1031 1504 1740 1449 1422 8788 7650 3422 1023 177 4228 4004 1145 589 363 226\u000ashrinkage=0.1\u000a\u000a\u000aTree=23\u000anum_leaves=31\u000anum_cat=0\u000asplit_feature=0 12 20 17 18 18 4 4 2 13 9 13 2 2 14 10 22 10 2 10 10 17 22 22 27 25 5 22 2 9\u000asplit_gain=300.985 98.8287 91.6942 148.351 99.8675 101.436 92.4849 83.6715 77.8482 88.0316 85.5053 81.458 76.6069 75.698 74.64 72.1252 71.0414 68.4728 68.337 68.1399 93.2027 66.1678 67.2748 73.6414 63.6551 76.3481 63.6448 83.6542 63.541 62.4791\u000athreshold=4.5000000000000009 1.0000000180025095e-35 5.5000000000000009 4.5000000000000009 4344.5000000000009 347.50000000000006 292.50000000000006 334.50000000000006 18297.500000000004 21.500000000000004 1493640000.0000002 27.500000000000004 28445.500000000004 29191.500000000004 1.5000000000000002 91.500000000000014 2309.0000000000005 252.50000000000003 2431.5000000000005 548.50000000000011 546.50000000000011 5.5000000000000009 2354.0000000000005 4846.5000000000009 2.5000000000000004 2.5000000000000004 1613.5000000000002 261.00000000000006 24443.500000000004 1485000000.0000002\u000adecision_type=2 2 2 2 2 2 2 2 2 2 2 2 2 2 2 2 2 2 2 2 2 2 2 2 2 2 2 2 2 2\u000aleft_child=1 2 4 14 5 -1 17 12 9 16 -11 29 21 15 18 -8 -7 24 -4 20 -19 -5 -23 -24 25 -6 27 -20 -22 -10\u000aright_child=-2 -3 3 7 6 8 13 -9 11 10 -12 -13 -14 -15 -16 -17 -18 19 26 -21 28 22 23 -25 -26 -27 -28 -29 -30 -31\u000aleaf_value=-0.09779752674435159 0.057811842089198796 0.13995224140775128 0.10332405105418288 -0.015123613747873958 -0.13034709653523355 -0.037956533625834149 -0.13859402578704397 0.075302659503015193 0.10485133010170725 -0.044083037596096053 0.015840959832189954 -0.097731322649828922 -0.062053537373311297 0.16594048905382616 -0.047917784485310005 0.028640433906728269 0.2872430314503131 -0.0085276299572852009 0.10560607772878039 -0.053103128401955871 -0.13637568200010808 0.0054569571788648527 0.10235998574086905 -0.15789994237204055 -0.066975725604770234 0.086323890683675769 0.041239054832803372 -0.050187499036403765 0.25948119947325321 0.017080363865137317\u000aleaf_count=580 998 27 250 9552 150 5181 208 172 238 1324 3719 346 1427 76 462 678 22 2906 104 1957 31 3800 260 60 5638 178 2748 750 38 4607\u000ainternal_value=0 -0.0448831 -0.0508132 0.0440653 -0.134918 -0.0390947 -0.306016 -0.0562007 -0.0114246 -0.120203 0.0346697 0.177265 -0.0823565 0.271315 0.31808 0.049839 -0.356469 -0.379273 0.382803 -0.207394 -0.00805596 -0.0451843 0.129001 0.795788 -0.584569 0.260428 0.304273 -0.188846 1.83852 0.228134\u000ainternal_count=48487 47489 47462 19585 27877 16017 11860 15271 15437 10246 5043 5191 15099 962 4314 886 5203 10898 3852 4932 2975 13672 4120 320 5966 328 3602 854 69 4845\u000ashrinkage=0.1\u000a\u000a\u000aTree=24\u000anum_leaves=31\u000anum_cat=0\u000asplit_feature=1 3 32 42 30 2 8 18 20 22 5 0 4 22 9 4 35 2 10 44 9 8 16 14 2 11 7 25 18 5\u000asplit_gain=272.587 96.3567 93.8154 104.513 88.7147 107.457 89.9389 68.623 77.7506 91.5621 67.4866 72.855 72.3597 69.7495 73.3809 65.7132 64.6295 76.526 102.39 75.4375 70.6729 63.4105 105.933 118.947 62.6054 61.1943 64.9438 60.7129 60.6576 60.631\u000athreshold=1.0000000180025095e-35 2.5000000000000004 3.5000000000000004 1.0000000180025095e-35 1.0000000180025095e-35 12446.500000000002 28.500000000000004 3505.0000000000005 1.5000000000000002 1983.5000000000002 1663.5000000000002 2.5000000000000004 364.50000000000006 1122.0000000000002 1531137600.0000002 503.00000000000006 5.5000000000000009 21706.500000000004 121.50000000000001 1.0000000180025095e-35 1508068800.0000002 19.500000000000004 6.0000000000000009 5.5000000000000009 2004.5000000000002 195.50000000000003 5499.0000000000009 41.500000000000007 1564.0000000000002 1010.5000000000001\u000adecision_type=2 2 2 2 2 2 2 2 2 2 2 2 2 2 2 2 2 2 2 2 2 2 2 2 2 2 2 2 2 2\u000aleft_child=1 2 3 4 16 7 10 -6 -9 -10 11 12 21 14 27 25 -1 20 19 -19 24 22 23 -7 -18 -15 -27 28 -12 -26\u000aright_child=-2 -3 -4 -5 5 6 -8 8 9 -11 13 -13 -14 15 -16 -17 17 18 -20 -21 -22 -23 -24 -25 29 26 -28 -29 -30 -31\u000aleaf_value=-0.099144879270426159 0.066642648184212186 0.11484122031429145 -0.10620640674669375 0.076531975395291829 0.026951010304362966 -0.048182492806556794 -0.11748415643238815 -0.038293698679358092 -0.078253360031073027 0.033146853423292433 0.021879823035911475 0.039580888705050221 0.10129016638662305 -0.016504158437002734 -0.1057721523182516 -0.18057956815397977 0.14161372797262148 -0.095167555817927851 0.026631945080501675 0.22405737599804323 -0.010410730121549694 -0.053263476726461437 0.074446809564250455 0.30932851359240776 0.10988819540657997 0.024288807712426967 -0.026605910147915541 -0.043404986008256131 0.084866022664491364 -0.05626542812581347\u000aleaf_count=745 688 41 528 264 5769 1757 698 2075 399 1587 1199 367 58 8752 166 98 27 811 2593 26 4593 4258 449 20 77 3130 1872 337 542 4561\u000ainternal_value=0 -0.0361811 -0.0431411 -0.0352166 -0.0465404 0.004413 -0.0774795 0.158236 -0.049856 0.176207 -0.0627564 -0.24912 -0.327822 0.00316786 0.267715 -0.0618094 -0.199693 -0.170931 0.103085 -0.741411 -0.272911 -0.370011 -0.0556151 -0.368762 -0.482689 -0.0502425 0.114479 0.33691 0.440472 -0.519739\u000ainternal_count=48487 47799 47758 47230 46966 33533 23703 9830 4061 1986 23005 6909 6542 16096 2244 13852 13433 12688 3430 837 9258 6484 2226 1777 4665 13754 5002 2078 1741 4638\u000ashrinkage=0.1\u000a\u000a\u000aTree=25\u000anum_leaves=31\u000anum_cat=0\u000asplit_feature=1 12 3 32 42 15 9 40 18 28 44 38 5 25 35 37 30 38 18 2 18 4 10 19 9 9 25 22 24 20\u000asplit_gain=233.762 83.6751 81.1457 79.2398 86.0502 80.2712 88.4024 108.073 94.4092 84.6334 81.5501 67.698 65.7725 91.1457 64.8454 63.4985 63.4044 63.2748 70.1714 90.5977 64.8173 61.6677 63.0711 58.8927 57.4025 67.5547 84.2019 73.9447 71.4105 70.1518\u000athreshold=1.0000000180025095e-35 1.0000000180025095e-35 2.5000000000000004 3.5000000000000004 1.0000000180025095e-35 1.0000000180025095e-35 1504612800.0000002 4.5000000000000009 2179.5000000000005 1.0000000180025095e-35 1.0000000180025095e-35 32.500000000000007 1658.0000000000002 66.500000000000014 27.500000000000004 8.5000000000000018 1.0000000180025095e-35 9.5000000000000018 6593.5000000000009 18868.500000000004 270.00000000000006 86.500000000000014 242.50000000000003 4.5000000000000009 1491825600.0000002 1518696000.0000002 11.500000000000002 2927.0000000000005 1.0000000180025095e-35 2.5000000000000004\u000adecision_type=2 2 2 2 2 2 2 2 2 2 2 2 2 2 2 2 2 2 2 2 2 2 2 2 2 2 2 2 2 2\u000aleft_child=1 2 3 4 5 9 8 10 11 12 17 16 24 15 21 -14 -7 -8 20 -20 -19 22 -10 -24 -1 28 -27 29 -26 -28\u000aright_child=-2 -3 -4 -5 -6 6 7 -9 14 -11 -12 -13 13 -15 -16 -17 -18 18 19 -21 -22 -23 23 -25 25 26 27 -29 -30 -31\u000aleaf_value=-0.064416302974271131 0.063434183419051368 0.13436682279315412 0.10976347389567952 -0.10024406117985979 0.069883537966131989 -0.048001602065459253 -0.028679551891406769 -0.047487825697529448 -0.10488395955128738 0.047227358622808017 -0.066712700669285793 -0.10993830238377328 0.010060894720103377 -0.10422836701185743 -0.11978431026823813 -0.070561111635212864 0.026098396200602732 -0.11920432606095757 0.03781711104048964 -0.086052249222007063 0.026149379333064084 -0.019301374079450366 -0.0032308989175058203 -0.087508186321499148 0.093472024678298848 -0.094104179753448536 0.017123765430773461 0.09766335601689391 -0.0028580163010726205 -0.095624466803750419\u000aleaf_count=1312 688 25 40 528 263 854 1723 2903 1906 796 735 261 14044 368 608 414 1729 159 323 933 6236 3983 1039 951 229 1020 539 143 3265 470\u000ainternal_value=0 -0.0330997 -0.038332 -0.0445052 -0.0373178 -0.0475506 -0.140648 -0.0298023 -0.297546 0.0289784 0.0517171 0.00203134 -0.00189679 0.061929 -0.4473 0.0813201 0.0896682 0.0967789 0.16641 -0.33836 0.235743 -0.385721 -0.632516 -0.366052 -0.180155 -0.0989886 -0.407191 -0.0638264 0.0699789 -0.318053\u000ainternal_count=48487 47799 47774 47734 47206 46943 24343 13012 11331 22600 10109 2844 21804 14826 8487 14458 2583 9374 7651 1256 6395 7879 3896 1990 6978 5666 2172 1152 3494 1009\u000ashrinkage=0.1\u000a\u000a\u000aTree=26\u000anum_leaves=31\u000anum_cat=0\u000asplit_feature=1 34 8 24 5 22 11 35 35 26 9 6 18 10 7 8 21 20 10 21 7 21 43 11 20 35 35 9 5 18\u000asplit_gain=200.107 74.5646 85.304 144.107 86.4029 85.6007 81.3339 78.0663 78.0358 71.3205 69.2421 72.0441 65.8734 58.0719 57.3368 67.7065 55.0869 54.6334 54.1947 53.6307 53.1619 57.097 57.9551 58.2233 53.9677 51.7492 51.0843 58.6057 57.2348 78.129\u000athreshold=1.0000000180025095e-35 5.5000000000000009 7.5000000000000009 1.0000000180025095e-35 5402.5000000000009 1346.5000000000002 71.500000000000014 9.5000000000000018 20.500000000000004 59.500000000000007 1498564800.0000002 1883.0000000000002 1116.5000000000002 799.50000000000011 7.5000000000000009 27.500000000000004 5105.0000000000009 -1.0000000180025095e-35 1033.5000000000002 6025.0000000000009 44.500000000000007 6025.0000000000009 6.5000000000000009 159.50000000000003 5.5000000000000009 4.5000000000000009 8.5000000000000018 1515412800.0000002 5500.5000000000009 3867.5000000000005\u000adecision_type=2 2 2 2 2 2 2 2 2 2 2 2 2 2 2 2 2 2 2 2 2 2 2 2 2 2 2 2 2 2\u000aleft_child=1 2 3 8 9 7 26 -4 16 18 11 20 14 -13 -9 -16 -1 25 -5 -14 21 24 23 -23 -3 -18 27 28 -7 -30\u000aright_child=-2 10 5 4 -6 6 -8 12 -10 -11 -12 13 19 -15 15 -17 17 -19 -20 -21 -22 22 -24 -25 -26 -27 -28 -29 29 -31\u000aleaf_value=0.1927899201151814 0.060264101631988157 -0.10206032775901544 -0.081829498322820562 0.13501181385800939 0.01937605901915479 -0.034021921927461861 -0.020302503489965023 0.008155666045720834 0.033487996940034466 -0.14314789714713755 0.0097610296110158187 0.071084926219821293 -0.017029337816377475 -0.14872080819184699 -0.098820811533795794 0.098692191353793868 0.34555708897481274 -0.077270985068715686 -0.10407453487608645 0.037465322792151409 -0.052731916548025705 0.050383202572048938 -0.014813380755172204 -0.14554593717731154 -0.016029661554336033 -0.12812392218162241 -0.076245076878511078 -0.12485640150905011 0.31722655749836925 -0.018146273207563565\u000aleaf_count=20 688 574 565 365 967 201 11649 636 406 59 16221 425 985 71 743 49 20 1621 46 2422 2245 902 2192 93 752 31 3240 186 29 84\u000ainternal_value=0 -0.0303009 -0.12488 0.152283 0.510313 -0.188462 -0.295428 0.0147841 -0.293332 1.05529 0.0379888 -0.135243 0.083805 0.521102 -0.287461 -0.736508 -0.602025 -0.682724 1.21114 0.225318 -0.199188 -0.0956098 0.0387508 0.397642 -0.453047 1.6392 -0.636633 0.101926 0.644238 1.66254\u000ainternal_count=48487 47799 24324 3535 1437 20789 15389 5400 2098 470 23475 7254 4835 496 1428 792 1692 1672 411 3407 6758 4513 3187 995 1326 51 3740 500 314 113\u000ashrinkage=0.1\u000a\u000a\u000aTree=27\u000anum_leaves=31\u000anum_cat=0\u000asplit_feature=0 25 7 21 38 22 25 9 5 4 43 4 10 25 11 0 44 17 9 13 18 6 18 10 15 16 19 15 24 5\u000asplit_gain=174.969 74.8909 71.0047 80.7443 72.773 85.6386 85.3301 68.9572 66.2885 65.4546 65.3152 65.11 63.8576 61.8563 74.6815 70.8269 63.9207 59.5093 58.5388 58.2481 106.236 98.6342 85.7211 84.7094 81.6482 88.1943 81.0691 72.8227 108.894 78.3873\u000athreshold=4.5000000000000009 95.500000000000014 54999.000000000007 22517.500000000004 23.500000000000004 1346.5000000000002 9.5000000000000018 1483963200.0000002 8312.0000000000018 8.5000000000000018 5.5000000000000009 262.50000000000006 395.50000000000006 3.5000000000000004 327.50000000000006 1.0000000180025095e-35 1.0000000180025095e-35 4.5000000000000009 1507118400.0000002 14.500000000000002 4136.5000000000009 1900.5000000000002 9560.0000000000018 1399.5000000000002 -1.0000000180025095e-35 6.0000000000000009 1.5000000000000002 1.0000000180025095e-35 1.0000000180025095e-35 1790.0000000000002\u000adecision_type=2 2 2 2 2 2 2 2 2 2 2 2 2 2 2 2 2 2 2 2 2 2 2 2 2 2 2 2 2 2\u000aleft_child=1 2 9 17 7 6 -6 -5 10 13 -9 -11 18 14 15 -1 19 -4 -8 20 23 24 -23 -15 -21 27 -27 28 -26 -30\u000aright_child=-2 -3 3 4 5 -7 12 8 -10 11 -12 -13 -14 16 -16 -17 -18 -19 -20 21 -22 22 -24 -25 25 26 -28 -29 29 -31\u000aleaf_value=-0.058245820773856476 0.047426096583809023 -0.10031459567917583 0.029463478174046161 0.14087126237524283 -0.083504719544800668 -0.031503748980406691 -0.11952364319124065 -0.11569769655701144 0.091244179462223851 0.090558170596126419 -0.044023610618082402 0.0099910466844105299 0.044547447487477049 0.068731235566234686 0.076052991786632551 0.022742399498557789 -0.06089993385509615 -0.01460127356279175 0.25668105136504665 -0.022371396281067626 -0.017727473881271254 -0.080210714564335137 0.19135995380397292 -0.11987149564070704 0.1231119595539913 -0.15231241906555654 0.067295673135390408 -0.020165559083794624 -0.015680910835360006 0.044378672471253267\u000aleaf_count=3059 998 430 1490 63 229 3807 38 2298 108 169 1841 11647 313 1289 172 427 940 4581 38 4148 1646 1529 23 145 170 92 701 3445 1816 835\u000ainternal_value=0 -0.0334935 -0.0266424 -0.168979 -0.351663 -0.140504 0.546774 -0.62323 -0.684363 0.0179203 -0.761395 0.124006 0.973869 -0.0544529 -0.324199 -0.418772 -0.00920446 -0.00338322 2.06807 0.0153518 0.265303 -0.0405436 -0.662016 0.580338 0.00603685 0.118155 0.566366 0.0257816 0.207072 0.0988722\u000ainternal_count=48487 47489 47059 14806 8735 4425 618 4310 4247 32253 4139 11816 389 20437 3658 3486 16779 6071 76 15839 3080 12759 1552 1434 11207 7059 793 6266 2821 2651\u000ashrinkage=0.1\u000a\u000a\u000aTree=28\u000anum_leaves=31\u000anum_cat=0\u000asplit_feature=1 30 2 8 7 3 28 2 13 10 26 18 7 21 0 7 9 21 13 21 2 22 25 9 0 9 6 22 4 25\u000asplit_gain=153.649 69.7294 67.5456 83.3508 63.7518 63.0486 56.4417 55.7487 79.414 64.6422 55.4404 55.0265 58.2158 53.2487 52.0803 51.4568 50.9233 66.2096 97.7923 64.4232 59.0065 50.2868 63.1756 51.236 50.1188 75.274 59.9347 77.3333 67.1651 62.3662\u000athreshold=1.0000000180025095e-35 1.0000000180025095e-35 12446.500000000002 28.500000000000004 1.5000000000000002 2.5000000000000004 1.0000000180025095e-35 18402.500000000004 26.500000000000004 28.500000000000004 108.50000000000001 6350.5000000000009 5499.0000000000009 73498.000000000015 1.0000000180025095e-35 43.500000000000007 1519992000.0000002 73062.500000000015 22.500000000000004 73755.500000000015 12601.500000000002 1966.5000000000002 26.500000000000004 1516622400.0000002 2.5000000000000004 1509451200.0000002 7600.5000000000009 2533.5000000000005 292.50000000000006 84.500000000000014\u000adecision_type=2 2 2 2 2 2 2 2 2 2 2 2 2 2 2 2 2 2 2 2 2 2 2 2 2 2 2 2 2 2\u000aleft_child=1 4 10 5 -1 6 -4 8 11 -9 -3 12 16 14 -8 -13 21 18 -18 20 -19 22 23 -6 26 -26 27 29 -29 -11\u000aright_child=-2 2 3 -5 7 -7 13 9 -10 24 -12 15 -14 -15 -16 -17 17 19 -20 -21 -22 -23 -24 -25 25 -27 -28 28 -30 -31\u000aleaf_value=-0.1389635210836124 0.055064714900457959 0.010128294599908313 -0.0080774550250378718 -0.11724773987710529 0.0087240110467031364 0.11661547989136463 0.15714656296445309 -0.12338663970249951 -0.10554187327189653 0.007252085703153258 0.062301336380985874 -0.038902849634957062 -0.057152960476403517 -0.10801269397094851 0.022411513658082565 0.082277549099054881 -0.081755725742694546 0.26975932056443724 0.048043401595280096 -0.15989563224414466 0.072051700551141504 -0.087600949035855913 -0.073409661013105768 -0.14751093248806382 -0.14698984781794427 0.14113334057961138 0.085141519425435047 -0.080219420347695136 0.066750960390510761 0.17885888290679589\u000aleaf_count=264 688 9622 21318 709 1851 25 31 346 639 2514 406 246 2818 185 1895 270 551 35 303 51 168 734 787 128 47 66 264 1342 129 55\u000ainternal_value=0 -0.0262889 0.0183541 -0.0463854 -0.163046 -0.0331963 -0.0426732 -0.144554 -0.252873 0.0413114 0.139526 -0.196312 -0.254848 0.226489 0.286204 0.378882 -0.130919 0.198383 -0.0783076 0.932394 1.21756 -0.275966 -0.162736 0.0148462 0.0910312 0.934785 0.0304998 -0.0492382 -0.55476 0.134066\u000ainternal_count=48487 47799 34191 24163 13608 23454 23429 13344 8581 4763 10028 7942 7426 2111 1926 516 4608 1108 854 254 203 3500 2766 1979 4417 113 4304 4040 1471 2569\u000ashrinkage=0.1\u000a\u000a\u000aTree=29\u000anum_leaves=31\u000anum_cat=0\u000asplit_feature=0 12 15 4 26 7 24 34 34 9 4 5 5 22 10 21 25 28 38 25 2 22 10 6 17 17 17 11 11 29\u000asplit_gain=131.08 67.5288 67.9575 75.2927 70.8908 86.1511 76.9175 91.7999 72.2243 68.7206 68.7097 63.4646 109.947 81.1702 60.8663 58.2219 60.723 57.5804 54.7248 53.656 92.2496 53.7812 63.8142 73.9205 73.4702 66.3591 77.3446 86.8923 70.6699 69.475\u000athreshold=4.5000000000000009 1.0000000180025095e-35 1.0000000180025095e-35 411.50000000000006 109.50000000000001 33.500000000000007 1.0000000180025095e-35 4.5000000000000009 6.5000000000000009 1498824000.0000002 282.50000000000006 5520.0000000000009 5540.0000000000009 1983.5000000000002 426.50000000000006 22881.000000000004 41.500000000000007 1.0000000180025095e-35 38.500000000000007 27.500000000000004 30202.500000000004 1412.5000000000002 669.50000000000011 1190.5000000000002 5.5000000000000009 4.5000000000000009 3.5000000000000004 222.50000000000003 8.5000000000000018 29.500000000000004\u000adecision_type=2 2 2 2 2 2 2 2 2 2 2 2 2 2 2 2 2 2 2 2 2 2 2 2 2 2 2 2 2 2\u000aleft_child=1 2 10 4 5 6 7 11 -9 -8 19 -4 13 -13 -7 -16 -17 -14 -10 21 -21 -1 24 -24 25 26 28 29 -23 -28\u000aright_child=-2 -3 3 -5 -6 14 9 8 18 -11 -12 12 17 -15 15 16 -18 -19 -20 20 -22 22 23 -25 -26 -27 27 -29 -30 -31\u000aleaf_value=0.019994583784180543 0.042382253116875462 0.12331597771414565 -0.087375145007300425 0.051457669450131596 0.053639776311737442 -0.044503125877464127 -0.022053294433998134 0.052042721131655756 -0.013236300915694697 0.025385121066412115 0.043025096379860496 0.3196777110205834 -0.070411175750172458 -0.11832548212529055 -0.040830501276124705 0.020996448044176212 -0.085676677656126646 0.084936147135898393 -0.16520019890819451 -0.024561566601709106 0.13318378392910588 0.11050017953904996 0.23851678655678399 0.029572372771929457 0.031227111923805707 -0.030317355447877517 -0.02115204703715011 0.11074517574651715 -0.019702977661390467 0.17071408173995961\u000aleaf_count=4767 998 27 2401 316 297 8986 2076 614 745 3218 882 38 855 52 1872 2459 376 93 126 4312 92 104 30 883 1178 6081 546 217 3815 31\u000ainternal_value=0 -0.0288739 -0.0336725 -0.121323 -0.145367 -0.167281 -0.0323198 -0.264245 0.065238 0.10994 0.036123 -0.578599 -0.104535 2.01434 -0.306135 -0.112742 0.0952343 -0.402683 -0.301418 0.00793256 -0.190604 0.0547602 -0.0245634 0.431697 -0.0708772 -0.140819 0.0354791 0.466363 -0.126021 0.0190661\u000ainternal_count=48487 47489 47462 24524 24208 23911 10218 4924 1485 5294 22938 3439 1038 90 13693 4707 2835 948 871 22056 4404 17652 12885 913 11972 10794 4713 794 3919 577\u000ashrinkage=0.1\u000a\u000a\u000aTree=30\u000anum_leaves=31\u000anum_cat=0\u000asplit_feature=1 32 33 25 16 23 5 19 6 6 9 44 21 19 21 36 15 9 6 8 18 9 10 10 35 18 15 25 10 10\u000asplit_gain=118.096 64.5441 63.0915 69.7315 62.873 75.4842 122.528 85.1691 96.299 76.5381 73.497 65.3585 66.3622 63.8946 72.9572 63.5603 62.5915 65.6168 59.1695 83.5759 96.9159 59.2254 72.8382 60.9031 60.7579 72.4947 60.6664 79.964 59.4944 71.5092\u000athreshold=1.0000000180025095e-35 3.5000000000000004 1.0000000180025095e-35 95.500000000000014 6.0000000000000009 2.5000000000000004 1857.0000000000002 -1.0000000180025095e-35 5148.0000000000009 1827.0000000000002 1530187200.0000002 1.0000000180025095e-35 74291.500000000015 1.5000000000000002 5882.5000000000009 4.5000000000000009 1.0000000180025095e-35 1506686400.0000002 1406.5000000000002 21.500000000000004 3910.5000000000005 1493294400.0000002 546.50000000000011 1004.5000000000001 28.500000000000004 9637.5000000000018 1.0000000180025095e-35 74.500000000000014 548.50000000000011 638.50000000000011\u000adecision_type=2 2 2 2 2 2 2 2 2 2 2 2 2 2 2 2 2 2 2 2 2 2 2 2 2 2 2 2 2 2\u000aleft_child=1 2 3 4 11 7 9 -6 10 13 -9 12 18 14 -7 -8 -15 -18 19 -1 -21 22 -20 -24 26 -26 28 -28 -23 -30\u000aright_child=-2 -3 -4 -5 5 6 15 8 -10 -11 -12 -13 -14 16 -16 -17 17 -19 21 20 -22 24 23 -25 25 -27 27 -29 29 -31\u000aleaf_value=-0.067505020517830125 0.050142133847433101 -0.091168618595900419 0.030140481279166464 -0.10879109695085065 0.060709214558069415 0.11578566782001834 -0.069783998468224168 -0.050800817505386953 0.055553861591841405 0.094394064505955458 0.043786997523991456 -0.051317551483656236 -0.070139967165811709 0.071295554635564876 -0.15711592439889918 0.026429509965835797 -0.033838930871767481 0.044818980164997746 -0.038825195934892816 -0.081820007106639364 0.11555272871904632 0.023762192773424146 0.035666327994275389 -0.043674240472609469 -0.040096685706892961 0.14960812145760119 -0.0085285075962869446 0.1312021406183384 -0.074550501507258851 0.0047544517573824083\u000aleaf_count=1870 688 529 1367 380 464 20 975 2690 348 314 269 1906 1145 505 188 360 614 540 4894 190 145 7751 1180 753 1886 26 12831 103 598 2958\u000ainternal_value=0 -0.0228631 -0.0164319 -0.0341389 -0.0279072 0.119992 0.276535 -0.0934467 -0.220635 0.438399 -0.373996 -0.0681772 -0.0504757 0.28986 -0.816423 -0.304285 0.363175 0.120971 -0.0376997 -0.409422 0.365542 -0.0173608 -0.212674 0.110438 0.0235051 -0.317819 0.0525138 -0.0623451 0.145904 -0.0620464\u000ainternal_count=48487 47799 47270 45903 45523 7287 3516 3771 3307 2181 2959 38236 36330 1867 208 1335 1659 1154 35185 2205 335 32980 6827 1933 26153 1912 24241 12934 11307 3556\u000ashrinkage=0.1\u000a\u000a\u000aTree=31\u000anum_leaves=31\u000anum_cat=0\u000asplit_feature=1 3 32 42 19 10 25 44 32 21 9 21 11 32 35 2 22 8 18 21 11 8 4 9 2 5 6 7 35 14\u000asplit_gain=100.175 61.3265 59.513 57.6652 55.888 158.108 70.4402 68.4404 61.859 59.3173 68.2025 57.2167 143.501 56.0754 72.1262 74.3328 54.9088 53.2176 52.4475 62.9828 62.1668 53.1576 52.2854 51.623 51.2694 63.4874 58.2227 53.6697 67.3487 53.6346\u000athreshold=1.0000000180025095e-35 2.5000000000000004 3.5000000000000004 1.0000000180025095e-35 3.5000000000000004 90.500000000000014 39.500000000000007 1.0000000180025095e-35 1.0000000180025095e-35 6050.0000000000009 1498564800.0000002 6095.0000000000009 83.500000000000014 1.0000000180025095e-35 10.500000000000002 24094.500000000004 2115.5000000000005 28.500000000000004 2179.5000000000005 9115.0000000000018 127.50000000000001 9.5000000000000018 354.00000000000006 1528372800.0000002 2004.5000000000002 1427.5000000000002 1875.5000000000002 44.500000000000007 17.500000000000004 6.5000000000000009\u000adecision_type=2 2 2 2 2 2 2 2 2 2 2 2 2 2 2 2 2 2 2 2 2 2 2 2 2 2 2 2 2 2\u000aleft_child=1 2 3 4 6 -6 8 9 22 10 -7 12 -11 17 16 -16 -15 18 20 -20 -13 -22 24 -12 25 -1 -27 29 -29 -26\u000aright_child=-2 -3 -4 -5 5 7 -8 -9 -10 11 23 13 -14 14 15 -17 -18 -19 19 -21 21 -23 -24 -25 27 26 -28 28 -30 -31\u000aleaf_value=-0.15519604746613844 0.047192286928662529 0.10171420363320596 -0.090781288952769046 0.05985081137219888 -0.08096004188630232 -0.12706678437485772 -0.030931108353233684 -0.082573350195647932 -0.049763163138805876 0.31340824193766559 -0.0010362179763022572 -0.021480730047703983 -0.13197046743922936 0.2931240435903944 -0.052654774589712086 0.14264875484821121 -0.13462654927007076 -0.11297990691417603 -0.11731111797288173 -0.0049054764858971478 -0.1082003360714907 0.074572261033297615 0.059916165517813695 -0.13925648132217025 0.010836991912142137 0.11941735603641111 -0.16046914391431455 -0.037370106814047725 0.0023919129598479641 -0.095479296267688543\u000aleaf_count=59 688 41 528 264 3212 618 2494 837 1078 27 1000 684 82 34 287 95 35 491 331 9518 100 707 253 200 14882 119 41 3736 5790 256\u000ainternal_value=0 -0.0209576 -0.02622 -0.0201762 -0.0285781 -0.136803 0.0186051 -0.0660817 0.0467888 -0.0361186 -0.441786 0.014429 1.38036 -0.00185584 0.718149 0.271734 2.27537 -0.0324947 -0.0126034 -0.0777116 0.323773 0.620992 0.0629778 -0.185062 0.048671 0.719948 0.969765 0.0371664 -0.0999392 0.097141\u000ainternal_count=48487 47799 47758 47230 46966 18258 28708 15046 26214 14209 1818 12391 109 12282 451 382 69 11831 11340 9849 1491 807 25136 1200 24883 219 160 24664 9526 15138\u000ashrinkage=0.1\u000a\u000a\u000aTree=32\u000anum_leaves=31\u000anum_cat=0\u000asplit_feature=0 12 20 17 22 18 10 18 2 9 6 2 21 25 41 19 13 43 9 17 21 11 14 44 13 10 22 6 5 2\u000asplit_gain=85.4217 55.0803 53.0737 97.204 69.4386 62.8017 59.7273 87.0759 56.8408 69.7868 55.1096 61.787 60.6812 58.808 57.226 55.9849 62.3294 52.6955 52.2021 57.8377 55.3673 56.8394 52.0385 51.6184 79.8752 51.207 55.7446 51.5914 50.0364 49.2048\u000athreshold=4.5000000000000009 1.0000000180025095e-35 5.5000000000000009 4.5000000000000009 4453.5000000000009 347.50000000000006 327.50000000000006 1923.0000000000002 28694.500000000004 1489579200.0000002 8528.5000000000018 28377.500000000004 20252.500000000004 22.500000000000004 1.0000000180025095e-35 4.5000000000000009 8.5000000000000018 8.5000000000000018 1491307200.0000002 5.5000000000000009 5995.0000000000009 197.50000000000003 1.5000000000000002 1.0000000180025095e-35 25.500000000000004 1127.5000000000002 615.00000000000011 7169.5000000000009 4752.0000000000009 24096.000000000004\u000adecision_type=2 2 2 2 2 2 2 2 2 2 2 2 2 2 2 2 2 2 2 2 2 2 2 2 2 2 2 2 2 2\u000aleft_child=1 2 4 22 5 -1 7 8 9 -7 11 13 -12 14 15 -5 -17 -11 -9 -20 -21 -22 25 -8 -25 27 -27 -4 -2 -15\u000aright_child=28 -3 3 10 -6 6 23 18 -10 17 12 -13 -14 29 -16 16 -18 -19 19 20 21 -23 -24 24 -26 26 -28 -29 -30 -31\u000aleaf_value=-0.088142158213661545 0.047498498612713019 0.11562165439330203 0.04108132106314432 0.013146622339007347 -0.088640122231542037 -0.11827730315474816 0.0049453927698683234 -0.063900643401687052 0.16948493571036002 0.044469884648288341 0.10690106753337575 -0.051726785926932473 -0.0067209554909193892 -0.016577520598015736 -0.072759357509742703 0.086828937868351927 -0.065576052774355423 -0.099971616178719358 -0.027326324327656321 -0.05955220832182382 -0.019238735981942142 0.10148457946625214 -0.041743228838874456 -0.10325278840980773 0.076063005421934698 0.070937509911554855 -0.11839603828710002 -0.064659870674160264 -0.032186895776939554 -0.092410138971430134\u000aleaf_count=549 783 27 3361 7515 686 187 12735 2436 45 836 168 1736 308 3163 398 167 1249 132 8759 238 240 211 462 719 104 55 221 215 215 567\u000ainternal_value=0 -0.0233603 -0.0276228 0.045697 -0.0939389 -0.0786506 -0.0647378 -0.187635 0.264292 0.15386 -0.0380047 -0.0656808 0.489629 -0.0275243 0.0532098 0.0834992 -0.417569 0.310173 -0.271219 -0.198259 0.276763 0.563498 0.269718 0.0231903 -0.586807 0.323426 -0.519678 0.369866 0.356921 -0.247827\u000ainternal_count=48487 47489 47462 19585 27877 27191 26642 13084 1200 1155 15271 14795 476 13059 9329 8931 1416 968 11884 9448 689 451 4314 13558 823 3852 276 3576 998 3730\u000ashrinkage=0.1\u000a\u000a\u000aTree=33\u000anum_leaves=31\u000anum_cat=0\u000asplit_feature=1 3 32 33 25 2 5 30 25 18 9 10 10 5 2 16 8 21 2 6 6 10 9 20 2 22 4 9 13 28\u000asplit_gain=78.021 53.4178 50.2798 50.9246 56.4457 49.7731 61.484 47.2316 66.8015 57.2355 68.9133 57.4193 74.1348 109.994 101.468 66.2827 54.8665 82.656 60.2778 57.4217 51.7764 64.6546 50.2783 48.5645 46.9228 80.8431 57.4334 56.3276 71.5896 68.4932\u000athreshold=1.0000000180025095e-35 2.5000000000000004 3.5000000000000004 1.0000000180025095e-35 95.500000000000014 2004.5000000000002 1427.5000000000002 1.0000000180025095e-35 80.500000000000014 1409.5000000000002 1527422400.0000002 378.50000000000006 426.50000000000006 1881.5000000000002 6812.5000000000009 6.0000000000000009 21.500000000000004 73498.000000000015 36748.500000000007 1438.0000000000002 1616.0000000000002 912.50000000000011 1522843200.0000002 5.5000000000000009 20859.500000000004 3776.0000000000005 354.00000000000006 1527163200.0000002 5.5000000000000009 1.0000000180025095e-35\u000adecision_type=2 2 2 2 2 2 2 2 2 2 2 2 2 2 2 2 2 2 2 2 2 2 2 2 2 2 2 2 2 2\u000aleft_child=1 2 3 4 5 6 -1 8 9 10 23 -11 13 15 -14 -13 -16 18 19 -18 -21 -22 -10 -7 26 27 -9 -26 -29 -30\u000aright_child=-2 -3 -4 -5 -6 7 -8 24 22 11 -12 12 14 -15 16 -17 17 -19 -20 20 21 -23 -24 -25 25 -27 -28 28 29 -31\u000aleaf_value=-0.14577660363061448 0.042931709329498649 0.09796787087158626 -0.085419889969369778 0.027067169306910496 -0.10248074180241747 -0.13475575813134719 0.076687939642343411 0.003948457181005202 -0.028094458168764044 -0.028219337361045867 0.036189019532873311 -0.083339282560611683 -0.061581829685504935 0.16048940332748618 -0.016791587276911889 0.11507001080022466 -0.13722757421044571 -0.14656804536957024 0.20804366932892787 0.20501122577956279 0.06519462349766085 -0.039767635264911116 0.21409840769709132 -0.045831037296580689 -0.012876951213362978 -0.068325101735396618 0.068480434465102533 0.13440639948414018 -0.0087739909373718301 0.1002540290837316\u000aleaf_count=86 688 41 528 1366 380 664 249 19016 79 6375 189 271 1300 196 1848 51 112 130 27 42 647 333 20 755 9523 1767 214 99 1360 131\u000ainternal_value=0 -0.0184686 -0.0232852 -0.0178128 -0.0338822 -0.0284079 0.555023 -0.0366518 -0.154817 -0.174269 -0.56507 -0.11579 0.0426074 0.710736 -0.0568115 -0.140199 0.130026 0.382932 0.496462 0.393902 0.487197 0.387112 1.19698 -0.793131 0.00251908 -0.109299 0.0572749 -0.0533874 0.27212 0.117402\u000ainternal_count=48487 47799 47758 47230 45864 45484 335 45149 13039 12940 1608 11332 4957 518 4439 322 3139 1291 1161 1134 1022 980 99 1419 32110 12880 19230 11113 1590 1491\u000ashrinkage=0.1\u000a\u000a\u000aTree=34\u000anum_leaves=31\u000anum_cat=0\u000asplit_feature=1 14 20 33 25 15 4 4 9 10 2 22 11 24 2 21 10 21 18 5 4 21 2 22 22 2 35 36 2 11\u000asplit_gain=65.8093 49.0906 57.8807 54.3058 51.0763 48.6463 58.8555 71.6292 62.846 75.6382 73.0955 76.9617 74.8178 64.0219 62.4137 61.8829 85.2747 60.4043 59.8353 78.104 54.7656 47.2605 68.3035 46.9912 46.4873 46.3515 81.8749 45.3419 44.4543 43.659\u000athreshold=1.0000000180025095e-35 7.5000000000000009 -1.0000000180025095e-35 1.0000000180025095e-35 95.500000000000014 1.0000000180025095e-35 8.5000000000000018 262.50000000000006 1511352000.0000002 244.50000000000003 9646.5000000000018 3186.5000000000005 227.50000000000003 1.0000000180025095e-35 5942.5000000000009 21986.500000000004 97.500000000000014 73545.000000000015 1765.5000000000002 1756.0000000000002 282.50000000000006 6035.0000000000009 18122.500000000004 2276.0000000000005 878.50000000000011 5510.0000000000009 8.5000000000000018 4.5000000000000009 2132.5000000000005 16.500000000000004\u000adecision_type=2 2 2 2 2 2 2 2 2 2 2 2 2 2 2 2 2 2 2 2 2 2 2 2 2 2 2 2 2 2\u000aleft_child=1 3 -3 4 5 20 8 -8 9 18 14 12 -12 -14 25 -9 -17 -18 19 -7 29 22 -22 -15 -21 -10 -27 -16 -11 -1\u000aright_child=-2 2 -4 -5 -6 6 7 15 10 28 11 -13 13 23 27 16 17 -19 -20 24 21 -23 -24 -25 -26 26 -28 -29 -30 -31\u000aleaf_value=0.033292721447110867 0.040174411889310986 0.12489116030239165 -0.10637840899834294 0.029097785629210466 -0.098436103552580451 -0.13266536113769814 0.083971741250355003 0.012620817105259514 0.044719123468729922 -0.14049795509181517 -0.033573907892765951 -0.12210434317265376 -0.089025629239883108 0.035093388731852034 0.26681191520679443 -0.088107453935345095 -0.0029326362473051639 -0.096077476836810255 -0.097383886844751119 -0.013598297249827264 0.026379287567813145 0.057764187589934547 -0.1808247896391747 0.166148149309886 0.1719875934259979 0.25352942655343441 -0.10032305290250897 0.026468307930527485 -0.01481681189050009 -0.0012806381177294258\u000aleaf_count=1300 688 34 502 1277 393 196 178 4765 670 195 2022 685 175 256 26 1456 5481 514 2750 147 121 631 99 105 43 31 325 39 3664 19719\u000ainternal_value=0 -0.0169465 -0.746596 -0.0108613 -0.0272697 -0.0221381 -0.099157 -0.000657413 -0.229783 -0.39145 -0.0320997 -0.232918 -0.101908 0.50765 0.379331 -0.0333416 -0.187855 -0.0913917 -0.756914 -0.0148565 0.0389223 0.398741 -0.271561 0.822344 0.693247 0.214685 -0.558912 1.68569 -0.20013 0.012543\u000ainternal_count=48487 47799 536 47263 45986 45593 23723 12394 11329 6995 4334 3243 2558 536 1091 12216 7451 5995 3136 386 21870 851 220 361 190 1026 356 65 3859 21019\u000ashrinkage=0.1\u000a\u000a\u000aTree=35\u000anum_leaves=31\u000anum_cat=0\u000asplit_feature=1 12 3 5 5 24 8 9 29 11 10 9 21 2 8 9 9 18 10 8 30 44 22 18 19 18 18 10 5 10\u000asplit_gain=55.4087 48.0081 44.7232 41.6093 104.222 63.04 67.2576 51.9991 50.3327 55.2016 49.6231 55.4202 53.125 52.5236 50.9891 72.9737 75.5249 61.3616 56.5886 55.6509 55.3712 51.5138 52.2773 50.6107 48.3165 45.6727 72.9359 56.3497 45.0344 74.7537\u000athreshold=1.0000000180025095e-35 1.0000000180025095e-35 2.5000000000000004 4614.0000000000009 5186.5000000000009 1.0000000180025095e-35 7.5000000000000009 1497268800.0000002 23.500000000000004 228.50000000000003 777.50000000000011 1527768000.0000002 73180.500000000015 5346.0000000000009 12.500000000000002 1508760000.0000002 1500638400.0000002 4749.5000000000009 242.50000000000003 4.5000000000000009 1.0000000180025095e-35 1.0000000180025095e-35 382.00000000000006 3016.0000000000005 4.5000000000000009 1817.5000000000002 3686.0000000000005 547.50000000000011 1653.5000000000002 28.500000000000004\u000adecision_type=2 2 2 2 2 2 2 2 2 2 2 2 2 2 2 2 2 2 2 2 2 2 2 2 2 2 2 2 2 2\u000aleft_child=1 2 3 8 5 -5 -7 -8 28 -10 14 13 23 -12 17 16 -16 21 24 20 -19 22 -6 -13 -18 -24 -27 -28 29 -1\u000aright_child=-2 -3 -4 4 10 6 7 -9 9 -11 11 12 -14 -15 15 -17 18 19 -20 -21 -22 -23 25 -25 -26 26 27 -29 -30 -31\u000aleaf_value=-0.081021421130311536 0.037508614316287353 0.11276818367776534 0.093642910424114045 -0.099590344478417164 -0.14825425035891512 0.13423759382803391 0.043462602463348356 -0.065550412105675512 0.093166587272273615 -0.059794729583350872 -0.14731785319931259 -0.14659985192940703 0.26436439988259941 0.022722559490874365 -0.0034878345566761166 -0.07047278703313456 0.20426644940052432 0.093853059020303733 -0.0059134752878687606 -0.082778763058786883 -0.048139607481982212 -0.11926772531829902 0.0638301916364621 0.1062818273694367 0.51091201063912894 -0.051815961340487021 0.064796731579075742 -0.1406865978120076 0.0039463792794549582 -0.0075086576447771615\u000aleaf_count=1150 688 25 40 1854 129 72 320 1368 315 136 125 55 21 955 187 217 31 110 42 1912 372 280 338 88 29 791 605 95 23991 12146\u000ainternal_value=0 -0.0156406 -0.0194552 -0.0237197 -0.16414 -0.566251 -0.255659 -0.409157 0.00340983 0.600431 -0.0175854 0.310956 1.09641 0.103042 -0.134116 0.535673 1.11477 -0.213681 2.06333 -0.536342 0.0109107 0.00869348 0.093389 0.61301 2.76593 0.163531 -0.0489327 0.447992 -0.00580011 -0.116167\u000ainternal_count=48487 47799 47774 47734 9996 3614 1760 1688 37738 451 6382 1244 164 1080 5138 506 289 4632 102 2394 482 2238 1958 143 60 1829 1491 700 37287 13296\u000ashrinkage=0.1\u000a\u000a\u000aTree=36\u000anum_leaves=31\u000anum_cat=0\u000asplit_feature=30 7 2 13 10 0 35 2 20 41 5 22 35 10 10 26 5 35 8 20 22 22 5 4 9 43 35 13 11 24\u000asplit_gain=49.5709 54.5196 47.521 68.075 54.4787 47.4638 46.3946 45.826 41.7207 87.9968 74.743 67.6949 57.7308 74.5673 68.5341 56.766 50.2505 47.5547 52.5055 61.9142 63.4346 63.7146 75.725 64.77 57.6373 54.6255 50.1492 50.064 60.0039 61.0808\u000athreshold=1.0000000180025095e-35 1.5000000000000002 18402.500000000004 26.500000000000004 28.500000000000004 4.5000000000000009 4.5000000000000009 18118.500000000004 5.5000000000000009 2.5000000000000004 1082.5000000000002 3814.5000000000005 16.500000000000004 456.50000000000006 1308.5000000000002 105.00000000000001 1037.5000000000002 7.5000000000000009 22.500000000000004 1.5000000000000002 341.50000000000006 826.50000000000011 1218.5000000000002 269.50000000000006 1491307200.0000002 7.5000000000000009 23.500000000000004 16.500000000000004 327.50000000000006 1.0000000180025095e-35\u000adecision_type=2 2 2 2 2 2 2 2 2 2 2 2 2 2 2 2 2 2 2 2 2 2 2 2 2 2 2 2 2 2\u000aleft_child=1 -1 3 7 -4 8 -6 -3 11 10 -10 17 13 15 -15 -12 -13 -2 19 20 -19 24 23 -23 -22 -20 -26 28 -24 -30\u000aright_child=5 2 4 -5 6 -7 -8 -9 9 -11 12 16 -14 14 -16 -17 -18 18 25 -21 21 22 27 -25 26 -27 -28 -29 29 -31\u000aleaf_value=-0.13166520800926348 0.037837427577927477 -0.011447628967810618 -0.12298294682090286 -0.097183913336371747 -0.1197605835765172 0.034337817659207036 0.014812084602333041 -0.09022437784532078 -0.10877513815300262 -0.090038820030985844 -0.045609044134048024 0.16978888347985341 0.019611108638173506 0.034780180490710459 -0.090304991763309889 0.09469647550500912 -0.072669230743817079 -0.13068564555672835 0.01922270547337732 -0.11353584503472541 -0.11965585319142301 -0.018404696391548233 -0.014436217133391445 0.13582740542329733 0.094698684855820836 -0.012529496566951709 -0.089233620094125762 -0.045058288714911458 -0.12831785284785455 0.15537326352279215\u000aleaf_count=266 1290 7515 347 646 256 795 4203 522 330 371 2564 26 9259 1415 277 60 1451 347 4172 469 113 368 2562 206 318 3695 85 4389 76 94\u000ainternal_value=0 -0.120192 -0.103499 -0.205531 0.0695056 0.0344785 0.111488 -0.153071 0.0166152 0.0895847 0.11186 -0.0536988 0.127826 -0.0916924 0.206537 -0.365318 -0.619053 -0.0247839 -0.0547249 -0.199371 -0.154974 -0.11626 -0.192299 0.603356 0.492597 0.0442573 0.715921 -0.270092 -0.0212028 1.0188\u000ainternal_count=48487 13755 13489 8683 4806 34732 4459 8037 33937 14276 13905 19661 13575 4316 1692 2624 1477 18184 16894 9027 8558 8211 7695 574 516 7867 403 7121 2732 170\u000ashrinkage=0.1\u000a\u000a\u000aTree=37\u000anum_leaves=31\u000anum_cat=0\u000asplit_feature=12 3 8 2 11 38 6 21 14 7 35 15 