ccopy_reg
_reconstructor
p0
(chypopt.model_selection
GridSearch
p1
c__builtin__
object
p2
Ntp3
Rp4
(dp5
Vmodel
p6
g0
(clightgbm.sklearn
LGBMClassifier
p7
g2
Ntp8
Rp9
(dp10
Vboosting_type
p11
Vgbdt
p12
sVobjective
p13
NsVnum_leaves
p14
L31L
sVmax_depth
p15
L-1L
sVlearning_rate
p16
F0.1
sVn_estimators
p17
L60L
sVsubsample_for_bin
p18
L200000L
sVmin_split_gain
p19
F0.0
sVmin_child_weight
p20
F0.001
sVmin_child_samples
p21
L20L
sVsubsample
p22
F1.0
sVsubsample_freq
p23
L0L
sVcolsample_bytree
p24
F1.0
sVreg_alpha
p25
F0.0
sVreg_lambda
p26
F0.0
sVrandom_state
p27
L0L
sVn_jobs
p28
L-1L
sVsilent
p29
I00
sVimportance_type
p30
Vsplit
p31
sV_Booster
p32
g0
(clightgbm.basic
Booster
p33
g2
Ntp34
Rp35
(dp36
Vhandle
p37
Vtree\u000aversion=v2\u000anum_class=1\u000anum_tree_per_iteration=1\u000alabel_index=0\u000amax_feature_idx=151\u000aobjective=binary sigmoid:1\u000afeature_names=cond_04 cond_05 cond_06 cond_09 cond_11 cond_12 cond_32 cond_37 cond_C1 cond_C10 cond_C11 cond_C12 cond_C13 cond_C14 cond_C15 cond_C16 cond_C17 cond_C18 cond_C19 cond_C2 cond_C20 cond_C21 cond_C3 cond_C4 cond_C5 cond_C6 cond_C7 cond_C8 cond_C9 total_condicion es_gte_5 preg_1 preg_2 preg_3 preg_4 preg_5 preg_6 preg_7 preg_8 preg_9 preg_10 preg_11 preg_12 preg_15 preg_16 preg_18 preg_19 preg_22 preg_24 preg_27 preg_28 preg_30 preg_31 preg_32 preg_33 preg_34 preg_36 preg_37 CATASTROFICO CERRADURA_BAUL CERRADURA_DERECHA CERRADURA_IZQUIERDA CODIGO_BAJA CODIGO_CARATULA CODIGO_REAPERTURA CODIGO_VEHICULO COD_CAUSA_SINI COD_POST_OCURRENCIA COD_POST_POLIZA COD_POST_TERC COD_RAMO_sini COD_RIES_sini CONDICION_ROBO_EXP50 DANOS_MATERIALES DESCRIPCION_TIPO ESTADO_CIVIL ESTADO_CIVIL_TERC ESTAD_VEH_ASEG FALTANTE MCA_COASEG MCA_JUICIO MCA_VIP METRO OCUPACION_ASEG SEXO SEXO_TERC TELEFONO_TERC TIPO TIPO_EXPED TIPO_LESION TIPO_LESION_MAXIMA TIPO_SINIESTRO USO dias_entre_denu_y_sini dist_fformal_fsini dist_fformal_fdenu existe_FECHA_FORMAL CANT_RENOVACION CAPITAL_ACCESORIOS CAPITAL_ASEGURADO_COTIZACION CAPITAL_VEHICULO COD_COBRO COD_COBRO_ANTERIOR COD_PROD COD_ZONA_CASCO COD_ZONA_RC COD_ZONA_ROBO CONV_COMISIONARIO CIF_ID MCA_AGRAVANTE MCA_EMPLEADO MCA_MOVIMIENTO MCA_POLIZA_VIP NEGOCIO PRENDARIO SEGMENTO cambio_cobro ANTIG_pol COD_EST_CIVIL TIPO_ACTIVIDAD CLIENTE CODIGO_NACION DATECO_TIPO_ACTIVIDAD DOMICILIO_CODIGO_POSTAL HABILITADO FECHA_SINI_Year FECHA_SINI_Month FECHA_SINI_Week FECHA_SINI_Day FECHA_SINI_Dayofweek FECHA_SINI_Dayofyear FECHA_SINI_Is_month_end FECHA_SINI_Is_month_start FECHA_SINI_Is_quarter_end FECHA_SINI_Is_quarter_start FECHA_SINI_Is_year_end FECHA_SINI_Is_year_start FECHA_SINI_Hour FECHA_SINI_Minute FECHA_SINI_Second FECHA_SINI_Elapsed cant_pol cant_sini_1y COD_POST_POLIZA_DP_CLUSTER_2019 COD_POST_POLIZA_RT_CLUSTER_2019 COD_POST_POLIZA_RC_CLUSTER_2019 COD_POST_OCURRENCIA_DP_CLUSTER_2019 COD_POST_OCURRENCIA_RT_CLUSTER_2019 COD_POST_OCURRENCIA_RC_CLUSTER_2019 COD_POST_TERC_DP_CLUSTER_2019 COD_POST_TERC_RT_CLUSTER_2019 COD_POST_TERC_RC_CLUSTER_2019\u000afeature_infos=[-1:2] [-1:0] [-1:0] [-1:3] [-1:1] [-1:3] [-1:2] [-1:5] [-1:3] [-1:5] [-1:5] [-1:3] [-1:5] [-1:5] [-1:1] [-1:1] [-1:1] [-1:5] [-1:5] [-1:3] [-1:5] [-1:0] [-1:0] [-1:3] [-1:2] [-1:3] [-1:3] [-1:1] [-1:3] [0:15] [0:1] [-1:4] [-1:6] [-1:1] [-1:2] [-1:1] [-1:4] [-1:34] [-1:3] [-1:5] [-1:2] [-1:3] [-1:5] [-1:5] [-1:4] [-1:4] [-1:4] [-1:826] [-1:1] [-1:10782] [-1:11390] [-1:1] [-1:1] [-1:1] [-1:1] [-1:659] [-1:4673] [-1:4] [0:1] [-1:1] [-1:1] [-1:1] [-1:99] [-1:27] [-1:5] [-1:98618] [4:508] [1:9420] [1000:9420] [-1:9420] [1:9] [1:997] [-1:8] [0:38282] [-1:25] [-1:9] [-1:8] [-1:5] [0:1] [0:1] [-1:2] [0:1] [0:1] [-1:99999] [-1:1] [-1:1] [-1:88296] [-1:41] [0:6] [-1:2] [-1:2] [0:9] [-1:37] [0:478] [-5894:579] [-5894:576] [0:1] [-1:221] [-1:204] [-1:5010] [-1:10133] [-1:5] [-1:5] [-1:99020] [-1:24] [-1:31] [-1:31] [-1:107] [-1:22887979] [-1:1] [-1:1] [-1:0] [-1:1] [-1:75] [-1:1] [-1:6] [-1:1] [-1:8615] none [-1:239] [-1:1] [-1:2] [-1:152] [-1:9420016] [-1:1] [2018:2019] [1:12] [1:52] [1:31] [0:6] [1:365] [0:1] [0:1] [0:1] [0:1] [0:1] [0:1] none none none [1514764800:1548892800] [0:39] [0:4441] [1:30] [1:10] [1:30] [-1:30] [-1:10] [-1:30] [-1:30] [-1:10] [-1:30]\u000atree_sizes=2536 2564 2558 2570 2587 2597 2572 2577 2594 2593 2578 2595 2600 2601 2581 2575 2579 2595 2588 2628 2578 2504 2619 2614 2610 2625 2624 2579 2601 2589 2605 2611 2624 2547 2587 2612 2600 2593 2631 2583 2651 2611 2650 2635 2623 2643 2644 2636 2617 2639 2630 2645 2625 2635 2641 2637 2611 2656 2634 2661\u000a\u000aTree=0\u000anum_leaves=31\u000anum_cat=0\u000asplit_feature=88 29 89 148 5 148 54 8 83 25 14 75 140 53 143 91 103 54 115 103 148 90 80 77 130 145 117 117 14 103\u000asplit_gain=279382 36704.5 4152.65 4706.75 3931.93 3821.34 2205.05 2068.48 1948.97 1879.1 1529.19 1143.36 1095.22 1014.13 1264 1045.34 886.291 1052.11 864.326 789.806 781.921 758.723 753.16 662.707 655.923 646.691 627.552 621.269 601.736 555.889\u000athreshold=4.5000000000000009 3.5000000000000004 -1.0000000180025095e-35 29.500000000000004 -1.0000000180025095e-35 22.500000000000004 1.0000000180025095e-35 -1.0000000180025095e-35 5499.0000000000009 -1.0000000180025095e-35 -1.0000000180025095e-35 2.5000000000000004 1543924800.0000002 -1.0000000180025095e-35 11.500000000000002 6.5000000000000009 6165.0000000000009 1.0000000180025095e-35 5.5000000000000009 72174.500000000015 3.5000000000000004 1.0000000180025095e-35 1.5000000000000002 3.5000000000000004 12.500000000000002 29.500000000000004 1369.5000000000002 852.50000000000011 -1.0000000180025095e-35 73366.500000000015\u000adecision_type=2 2 2 2 2 2 2 2 2 2 2 2 2 2 2 2 2 2 2 2 2 2 2 2 2 2 2 2 2 2\u000aleft_child=2 5 -1 9 -3 6 11 21 10 -4 13 19 -12 -7 -15 26 23 -18 27 20 -2 -5 29 -10 -21 28 -16 -8 -11 -6\u000aright_child=1 4 3 7 22 8 18 -9 16 25 12 -13 -14 14 15 -17 17 -19 -20 24 -22 -23 -24 -25 -26 -27 -28 -29 -30 -31\u000aleaf_value=-2.1085337745231927 -1.3284691717535873 -1.2039450035098707 -1.493926040210876 -1.662513025306918 -1.5880313389726604 -1.6113403000135338 -1.8948949449606869 -2.0505320512590042 -1.5635669942491133 -2.0271161405106484 -2.1171914520993482 -1.5843208500808628 -1.6491757912018747 -1.9702477614180969 -1.4819625802443601 -1.3061805648596763 -1.6795419351813075 -1.9748617464101683 -1.6562792615668978 -1.4659637187520915 -1.7170011490241928 -1.3172786182920679 -1.1885889330198041 -2.1171914520993482 -1.9478882355881206 -1.5281220207727975 -1.9145872720675721 -1.7159778561859724 -2.09786681515072 -2.1171914520993482\u000aleaf_count=428655 109 1954 216 830 1167 2984 6983 935 1583 31016 568 4339 1572 387 3837 657 1653 1607 1310 104 2873 187 24 219 1798 91 262 1381 16959 205\u000ainternal_value=0 4.83201 -0.945871 -0.152489 7.62165 3.51718 2.73675 3.29107 4.23711 -0.386408 4.67416 3.47044 2.80027 4.9848 5.40892 5.56365 2.97663 2.09941 1.81584 2.60033 3.26381 4.77147 4.3593 4.08584 1.15672 -0.449031 5.08965 1.4557 -0.471998 3.7597\u000ainternal_count=516465 37576 478889 50234 3350 34226 18897 1952 15329 48282 10267 9223 2140 8127 5143 4756 5062 3260 9674 4884 2982 1017 1396 1802 1902 48066 4099 8364 47975 1372\u000ashrinkage=1\u000a\u000a\u000aTree=1\u000anum_leaves=31\u000anum_cat=0\u000asplit_feature=88 29 89 148 14 105 78 25 77 97 8 43 67 67 109 24 113 148 14 88 66 93 127 68 146 83 106 65 55 99\u000asplit_gain=166798 8471.91 3952.86 2988.89 1529.12 1169.97 1317.45 1097.04 1008.08 1058.76 934.466 837.326 782.188 952.221 759.366 743.384 666.039 707.525 568.566 534.543 747.087 572.63 534.316 529.924 586.212 529.578 574.092 471.255 429.17 425.572\u000athreshold=4.5000000000000009 4.5000000000000009 -1.0000000180025095e-35 29.500000000000004 -1.0000000180025095e-35 3.5000000000000004 1.0000000180025095e-35 -1.0000000180025095e-35 3.5000000000000004 4.5000000000000009 -1.0000000180025095e-35 -1.0000000180025095e-35 4700.5000000000009 3100.5000000000005 1.0000000180025095e-35 1.0000000180025095e-35 33.500000000000007 23.500000000000004 -1.0000000180025095e-35 3.5000000000000004 73.000000000000014 12.500000000000002 44.500000000000007 5015.0000000000009 20.500000000000004 5499.0000000000009 11.500000000000002 2008.5000000000002 335.00000000000006 1808.5000000000002\u000adecision_type=2 2 2 2 2 2 2 2 2 2 2 2 2 2 2 2 2 2 2 2 2 2 2 2 2 2 2 2 2 2\u000aleft_child=2 4 19 7 5 8 22 -4 14 -10 -5 25 13 -8 27 -3 -11 23 -9 -1 -21 -22 -7 24 -18 26 -6 -2 -29 -16\u000aright_child=1 15 3 10 11 6 12 18 9 16 -12 -13 -14 -15 29 -17 17 -19 -20 20 21 -23 -24 -25 -26 -27 -28 28 -30 -31\u000aleaf_value=-0.10421556054796371 0.5171322698493398 0.41225692764601984 0.31338665896720741 0.29861182423633653 0.22927497502382677 0.040029115041463503 0.21258051526463345 -0.019150400239147863 -0.045833486312051155 0.11799065640434757 -0.043769021343939764 -0.072855436538986559 0.14267006346165234 0.48355970449983909 0.28479677134934345 0.26387147226178881 -0.087955245717944538 0.31641485971996886 -0.089607326519125452 0.29922298192900376 -0.075707913994386672 0.30840948774449317 0.35563584456733249 0.33457565003094381 0.23961989387562183 0.049187193413077701 -0.11757586366829008 0.30866081879700324 0.4849877791826962 0.14453684150037585\u000aleaf_count=422195 97 1819 216 1017 3488 3729 1224 31071 1051 1871 935 1313 1834 406 1513 1195 1004 2460 16995 433 5766 261 196 329 485 1749 405 9336 142 1930\u000ainternal_value=0 2.99389 -0.920136 -0.146007 2.40792 2.57764 1.78793 -0.360786 2.77051 2.12673 2.25644 1.40477 2.58646 3.36019 3.02414 4.0177 2.36145 2.71384 -0.419825 -1.02753 -0.152124 -0.49844 0.693714 1.43871 0.574612 1.70677 2.08966 3.22857 3.16045 2.18543\u000ainternal_count=516465 37576 478889 50234 34562 27607 7389 48282 20218 7200 1952 6955 3464 1630 13018 3014 6149 4278 48066 428655 6460 6027 3925 1818 1489 5642 3893 9575 9478 3443\u000ashrinkage=0.1\u000a\u000a\u000aTree=2\u000anum_leaves=31\u000anum_cat=0\u000asplit_feature=88 29 89 148 63 75 25 100 8 14 88 66 64 74 67 55 148 50 29 105 78 97 105 106 103 55 75 65 73 65\u000asplit_gain=120351 4853.62 3774.25 2151.57 1155.51 978.66 765.474 628.823 559.128 522.929 514.611 550.849 488.657 508.889 558.849 477.638 486.76 445.47 438.527 435.469 529.12 387.017 377.036 373.88 351.053 350.027 346.933 593.65 434.415 399.652\u000athreshold=4.5000000000000009 4.5000000000000009 -1.0000000180025095e-35 29.500000000000004 1.0000000180025095e-35 2.5000000000000004 -1.0000000180025095e-35 4958.5000000000009 -1.0000000180025095e-35 -1.0000000180025095e-35 3.5000000000000004 201.50000000000003 2.5000000000000004 2.5000000000000004 1602.5000000000002 291.50000000000006 22.500000000000004 340.50000000000006 2.5000000000000004 3.5000000000000004 1.0000000180025095e-35 3.5000000000000004 3.5000000000000004 2.5000000000000004 73586.500000000015 429.50000000000006 5.5000000000000009 5602.5000000000009 1.0000000180025095e-35 2008.5000000000002\u000adecision_type=2 2 2 2 2 2 2 2 2 2 2 2 2 2 2 2 2 2 2 2 2 2 2 2 2 2 2 2 2 2\u000aleft_child=2 4 10 6 5 7 -4 15 -5 26 -1 -12 13 -7 -15 16 -2 -3 21 -16 25 -9 24 -20 -23 -21 29 -28 -29 -8\u000aright_child=1 17 3 8 -6 12 9 18 -10 -11 11 -13 -14 14 19 -17 -18 -19 23 20 -22 22 -24 -25 -26 -27 27 28 -30 -31\u000aleaf_value=-0.10233084041621598 0.10868188609725554 0.30341778573002881 0.23231388371028672 0.22306477410100492 0.44781775517010713 0.28292075926808613 0.38654782372691904 -0.03550763206298075 -0.040829644224930024 -0.086886459087877441 0.16363274207459166 -0.060007661513637858 0.428045423947643 0.11321755486412784 0.22767341787029163 0.28974495263134636 0.19499567095961584 0.19871102950477412 0.051645330124812983 0.032334090323830028 0.2092525096394906 0.14802466325878152 0.0088957447555275352 0.28939513753450541 -0.12277384076777886 0.49681910000966573 0.11449938758455383 -0.030736490372019101 0.35539830898806324 -0.051979130237593353\u000aleaf_count=422195 5049 1851 216 1017 42 1411 105 1597 935 16995 874 5586 41 3010 7316 678 4839 1163 465 2018 1770 3418 2050 480 354 24 3400 10383 159 17024\u000ainternal_value=0 2.25996 -0.895231 -0.136647 1.84355 1.80152 -0.33575 1.47872 1.75544 -0.391462 -1.00779 -0.145975 2.09666 2.05496 1.93014 1.75346 1.61824 2.96041 1.01222 2.08458 1.48809 0.793747 1.01566 2.11601 1.33545 0.542443 -0.175051 0.162478 -0.209422 -0.470182\u000ainternal_count=516465 37576 478889 50234 34562 34520 48282 18930 1952 48066 428655 6460 15590 15549 14138 10566 9888 3014 8364 11128 3812 7419 5822 945 3772 2042 31071 13942 10542 17129\u000ashrinkage=0.1\u000a\u000a\u000aTree=3\u000anum_leaves=31\u000anum_cat=0\u000asplit_feature=88 29 89 145 54 91 14 55 8 72 88 100 25 66 75 39 24 64 130 148 117 65 128 116 44 148 65 31 69 102\u000asplit_gain=92697.7 3608.64 3592.66 1671.16 751.456 910.274 777.277 689.818 643.131 527.035 498.33 459.027 435.28 417.053 409.347 384.542 344.717 342.25 367.187 330.295 329.228 325.493 324.416 294.979 293.137 285.573 325.609 319.257 392.838 285.422\u000athreshold=4.5000000000000009 4.5000000000000009 -1.0000000180025095e-35 29.500000000000004 1.0000000180025095e-35 6.5000000000000009 -1.0000000180025095e-35 291.50000000000006 -1.0000000180025095e-35 6.5000000000000009 3.5000000000000004 3321.5000000000005 -1.0000000180025095e-35 201.50000000000003 5.5000000000000009 1.5000000000000002 1.0000000180025095e-35 2.5000000000000004 157.50000000000003 18.500000000000004 59.500000000000007 24565.500000000004 10.500000000000002 1.0000000180025095e-35 2.5000000000000004 29.500000000000004 24439.500000000004 1.0000000180025095e-35 1717.0000000000002 1.5000000000000002\u000adecision_type=2 2 2 2 2 2 2 2 2 2 2 2 2 2 2 2 2 2 2 2 2 2 2 2 2 2 2 2 2 2\u000aleft_child=2 4 10 8 7 6 14 9 12 11 17 24 -4 -12 20 -5 -3 -1 -19 -7 -6 -13 -20 25 -2 26 27 -14 -29 -17\u000aright_child=1 16 3 15 5 19 -8 -9 -10 -11 13 21 23 -15 -16 29 -18 18 22 -21 -22 -23 -24 -25 -26 -27 -28 28 -30 -31\u000aleaf_value=-0.10081497367723449 0.1879744703916309 0.24701029971714378 0.18547636597537287 -0.006963309899101499 -0.089295060073152757 0.065986225776239263 -0.0056034382736033506 0.28276167151300485 -0.075320387741010741 0.35614838161228085 0.12996850421356046 0.14631793931437356 -0.0068085706336658575 -0.056801820509089954 0.15364673021645864 0.30474169902945264 0.15889211836453504 -0.10987582120753106 0.89291465547465898 0.2397653467942357 0.09292231780697903 0.067581050989844807 -0.10987582120753109 0.49663479548975942 -0.059056168773093776 0.17778124819009367 -0.091022015836784445 0.01270155337778129 0.59584512300230053 0.13500063685681515\u000aleaf_count=421924 7121 1819 216 638 740 656 3618 566 21651 70 874 7779 21228 5586 4497 266 1195 188 26 998 5653 2618 57 38 246 155 4890 239 60 853\u000ainternal_value=0 1.83205 -0.870997 -0.128388 1.49095 1.17093 0.957625 1.6946 -0.305173 1.60819 -0.988732 1.56698 -0.0230526 -0.136166 1.16696 1.55269 2.40846 -1.00521 2.34245 2.12262 0.802074 1.30591 5.83947 -0.0972968 1.8412 -0.116693 -0.167074 -0.0167363 2.54813 1.99568\u000ainternal_count=516465 37576 478889 50234 34562 16162 14508 18400 48477 17834 428655 17764 26826 6460 10890 1757 3014 422195 271 1654 6393 10397 83 26610 7367 26572 26417 21527 299 1119\u000ashrinkage=0.1\u000a\u000a\u000aTree=4\u000anum_leaves=31\u000anum_cat=0\u000asplit_feature=88 89 29 145 83 14 88 91 143 63 65 67 53 101 25 93 74 66 94 5 105 78 145 100 117 130 12 52 54 65\u000asplit_gain=73886.4 3416.63 3030.92 1278.09 638.417 576.834 482.325 473.894 472.209 433.844 443.218 516.571 418.155 403.452 378.672 367.538 361.324 342.034 315.387 312.616 294.215 377.713 413.258 290.652 285.857 280.659 276.15 266.462 274.438 264.042\u000athreshold=4.5000000000000009 -1.0000000180025095e-35 3.5000000000000004 29.500000000000004 5499.0000000000009 -1.0000000180025095e-35 3.5000000000000004 6.5000000000000009 19.500000000000004 1.0000000180025095e-35 24739.500000000004 1430.5000000000002 1.0000000180025095e-35 2.5000000000000004 -1.0000000180025095e-35 12.500000000000002 2.5000000000000004 73.000000000000014 1.5000000000000002 -1.0000000180025095e-35 3.5000000000000004 1.0000000180025095e-35 15.500000000000002 7182.5000000000009 90.500000000000014 187.50000000000003 4.0000000000000009 -1.0000000180025095e-35 1.0000000180025095e-35 5602.5000000000009\u000adecision_type=2 2 2 2 2 2 2 2 2 2 2 2 2 2 2 2 2 2 2 2 2 2 2 2 2 2 2 2 2 2\u000aleft_child=1 6 4 5 9 14 18 8 16 10 11 -2 13 23 -3 17 25 -8 26 -4 27 -22 -23 -12 -9 -6 -1 -13 -29 -16\u000aright_child=2 3 19 -5 7 -7 15 24 -10 -11 12 20 -14 -15 29 -17 -18 -19 -20 -21 21 22 -24 -25 -26 -27 -28 28 -30 -31\u000aleaf_value=-0.1025004287293744 0.074087065019049672 0.17739606107952094 0.21123976832689617 0.12893089955804188 -0.048316713116115517 -0.082671722079572643 0.13850793794289284 -0.13180255009039726 0.10407533120753559 0.28645629831411257 0.12641937998339153 0.12990745772444742 0.21229643847324545 -0.036016457198661291 0.030871546516574075 0.21819312019844347 -0.0023958397662531238 -0.069110273128620725 -0.071452586649617233 0.13846471616131703 0.038701967999075687 0.20220582777388005 0.024792407351395311 -0.01490677826521644 0.19957438923219117 0.26536465361229056 0.69299845880977173 0.20581475501897134 0.15138673340975048 -0.030334932435340679\u000aleaf_count=373968 3405 158 1954 1757 191 17124 399 159 5058 34 1977 3993 360 1529 8034 295 4867 5766 48203 1396 2308 1078 734 986 816 127 24 2532 4072 23161\u000ainternal_value=0 -0.84721 1.54406 -0.120424 1.23643 -0.284314 -0.970229 0.848047 0.688253 1.37195 1.33963 1.43628 0.818575 0.585779 -0.069719 -0.126563 0.189121 -0.366384 -0.987721 2.04873 1.53634 1.07651 1.55463 0.950776 1.79325 1.71559 -1.02378 1.63493 1.78339 -0.127561\u000ainternal_count=516465 478889 37576 50234 34226 48477 428655 11218 10243 23008 22974 18122 4852 4492 31353 6460 5185 6165 422195 3350 14717 4120 1812 2963 975 318 373992 10597 6604 31195\u000ashrinkage=0.1\u000a\u000a\u000aTree=5\u000anum_leaves=31\u000anum_cat=0\u000asplit_feature=88 89 29 148 14 88 14 43 64 55 63 130 145 84 65 94 8 93 75 65 83 94 76 63 56 51 65 66 140 73\u000asplit_gain=60122.8 3257.59 2708.08 1001.49 522.792 463.492 459.333 436.354 399.681 382.716 380.704 385.862 334.747 329.247 490.199 325.111 320.824 306.037 425.952 364.279 435.479 573.508 373.481 332.521 330.853 303.127 302.071 300.217 283.411 271.782\u000athreshold=4.5000000000000009 -1.0000000180025095e-35 4.5000000000000009 29.500000000000004 -1.0000000180025095e-35 3.5000000000000004 -1.0000000180025095e-35 -1.0000000180025095e-35 2.5000000000000004 291.50000000000006 1.0000000180025095e-35 318.50000000000006 28.500000000000004 1.0000000180025095e-35 12174.500000000002 1.5000000000000002 -1.0000000180025095e-35 1.0000000180025095e-35 5.5000000000000009 5787.0000000000009 7.5000000000000009 -1.0000000180025095e-35 -1.0000000180025095e-35 25.500000000000004 4596.0000000000009 1.0000000180025095e-35 2008.5000000000002 73.000000000000014 1535371200.0000002 3.5000000000000004\u000adecision_type=2 2 2 2 2 2 2 2 2 2 2 2 2 2 2 2 2 2 2 2 2 2 2 2 2 2 2 2 2 2\u000aleft_child=1 5 4 6 8 15 17 -6 9 10 11 13 27 -2 -15 -1 -5 -3 24 20 -20 22 -22 -21 26 -4 -19 -7 -25 -17\u000aright_child=2 3 25 16 7 12 -8 -9 -10 -11 -12 -13 -14 14 -16 29 -18 18 19 23 21 -23 -24 28 -26 -27 -28 -29 -30 -31\u000aleaf_value=-0.10091881887672834 0.06446909597967812 -0.054363530059475751 0.18775477903677495 0.13498020020072826 0.07302871458184465 0.12276262712142641 -0.077475247993805493 -0.086011155450340895 0.25625747050513092 0.16622456975137109 0.24055355211443247 0.18883134818873068 0.37677100219818555 0.14548642584258639 0.089419318434989625 -0.034962732145955196 -0.051562121022188184 0.31442421281924804 -0.0049592621875574061 -0.014381800289511701 0.22287395741403279 -0.025970775353590783 0.56108557693128491 0.0012612893361121152 0.51151736388442093 0.10657388929233443 -0.042695515605395765 -0.057196837698293916 0.31336992545930015 -0.091557144767590429\u000aleaf_count=373992 7029 9722 1940 1017 5642 426 17053 1313 68 1855 31 757 123 4739 13128 19176 935 75 1276 6430 810 623 103 386 33 1074 11609 5911 162 29027\u000ainternal_value=0 -0.823335 1.33416 -0.111549 1.06078 -0.952034 -0.27139 0.557448 1.14065 1.11561 1.05213 1.02366 -0.119565 0.977547 1.08521 -0.970522 1.0391 -0.0805271 0.1101 0.526608 1.26493 2.03049 2.9462 0.124753 -0.306338 1.82252 -0.356034 -0.25118 1.68204 -0.685128\u000ainternal_count=516465 478889 37576 50234 34562 428655 48282 6955 27607 27539 25684 25653 6460 24896 17867 422195 1952 31229 21507 9790 2812 1536 913 6978 11717 3014 11684 6337 548 48203\u000ashrinkage=0.1\u000a\u000a\u000aTree=6\u000anum_leaves=31\u000anum_cat=0\u000asplit_feature=88 89 29 145 8 88 83 103 65 94 99 108 24 143 68 130 67 63 115 64 73 95 146 115 144 69 67 103 103 83\u000asplit_gain=49581.9 3081.28 2494.19 811.101 467.309 445.831 443.529 345.488 351.119 334.765 308.969 369.683 298.881 295.442 325.633 295.43 290.074 282.763 276.271 269.945 262.309 657.769 536.849 550.388 478.065 610.208 426.171 376.112 466.234 414.076\u000athreshold=4.5000000000000009 -1.0000000180025095e-35 4.5000000000000009 29.500000000000004 -1.0000000180025095e-35 3.5000000000000004 5499.0000000000009 6395.0000000000009 5811.5000000000009 1.5000000000000002 2447.5000000000005 1161293.5000000002 1.0000000180025095e-35 21.500000000000004 1707.0000000000002 179.50000000000003 1430.5000000000002 25.500000000000004 4.5000000000000009 2.5000000000000004 3.5000000000000004 18.500000000000004 17.500000000000004 5.5000000000000009 2.5000000000000004 1637.0000000000002 5148.0000000000009 72692.500000000015 73338.500000000015 37.500000000000007\u000adecision_type=2 2 2 2 2 2 2 2 2 2 2 2 2 2 2 2 2 2 2 2 2 2 2 2 2 2 2 2 2 2\u000aleft_child=1 5 6 4 17 9 10 18 15 19 16 -12 -4 -10 -15 -9 -2 -3 -8 -1 21 22 23 27 -25 -26 -27 -11 29 -29\u000aright_child=2 3 12 -5 -6 -7 7 8 13 20 11 -13 -14 14 -16 -17 -18 -19 -20 -21 -22 -23 -24 24 25 26 -28 28 -30 -31\u000aleaf_value=-0.099781077275605534 0.057587293383796395 -0.010675548496122782 0.17022306616432095 0.096339999162461082 -0.067275250166986406 -0.011277447288383287 0.14739569733783173 0.0090934981344855496 -0.041513756631475343 0.0049944223126446056 0.081958500992563077 -0.13542675924704259 0.094598420990332666 0.13564680081173847 -0.017093811275437902 0.16098020881571365 0.12166320248783301 0.099217645813765187 0.062975256065983393 0.30162310104333445 -0.089464086325301798 -0.081462568332599489 -0.056906849748050062 -0.10802700643304924 -0.10802738863672255 0.90960596846312947 -0.10802738863672255 0.88575518594971214 0.029122997024322306 -0.10802738863672255\u000aleaf_count=373894 2559 25517 1819 1757 21651 6460 1166 871 3588 2081 8710 446 1195 682 1232 667 11528 1309 3113 98 29027 13161 2884 188 146 144 69 86 337 80\u000ainternal_value=0 -0.799939 1.17081 -0.105523 -0.247188 -0.933936 0.916689 0.608651 0.303125 -0.953495 1.02327 0.764331 1.64324 0.0164589 0.558741 0.986767 1.14216 -0.0150087 0.934279 -0.994983 -0.655878 -0.324672 0.6415 1.59001 4.2883 5.80597 7.74314 0.811903 3.23788 6.4914\u000ainternal_count=516465 478889 37576 50234 48477 428655 34562 11319 7040 422195 23243 9156 3014 5502 1914 1538 14087 26826 4279 373992 48203 19176 6015 3131 547 359 213 2584 503 166\u000ashrinkage=0.1\u000a\u000a\u000aTree=7\u000anum_leaves=31\u000anum_cat=0\u000asplit_feature=88 89 29 8 148 88 75 94 75 5 65 64 69 150 103 32 68 117 94 120 98 147 93 69 84 73 95 146 66 69\u000asplit_gain=41253.9 2933.43 2343.08 672.748 581.732 434.798 392.787 336.702 327.409 295.007 281.014 335.872 329.691 392.304 531.137 538.769 301.341 304.039 300.173 272.43 278.327 265.561 262.289 249.043 247.135 243.206 525.011 357.197 358.154 314.347\u000athreshold=4.5000000000000009 -1.0000000180025095e-35 4.5000000000000009 -1.0000000180025095e-35 29.500000000000004 3.5000000000000004 2.5000000000000004 1.5000000000000002 5.5000000000000009 -1.0000000180025095e-35 12447.500000000002 1.0000000180025095e-35 1823.0000000000002 4.5000000000000009 6025.0000000000009 3.5000000000000004 1279.5000000000002 455.50000000000006 8.5000000000000018 1.0000000180025095e-35 167.50000000000003 5.5000000000000009 12.500000000000002 1113.5000000000002 1.0000000180025095e-35 869.50000000000011 18.500000000000004 17.500000000000004 501.50000000000006 1429.5000000000002\u000adecision_type=2 2 2 2 2 2 2 2 2 2 2 2 2 2 2 2 2 2 2 2 2 2 2 2 2 2 2 2 2 2\u000aleft_child=1 5 6 4 8 7 21 -1 19 -4 16 12 -12 -14 15 -15 17 -10 -13 20 -3 -2 -7 -21 -8 26 27 28 29 -9\u000aright_child=2 3 9 -5 -6 22 24 25 10 -11 11 18 13 14 -16 -17 -18 -19 -20 23 -22 -23 -24 -25 -26 -27 -28 -29 -30 -31\u000aleaf_value=-0.098108856638220859 0.037295052271361311 -0.046049195180535747 0.1570865930995177 -0.061666695032666918 0.10559529337619161 -0.032999879921261265 0.061438526783379792 -0.1079977809742392 0.41384016891721009 0.088615684882824508 -0.073146044265817736 0.32094280524771041 -0.045056989730331259 -0.11181797118360666 -0.017207048110160713 0.73249187222168799 0.055389150602784556 -0.11588132761468295 -0.11311800061139139 -0.11131623547113359 0.28077591702816479 0.078454635619591706 0.16975979790098303 0.76961768245128992 0.10562086880585542 -0.088578411700372672 -0.079949137196365094 -0.057499730258562289 -0.10952282537894811 0.20153247491422324\u000aleaf_count=373992 9405 14527 1695 22500 1017 6165 4190 564 136 1319 5315 83 939 109 342 60 4608 131 229 59 159 9544 295 20 11423 27884 13703 3118 839 2095\u000ainternal_value=0 -0.776223 1.03893 -0.0973292 0.14814 -0.916113 0.799721 -0.936978 -0.0306829 1.50411 0.299853 -0.118276 -0.33411 0.851205 2.56596 5.12369 0.748611 2.89099 1.88897 -0.361553 -0.402013 0.621799 -0.102419 4.13903 0.958476 -0.631288 -0.327794 0.447216 1.0903 1.58163\u000ainternal_count=516465 478889 37576 50234 27734 428655 34562 422195 26717 3014 11952 7077 6765 1450 511 169 4875 267 312 14765 14686 18949 6460 79 15613 48203 20319 6616 3498 2659\u000ashrinkage=0.1\u000a\u000a\u000aTree=8\u000anum_leaves=31\u000anum_cat=0\u000asplit_feature=88 89 29 8 148 88 54 91 14 94 55 5 72 75 63 145 100 93 65 32 93 73 55 117 73 95 103 78 67 150\u000asplit_gain=34542.9 2760.47 2231.65 566.7 463.082 420.377 397.953 508.836 375.661 341.728 320.995 303.209 264.216 262.659 246.048 252.795 251.81 240.367 262.437 260.419 273.463 252.818 235.895 287.827 230.493 448.82 353.132 420.667 410.315 472.159\u000athreshold=4.5000000000000009 -1.0000000180025095e-35 3.5000000000000004 -1.0000000180025095e-35 29.500000000000004 3.5000000000000004 1.0000000180025095e-35 6.5000000000000009 -1.0000000180025095e-35 1.5000000000000002 291.50000000000006 -1.0000000180025095e-35 6.5000000000000009 5.5000000000000009 1.0000000180025095e-35 5.5000000000000009 3370.5000000000005 1.0000000180025095e-35 12447.500000000002 5.5000000000000009 5.5000000000000009 3823.5000000000005 350.00000000000006 59.500000000000007 3.5000000000000004 18.500000000000004 72036.500000000015 1.0000000180025095e-35 1707.0000000000002 7.5000000000000009\u000adecision_type=2 2 2 2 2 2 2 2 2 2 2 2 2 2 2 2 2 2 2 2 2 2 2 2 2 2 2 2 2 2\u000aleft_child=1 5 6 4 13 9 10 8 22 -1 12 -4 14 -3 15 -2 -17 21 -19 -20 -21 -15 23 -8 25 26 -11 -28 -29 -30\u000aright_child=2 3 11 -5 -6 -7 7 -9 -10 24 -12 -13 -14 17 -16 16 -18 18 19 20 -22 -23 -24 -25 -26 -27 27 28 29 -31\u000aleaf_value=-0.096723569063482825 0.14863747492262977 -0.033716972020944196 0.14490404722145425 -0.058606389623671679 0.092698753281894031 -0.0094560230159128379 -0.055026247555454627 0.11327590100788093 -0.031593875325379848 -0.034396491769080308 0.15305120219304705 0.077459047291597222 0.20321573148402305 -0.058049767043515291 0.18901093145278519 0.086188980777678517 0.048843782032917948 0.096172603025067901 -0.014327534129792242 -0.11097531063232512 0.58480638514637251 0.3705884718718313 0.1614602806251467 0.049714177477602428 -0.08529177591719507 -0.076298730602111231 -0.015140382752679689 -0.10814981562303766 0.25274706488350679 0.86863234272777312\u000aleaf_count=373992 616 14765 1954 22500 1017 6460 1324 1648 3610 3630 564 1396 69 3580 32 7243 9643 3334 4866 103 30 39 198 9279 29027 13161 1330 395 583 77\u000ainternal_value=0 -0.75294 0.928638 -0.0928926 0.128327 -0.898041 0.695295 0.482182 0.336947 -0.920184 0.82893 1.37972 0.775655 -0.03337 0.749311 0.721723 0.678414 0.256551 0.488426 0.00101938 3.22119 -0.422796 0.467643 0.411575 -0.604339 -0.293331 0.428228 1.30402 2.48534 3.33712\u000ainternal_count=516465 478889 37576 50234 27734 428655 34226 16059 14411 422195 18167 3350 17603 26717 17534 17502 16886 11952 8333 4999 133 3619 10801 10603 48203 19176 6015 2385 1055 660\u000ashrinkage=0.1\u000a\u000a\u000aTree=9\u000anum_leaves=31\u000anum_cat=0\u000asplit_feature=88 89 29 145 66 63 94 74 83 14 24 55 67 98 143 117 39 65 64 115 54 99 67 144 103 73 95 103 8 94\u000asplit_gain=29115 2575.38 2314.71 445.606 437.714 375.528 344.531 341.143 404.193 324.347 297.393 284.962 320.376 288.593 266.941 360.333 264.55 252.158 240.624 238.971 257.306 250.607 233.486 225.388 225.191 216.03 385.14 386.638 432.031 464.552\u000athreshold=3.5000000000000004 -1.0000000180025095e-35 4.5000000000000009 29.500000000000004 217.50000000000003 1.0000000180025095e-35 1.5000000000000002 2.5000000000000004 44.500000000000007 -1.0000000180025095e-35 1.0000000180025095e-35 71.000000000000014 1602.5000000000002 167.50000000000003 19.500000000000004 242.50000000000003 1.5000000000000002 29835.500000000004 2.5000000000000004 4.5000000000000009 1.0000000180025095e-35 1617.5000000000002 1849.5000000000002 4.5000000000000009 73762.500000000015 869.50000000000011 39.500000000000007 29962.500000000004 -1.0000000180025095e-35 38.500000000000007\u000adecision_type=2 2 2 2 2 2 2 2 2 2 2 2 2 2 2 2 2 2 2 2 2 2 2 2 2 2 2 2 2 2\u000aleft_child=1 6 4 9 5 7 18 -2 11 -3 -4 12 -9 24 15 -10 -5 19 -1 -17 21 23 -13 -21 -14 26 27 -8 29 -29\u000aright_child=2 3 10 16 -6 -7 25 8 14 -11 -12 22 13 -15 -16 17 -18 -19 -20 20 -22 -23 -24 -25 -26 -27 -28 28 -30 -31\u000aleaf_value=-0.095695913250439496 0.10505987799271298 -0.0069201231717494274 0.13654732912328246 -0.064222405291256265 -0.032699280745921676 0.18151552954782538 -0.053469785070919235 0.0026548257046571152 -0.076386185522850522 -0.07067435935902712 0.063138969861053551 0.11236971565017234 0.062825670942531234 0.18148188762350964 0.049667849111711682 0.071965461248774787 0.097773345074833373 0.18246131173542138 0.26907968927088188 0.16435294925604288 -0.11580105356584938 -0.071494588028157058 0.057109310741880026 -0.082852932472893645 -0.070862777971416671 -0.084426685379686769 -0.099279611432885273 0.10537411852262056 -0.080523247841451442 0.54014285839321841\u000aleaf_count=373894 2560 31244 1819 636 5657 56 6741 3468 2465 17124 1195 2963 10398 193 5888 1166 1119 183 98 195 1222 688 3312 194 525 27884 8851 2737 1713 277\u000ainternal_value=0 -0.750598 0.811454 -0.107348 0.594809 0.626121 -0.903302 0.604588 0.551493 -0.221888 1.29935 0.665174 0.535197 0.641604 0.2753 -0.0459374 0.666083 0.281803 -0.953363 0.126357 -0.29532 0.238857 0.90558 1.0008 0.591355 -0.578488 -0.291221 0.112496 0.804656 1.44811\u000ainternal_count=516465 472318 44147 50123 41133 35476 422195 35420 32860 48368 3014 20859 14584 11116 12001 6113 1755 3648 373992 3465 2299 1077 6275 389 10923 48203 20319 11468 4727 3014\u000ashrinkage=0.1\u000a\u000a\u000aTree=10\u000anum_leaves=31\u000anum_cat=0\u000asplit_feature=88 89 29 8 69 67 94 66 64 63 5 75 115 115 83 103 67 39 128 12 67 95 64 103 145 66 93 97 28 107\u000asplit_gain=24615 2451.99 2168.19 392.808 376.117 532.333 348.064 346.933 324.491 318.398 302.522 295.78 245.13 273.418 260.456 237.602 234.968 231.97 529.4 226.206 223.11 515.891 421.389 222.041 220.414 219.283 328.576 322.502 217.038 213.714\u000athreshold=3.5000000000000004 -1.0000000180025095e-35 4.5000000000000009 -1.0000000180025095e-35 1846.5000000000002 2174.0000000000005 1.5000000000000002 217.50000000000003 2.5000000000000004 1.0000000180025095e-35 -1.0000000180025095e-35 2.5000000000000004 4.5000000000000009 5.5000000000000009 54999.000000000007 73500.500000000015 1656.0000000000002 4.5000000000000009 2.5000000000000004 4.0000000000000009 1000.5000000000001 2.5000000000000004 1.0000000180025095e-35 73586.500000000015 28.500000000000004 503.50000000000006 8.5000000000000018 28.500000000000004 1.0000000180025095e-35 34.000000000000007\u000adecision_type=2 2 2 2 2 2 2 2 2 2 2 2 2 2 2 2 2 2 2 2 2 2 2 2 2 2 2 2 2 2\u000aleft_child=1 6 7 4 29 28 19 8 9 11 -4 15 23 14 16 -2 -14 25 -19 -1 21 22 -8 -13 -9 -5 -27 -28 -6 -3\u000aright_child=2 3 10 17 5 -7 20 24 -10 -11 -12 12 13 -15 -16 -17 -18 18 -20 -21 -22 -23 -24 -25 -26 26 27 -29 -30 -31\u000aleaf_value=-0.094147403171897973 0.041144950649138867 0.020976363128380721 0.12966106203972369 -0.069073331853087006 0.12258725255295838 -0.038268721599680942 0.081304163241994076 -0.047021764249402326 0.17582473703875279 0.16642201867936357 0.061232328002506199 0.099994410741488002 -0.012536756593832132 0.081046063693903631 -0.023137533872430636 -0.043298149718244715 0.064872319801231579 1.0581758513904478 0.019967852157481463 0.56871746678066326 -0.060261573099780842 -0.10646653250042303 0.79139884309219832 -0.017645575817240477 0.23937920070353749 -0.0045864922525332879 0.18019629723678068 1.0851013375293299 -0.15255536593922137 -0.038912886593108438\u000aleaf_count=373968 17934 8774 1695 20970 1995 3618 242 5547 87 55 1319 3802 1587 3638 2323 1430 4058 26 357 24 47059 874 28 562 110 1007 118 22 182 13054\u000ainternal_value=0 -0.726733 0.734294 -0.0986188 0.0841268 0.582757 -0.886104 0.529267 0.556512 0.538307 1.21963 0.518952 0.655289 0.530977 0.339716 0.367915 0.489896 -0.532226 2.0899 -0.939448 -0.552132 1.09029 4.07373 0.916489 -0.302023 -0.592416 0.959881 4.77724 1.10536 -0.132165\u000ainternal_count=516465 472318 44147 50123 27623 5795 422195 41133 35476 35389 3014 35334 15970 11606 7968 19364 5645 22500 383 373992 48203 1144 270 4364 5657 22117 1147 140 2177 21828\u000ashrinkage=0.1\u000a\u000a\u000aTree=11\u000anum_leaves=31\u000anum_cat=0\u000asplit_feature=88 89 29 94 8 145 29 5 69 67 78 145 130 130 104 103 73 148 67 67 100 100 122 100 31 83 52 143 91 54\u000asplit_gain=20860.3 2311.34 2032.46 353.027 339.727 317.608 323.33 302.795 300.548 413.258 279.616 505.969 333.95 345.468 246.817 222.375 211.719 430.146 327.308 417.737 327.558 320.644 240.972 238.611 208.318 205.56 241.976 272.487 237.89 246.796\u000athreshold=3.5000000000000004 -1.0000000180025095e-35 4.5000000000000009 1.5000000000000002 -1.0000000180025095e-35 21.500000000000004 1.5000000000000002 -1.0000000180025095e-35 1846.5000000000002 2174.0000000000005 1.0000000180025095e-35 13.500000000000002 252.50000000000003 135.50000000000003 1.5000000000000002 73500.500000000015 3.5000000000000004 14.500000000000002 4180.0000000000009 4050.5000000000005 7431.0000000000009 7755.5000000000009 108.50000000000001 1994.5000000000002 1.0000000180025095e-35 5499.0000000000009 -1.0000000180025095e-35 12.500000000000002 6.5000000000000009 1.0000000180025095e-35\u000adecision_type=2 2 2 2 2 2 2 2 2 2 2 2 2 2 2 2 2 2 2 2 2 2 2 2 2 2 2 2 2 2\u000aleft_child=1 3 5 -1 8 6 10 -4 -3 -10 14 -12 13 -13 -2 -8 17 18 19 20 -5 -22 -18 -24 -11 26 -7 -28 29 -29\u000aright_child=2 4 7 16 -6 25 15 -9 9 24 11 12 -14 -15 -16 -17 22 -19 -20 -21 21 -23 23 -25 -26 -27 27 28 -30 -31\u000aleaf_value=-0.092523698511717128 0.03069345205053994 -0.012050883616491098 0.12313197252048952 0.010247999256022091 -0.050695295034239286 0.041028221887675159 0.073701651088587949 0.054689572617337361 0.096127247455901302 -0.051934006603198468 0.083423031959322311 -0.021679674116875478 -0.068645469917343743 0.070108293678483646 -0.052477816444936078 -0.10059269503953959 -0.082012578235840308 -0.061822634214480879 -0.0044513179240001062 0.5486795020311539 1.0554976884975167 0.22350033622071794 1.3129354651199172 -0.1055057051548271 0.31730556293014245 0.032599054413269705 -0.098082548743692918 0.097968137700550309 0.12638165124251213 0.043251684674399639\u000aleaf_count=373992 2122 21828 1695 1096 22500 5948 3638 1319 2177 3570 3911 3339 2392 2232 4324 348 28959 14382 3445 104 25 124 20 48 48 5859 389 2288 902 3441\u000ainternal_value=0 -0.702973 0.666156 -0.868261 -0.0927403 0.472098 0.308802 1.15026 0.0751913 0.517123 0.173818 0.332009 0.0352537 0.252088 -0.188645 0.665002 -0.524637 -0.219502 0.675582 1.89931 1.05306 4.14807 -0.79519 6.31413 -0.355253 0.598036 0.684695 0.818041 0.852079 0.719795\u000ainternal_count=516465 472318 44147 422195 50123 41133 22306 3014 27623 5795 18320 11874 7963 5571 6446 3986 48203 19176 4794 1349 1245 149 29027 68 3618 18827 12968 7020 6631 5729\u000ashrinkage=0.1\u000a\u000a\u000aTree=12\u000anum_leaves=31\u000anum_cat=0\u000asplit_feature=88 89 29 94 39 93 145 5 13 63 140 55 54 140 53 56 87 145 151 147 97 148 98 72 93 83 64 78 94 103\u000asplit_gain=17703.2 2183.62 1898.46 351.87 302.975 480.492 312.26 302.115 289.99 339.636 327.582 267.167 271.168 277.032 257.858 254.049 283.807 271.764 250.451 247.367 254.349 255.664 240.99 263.66 234.177 233.711 218.183 207.258 384.394 447.73\u000athreshold=3.5000000000000004 -1.0000000180025095e-35 4.5000000000000009 1.5000000000000002 1.0000000180025095e-35 6.5000000000000009 5.5000000000000009 -1.0000000180025095e-35 -1.0000000180025095e-35 1.0000000180025095e-35 1543406400.0000002 335.00000000000006 1.0000000180025095e-35 1537790400.0000002 -1.0000000180025095e-35 1802.5000000000002 8.5000000000000018 24.500000000000004 26.500000000000004 4.5000000000000009 29.500000000000004 8.5000000000000018 108.50000000000001 5.5000000000000009 6.5000000000000009 5499.0000000000009 2.5000000000000004 1.0000000180025095e-35 15.500000000000002 72036.500000000015\u000adecision_type=2 2 2 2 2 2 2 2 2 2 2 2 2 2 2 2 2 2 2 2 2 2 2 2 2 2 2 2 2 2\u000aleft_child=1 3 8 26 -3 15 -7 -4 9 11 -10 12 14 19 22 18 17 -17 -6 20 21 -14 23 24 -2 -16 -1 -5 29 -29\u000aright_child=2 4 7 27 5 6 -8 -9 10 -11 -12 -13 13 -15 25 16 -18 -19 -20 -21 -22 -23 -24 -25 -26 -27 -28 28 -30 -31\u000aleaf_value=-0.091518267095138453 0.0090833251028672648 -0.033728541609029397 0.11740722397572192 -0.073321848769572887 -0.026940966788529752 0.47776732031935376 0.099826532458319461 0.048962795334711436 -0.12532649881254901 0.15528758403189069 0.024446743099232855 0.11716701702119606 0.04671574756707679 -0.01124168977543997 0.081418249148399693 -0.11111046600227333 0.52837037803743669 0.22127964271225667 0.067193969273575335 0.056888191601867838 0.081994658297169593 -0.064137199899993225 0.12145766547724046 0.14824654178928168 0.10299419315121264 0.036960607918886709 0.24607769939661472 -0.059439360556949261 -0.061183153564623144 0.17069313062540389\u000aleaf_count=373894 10019 28414 1695 31117 17550 66 1973 1319 1895 82 2099 509 1026 6000 5164 529 61 198 1332 4913 678 2685 505 122 732 4704 98 2965 11997 2124\u000ainternal_value=0 -0.678886 0.605955 -0.850274 -0.0854481 0.164613 1.25372 1.08864 0.422387 0.451858 -0.211508 0.431062 0.406282 0.226066 0.513097 -0.0181433 1.41492 0.786422 -0.103902 0.382193 0.0128451 -0.248792 0.310429 0.237837 0.175509 0.65695 -0.910628 -0.500297 -0.137141 0.708625\u000ainternal_count=516465 472318 44147 422195 50123 21709 2039 3014 41133 37139 3994 37057 36548 15302 21246 19670 788 727 18882 9302 4389 3711 11378 10873 10751 9868 373992 48203 17086 5089\u000ashrinkage=0.1\u000a\u000a\u000aTree=13\u000anum_leaves=31\u000anum_cat=0\u000asplit_feature=88 89 29 94 5 14 93 39 83 64 80 66 64 74 83 63 86 128 8 69 55 145 95 73 103 14 74 84 103 149\u000asplit_gain=15033.5 2056.63 1765 352.973 300.2 291.549 245.178 324.516 272.792 272.639 244.06 294.109 261.906 274.651 240.195 238.437 224.792 224.641 284.312 222.21 216.483 217.753 201.585 365.162 324.631 300.93 254.754 249.432 261.534 224.44\u000athreshold=3.5000000000000004 -1.0000000180025095e-35 4.5000000000000009 1.5000000000000002 -1.0000000180025095e-35 -1.0000000180025095e-35 1.0000000180025095e-35 1.0000000180025095e-35 44.500000000000007 1.0000000180025095e-35 1.0000000180025095e-35 217.50000000000003 2.5000000000000004 2.5000000000000004 44.500000000000007 1.0000000180025095e-35 1101.0000000000002 27.500000000000004 -1.0000000180025095e-35 1610.0000000000002 71.000000000000014 3.5000000000000004 39.500000000000007 3.5000000000000004 29962.500000000004 -1.0000000180025095e-35 2.5000000000000004 1.0000000180025095e-35 72028.500000000015 23.500000000000004\u000adecision_type=2 2 2 2 2 2 2 2 2 2 2 2 2 2 2 2 2 2 2 2 2 2 2 2 2 2 2 2 2 2\u000aleft_child=1 3 10 -1 -4 6 16 -8 15 17 11 12 13 -2 20 -9 -3 -10 -19 -18 21 -15 23 24 26 27 -5 28 -26 -25\u000aright_child=2 5 4 22 -6 -7 7 8 9 -11 -12 -13 -14 14 -16 -17 19 18 -20 -21 -22 -23 -24 29 25 -27 -28 -29 -30 -31\u000aleaf_value=-0.08957191272519445 0.076482682827044041 -0.062422086965077644 0.11229886188080862 0.15748299854976444 0.043915352871526821 -0.056788991700481087 -0.016928339274378295 -0.0029703153165853047 0.069924408074038311 0.50938752756961081 0.13054611676015854 -0.045280522001491658 0.15012442784411148 0.1207119820333129 0.011166507182823658 0.12096555884126906 -0.071831489777375468 0.16608920711013442 0.68095739931071986 0.14482267671551477 0.061748723879521732 0.025706799229455807 -0.09870881720051386 -0.095547345911182996 0.69191747344090171 -0.10773925916238598 -0.083565796919183311 0.16383646217463627 -0.11005617808561184 0.017210413241091082\u000aleaf_count=373992 2553 8344 1695 580 1319 17818 12188 6803 2460 22 142 5569 86 326 11972 571 857 244 40 776 6270 14215 13492 19017 21 1239 5688 2213 862 5091\u000ainternal_value=0 -0.654134 0.552393 -0.831619 1.03297 -0.0792644 0.0462146 0.196719 0.51298 1.11035 0.378966 0.362038 0.385656 0.369849 0.322365 0.209345 -0.384345 0.975308 2.63524 0.571902 0.409569 0.296958 -0.474094 -0.306276 0.218997 0.829854 -0.483751 1.21986 -0.554624 -0.700285\u000ainternal_count=516465 472318 44147 422195 3014 50123 32305 22328 10140 2766 41133 40991 35422 35336 32783 7374 9977 2744 284 1633 20811 14541 48203 34711 10603 4335 6268 3096 883 24108\u000ashrinkage=0.1\u000a\u000a\u000aTree=14\u000anum_leaves=31\u000anum_cat=0\u000asplit_feature=88 89 29 86 5 8 63 72 13 63 140 55 75 151 25 143 86 73 67 64 129 107 115 148 115 143 103 99 65 103\u000asplit_gain=12775.8 1929.09 1636.8 349.948 296.886 256.829 245.807 235.803 247.527 265.24 254.732 231.065 223.639 220.285 276.678 322.123 233.328 308.704 251.823 301.95 242.036 195.294 188.045 194.696 229.057 198.953 212.582 187.047 183.57 398.459\u000athreshold=3.5000000000000004 -1.0000000180025095e-35 4.5000000000000009 9236.5000000000018 -1.0000000180025095e-35 -1.0000000180025095e-35 25.500000000000004 6.5000000000000009 -1.0000000180025095e-35 1.0000000180025095e-35 1543406400.0000002 291.50000000000006 2.5000000000000004 27.500000000000004 1.0000000180025095e-35 28.500000000000004 12071.500000000002 1.0000000180025095e-35 1000.5000000000001 1.0000000180025095e-35 2.5000000000000004 37.500000000000007 4.5000000000000009 3.5000000000000004 5.5000000000000009 19.500000000000004 5660.5000000000009 2917.5000000000005 1550.5000000000002 5405.0000000000009\u000adecision_type=2 2 2 2 2 2 2 2 2 2 2 2 2 2 2 2 2 2 2 2 2 2 2 2 2 2 2 2 2 2\u000aleft_child=1 3 7 -1 -4 6 -3 8 9 11 -10 12 -2 16 15 -15 17 20 19 -18 -5 -16 -14 -24 25 26 -25 -26 29 -20\u000aright_child=2 5 4 13 -6 -7 -8 -9 10 -11 -12 -13 22 14 21 -17 18 -19 28 -21 -22 -23 23 24 27 -27 -28 -29 -30 -31\u000aleaf_value=-0.086527268729009996 0.015664651283170773 -0.0016106552337218378 0.10766646940375486 0.45408912744600505 0.039442413556537728 -0.045390824138719692 0.090899303240188578 0.15128404977366361 -0.12392258687043595 0.13766743097552162 0.012791915189963874 0.071225797584402478 0.065911695308736556 0.0097748515575527915 1.6470477045147753 0.64788388367255401 -0.10484369791574871 -0.10426344357311096 1.6378005944934462 0.39564977316177807 -0.10717391658126965 -0.10595999337838742 0.11729606072730712 0.044316778584363448 0.042330348756508658 0.030623867847392513 -0.052940447918653835 0.1513139193588757 -0.064434703566881385 -0.10540840101855248\u000aleaf_count=389812 18737 26333 1695 168 1319 22500 1290 70 1895 81 2084 2398 4347 1071 20 51 540 831 21 96 212 21 438 810 3499 3382 3232 160 29260 92\u000ainternal_value=0 -0.629624 0.503663 -0.812806 0.981908 -0.0740341 0.0698185 0.340166 0.327276 0.353997 -0.273076 0.33644 0.294107 -0.344894 1.38569 0.969948 -0.433461 1.31635 -0.530989 1.7001 3.12931 10.8967 0.418745 0.304471 0.256157 0.0640692 -0.255175 0.527449 -0.618144 5.0027\u000ainternal_count=516465 472318 44147 422195 3014 50123 27623 41133 41063 37084 3979 37003 34605 32383 1163 1122 31220 1211 30009 636 380 41 15868 11521 11083 7424 4042 3659 29373 113\u000ashrinkage=0.1\u000a\u000a\u000aTree=15\u000anum_leaves=31\u000anum_cat=0\u000asplit_feature=88 89 29 94 5 148 100 130 15 93 145 29 1 113 127 97 97 98 100 80 64 128 95 73 151 94 76 128 149 95\u000asplit_gain=10849.5 1813.41 1510.53 348.616 292.094 241.899 298.576 260.061 270.104 239.227 227.309 220.936 215.208 250.707 239.085 224.195 217.352 210.506 214.452 201.801 198.819 198.213 192.865 319.032 272.566 218.929 254.2 245.818 215.494 528.404\u000athreshold=3.5000000000000004 -1.0000000180025095e-35 4.5000000000000009 1.5000000000000002 -1.0000000180025095e-35 19.500000000000004 1.0000000180025095e-35 185.50000000000003 1.0000000180025095e-35 16.500000000000004 21.500000000000004 2.5000000000000004 -1.0000000180025095e-35 66.500000000000014 51.500000000000007 4.5000000000000009 22.500000000000004 167.50000000000003 766.00000000000011 1.0000000180025095e-35 2.5000000000000004 29.500000000000004 39.500000000000007 3.5000000000000004 14.500000000000002 38.500000000000007 -1.0000000180025095e-35 13.500000000000002 23.500000000000004 4.5000000000000009\u000adecision_type=2 2 2 2 2 2 2 2 2 2 2 2 2 2 2 2 2 2 2 2 2 2 2 2 2 2 2 2 2 2\u000aleft_child=1 3 10 20 -4 17 7 8 21 12 11 -2 14 -14 16 -15 -8 -3 -19 -16 -1 -7 23 24 25 27 -27 -5 -25 -30\u000aright_child=2 5 4 22 -6 6 9 -9 -10 -11 -12 -13 13 15 19 -17 -18 18 -20 -21 -22 -23 -24 28 -26 26 -28 -29 29 -31\u000aleaf_value=-0.087014004911409787 0.0078529461896106739 -0.039752474974482199 0.10340305619659132 -0.10912000662648025 0.035461714513044362 0.1373833106493729 0.025208565057429889 -0.11720584322603143 1.1632757916073451 0.093224830491198563 0.041239336587718126 0.052475468800667037 -0.087043965584886362 1.2965133249746861 1.3592156973881224 -0.10549452812742817 -0.046880918039647113 1.0074915405054603 0.13510127365931318 -0.11748321448380548 0.22772352083031377 0.60403684110925482 -0.09700726654502205 -0.093777416779285278 -0.025715239864708996 0.84969992337744937 0.19694553710568138 0.12109090437056867 0.21140001944760944 -0.10427551261738158\u000aleaf_count=373894 19544 22301 1695 985 1319 740 11172 508 25 1987 18827 2762 7292 20 20 45 5726 21 221 25 98 20 13492 19017 7684 24 244 1666 1578 3513\u000ainternal_value=0 -0.604204 0.459593 -0.793236 0.934463 -0.0675856 0.114532 1.29214 1.81945 0.0253244 0.30574 0.169257 -0.0745144 -0.777615 0.0540908 6.56129 0.0388983 -0.352805 2.24102 7.87566 -0.864433 1.6525 -0.42285 -0.257499 0.23004 0.988655 3.15798 0.638727 -0.657268 0.196899\u000ainternal_count=516465 472318 44147 422195 3014 50123 27580 1293 785 26287 41133 22306 24300 7357 16943 65 16898 22543 242 45 373992 760 48203 34711 10603 2919 268 2651 24108 5091\u000ashrinkage=0.1\u000a\u000a\u000aTree=16\u000anum_leaves=31\u000anum_cat=0\u000asplit_feature=88 89 29 94 5 84 65 14 64 12 93 39 97 78 14 92 128 144 83 103 69 143 73 86 56 80 65 72 42 93\u000asplit_gain=9216.45 1685.47 1391.56 339.767 285.814 218.139 272.371 215.738 198.057 197.295 193.803 256.541 193.39 190.133 320.256 284.261 361.287 279.823 399.791 239.764 254.27 235.686 287.345 187.966 180.482 178.791 188.321 189.234 227.298 178.381\u000athreshold=3.5000000000000004 -1.0000000180025095e-35 4.5000000000000009 1.5000000000000002 -1.0000000180025095e-35 1.0000000180025095e-35 12174.500000000002 -1.0000000180025095e-35 2.5000000000000004 4.0000000000000009 1.0000000180025095e-35 1.0000000180025095e-35 17.500000000000004 1.0000000180025095e-35 -1.0000000180025095e-35 9.5000000000000018 25.500000000000004 8.5000000000000018 43.500000000000007 72351.500000000015 1419.5000000000002 16.500000000000004 3823.5000000000005 1101.0000000000002 4288.0000000000009 1.5000000000000002 2031.5000000000002 5.5000000000000009 2.5000000000000004 40.500000000000007\u000adecision_type=2 2 2 2 2 2 2 2 2 2 2 2 2 2 2 2 2 2 2 2 2 2 2 2 2 2 2 2 2 2\u000aleft_child=1 3 5 9 -4 29 -7 10 -8 -1 23 -12 -13 -5 15 17 -17 21 -19 -20 -21 22 -15 -3 -14 26 -6 28 -28 -2\u000aright_child=2 7 4 13 25 6 8 -9 -10 -11 11 12 24 14 -16 16 -18 18 19 20 -22 -23 -24 -25 -26 -27 27 -29 -30 -31\u000aleaf_value=-0.085108841328159587 0.0039648030532688956 -0.058644443396222413 0.099425753739877165 -0.065697346792927852 0.17303219960891136 0.055470039128833387 0.021113181905426964 -0.051145576506371519 0.13421307659132917 0.50493203654511498 -0.015840383103479686 0.071318413429555 -0.012836321085042263 0.11412567449918175 -0.10475087946838146 -0.1080323226713374 1.0603516441161844 -0.10653600447184695 0.19966045012562939 1.3043362382008088 0.45585621300392387 -0.075560011233644531 -0.10381390897988792 0.050145984427973349 0.34241377887079166 0.154521841474378 -0.10978701666212763 0.14469637268028041 0.027481438191771963 0.1942444618253823\u000aleaf_count=373968 11225 8344 1695 31117 26 8517 21204 17818 128 24 12188 5941 4179 2311 5987 95 21 543 194 23 70 5464 2378 1633 20 24 653 54 562 59\u000ainternal_value=0 -0.579483 0.418614 -0.773319 0.889871 0.274288 0.340777 -0.0646087 0.233685 -0.847815 0.0399153 0.171794 0.449064 -0.40159 -0.0381257 0.337219 5.43912 0.246795 2.27011 4.22163 7.00262 0.0183682 0.578117 -0.352655 -0.0316645 0.319073 0.122454 -0.0608026 -0.279555 0.0648223\u000ainternal_count=516465 472318 44147 422195 3014 41133 29849 50123 21332 373992 32305 22328 10140 48203 17086 11099 116 10983 830 287 93 10153 4689 9977 4199 1319 1295 1269 1215 11284\u000ashrinkage=0.1\u000a\u000a\u000aTree=17\u000anum_leaves=31\u000anum_cat=0\u000asplit_feature=88 89 29 94 50 14 43 53 148 67 149 147 117 93 35 100 13 68 15 140 143 12 93 93 148 127 65 25 66 140\u000asplit_gain=7820.48 1570.12 1278.57 327.335 276.541 208.501 227.557 225.299 198.53 244.836 294.599 217.213 231.174 224.707 198.868 198.436 255.787 210.139 197.926 353.515 196.028 188.804 278.752 625.358 186.927 296.121 200.368 199.299 183.458 220.357\u000athreshold=3.5000000000000004 -1.0000000180025095e-35 4.5000000000000009 1.5000000000000002 340.50000000000006 -1.0000000180025095e-35 -1.0000000180025095e-35 1.0000000180025095e-35 19.500000000000004 1880.0000000000002 20.500000000000004 5.5000000000000009 218.50000000000003 139.50000000000003 1.0000000180025095e-35 4601.5000000000009 -1.0000000180025095e-35 1646.5000000000002 1.0000000180025095e-35 1527249600.0000002 11.500000000000002 -1.0000000180025095e-35 257.50000000000006 265.50000000000006 27.500000000000004 43.500000000000007 19184.500000000004 1.0000000180025095e-35 217.50000000000003 1543060800.0000002\u000adecision_type=2 2 2 2 2 2 2 2 2 2 2 2 2 2 2 2 2 2 2 2 2 2 2 2 2 2 2 2 2 2\u000aleft_child=1 3 5 21 -4 7 -7 28 -3 11 14 13 -13 15 -11 16 -10 -18 24 -20 -9 22 -1 -24 -14 27 -27 -26 29 -2\u000aright_child=2 8 4 -5 -6 6 -8 20 9 10 -12 12 18 -15 -16 -17 17 -19 19 -21 -22 -23 23 -25 25 26 -28 -29 -30 -31\u000aleaf_value=-0.099378720664629439 0.025192906559998497 -0.032423041020182918 0.094692112734504175 -0.038264683729451715 0.022970229447854304 0.0067344880372564326 -0.099927069204514163 -0.07881444234922734 0.063753713816748589 0.046856431928388093 0.18326355258834037 0.018789329471647725 -0.090313943383878673 0.47578766265557565 -0.079311356690686383 -0.079955604076795306 1.5432827298797454 -0.10464759949075245 0.7487584348357913 -0.10530229212066636 0.080123162203976292 -0.070147777917403606 2.4878482958616832 -0.10263666730099315 -0.11082834331688758 -0.10577999062885918 0.89409910447278351 0.55445630628402953 -0.035190165212079044 0.10657303444289878\u000aleaf_count=170405 26041 22543 1851 48203 1163 5642 1313 316 3675 3609 688 5490 9938 73 1571 1626 20 29 53 277 1656 203447 20 120 414 61 20 36 5657 508\u000ainternal_value=0 -0.554398 0.381282 -0.752901 0.848542 0.246142 -0.0440007 0.291897 -0.0595459 0.10436 0.471872 -0.13137 -0.347498 0.452357 0.275836 0.340174 0.724167 9.43018 -0.691136 2.40416 0.69583 -0.830397 -0.985642 7.01111 -0.77469 1.17819 6.06219 -0.140183 0.250783 0.275505\u000ainternal_count=516465 472318 44147 422195 3014 41133 6955 34178 50123 27580 5868 21712 16289 5423 5180 5350 3724 49 10799 330 1972 373992 170545 140 10469 531 81 450 32206 26549\u000ashrinkage=0.1\u000a\u000a\u000aTree=18\u000anum_leaves=31\u000anum_cat=0\u000asplit_feature=88 89 29 86 9 80 86 130 67 55 115 77 103 12 8 65 93 117 73 130 151 63 71 64 14 20 66 65 97 144\u000asplit_gain=6638.71 1439.77 1165.89 333.036 272.673 202.625 201.239 241.272 197.142 196.034 203.65 294.542 278.556 209.133 195.318 193.553 185.481 226.702 183.939 277.576 304.032 182.919 182.055 173.47 168.57 188.538 162.101 161.486 185.388 173.148\u000athreshold=3.5000000000000004 -1.0000000180025095e-35 3.5000000000000004 9236.5000000000018 -1.0000000180025095e-35 1.0000000180025095e-35 18168.000000000004 135.50000000000003 1000.5000000000001 335.00000000000006 4.5000000000000009 4.5000000000000009 73586.500000000015 -1.0000000180025095e-35 -1.0000000180025095e-35 2008.5000000000002 7.5000000000000009 274.50000000000006 3823.5000000000005 347.50000000000006 15.500000000000002 25.500000000000004 29.500000000000004 1.0000000180025095e-35 -1.0000000180025095e-35 1.0000000180025095e-35 505.50000000000006 2017.5000000000002 1.5000000000000002 8.5000000000000018\u000adecision_type=2 2 2 2 2 2 2 2 2 2 2 2 2 2 2 2 2 2 2 2 2 2 2 2 2 2 2 2 2 2\u000aleft_child=1 3 5 -1 -4 9 7 -5 23 10 12 13 -2 -12 21 -15 17 -13 -9 -20 -21 -3 -6 -8 -17 -26 -14 28 -10 -29\u000aright_child=2 14 4 6 22 -7 8 18 27 -11 11 16 26 15 -16 24 -18 -19 19 20 -22 -23 -24 -25 25 -27 -28 29 -30 -31\u000aleaf_value=-0.07947943062685929 0.037600262598327015 -0.00099034939918808598 0.024914985632731475 -0.10518268573868289 0.090933412783811424 0.11114903251707037 -0.10400098925992139 0.22388824710776639 0.4946973921596749 0.085034614333598699 -0.067393622763034039 -0.12391529800723639 -0.05447528521501202 0.13140979925568458 -0.040592840523405428 0.023438347474844107 0.10179041689240487 -0.021953410093839942 -0.10315207718324003 -0.10389694813422448 1.6382375994939189 0.078541054255744563 -0.55430509258061333 0.28683798911179731 -0.034380849359869861 0.12774104857699004 0.46906471302503622 -0.070987690682795423 -0.10703406461978848 0.071420951308576827\u000aleaf_count=389812 13989 26333 1411 1589 1924 140 539 892 52 517 3343 1439 1665 96 22500 12720 216 3189 1400 66 20 1290 30 95 3353 89 26 25539 246 1945\u000ainternal_value=0 -0.529535 0.347563 -0.730661 0.791743 0.216448 -0.242397 0.701931 -0.414982 0.201802 0.181926 0.0814848 0.319334 0.16004 -0.057577 0.194711 -0.358365 -0.462698 1.42299 -0.244425 7.69436 0.066133 0.901886 1.51807 0.16981 -0.214487 -0.469531 -0.512671 2.2509 -0.571473\u000ainternal_count=516465 472318 44147 422195 3365 40782 32383 3967 28416 40642 40125 24445 15680 19601 50123 16258 4844 4628 2378 1486 86 27623 1954 634 16162 3442 1691 27782 298 27484\u000ashrinkage=0.1\u000a\u000a\u000aTree=19\u000anum_leaves=31\u000anum_cat=0\u000asplit_feature=88 89 29 94 5 12 64 142 72 95 73 146 28 39 93 151 68 98 14 55 130 145 67 43 93 93 63 80 115 42\u000asplit_gain=5622.14 1332.37 1056.41 321.269 259.526 213.678 205.399 199.715 195.436 189.611 266.263 225.833 173.517 186.553 261.885 185.955 185.688 172.039 179.031 167.191 192.634 171.886 312.474 165.679 162.641 163.265 160.087 158.28 162.94 169.227\u000athreshold=3.5000000000000004 -1.0000000180025095e-35 4.5000000000000009 1.5000000000000002 -1.0000000180025095e-35 -1.0000000180025095e-35 2.5000000000000004 3.5000000000000004 6.5000000000000009 39.500000000000007 869.50000000000011 17.500000000000004 1.0000000180025095e-35 1.0000000180025095e-35 6.5000000000000009 24.500000000000004 1828.5000000000002 165.50000000000003 -1.0000000180025095e-35 291.50000000000006 317.50000000000006 3.5000000000000004 4600.5000000000009 -1.0000000180025095e-35 40.500000000000007 1.0000000180025095e-35 1.0000000180025095e-35 1.5000000000000002 5.5000000000000009 2.5000000000000004\u000adecision_type=2 2 2 2 2 2 2 2 2 2 2 2 2 2 2 2 2 2 2 2 2 2 2 2 2 2 2 2 2 2\u000aleft_child=1 3 7 5 -4 -1 -7 8 17 10 11 -5 13 -3 15 -15 -16 18 19 20 21 -2 26 -20 25 -24 -23 28 29 -6\u000aright_child=2 12 4 9 27 6 -8 -9 -10 -11 -12 -13 -14 14 16 -17 -18 -19 23 -21 -22 22 24 -25 -26 -27 -28 -29 -30 -31\u000aleaf_value=-0.097466411609582027 0.075913826450788952 -0.022574602398657842 0.088744429054310056 0.065457781652542124 -0.090719419537767299 -0.06613804526907946 0.27573569566083284 -0.14435641569814897 0.13123666259841335 -0.094646503932203099 -0.060130762242598591 -0.052035062967200112 -0.099638284542368213 -0.01341409125470297 -0.033287211017008926 0.061943683641425419 0.13602609804313931 0.0838693036010838 -0.00019159082800208167 0.057424603293838333 0.072005138325925103 0.017208931509458753 0.00011064421054348254 -0.094645394389994988 0.19768483040518159 -0.073120797386077394 0.10805592094503112 0.14189745301622636 0.10543129453454217 0.026910329604646895\u000aleaf_count=170545 922 27334 1695 5888 631 203374 73 490 69 13492 23243 5580 2500 16202 885 2160 1042 604 5505 1822 1569 23279 2065 1288 36 3377 107 24 118 546\u000ainternal_value=0 -0.503959 0.31718 -0.708613 0.769646 -0.794158 -0.647888 0.199082 0.206837 -0.330112 -0.161925 0.259785 -0.0524718 -0.0115995 0.190478 0.0384156 0.966962 0.195508 0.17819 0.221232 0.184843 0.154339 0.128879 -0.0983517 -0.339769 -0.39567 0.191124 0.231255 0.0498465 -0.204701\u000ainternal_count=516465 472318 44147 422195 3014 373992 203447 41133 40643 48203 34711 11468 50123 47623 20289 18362 1927 40574 39970 33177 31355 29786 28864 6793 5478 5442 23386 1319 1295 1177\u000ashrinkage=0.1\u000a\u000a\u000aTree=20\u000anum_leaves=31\u000anum_cat=0\u000asplit_feature=88 89 29 94 5 12 75 95 73 149 94 99 99 103 14 14 74 65 100 149 87 113 93 87 97 64 67 103 49 107\u000asplit_gain=4758.9 1222.1 952.791 310.172 244.43 219.995 181.567 176.383 227.252 207.378 381.959 271.829 365.064 196.501 177.136 166.749 163.733 161.144 152.603 196.601 189.39 174.251 166.871 229.668 301.205 152.563 149.929 177.564 181.009 189.074\u000athreshold=3.5000000000000004 -1.0000000180025095e-35 4.5000000000000009 1.5000000000000002 -1.0000000180025095e-35 -1.0000000180025095e-35 2.5000000000000004 39.500000000000007 3.5000000000000004 23.500000000000004 7.5000000000000009 1833.5000000000002 1808.5000000000002 29962.500000000004 -1.0000000180025095e-35 -1.0000000180025095e-35 2.5000000000000004 18313.500000000004 546.00000000000011 10.500000000000002 3.5000000000000004 8.5000000000000018 80.500000000000014 5.5000000000000009 31.500000000000004 2.5000000000000004 1616.0000000000002 8125.0000000000009 10226.000000000002 24.500000000000004\u000adecision_type=2 2 2 2 2 2 2 2 2 2 2 2 2 2 2 2 2 2 2 2 2 2 2 2 2 2 2 2 2 2\u000aleft_child=1 3 6 5 -4 -1 -2 8 13 -10 11 12 17 16 -15 -3 -5 -11 19 20 21 -17 -20 -24 -25 -7 27 -8 29 -29\u000aright_child=2 15 4 7 -6 25 26 -9 9 10 -12 -13 -14 14 -16 18 -18 -19 22 -21 -22 -23 23 24 -26 -27 -28 28 -30 -31\u000aleaf_value=-0.096783426553011045 0.006707157252564603 0.0042438512463953129 0.085381440044890802 0.11293971665177244 0.021066743957592397 -0.063630085567506586 0.023011823846220567 -0.09351189371300675 -0.089462783678954605 0.30279123775792266 -0.10333852754277889 -0.10431510106502287 1.5788920614294657 0.093223302604228564 -0.1060352635865385 0.40352491776716737 -0.075689527421924641 -0.10439354274994711 -0.074681165048980952 -0.10549943285559758 -0.10522467840159277 -0.10518404036439095 -0.10619355838477738 0.10379720862699127 0.89798342983503354 0.20700639486736391 0.034888320064479436 -0.019929265541227613 0.19233462759373149 -0.15677337685586418\u000aleaf_count=170545 22078 32305 1695 580 1319 203374 2669 13492 19017 532 3511 709 21 3096 1239 186 5688 318 15495 897 378 208 456 161 37 73 14653 947 21 765\u000ainternal_value=0 -0.478974 0.289568 -0.685752 0.73322 -0.774603 0.179542 -0.309183 -0.149957 -0.552018 0.307567 1.72697 2.73356 0.250661 0.689715 -0.0482106 -0.382645 2.34249 -0.46158 0.727706 1.88766 3.0061 -0.621905 1.27236 3.52753 -0.622814 0.282759 0.00474534 -0.498021 -0.652143\u000ainternal_count=516465 472318 44147 422195 3014 373992 41133 48203 34711 24108 5091 1580 871 10603 4335 50123 6268 850 17818 1669 772 394 16149 654 198 203447 19055 4402 1733 1712\u000ashrinkage=0.1\u000a\u000a\u000aTree=21\u000anum_leaves=31\u000anum_cat=0\u000asplit_feature=88 89 29 86 93 133 67 50 64 61 117 83 103 108 97 78 145 140 117 105 128 143 145 93 93 93 97 147 65 127\u000asplit_gain=4039.69 1069.38 806.837 247.598 250.444 241.128 943.181 232.709 215.247 213.533 921.931 241.234 238.656 1385.34 1295.4 213.82 353.538 927.635 1018.11 269.934 736.24 227.624 542.274 448.562 272.404 892.031 968.017 659.123 543.305 445.438\u000athreshold=4.5000000000000009 -1.0000000180025095e-35 4.5000000000000009 9236.5000000000018 8.5000000000000018 1.0000000180025095e-35 1001.5000000000001 340.50000000000006 2.5000000000000004 1.0000000180025095e-35 89.500000000000014 7.5000000000000009 5195.0000000000009 10417492.000000002 7.5000000000000009 1.0000000180025095e-35 27.500000000000004 1523793600.0000002 548.50000000000011 30.500000000000004 6.5000000000000009 18.500000000000004 4.5000000000000009 18.500000000000004 27.500000000000004 31.500000000000004 8.5000000000000018 9.5000000000000018 18343.500000000004 29.500000000000004\u000adecision_type=2 2 2 2 2 2 2 2 2 2 2 2 2 2 2 2 2 2 2 2 2 2 2 2 2 2 2 2 2 2\u000aleft_child=1 3 8 4 -1 9 -7 -4 -2 11 -11 -6 13 -13 -15 16 19 18 -18 21 -21 -14 23 -23 -24 26 28 -27 -26 -29\u000aright_child=2 -3 7 -5 5 6 -8 -9 -10 10 -12 12 15 14 -16 -17 17 -19 -20 20 -22 22 24 -25 25 27 -28 29 -30 -31\u000aleaf_value=-0.075414205906253209 0.016048327735681902 -0.0036076972874097123 0.080901726112080519 -0.01880059968710808 -0.083165301235356176 3.3102615425650614 0.1594198545321478 0.013523412808846381 0.12307343299848301 3.2807307952322233 -0.10199319784234764 0.08753864405916198 -0.10324862819989487 4.250132670193822 -0.10372020734337879 -0.04584783247522585 -0.10467748238735675 -0.1044341451275 3.5109449714627816 3.0544617559878837 -0.10412538205664666 -0.10319617012884315 -0.022908854179237628 3.1915463687119985 4.015154788169446 -0.1028071832773238 -0.1022670460826707 -0.10229283010848872 -0.10206941217240513 3.2670656508164364\u000aleaf_count=352507 34484 50234 1851 32383 21408 20 356 1163 78 20 190 1110 2745 20 55 14695 53 223 31 23 90 30 1813 21 20 699 73 30 20 20\u000ainternal_value=0 -0.43602 0.277621 -0.629433 -0.689627 -0.216216 3.91893 0.69656 0.174134 -0.275509 6.46642 -0.308177 0.169434 2.58509 24.0033 -0.0263803 1.03391 7.3316 20.5755 0.618465 9.52314 0.379332 1.68535 19.104 1.19988 4.25538 18.5623 1.11912 32.3901 19.945\u000ainternal_count=516465 478889 37576 428655 396272 43765 376 3014 34562 43389 210 43179 21771 1185 75 20586 5891 307 84 5584 113 5471 2726 51 2675 862 113 749 40 50\u000ashrinkage=0.1\u000a\u000a\u000aTree=22\u000anum_leaves=31\u000anum_cat=0\u000asplit_feature=88 89 29 94 5 12 78 14 103 145 72 142 151 35 95 91 65 25 149 64 8 90 41 102 100 128 146 93 65 93\u000asplit_gain=3562.62 1084.41 753.143 311.373 222.897 213.804 173.148 268.034 222.132 213.609 168.809 163.009 160.764 158.406 209.513 221.044 248.956 255.051 224.893 258.072 227.086 216.829 271.817 214.013 349.922 350.935 275.493 224.827 229.258 204.22\u000athreshold=3.5000000000000004 -1.0000000180025095e-35 4.5000000000000009 1.5000000000000002 -1.0000000180025095e-35 -1.0000000180025095e-35 1.0000000180025095e-35 -1.0000000180025095e-35 8099.5000000000009 27.500000000000004 6.5000000000000009 3.5000000000000004 7.5000000000000009 1.0000000180025095e-35 -1.0000000180025095e-35 2.5000000000000004 2008.5000000000002 -1.0000000180025095e-35 21.500000000000004 1.0000000180025095e-35 -1.0000000180025095e-35 1.0000000180025095e-35 1.0000000180025095e-35 1.5000000000000002 6434.5000000000009 12.500000000000002 10.500000000000002 6.5000000000000009 5781.5000000000009 1.0000000180025095e-35\u000adecision_type=2 2 2 2 2 2 2 2 2 2 2 2 2 2 2 2 2 2 2 2 2 2 2 2 2 2 2 2 2 2\u000aleft_child=1 3 10 5 -4 -1 -5 8 9 -8 11 -2 -10 14 15 18 -17 -18 19 23 -20 -16 -23 24 26 -26 -3 -25 -29 -27\u000aright_child=2 13 4 6 -6 -7 7 -9 12 -11 -12 -13 -14 -15 21 16 17 -19 20 -21 -22 22 -24 27 25 29 -28 28 -30 -31\u000aleaf_value=-0.096116971404149085 0.014447394629570559 0.1312605780131588 0.078903160963979257 -0.055301973826475649 0.016646729287992556 -0.059742678480770396 -0.10377279733795114 -0.10360978923786419 -0.10889426855545617 0.26238811484577323 0.1202281039224681 -0.14011026757011502 0.10154472688081538 -0.043312558176841279 -0.059116097106354341 0.28119837485634142 0.16287143398547263 -0.06488746343271351 0.22649371766992232 0.31688669369818534 -0.10546284780698907 -0.038165417512827454 0.081001819956843774 -0.030987107989133462 -0.1131689946895868 -0.10769069214057424 -0.030476176310431827 0.24840218694809257 -0.045340977303493679 0.3877553850538823\u000aleaf_count=170545 40574 814 1695 31117 1319 203447 4679 5987 1009 188 70 489 5223 11263 10219 40 84 6532 447 100 611 5914 1632 7500 320 157 3393 217 500 380\u000ainternal_value=0 -0.441648 0.241885 -0.655529 0.660483 -0.752693 -0.267526 0.0991367 0.425201 -0.604353 0.147874 0.13763 0.808746 -0.0416472 0.0499777 0.263642 -0.270691 -0.415169 0.46938 0.340565 1.67198 -0.22403 0.152652 0.27098 0.747612 2.37781 0.352037 -0.0798635 1.24611 3.32153\u000ainternal_count=516465 472318 44147 422195 3014 373992 48203 17086 11099 4867 41133 41063 6232 50123 38860 21095 6656 6616 14439 13381 1058 17765 7546 13281 5064 857 4207 8217 717 537\u000ashrinkage=0.1\u000a\u000a\u000aTree=23\u000anum_leaves=31\u000anum_cat=0\u000asplit_feature=88 89 9 94 80 78 113 67 145 9 72 115 29 67 143 12 129 68 68 103 145 91 53 93 115 72 95 73 149 94\u000asplit_gain=3015.45 972.851 682.075 293.438 258.566 244.314 380.674 351.328 272.509 267.14 248.052 248.374 243.368 243.086 251.943 219.587 200.353 171.961 388.338 198.161 183.148 182.74 383.188 186.173 169.463 167.053 166.41 197.122 186.405 280.655\u000athreshold=3.5000000000000004 -1.0000000180025095e-35 1.0000000180025095e-35 1.5000000000000002 1.0000000180025095e-35 1.0000000180025095e-35 4.5000000000000009 1867.5000000000002 5.5000000000000009 -1.0000000180025095e-35 2.5000000000000004 4.5000000000000009 4.5000000000000009 5000.5000000000009 22.500000000000004 -1.0000000180025095e-35 3.5000000000000004 4700.5000000000009 3492.5000000000005 73586.500000000015 12.500000000000002 6.5000000000000009 -1.0000000180025095e-35 6.5000000000000009 4.5000000000000009 5.5000000000000009 39.500000000000007 3.5000000000000004 23.500000000000004 7.5000000000000009\u000adecision_type=2 2 2 2 2 2 2 2 2 2 2 2 2 2 2 2 2 2 2 2 2 2 2 2 2 2 2 2 2 2\u000aleft_child=1 3 4 15 5 6 16 9 -7 10 -8 -12 17 14 -9 -1 -2 18 19 21 -19 24 23 25 -10 -23 27 -5 -29 -30\u000aright_child=2 -3 -4 26 -6 8 7 13 12 -11 11 -13 -14 -15 -16 -17 -18 20 -20 -21 -22 22 -24 -25 -26 -27 -28 28 29 -31\u000aleaf_value=-0.095356855645559568 -0.15279545945405937 -0.0040650080860061555 0.096293367483942918 0.02769875839678157 0.10638439395499476 0.086498956129314686 -0.14500796210256867 -0.082076553988590456 0.028028874132237449 0.057307761173762461 0.065597103728024242 -0.048421361896148624 0.059458347582154229 0.01680527930784816 0.02210803680998627 -0.057045186530428171 -0.027319900544361609 0.0049602390642723504 0.11837806056777 -0.049915124487399626 -0.086995343863367491 -0.01132012281184018 0.088517280927304626 0.11455616567110767 -0.005641395662581988 0.1089645277424046 -0.09189417702515007 -0.08692419739410584 0.1380793745851015 -0.10338065684549103\u000aleaf_count=170545 1122 50123 518 10603 168 1137 674 3838 5876 2284 584 1007 1213 2533 684 203447 861 2411 687 1643 1547 4103 1138 288 9750 81 13492 19017 1580 3511\u000ainternal_value=0 -0.418769 0.219808 -0.631167 0.171458 0.155202 -0.0337227 0.0611042 0.229078 0.31876 -0.118004 0.0923992 0.195024 -0.248206 -0.539705 -0.73059 -0.84953 0.144031 0.184631 0.144213 -0.255816 0.177539 0.398204 0.0989813 0.0832954 -0.0102268 -0.250659 -0.09569 -0.501199 0.309592\u000ainternal_count=516465 472318 44147 422195 43629 43461 13587 11604 29874 4549 2265 1591 28737 7055 4522 373992 1983 27524 23566 22879 3958 21236 5610 4472 15626 4184 48203 34711 24108 5091\u000ashrinkage=0.1\u000a\u000a\u000aTree=24\u000anum_leaves=31\u000anum_cat=0\u000asplit_feature=88 89 9 94 12 80 65 142 10 99 78 148 103 57 67 6 114 72 148 50 128 12 66 83 140 103 65 65 66 95\u000asplit_gain=2537.11 883.783 621.496 275.422 224.322 224.143 226.539 212.201 214.656 218.414 194.889 207.647 204.054 175.617 197.343 192.934 240.917 199.035 191.775 214.276 175.009 171.127 165.293 161.017 198.768 219.218 194.837 158.306 156.638 152.14\u000athreshold=3.5000000000000004 -1.0000000180025095e-35 1.0000000180025095e-35 1.5000000000000002 -1.0000000180025095e-35 1.5000000000000002 2008.5000000000002 3.5000000000000004 1.0000000180025095e-35 2447.5000000000005 1.0000000180025095e-35 6.5000000000000009 73586.500000000015 3.0000000000000004 1430.5000000000002 -1.0000000180025095e-35 1.0000000180025095e-35 6.5000000000000009 21.500000000000004 6580.5000000000009 28.500000000000004 4.0000000000000009 73.000000000000014 54999.000000000007 1529323200.0000002 6305.0000000000009 24092.000000000004 14246.500000000002 202.50000000000003 39.500000000000007\u000adecision_type=2 2 2 2 2 2 2 2 2 2 2 2 2 2 2 2 2 2 2 2 2 2 2 2 2 2 2 2 2 2\u000aleft_child=1 3 5 4 -1 6 -2 8 9 13 27 -12 20 14 -8 16 17 18 19 -16 22 -6 -13 -17 25 26 -25 -11 -18 -5\u000aright_child=2 -3 -4 29 21 -7 7 -9 -10 10 11 12 -14 -15 15 23 28 -19 -20 -21 -22 -23 -24 24 -26 -27 -28 -29 -30 -31\u000aleaf_value=-0.09455529218407871 0.094993395353533946 -0.0036688342793010833 0.093869110212384088 -0.0089509494835980103 -0.055262810751665392 0.10260256498121355 -0.01871176113928057 -0.15373095413909696 0.060582649516608737 0.0074530490909952276 0.080412106638087177 0.18583751620440508 -0.10049503717282404 0.086455007830166838 -0.041974657585568592 0.036497880484403264 0.14627367387981735 0.13276868022350902 -0.08592410021903564 0.11691525819320236 -0.089950558378477305 0.48654110825124058 0.0077947221295018611 -0.035475487787558289 0.031018481838645424 -0.092933737299482566 0.11670122472924603 -0.057763294946167713 0.01355410209830364 -0.090602197377631311\u000aleaf_count=170545 340 50123 518 34711 203423 155 4467 538 886 1524 709 89 915 469 2132 9979 161 25 2416 126 724 24 7988 672 2092 1429 162 4057 1574 13492\u000ainternal_value=0 -0.393759 0.200458 -0.606282 -0.707701 0.15558 0.141019 0.124918 0.132404 0.105697 -0.058597 0.0668049 -0.00824794 0.188419 0.164119 0.218573 -0.110494 -0.370117 -0.481835 0.0342731 0.0518659 -0.543301 0.109138 0.284206 0.016544 -0.375528 0.15987 -0.347365 0.514195 -0.234315\u000ainternal_count=516465 472318 44147 422195 373992 43629 43474 43134 42596 41710 16006 10425 9716 25704 25235 20768 6434 4699 4674 2258 8801 203447 8077 14334 4355 2263 834 5581 1735 48203\u000ashrinkage=0.1\u000a\u000a\u000aTree=25\u000anum_leaves=31\u000anum_cat=0\u000asplit_feature=88 89 9 63 86 25 93 64 65 53 119 78 145 113 67 5 68 64 143 77 117 148 53 101 129 103 146 143 140 99\u000asplit_gain=2128.61 738.537 550.061 232.413 224.671 230.779 247.966 221.625 198.941 196.599 188.14 173.058 277.339 252.669 246.032 289.066 269.585 218.93 214.26 186.193 238.486 198.217 184.294 180.511 163.489 162.77 344.796 1281.84 1841.35 569.896\u000athreshold=4.5000000000000009 -1.0000000180025095e-35 1.0000000180025095e-35 1.0000000180025095e-35 9236.5000000000018 -1.0000000180025095e-35 226.50000000000003 2.5000000000000004 2017.5000000000002 1.0000000180025095e-35 161.50000000000003 1.0000000180025095e-35 13.500000000000002 4.5000000000000009 1881.5000000000002 -1.0000000180025095e-35 5010.5000000000009 1.0000000180025095e-35 12.500000000000002 3.5000000000000004 196.50000000000003 20.500000000000004 -1.0000000180025095e-35 1.0000000180025095e-35 3.5000000000000004 72537.000000000015 25.500000000000004 15.500000000000002 1541419200.0000002 3504.5000000000005\u000adecision_type=2 2 2 2 2 2 2 2 2 2 2 2 2 2 2 2 2 2 2 2 2 2 2 2 2 2 2 2 2 2\u000aleft_child=1 4 3 7 5 25 -7 8 -2 10 11 13 -13 24 15 -15 -16 22 -14 -20 -21 -22 23 -17 -10 -1 -27 28 -28 -29\u000aright_child=2 -3 -4 -5 -6 6 -8 -9 9 -11 -12 12 18 14 16 17 -18 -19 19 20 21 -23 -24 -25 -26 26 27 29 -30 -31\u000aleaf_value=-0.056404885400172036 0.081719658899878381 -0.002776476866767982 0.091479918209130331 0.11630434312416674 -0.010397343464968877 -0.086176022766569438 0.3001099192474781 0.11556232091767392 -0.1513648328479299 0.04023074833660141 -0.13535320424370462 0.054777379364374802 -0.079686534177595442 0.047311817021900321 -0.073485839673813808 -0.18665147833473283 0.014313238192203133 -0.15456880726718195 0.019851591186184441 -0.082894871476719326 -0.075691673124005043 0.014916809367506429 -0.17237773340768461 0.024350531187972493 -0.02677068342923913 -0.027892590400745199 -0.10187253533779311 0.033809611432334206 4.8325246294589927 1.0367714537690038\u000aleaf_count=163095 384 50234 518 69 32383 186114 251 104 872 3240 404 2644 1057 2242 3382 179 1854 454 11855 1663 1148 3467 275 1123 642 42468 102 4034 26 182\u000ainternal_value=0 -0.352588 0.192982 0.150337 -0.543281 -0.611355 -0.837513 0.136736 0.123671 0.106221 0.0648115 0.0742408 0.144988 -0.100801 -0.0146168 0.195741 -0.339766 -0.281415 0.0758022 0.10471 -0.136729 0.0130415 -0.0657366 0.0963186 -0.829647 -0.454479 -0.0676836 1.85757 22.0219 1.09921\u000ainternal_count=516465 478889 37576 37058 428655 396272 186365 36989 36885 36501 33261 32857 21834 11023 9509 4273 5236 2031 19190 18133 6278 4615 1577 1302 1514 209907 46812 4344 128 4216\u000ashrinkage=0.1\u000a\u000a\u000aTree=26\u000anum_leaves=31\u000anum_cat=0\u000asplit_feature=88 89 9 94 12 84 65 53 64 75 12 64 28 148 146 120 128 78 14 103 145 67 83 98 91 66 66 98 143 15\u000asplit_gain=1836.31 737.66 509.996 273.486 214.419 187.719 187.099 202.221 173.254 162.98 160.27 153.8 151 155.121 195.397 190.529 182.282 147.579 230.772 176.48 163.748 146.415 146.744 145.948 145.35 180.138 264.428 1359.32 2125.33 177.834\u000athreshold=3.5000000000000004 -1.0000000180025095e-35 1.0000000180025095e-35 1.5000000000000002 -1.0000000180025095e-35 1.0000000180025095e-35 12174.500000000002 1.0000000180025095e-35 2.5000000000000004 7.5000000000000009 1.0000000180025095e-35 2.5000000000000004 1.0000000180025095e-35 19.500000000000004 9.5000000000000018 1.0000000180025095e-35 22.500000000000004 1.0000000180025095e-35 -1.0000000180025095e-35 8099.5000000000009 27.500000000000004 1275.5000000000002 3.5000000000000004 167.50000000000003 6.5000000000000009 58.500000000000007 97.000000000000014 61.500000000000007 24.500000000000004 1.0000000180025095e-35\u000adecision_type=2 2 2 2 2 2 2 2 2 2 2 2 2 2 2 2 2 2 2 2 2 2 2 2 2 2 2 2 2 2\u000aleft_child=1 3 5 4 -1 10 9 8 -8 -7 21 24 13 15 16 23 -15 -5 19 20 -19 -2 -23 -3 -6 -26 27 -27 -29 -28\u000aright_child=2 12 -4 17 11 6 7 -9 -10 -11 -12 -13 -14 14 -16 -17 -18 18 -20 -21 -22 22 -24 -25 25 26 29 28 -30 -31\u000aleaf_value=-0.092979726903305943 -0.11204466497310486 -0.032800221661248311 0.089106599281657983 -0.047335897689141197 -0.078645215728194787 0.037110347360687614 0.0023073608544131952 0.048765173961270621 0.10964837860368995 -0.20270495815074516 0.12920514680448969 0.2261280499260081 -0.096640115042395669 -0.0091442002253149957 0.011162168279337921 0.31743566204190699 0.32978578649667134 -0.10333797173132345 -0.10311507063666732 0.077013057001185076 0.20106280519361347 -0.14262039491578424 -0.0023850969914484543 0.17270740972960566 -0.10206292169982772 0.025418150775481641 -0.028900125591692201 -0.10147832912385711 5.4034700201360337 0.288971825140173\u000aleaf_count=170545 649 21013 518 31117 85678 8944 20768 1816 142 149 61 73 2500 260 25922 93 103 4679 5987 6232 188 357 10743 232 22352 745 93322 109 20 1148\u000ainternal_value=0 -0.350922 0.167404 -0.562239 -0.672477 0.129009 0.186766 0.103469 0.0443963 0.355548 -0.0574592 -0.508492 -0.0303852 0.00689754 0.155256 -0.244369 1.86678 -0.184255 0.160194 0.446632 -0.554012 -0.0862704 -0.0511911 -0.280445 -0.526384 -0.345142 -0.198392 3.20169 23.6729 -0.250486\u000ainternal_count=516465 472318 44147 422195 373992 43629 31819 22726 20910 9093 11810 203447 50123 47623 26285 21338 363 48203 17086 11099 4867 11749 11100 21245 203374 117696 95344 874 129 94470\u000ashrinkage=0.1\u000a\u000a\u000aTree=27\u000anum_leaves=31\u000anum_cat=0\u000asplit_feature=88 89 9 94 12 142 12 72 10 84 65 99 55 103 103 130 12 128 146 147 87 65 78 15 117 65 128 68 68 129\u000asplit_gain=1577.35 682.689 461.298 265.048 197.25 180.081 196.638 177.949 168.159 179.938 172.224 165.143 168.149 152.232 221.908 1408.16 201.744 439.32 1053.99 215.385 363.678 1509.16 292.666 405.292 732.658 320.788 1048.41 241.614 1089.23 526.438\u000athreshold=3.5000000000000004 -1.0000000180025095e-35 1.0000000180025095e-35 1.5000000000000002 -1.0000000180025095e-35 3.5000000000000004 1.0000000180025095e-35 6.5000000000000009 1.0000000180025095e-35 1.0000000180025095e-35 2065.5000000000005 2447.5000000000005 291.50000000000006 29195.000000000004 29205.000000000004 337.50000000000006 1.0000000180025095e-35 3.5000000000000004 16.500000000000004 6.5000000000000009 8.5000000000000018 29884.500000000004 1.0000000180025095e-35 1.0000000180025095e-35 92.500000000000014 36764.500000000007 4.5000000000000009 1827.0000000000002 1828.5000000000002 1.5000000000000002\u000adecision_type=2 2 2 2 2 2 2 2 2 2 2 2 2 2 2 2 2 2 2 2 2 2 2 2 2 2 2 2 2 2\u000aleft_child=1 3 5 4 -1 6 7 8 9 -2 -11 12 -12 -6 15 -15 19 18 -18 -16 22 -22 25 -24 -25 27 -27 -21 -29 -30\u000aright_child=2 -3 -4 -5 13 -7 -8 -9 -10 10 11 -13 -14 14 16 -17 17 -19 -20 20 21 -23 23 24 -26 26 -28 28 29 -31\u000aleaf_value=-0.092026456477766694 -0.011340903056418092 -0.0028235221076269136 0.086733103086148747 -0.01716012301729606 -0.071311413887870087 -0.14637679771007236 0.092315649177060186 0.11110367693326506 0.054189818171384532 0.063211614063438643 0.014415589524669904 -0.0054069377006933442 0.06344487216226484 -0.10696582516636646 -0.055437412451026118 4.6966500965436202 4.4214599928478773 -0.10266129832177383 0.49076308569277122 0.035733043723669609 -0.10762700752561363 2.8103478664248138 -0.055988707254098671 3.2513712581523886 -0.13332085487595891 4.2643809457752111 -0.10149792591880497 3.8254468808233422 1.1149525972405727 0.03156178946693218\u000aleaf_count=170545 11469 50123 518 48203 111350 543 269 87 853 1031 16308 12100 969 218 70306 21 21 659 62 3659 447 38 15254 20 83 20 121 29 337 802\u000ainternal_value=0 -0.334281 0.151767 -0.546113 -0.659837 0.116434 0.122988 0.108796 0.0983597 0.0758432 0.135177 0.106769 0.195744 -0.501169 -0.259028 6.7803 -0.281797 3.21369 9.56354 -0.323618 0.360815 6.57727 0.190677 -0.418427 11.7738 1.62628 12.6891 1.33544 3.87814 2.70412\u000ainternal_count=516465 472318 44147 422195 373992 43629 43086 42817 42730 41877 30408 29377 17277 203447 92097 239 91858 742 83 91116 20810 485 20325 15357 103 4968 141 4827 1168 1139\u000ashrinkage=0.1\u000a\u000a\u000aTree=28\u000anum_leaves=31\u000anum_cat=0\u000asplit_feature=88 89 9 94 80 12 142 72 117 97 37 147 146 95 37 93 103 87 99 10 65 12 99 42 62 66 78 83 146 97\u000asplit_gain=1392.47 654.4 415.448 271.764 175.125 166.865 151.205 149.533 147.742 194.307 264.298 203.263 214.285 170.377 171.056 147.416 195.433 147.084 161.778 145.789 154.033 150.808 160.871 179.753 142.782 140.615 186.007 140.57 145.125 138.739\u000athreshold=3.5000000000000004 -1.0000000180025095e-35 1.0000000180025095e-35 1.5000000000000002 1.5000000000000002 -1.0000000180025095e-35 3.5000000000000004 6.5000000000000009 1239.5000000000002 39.500000000000007 12.500000000000002 2.5000000000000004 2.5000000000000004 47.500000000000007 6.5000000000000009 1.5000000000000002 72262.500000000015 5.5000000000000009 399.50000000000006 1.0000000180025095e-35 2008.5000000000002 1.0000000180025095e-35 2253.5000000000005 3.5000000000000004 2.5000000000000004 504.50000000000006 1.0000000180025095e-35 5499.0000000000009 8.5000000000000018 9.5000000000000018\u000adecision_type=2 2 2 2 2 2 2 2 2 2 2 2 2 2 2 2 2 2 2 2 2 2 2 2 2 2 2 2 2 2\u000aleft_child=1 3 4 5 6 -1 7 19 9 11 -11 27 -13 29 -15 16 -5 -10 -19 20 -2 22 -22 -24 -9 26 -18 -3 -29 -14\u000aright_child=2 8 -4 15 -6 -7 -8 24 17 10 -12 12 13 14 -16 -17 25 18 -20 -21 21 -23 23 -25 -26 -27 -28 28 -30 -31\u000aleaf_value=-0.091010860349620332 0.076767149121213851 -0.083424184877225291 0.084346209930965296 -0.095146412546571746 0.092093721131216458 -0.051184407844152451 -0.13997815740533626 0.12676487052577901 -0.079492286025566516 0.29451424649937968 -0.11259725497158329 0.42205804966412619 0.041987254531037632 -0.10166265712528605 0.010736606472544666 0.012489540293146518 -0.10362777332001234 0.35843016445302478 0.0029215131615439554 0.049902642141005815 0.012573300200620745 0.088473996887579287 -0.0055860815293794133 -0.11730177626555323 -0.2894875428686064 0.5207178068634094 0.082773314299899925 0.17678467785370211 -0.11020767949041924 -0.0037128164783111783\u000aleaf_count=170545 328 6044 518 17371 155 203447 542 47 6179 334 333 37 13075 4152 2217 24635 3981 66 1315 893 22944 219 17941 521 39 39 2177 343 435 15593\u000ainternal_value=0 -0.322998 0.137864 -0.537023 0.105351 -0.656581 0.0929481 0.0988882 -0.0254614 0.044732 1.6534 0.0126096 0.102757 0.0865605 -0.423733 -0.156718 -0.52289 -0.515018 0.459624 0.0896079 0.0684381 0.0546645 0.0430812 -0.0827449 1.04755 0.210849 0.0880353 -0.599006 0.662825 0.190884\u000ainternal_count=516465 472318 44147 422195 43629 373992 43474 42932 50123 42563 667 41896 35074 35037 6369 48203 23568 7560 1381 42846 41953 41625 41406 18462 86 6197 6158 6822 778 28668\u000ashrinkage=0.1\u000a\u000a\u000aTree=29\u000anum_leaves=31\u000anum_cat=0\u000asplit_feature=88 89 9 86 86 130 64 95 144 86 65 93 80 103 64 68 74 117 117 67 140 128 129 92 84 107 103 130 66 128\u000asplit_gain=1169.34 576.314 372.915 252.319 162.891 177.678 165.864 218.285 169.352 178.331 164.607 152.528 151.651 144.613 218.976 1004.69 1204.58 199.274 1426.01 746.463 875.572 542.726 1273.54 197.105 192.119 168.306 261.428 223.156 1468.82 164.509\u000athreshold=3.5000000000000004 -1.0000000180025095e-35 1.0000000180025095e-35 9236.5000000000018 18168.000000000004 135.50000000000003 1.0000000180025095e-35 8.5000000000000018 8.5000000000000018 47258.500000000007 2017.5000000000002 226.50000000000003 1.0000000180025095e-35 72036.500000000015 1.0000000180025095e-35 1002.5000000000001 9.5000000000000018 121.50000000000001 120.50000000000001 1000.5000000000001 1521806400.0000002 2.5000000000000004 1.0000000180025095e-35 9.5000000000000018 1.0000000180025095e-35 6.5000000000000009 73341.000000000015 362.50000000000006 504.50000000000006 1.5000000000000002\u000adecision_type=2 2 2 2 2 2 2 2 2 2 2 2 2 2 2 2 2 2 2 2 2 2 2 2 2 2 2 2 2 2\u000aleft_child=1 3 12 11 5 -5 8 -8 10 -10 -6 13 -2 14 -1 16 -16 18 19 20 -17 22 -21 -19 29 -26 27 -27 -29 -15\u000aright_child=2 -3 -4 4 6 -7 7 -9 9 -11 -12 -13 -14 24 15 17 -18 23 -20 21 -22 -23 -24 -25 25 26 -28 28 -30 -31\u000aleaf_value=-0.085003611598930245 0.0083724808473779385 -0.0024713991275952842 0.081935282347763372 -0.10526931602955968 0.22043614820933241 0.14162026582629825 0.16785150707931384 -0.10475409147337399 0.20197379738732663 -0.10500978099178604 -0.07474680204924633 0.20568378371430152 0.085464497108811655 0.15308799153735531 -0.1015205538117773 4.8840445534022736 6.4686794987430973 -0.071415577814229025 4.5425003523073499 5.2114222457002519 -0.10305960689461202 -0.10229871440087122 -0.10637081309026747 0.56263224401293865 -0.078954448324462745 0.02342600640509104 -0.074148120968755213 -0.10130421701692981 4.9677322798641015 -0.10263897443222013\u000aleaf_count=212370 43461 50123 518 1589 253 2378 1169 1936 600 1178 23280 500 168 1566 46 22 20 7920 27 20 50 2020 95 28 34666 54327 27632 293 23 48187\u000ainternal_value=0 -0.301922 0.125177 -0.510644 -0.0353595 0.859716 -0.230314 0.783883 -0.443671 0.900227 -0.642654 -0.604072 0.0953071 -0.616143 -0.778282 0.422063 30.2728 0.187366 2.47782 1.37033 23.8325 0.233306 15.7624 -0.424083 -0.427472 -0.246364 -0.0516469 0.271877 7.71132 -0.912987\u000ainternal_count=516465 472318 44147 422195 32383 3967 28416 3105 25311 1778 23533 389812 43629 389312 222618 10248 66 10182 2234 2207 72 2135 115 7948 166694 116941 82275 54643 316 49753\u000ashrinkage=0.1\u000a\u000a\u000aTree=30\u000anum_leaves=31\u000anum_cat=0\u000asplit_feature=88 89 9 86 63 93 25 68 64 97 146 67 35 96 31 63 39 91 65 80 149 112 67 65 117 130 115 99 65 126\u000asplit_gain=1068.45 520.541 326.499 206.082 175.155 172.773 180.379 173.69 163.196 141.562 154.604 227.214 146.466 159.385 180.239 184.923 228.013 156.21 166.508 204.849 161.075 173.782 188.595 201.216 188.026 183.104 250.702 374.804 206.832 187.642\u000athreshold=4.5000000000000009 -1.0000000180025095e-35 1.0000000180025095e-35 9236.5000000000018 1.0000000180025095e-35 212.50000000000003 -1.0000000180025095e-35 1438.0000000000002 2.5000000000000004 58.500000000000007 24.500000000000004 1650.5000000000002 1.0000000180025095e-35 1.0000000180025095e-35 -1.0000000180025095e-35 1.0000000180025095e-35 1.0000000180025095e-35 3.5000000000000004 2008.5000000000002 1.5000000000000002 21.500000000000004 1.0000000180025095e-35 1000.5000000000001 18950.500000000004 1703.5000000000002 253.50000000000003 5.5000000000000009 2136.5000000000005 26757.500000000004 9.5000000000000018\u000adecision_type=2 2 2 2 2 2 2 2 2 2 2 2 2 2 2 2 2 2 2 2 2 2 2 2 2 2 2 2 2 2\u000aleft_child=1 3 4 5 8 6 7 -1 -2 12 -11 -12 13 17 15 -15 -17 20 -19 -20 21 22 -3 -24 25 -23 29 -28 -29 -27\u000aright_child=2 9 -4 -5 -6 -7 -8 -9 -10 10 11 -13 -14 14 -16 16 -18 18 19 -21 -22 24 23 -25 -26 26 27 28 -30 -31\u000aleaf_value=-0.087048288712254021 0.0071543818579590905 0.49023606112737195 0.079492115280494047 -0.0036854732607080423 0.10622629970341835 0.16608587751647333 -0.081544891497085714 -0.03046563542835903 0.10031985973123299 -0.11213015273724854 0.30464253101427879 -0.10774159021233887 -0.037936354564616331 -0.074336936550025087 0.23812421383183638 -0.030843672413583118 0.070367117561122752 0.22181194896724887 -0.057604472567591193 0.1161623406736506 0.15367006154817453 -0.017387323984202133 0.12215812312619473 -0.048438505941405183 0.64811490054303622 0.17270199439188527 0.083153348122470661 0.42086370972870529 1.1486338158812415 -0.051279307067568038\u000aleaf_count=48705 36885 58 518 32383 69 601 186069 160897 104 3534 143 557 10467 6243 81 8665 1496 36 5946 106 847 6452 1868 1111 36 350 435 77 28 1698\u000ainternal_value=0 -0.284476 0.121416 -0.473993 0.0932967 -0.551868 -0.567064 -0.424762 0.0823738 -0.0202756 -0.73149 0.777004 0.0255609 0.114226 -0.13957 -0.189829 0.0496829 0.301874 -0.161789 -0.294439 0.47697 0.368143 0.927613 0.804691 0.122903 0.0893217 0.883527 2.76109 6.38333 0.271125\u000ainternal_count=516465 478889 37576 428655 37058 396272 395671 209602 36989 50234 4234 700 46000 35533 16485 16404 10161 19048 6088 6052 12960 12113 3037 2979 9076 9040 2588 540 105 2048\u000ashrinkage=0.1\u000a\u000a\u000aTree=31\u000anum_leaves=31\u000anum_cat=0\u000asplit_feature=88 89 29 94 12 54 91 55 140 50 99 145 130 95 73 25 95 149 151 65 64 100 14 129 67 144 148 144 105 29\u000asplit_gain=905.017 505.054 312.326 247.374 173.551 163.774 232.162 184.41 183.173 159.718 159.44 150.946 157.341 148.158 160.712 177.379 175.376 180.224 148.11 141.796 141.231 139.923 136.255 133.771 130.693 132.51 130.024 1762.31 994.389 140.157\u000athreshold=3.5000000000000004 -1.0000000180025095e-35 4.5000000000000009 1.5000000000000002 -1.0000000180025095e-35 1.0000000180025095e-35 6.5000000000000009 291.50000000000006 1544616000.0000002 340.50000000000006 3158.5000000000005 25.500000000000004 18.500000000000004 39.500000000000007 869.50000000000011 1.0000000180025095e-35 3.5000000000000004 19.500000000000004 14.500000000000002 18313.500000000004 2.5000000000000004 505.50000000000006 -1.0000000180025095e-35 1.0000000180025095e-35 1000.5000000000001 8.5000000000000018 29.500000000000004 2.5000000000000004 12.500000000000002 1.5000000000000002\u000adecision_type=2 2 2 2 2 2 2 2 2 2 2 2 2 2 2 2 2 2 2 2 2 2 2 2 2 2 2 2 2 2\u000aleft_child=1 3 5 4 26 7 8 11 21 -4 -8 12 -2 14 18 16 17 -16 -5 -19 -6 -7 -3 -17 -20 -26 -1 28 -28 -29\u000aright_child=2 22 9 13 20 6 10 -9 -10 -11 -12 -13 -14 -15 15 23 -18 19 24 -21 -22 -23 -24 -25 25 -27 27 29 -30 -31\u000aleaf_value=-0.095899669944716534 0.04430555823612118 0.0058451605764615394 0.056149908913865745 0.088636504191517959 -0.048438647419859544 -0.1398407362173307 0.049823499915245428 0.069346083967431887 -0.069590964417820297 -0.0037645223172372818 -0.089617000357428672 0.039089378865120449 -0.0013382943277020342 -0.089541140346666881 -0.10208057032547752 0.45825856607248605 -0.10271881221341408 0.16949528028472791 0.15142711789762972 -0.10370903776508129 0.21535514868688121 -0.0074860349920914037 -0.041896455432838792 -0.10302211928018695 -0.060793470552119026 0.10593484214342329 8.0797892352605807 -0.10260868418850536 -0.1007727567543053 0.42122696411885791\u000aleaf_count=167207 1920 32305 1851 3277 203374 343 1320 566 2558 1163 334 2936 19549 13492 3977 65 16795 1091 363 970 73 11607 17818 345 7062 766 20 3264 30 24\u000ainternal_value=0 -0.2797 0.103254 -0.48813 -0.615836 0.0491409 -0.0837343 0.129812 -0.173131 0.426908 0.366214 0.0953975 0.0383848 -0.116242 0.0265721 -0.415499 -0.538922 0.247903 0.349662 1.06055 -0.463224 -0.100363 -0.0229214 2.60933 -0.0748394 -0.301413 -0.909135 1.05601 52.3866 0.010445\u000ainternal_count=516465 472318 44147 422195 373992 41133 16162 24971 14508 3014 1654 24405 21469 48203 34711 23243 22833 6038 11468 2061 203447 11950 50123 410 8191 7828 170545 3338 50 3288\u000ashrinkage=0.1\u000a\u000a\u000aTree=32\u000anum_leaves=31\u000anum_cat=0\u000asplit_feature=88 89 9 94 12 78 113 67 145 67 43 29 143 98 129 68 68 128 148 100 99 52 74 103 91 53 93 75 115 67\u000asplit_gain=781.09 467.768 275.018 231.657 206.142 141.176 236.613 218.474 194.974 179.608 168.797 157.88 157.801 158.378 148.039 141.313 298.509 140.593 173.875 149.192 230.171 156.318 222.652 136.516 140.453 272.035 151.35 139.916 137.453 149.206\u000athreshold=3.5000000000000004 -1.0000000180025095e-35 1.0000000180025095e-35 1.5000000000000002 -1.0000000180025095e-35 1.0000000180025095e-35 4.5000000000000009 1867.5000000000002 5.5000000000000009 5438.5000000000009 3.5000000000000004 4.5000000000000009 22.500000000000004 180.50000000000003 3.5000000000000004 4700.5000000000009 3492.5000000000005 3.5000000000000004 12.500000000000002 8255.5000000000018 3991.5000000000005 -1.0000000180025095e-35 22.500000000000004 73586.500000000015 6.5000000000000009 -1.0000000180025095e-35 6.5000000000000009 1.5000000000000002 4.5000000000000009 1416.5000000000002\u000adecision_type=2 2 2 2 2 2 2 2 2 2 2 2 2 2 2 2 2 2 2 2 2 2 2 2 2 2 2 2 2 2\u000aleft_child=1 3 5 4 -1 6 14 10 -7 12 -8 15 13 -9 -2 16 23 -17 19 21 -21 -19 -23 24 28 26 27 -26 -10 -30\u000aright_child=2 -3 -4 -5 -6 8 7 9 11 -11 -12 -13 -14 -15 -16 17 -18 18 -20 20 -22 22 -24 -25 25 -27 -28 -29 29 -31\u000aleaf_value=-0.093981598495288352 -0.13409235549418744 -0.0020826653644228869 0.075183809890772391 -0.011139887383398011 -0.043563707385721066 0.067363533677925858 0.034681164537701377 -0.073646381299521099 0.018362393136176412 0.016984364536406373 -0.031018886866974234 0.044855334275548768 0.015144748157648116 0.16728259612575852 -0.024080358395613746 0.058190465197219515 0.096805580640582381 0.031153934621716992 -0.10402057156304541 0.22036062270849843 -0.084343882669759229 -0.15853314731185897 0.071090450757679821 -0.04780972975442252 -0.04776190008394527 0.070513059418972568 0.09752539864864368 0.016340707803664603 -0.063647333890690841 -0.0040062616432832007\u000aleaf_count=170545 1125 50123 518 48203 203447 1147 3332 4355 5900 1993 1228 1230 688 22 863 398 694 850 1618 59 186 730 128 1649 1897 1146 291 2320 1869 7911\u000ainternal_value=0 -0.265767 0.0937405 -0.473891 -0.602715 0.0701346 -0.0756556 -5.98788e-05 0.126796 -0.246449 0.206738 0.097825 -0.466958 -0.666456 -0.730035 0.0593106 0.0961516 -0.304911 -0.468792 -0.0961199 0.974578 -0.378075 -0.957535 0.0603542 0.087952 0.28222 0.0357706 -0.0619211 0.00522017 -0.120491\u000ainternal_count=516465 472318 44147 422195 373992 43629 13606 11618 30023 7058 4560 28876 5065 4377 1988 27646 23677 3969 3571 1953 245 1708 858 22983 21334 5654 4508 4217 15680 9780\u000ashrinkage=0.1\u000a\u000a\u000aTree=33\u000anum_leaves=31\u000anum_cat=0\u000asplit_feature=88 89 9 68 93 14 103 67 95 103 144 128 101 128 67 129 128 68 148 67 128 97 151 67 67 126 66 129 60 103\u000asplit_gain=656.626 362.989 238.572 198.584 207.189 207.982 172.733 273.316 280.935 237.399 824.635 542.559 1099.84 292.696 259.222 388.827 294.367 384.55 1659.37 314.032 1284.07 1326.15 242.654 236.098 925.911 804.638 374.608 1386.7 212.503 2102.76\u000athreshold=4.5000000000000009 -1.0000000180025095e-35 1.0000000180025095e-35 1431.5000000000002 1.0000000180025095e-35 -1.0000000180025095e-35 29962.500000000004 1880.0000000000002 11.500000000000002 72039.500000000015 1.5000000000000002 1.5000000000000002 1.5000000000000002 16.500000000000004 1878.5000000000002 1.5000000000000002 20.500000000000004 1439.5000000000002 16.500000000000004 1002.5000000000001 19.500000000000004 11.500000000000002 25.500000000000004 1663.5000000000002 1666.0000000000002 8.5000000000000018 202.50000000000003 5.5000000000000009 1.0000000180025095e-35 5050.0000000000009\u000adecision_type=2 2 2 2 2 2 2 2 2 2 2 2 2 2 2 2 2 2 2 2 2 2 2 2 2 2 2 2 2 2\u000aleft_child=1 3 -2 -1 -5 6 28 9 -9 10 -8 12 -12 -11 16 -16 19 18 -18 20 -15 -22 -19 -21 25 -25 27 -26 -6 -30\u000aright_child=2 -3 -4 4 5 -7 7 8 -10 13 11 -13 -14 14 15 -17 17 22 -20 23 21 -23 -24 24 26 -27 -28 -29 29 -31\u000aleaf_value=-0.08168834391361314 0.0069905750822477465 -0.0017856348259463802 0.072629606619787193 -0.067899648728987932 -0.03697296904842292 -0.075536766469513961 2.8928150647638464 -0.040289365418864714 0.095824443802391274 -0.039914771948208166 5.1256801026260019 0.16095309053076887 -0.10193561033243521 -0.10618531131932414 2.159880960417254 -0.10531432191579415 5.7684453572846124 -0.074014398321420899 0.30560562193023566 -0.10491315739099186 8.905092865460027 -0.10229614179109069 0.27002875046075442 -0.10193647351208573 -0.10675876351322516 5.6354937569372474 0.23405945543950679 5.5801601798283675 6.6387482870556314 -0.10126453154812853\u000aleaf_count=87775 37058 50234 518 101306 99840 46694 36 58848 4143 13921 20 2929 95 109 23 108 20 8722 220 1282 20 24 146 38 108 21 1732 24 20 431\u000ainternal_value=0 -0.235024 0.0922077 -0.408526 -0.317718 -0.186815 -0.0730619 0.164658 -0.137645 0.797841 2.59443 2.1008 19.8363 0.511469 1.3191 10.4983 1.18521 0.356865 6.74128 2.89464 14.5131 51.1673 -0.0732718 2.49631 3.51133 33.3683 2.90331 16.2211 -0.344223 6.31126\u000ainternal_count=516465 478889 37576 428655 340880 239574 192880 92589 62991 29598 3080 3044 115 26518 12597 131 12466 9108 240 3358 153 44 8868 3205 1923 59 1864 132 100291 451\u000ashrinkage=0.1\u000a\u000a\u000aTree=34\u000anum_leaves=31\u000anum_cat=0\u000asplit_feature=88 89 94 9 12 68 140 148 146 68 126 148 111 115 128 100 146 98 99 95 71 12 84 65 97 53 66 93 128 108\u000asplit_gain=657.134 462.111 260.697 214.535 194.472 149.054 495.546 1393.05 507.039 1327.63 3229.2 1435.03 821.393 1301.72 660.113 484.283 1831.34 156.85 1882.04 134.29 133.894 139.067 135.984 136.556 141.152 137.508 140.248 133.682 133.005 151.056\u000athreshold=3.5000000000000004 -1.0000000180025095e-35 1.5000000000000002 1.0000000180025095e-35 -1.0000000180025095e-35 5520.0000000000009 1548763200.0000002 15.500000000000002 5.5000000000000009 5548.0000000000009 10.500000000000002 11.500000000000002 -1.0000000180025095e-35 5.5000000000000009 13.500000000000002 9968.5000000000018 23.500000000000004 180.50000000000003 618.50000000000011 39.500000000000007 16.500000000000004 1.0000000180025095e-35 1.0000000180025095e-35 12174.500000000002 102.50000000000001 1.0000000180025095e-35 201.50000000000003 40.500000000000007 13.500000000000002 9415738.0000000019\u000adecision_type=2 2 2 2 2 2 2 2 2 2 2 2 2 2 2 2 2 2 2 2 2 2 2 2 2 2 2 2 2 2\u000aleft_child=1 2 4 20 -1 -6 8 -8 9 10 -7 12 -11 -14 -13 17 -17 -10 -19 -4 21 22 27 24 -24 26 -25 -2 -28 -30\u000aright_child=3 -3 19 -5 5 6 7 -9 15 11 -12 14 13 -15 -16 16 -18 18 -20 -21 -22 -23 23 25 -26 -27 28 -29 29 -31\u000aleaf_value=-0.09754957141896145 -0.013376690460367633 -0.0017005466930039598 0.0046626053130390524 0.070032553245398407 -0.056818997031748752 -0.10098108357609299 -0.10112419189339894 5.5066149755001774 -0.048173569162501713 -0.11387246778790228 7.1733296724609588 6.310572849479513 -0.10100937742291388 6.097201430042829 -0.10101435039180305 -0.11927663840305776 6.6452154100007981 5.8336206205481789 -0.10098913070201565 -0.088199098817975774 -0.16856691139122074 0.076988481060522113 0.021396426970806248 0.059270807605971115 0.11919139727587205 0.036031700800116209 -0.021800109970688812 0.13665345722463981 0.0083326897334673414 -0.16086072851802372\u000aleaf_count=170545 11651 50123 34711 518 171928 174 153 20 28327 1894 26 20 86 20 23 139 20 27 590 13492 257 269 8806 764 178 1798 8551 67 10962 326\u000ainternal_value=0 -0.256817 -0.475304 0.0779915 -0.620969 -0.457463 0.128843 15.2643 0.0390742 4.31153 25.6014 1.89453 0.432105 23.7796 44.2453 -0.28824 14.2696 -0.387019 4.56354 -0.0875058 0.0582728 0.0628036 0.0511668 0.101642 0.249903 0.0289928 -0.0197838 -0.110857 -0.0506568 0.0619064\u000ainternal_count=516465 472318 422195 44147 373992 203447 31519 173 31346 2243 200 2043 2000 106 43 29103 159 28944 617 48203 43629 43372 43103 31385 8984 22401 20603 11718 19839 11288\u000ashrinkage=0.1\u000a\u000a\u000aTree=35\u000anum_leaves=31\u000anum_cat=0\u000asplit_feature=88 89 94 29 93 64 145 107 54 140 55 52 83 100 47 50 98 140 78 148 67 68 103 67 100 105 145 28 94 146\u000asplit_gain=668.687 528.165 321.109 191.178 150.584 161.327 149.441 164.631 135.757 192.602 152.459 147.967 143.904 140.6 138.723 205.522 163.759 129.749 129.609 129.405 132.164 128.651 157.41 128.307 138.961 207.398 127.035 124.696 122.726 179.155\u000athreshold=3.5000000000000004 -1.0000000180025095e-35 1.5000000000000002 4.5000000000000009 15.500000000000002 2.5000000000000004 6.5000000000000009 56.500000000000007 1.0000000180025095e-35 1537272000.0000002 350.00000000000006 -1.0000000180025095e-35 27.500000000000004 1056.0000000000002 57.500000000000007 2430.0000000000005 108.50000000000001 1517486400.0000002 1.0000000180025095e-35 5.5000000000000009 1756.0000000000002 1662.0000000000002 6025.0000000000009 5500.5000000000009 8418.5000000000018 2.5000000000000004 21.500000000000004 1.0000000180025095e-35 16.500000000000004 5.5000000000000009\u000adecision_type=2 2 2 2 2 2 2 2 2 2 2 2 2 2 2 2 2 2 2 2 2 2 2 2 2 2 2 2 2 2\u000aleft_child=1 2 4 8 5 -1 7 -6 11 10 12 14 -10 -11 15 16 -2 -14 -5 -18 -21 22 -17 -15 25 -25 -8 -3 -4 -30\u000aright_child=3 27 28 18 6 -7 26 -9 9 13 -12 -13 17 23 -16 21 19 -19 -20 20 -22 -23 -24 24 -26 -27 -28 -29 29 -31\u000aleaf_value=-0.076533119039033981 -0.0090833536967039382 0.0017347804722702993 0.022611287926347118 -0.00096075773307953004 -0.12003138183839811 0.19893010007316728 -0.10824310397728505 0.28325835137552441 0.020341891844212028 -0.16380904074524349 0.085380140529239062 0.022026870541319563 -0.090260935589175154 -0.039778475056148184 0.029609754589427197 0.054427403180614134 0.58921203690738566 -0.010132817922565977 0.050120007985493445 0.11558053441686406 -0.067856026879657874 -0.11688059919853425 -0.10800556964607096 0.13750789324034954 0.12906299771962168 -0.09614483849541644 0.039660046214967812 -0.092407405011823873 0.10677328757908243 -0.060084747745647787\u000aleaf_count=350358 11111 47623 18919 1348 1331 94 13528 1073 3587 419 189 9967 874 5658 1832 191 24 4635 1666 208 250 994 394 77 204 519 