ccopy_reg
_reconstructor
p0
(clightgbm.sklearn
LGBMClassifier
p1
c__builtin__
object
p2
Ntp3
Rp4
(dp5
Vboosting_type
p6
Vgbdt
p7
sVobjective
p8
NsVnum_leaves
p9
L31L
sVmax_depth
p10
NsVlearning_rate
p11
F0.01
sVn_estimators
p12
L200L
sVsubsample_for_bin
p13
L200000L
sVmin_split_gain
p14
F0.0
sVmin_child_weight
p15
F0.001
sVmin_child_samples
p16
L11L
sVsubsample
p17
F1.0
sVsubsample_freq
p18
L0L
sVcolsample_bytree
p19
F1.0
sVreg_alpha
p20
F0.0
sVreg_lambda
p21
F0.0
sVrandom_state
p22
L0L
sVn_jobs
p23
L-1L
sVsilent
p24
I00
sVimportance_type
p25
Vsplit
p26
sV_Booster
p27
g0
(clightgbm.basic
Booster
p28
g2
Ntp29
Rp30
(dp31
Vhandle
p32
Vtree\u000aversion=v2\u000anum_class=1\u000anum_tree_per_iteration=1\u000alabel_index=0\u000amax_feature_idx=39\u000aobjective=binary sigmoid:1\u000afeature_names=FECHA_SINI_Elapsed CONDICION_ROBO_EXP50 CAPITAL_ASEGURADO_COTIZACION dias_entre_denu_y_sini COD_POST_POLIZA ANTIG_pol COD_PROD CODIGO_VEHICULO CAPITAL_VEHICULO COD_POST_OCURRENCIA FALTANTE COD_POST_POLIZA_RC_CLUSTER_2019 ESTAD_VEH_ASEG FECHA_SINI_Dayofyear COD_POST_OCURRENCIA_DP_CLUSTER_2019 cond_C10 CANT_RENOVACION COD_POST_OCURRENCIA_RT_CLUSTER_2019 cond_05 CODIGO_REAPERTURA FECHA_SINI_Day COD_ZONA_ROBO TIPO_LESION COD_POST_OCURRENCIA_RC_CLUSTER_2019 CERRADURA_BAUL OCUPACION_ASEG MCA_JUICIO CONV_COMISIONARIO dist_fformal_fsini preg_5 FECHA_SINI_Dayofweek COD_POST_POLIZA_RT_CLUSTER_2019 TELEFONO_TERC preg_31 TIPO_SINIESTRO COD_COBRO COD_POST_TERC SEGMENTO COD_POST_POLIZA_DP_CLUSTER_2019 dist_fformal_fdenu\u000afeature_infos=[-9223372037:1548892800] [-1:8] [-1:5007] [-1:661] [-1:9420] [-1:8127] [-1:74594] [-1:77518] [-1:10128] [-1:9420] [-1:1] [-1:30] [-1:5] [-1:365] [-1:30] [-1:5] [-1:207] [-1:10] [-1:0] [-1:5] [-1:31] [-1:31] [-1:2] [-1:30] [-1:1] [-1:99999] [-1:2] [-1:107] [-1:32980] [-1:1] [-1:6] [-1:10] [-1:88114] [-1:1] [-1:7] [-1:5] [-1:9420] [-1:6] [-1:30] [-28:32980]\u000atree_sizes=2473 2534 2540 2546 2545 2536 2553 2554 2544 2553 2556 2550 2531 2546 2550 2544 2551 2542 2549 2547 2552 2551 2537 2561 2540 2553 2539 2554 2556 2548 2556 2556 2565 2535 2553 2563 2556 2548 2557 2565 2535 2564 2556 2555 2561 2542 2563 2539 2545 2550 2566 2551 2576 2548 2539 2572 2555 2554 2551 2529 2560 2541 2562 2562 2559 2544 2554 2535 2555 2551 2550 2537 2546 2550 2556 2539 2539 2552 2558 2546 2554 2544 2543 2554 2566 2530 2553 2554 2556 2534 2545 2549 2521 2536 2541 2565 2519 2554 2535 2541 2529 2547 2542 2535 2552 2540 2555 2547 2554 2552 2545 2559 2543 2556 2543 2566 2538 2546 2550 2550 2554 2550 2557 2556 2545 2570 2546 2553 2561 2557 2553 2566 2537 2556 2553 2542 2563 2543 2556 2539 2553 2543 2554 2549 2530 2550 2552 2564 2534 2543 2533 2563 2541 2533 2567 2526 2539 2541 2553 2531 2552 2526 2528 2546 2541 2550 2532 2557 2526 2533 2512 2563 2525 2545 2531 2516 2558 2510 2562 2525 2551 2537 2526 2542 2544 2566 2551 2518 2549 2520 2521 2529 2534 2516 2530 2534 2522 2542 2529 2564\u000a\u000aTree=0\u000anum_leaves=31\u000anum_cat=0\u000asplit_feature=15 1 4 18 3 10 26 28 27 0 21 19 7 12 16 17 14 2 2 28 32 6 2 30 6 12 11 16 13 22\u000asplit_gain=1445.74 129.23 92.4264 53.7247 50.3841 48.2074 40.5772 54.4003 39.3388 32.5137 28.1756 23.7394 21.0445 20.7598 24.7242 20.318 19.362 18.9464 16.0647 20.1064 19.6826 15.03 14.5642 13.5122 13.3355 12.9688 12.8411 14.056 12.5073 12.4438\u000athreshold=-1.0000000180025095e-35 6.5000000000000009 1924.0000000000002 -1.0000000180025095e-35 1.5000000000000002 1.0000000180025095e-35 1.5000000000000002 -1.0000000180025095e-35 15.500000000000002 1538481600.0000002 8.5000000000000018 1.0000000180025095e-35 14276.500000000002 4.5000000000000009 10.500000000000002 1.5000000000000002 26.500000000000004 1910.5000000000002 2536.0000000000005 114.50000000000001 38931.500000000007 72075.500000000015 2561.0000000000005 5.5000000000000009 5175.0000000000009 4.5000000000000009 28.500000000000004 27.500000000000004 79.500000000000014 -1.0000000180025095e-35\u000adecision_type=2 2 2 2 2 2 2 2 2 2 2 2 2 2 2 2 2 2 2 2 2 2 2 2 2 2 2 2 2 2\u000aleft_child=1 3 9 4 6 15 8 -8 -1 13 -7 12 26 -2 21 -4 18 -17 19 20 -6 -15 -11 -19 -21 -24 27 -10 -22 -14\u000aright_child=2 -3 5 -5 16 10 7 -9 11 22 -12 -13 29 14 -16 17 -18 23 -20 24 28 -23 25 -25 -26 -27 -28 -29 -30 -31\u000aleaf_value=0.46879883015490914 0.48857971661907712 0.49261142100395389 0.48112393351429256 0.45530230374953073 0.47437989727260876 0.47739833994244435 0.48812208925130979 0.46213646775119965 0.46148537997695693 0.48470010564712823 0.48540651446932176 0.46956681644747966 0.45743488410890598 0.46891909646463026 0.48686175701555834 0.47720092659716523 0.46287370999823196 0.46533807135156385 0.46743859364981893 0.48142679283253326 0.47735451956234681 0.48168599838555032 0.48261061988514625 0.48040533095083243 0.4599102852863225 0.47376582877030671 0.47466520644059484 0.46904040856837809 0.45910773158046025 0.46391601800449955\u000aleaf_count=647 1295 58 121 149 703 213 54 56 315 443 436 167 425 45 369 137 114 139 298 11 17 115 133 23 71 95 41 128 57 156\u000ainternal_value=0 -0.915287 0.755159 -0.970237 -0.921392 0.306665 -1.11601 -0.0352016 -1.18648 0.934971 0.602941 -1.39511 -1.50641 1.05295 0.756722 -0.189413 -0.630054 -0.459912 -0.559573 -0.431925 -0.343083 0.151488 0.598109 -0.913828 -1.35548 0.222134 -1.21084 -1.31195 -1.30306 -1.76471\u000ainternal_count=7031 3467 3564 3409 3260 1069 1989 110 1879 2495 649 1232 1065 1824 529 420 1271 299 1157 859 777 160 671 162 82 228 484 443 74 581\u000ashrinkage=1\u000a\u000a\u000aTree=1\u000anum_leaves=31\u000anum_cat=0\u000asplit_feature=15 1 4 18 3 10 26 28 27 0 21 19 12 16 7 17 14 2 2 28 32 6 2 30 6 12 11 16 8 13\u000asplit_gain=1416.47 126.572 91.0173 52.1672 49.077 47.3284 39.5545 53.2714 38.2552 32.064 27.7138 23.0727 20.4915 24.3419 20.4141 19.9032 18.8629 18.5113 15.6742 19.6091 19.206 14.7252 14.3285 13.1905 12.9917 12.7253 12.5057 13.661 12.2374 12.1727\u000athreshold=-1.0000000180025095e-35 6.5000000000000009 1924.0000000000002 -1.0000000180025095e-35 1.5000000000000002 1.0000000180025095e-35 1.5000000000000002 -1.0000000180025095e-35 15.500000000000002 1538481600.0000002 8.5000000000000018 1.0000000180025095e-35 4.5000000000000009 10.500000000000002 14276.500000000002 1.5000000000000002 26.500000000000004 1910.5000000000002 2536.0000000000005 114.50000000000001 38931.500000000007 72075.500000000015 2561.0000000000005 5.5000000000000009 5175.0000000000009 4.5000000000000009 28.500000000000004 27.500000000000004 6341.0000000000009 79.500000000000014\u000adecision_type=2 2 2 2 2 2 2 2 2 2 2 2 2 2 2 2 2 2 2 2 2 2 2 2 2 2 2 2 2 2\u000aleft_child=1 3 9 4 6 15 8 -8 -1 12 -7 14 -2 21 26 -4 18 -17 19 20 -6 28 -11 -19 -21 -24 27 -10 -14 -22\u000aright_child=2 -3 5 -5 16 10 7 -9 11 22 -12 -13 13 -15 -16 17 -18 23 -20 24 29 -23 25 -25 -26 -27 -28 -29 -30 -31\u000aleaf_value=-0.0079986604393846635 0.011601517740557083 0.015619232623826034 0.004192260450085584 -0.021269413808849325 -0.0024870562634587319 0.00049979536674447911 0.011145976990624083 -0.014559647352994047 -0.015199767830636528 0.0077427994186066908 0.0084448656990824857 -0.0072410757600675172 -0.01415561307458048 0.0098919167059739344 -0.017399548752620224 0.00030431837400149653 -0.0138345988894689 -0.011409240163220282 -0.0093398177168473838 0.0044927132190593902 0.00045640207778799183 0.0047498945074498011 0.0056675527087664416 0.0034795396749784649 -0.016747554606261206 -0.0030941806736814919 -0.0022049124849477029 -0.007760382019230727 0.0078088945622922738 -0.017535776347877296\u000aleaf_count=647 1295 58 121 149 703 213 54 56 315 443 436 167 34 369 581 137 114 139 298 11 17 115 133 23 71 95 41 128 11 57\u000ainternal_value=0 -0.904208 0.748955 -0.958371 -0.910225 0.303825 -1.10199 -0.0348285 -1.17138 0.927683 0.597767 -1.3767 1.04504 0.750506 -1.48616 -0.187432 -0.622836 -0.454822 -0.553253 -0.427172 -0.339379 0.150031 0.59297 -0.902767 -1.33772 0.220031 -1.19537 -1.29488 -0.788004 -1.28614\u000ainternal_count=7031 3467 3564 3409 3260 1069 1989 110 1879 2495 649 1232 1824 529 1065 420 1271 299 1157 859 777 160 671 162 82 228 484 443 45 74\u000ashrinkage=0.01\u000a\u000a\u000aTree=2\u000anum_leaves=31\u000anum_cat=0\u000asplit_feature=15 1 4 18 3 10 26 28 27 0 21 19 12 16 7 17 14 2 2 28 32 6 2 30 6 12 11 16 22 8\u000asplit_gain=1387.88 123.983 89.6344 50.6847 47.818 46.4659 38.5629 52.1718 37.218 31.6244 27.2604 22.4352 20.2289 23.9662 19.8147 19.4974 18.3815 18.0882 15.2951 19.129 18.7452 14.4269 14.097 12.8782 12.6602 12.4863 12.1824 13.2831 12.0137 11.9551\u000athreshold=-1.0000000180025095e-35 6.5000000000000009 1924.0000000000002 -1.0000000180025095e-35 1.5000000000000002 1.0000000180025095e-35 1.5000000000000002 -1.0000000180025095e-35 15.500000000000002 1538481600.0000002 8.5000000000000018 1.0000000180025095e-35 4.5000000000000009 10.500000000000002 14276.500000000002 1.5000000000000002 26.500000000000004 1910.5000000000002 2536.0000000000005 114.50000000000001 38931.500000000007 72075.500000000015 2561.0000000000005 5.5000000000000009 5175.0000000000009 4.5000000000000009 28.500000000000004 27.500000000000004 -1.0000000180025095e-35 6341.0000000000009\u000adecision_type=2 2 2 2 2 2 2 2 2 2 2 2 2 2 2 2 2 2 2 2 2 2 2 2 2 2 2 2 2 2\u000aleft_child=1 3 9 4 6 15 8 -8 -1 12 -7 14 -2 21 26 -4 18 -17 19 20 -6 29 -11 -19 -21 -24 27 -10 -16 -14\u000aright_child=2 -3 5 -5 16 10 7 -9 11 22 -12 -13 13 -15 28 17 -18 23 -20 24 -22 -23 25 -25 -26 -27 -28 -29 -30 -31\u000aleaf_value=-0.007904153122891942 0.011517993276048341 0.015522653015389597 0.0041544849672305326 -0.020958485706001957 -0.0024607556151805001 0.00049485454411314395 0.011064465425035372 -0.014366968322059226 -0.014996564843283305 0.0076796722246354953 0.0083774674346951353 -0.0071567347085422488 -0.013968889195423615 0.0098164953213307673 -0.018930681325732637 0.0003012966589493668 -0.01365363911677674 -0.011265932200217465 -0.0092267082301987387 0.0044525531380624206 -0.012696355853309756 0.0047077277927870106 0.0056184900800283315 0.0034475944020169471 -0.016518235229304602 -0.0030610313324042622 -0.0021817401287655331 -0.0076691001764151515 -0.012585684904029821 0.0077449002317680942\u000aleaf_count=647 1295 58 121 149 703 213 54 56 315 443 436 167 34 369 425 137 114 139 298 11 74 115 133 23 71 95 41 128 156 11\u000ainternal_value=0 -0.893345 0.742821 -0.946737 -0.899269 0.301016 -1.08826 -0.0344623 -1.1566 0.92048 0.592644 -1.35873 1.03722 0.74436 -1.46641 -0.185477 -0.615731 -0.449806 -0.547027 -0.422486 -0.335722 0.148594 0.587881 -0.891911 -1.32041 0.217949 -1.18023 -1.2782 -1.71589 -0.778719\u000ainternal_count=7031 3467 3564 3409 3260 1069 1989 110 1879 2495 649 1232 1824 529 1065 420 1271 299 1157 859 777 160 671 162 82 228 484 443 581 45\u000ashrinkage=0.01\u000a\u000a\u000aTree=3\u000anum_leaves=31\u000anum_cat=0\u000asplit_feature=15 1 4 18 3 10 26 28 7 0 21 12 5 17 14 2 24 23 29 2 28 32 2 8 19 27 1 7 30 6\u000asplit_gain=1359.96 121.46 88.2771 49.2726 46.6053 45.6195 37.6016 51.1003 36.5267 31.1947 26.8152 19.9719 23.6315 19.1004 17.9169 17.6768 17.3165 20.1031 17.6649 14.9273 18.6653 18.2976 13.8695 13.1159 17.9081 16.0653 16.1496 13.8557 12.5749 12.3405\u000athreshold=-1.0000000180025095e-35 6.5000000000000009 1924.0000000000002 -1.0000000180025095e-35 1.5000000000000002 1.0000000180025095e-35 1.5000000000000002 -1.0000000180025095e-35 2034.5000000000002 1538481600.0000002 8.5000000000000018 4.5000000000000009 527.50000000000011 1.5000000000000002 26.500000000000004 1910.5000000000002 -1.0000000180025095e-35 27.500000000000004 1.0000000180025095e-35 2536.0000000000005 114.50000000000001 38931.500000000007 2561.0000000000005 4136.5000000000009 1.0000000180025095e-35 15.500000000000002 3.5000000000000004 14230.500000000002 5.5000000000000009 5175.0000000000009\u000adecision_type=2 2 2 2 2 2 2 2 2 2 2 2 2 2 2 2 2 2 2 2 2 2 2 2 2 2 2 2 2 2\u000aleft_child=1 3 9 4 6 13 8 -8 -1 11 -7 -2 -13 -4 19 -15 17 23 -19 20 21 -6 -11 24 25 26 27 -10 -17 -22\u000aright_child=2 -3 5 -5 14 10 7 -9 16 22 -12 12 -14 15 -16 28 -18 18 -20 -21 29 -23 -24 -25 -26 -27 -28 -29 -30 -31\u000aleaf_value=-0.0053352539188460304 0.011435557479448613 0.015428061834025021 0.0041170460765795596 -0.020657897409328121 -0.0024347562101915744 0.00048996344680905162 0.010983970239215912 -0.01417885906333567 -0.017120015600887297 0.0076171590925364933 0.0083107477209841997 0.0039218595142068357 0.011417859861886259 0.00029830562721622965 -0.013476805520303073 -0.011125464439940461 -0.0048333563210616456 -0.0054441265006043684 -0.025674141343110288 -0.0091155766079045342 0.0044127514474158677 -0.012534362562421191 0.0021588776641879234 -0.016511098554540967 -0.0058131876200996782 -0.015523537613160226 0.0024940707814820177 -0.0046853825242848344 0.0034159364588100733 -0.016295033161748854\u000aleaf_count=291 1295 58 121 149 703 213 54 56 82 443 436 295 234 137 114 139 94 165 20 298 11 74 228 508 120 511 33 55 23 71\u000ainternal_value=0 -0.88269 0.736756 -0.935328 -0.888518 0.298238 -1.07482 -0.0341029 -1.14214 0.913361 0.587572 1.02951 0.738283 -0.183547 -0.608734 -0.444863 -1.2612 -1.314 -0.73128 -0.54089 -0.417863 -0.332109 0.582842 -1.40137 -1.24841 -1.37449 -0.870127 -1.17909 -0.881253 -1.30351\u000ainternal_count=7031 3467 3564 3409 3260 1069 1989 110 1879 2495 649 1824 529 420 1271 299 1588 1494 185 1157 859 777 671 1309 801 681 170 137 162 82\u000ashrinkage=0.01\u000a\u000a\u000aTree=4\u000anum_leaves=31\u000anum_cat=0\u000asplit_feature=15 1 4 18 3 10 26 28 7 0 21 12 16 17 14 2 24 23 29 2 28 32 6 2 8 19 27 1 7 30\u000asplit_gain=1332.67 119 86.9424 47.9268 45.4341 44.789 36.6683 50.0561 35.5801 30.7743 26.3781 19.7229 23.4048 18.7121 17.4684 17.2766 16.8623 19.5624 17.1699 14.5703 18.2173 17.8637 14.1483 13.6467 12.7377 17.4359 15.6259 15.7655 13.4802 12.2804\u000athreshold=-1.0000000180025095e-35 6.5000000000000009 1924.0000000000002 -1.0000000180025095e-35 1.5000000000000002 1.0000000180025095e-35 1.5000000000000002 -1.0000000180025095e-35 2034.5000000000002 1538481600.0000002 8.5000000000000018 4.5000000000000009 10.500000000000002 1.5000000000000002 26.500000000000004 1910.5000000000002 -1.0000000180025095e-35 27.500000000000004 1.0000000180025095e-35 2536.0000000000005 114.50000000000001 38931.500000000007 72075.500000000015 2561.0000000000005 4136.5000000000009 1.0000000180025095e-35 15.500000000000002 3.5000000000000004 14230.500000000002 5.5000000000000009\u000adecision_type=2 2 2 2 2 2 2 2 2 2 2 2 2 2 2 2 2 2 2 2 2 2 2 2 2 2 2 2 2 2\u000aleft_child=1 3 9 4 6 13 8 -8 -1 11 -7 -2 22 -4 19 -15 17 24 -19 20 21 -6 -13 -11 25 26 27 28 -10 -17\u000aright_child=2 -3 5 -5 14 10 7 -9 16 23 -12 12 -14 15 -16 29 -18 18 -20 -21 -22 -23 -24 -25 -26 -27 -28 -29 -30 -31\u000aleaf_value=-0.0052756556030575134 0.011354180316529247 0.015335397013992653 0.0040799404186986268 -0.020367120580079043 -0.0024090535814522895 0.00048512023196849093 0.010904464561366059 -0.013995146461938082 -0.016885186229107431 0.0075552464818609772 0.0082446953894077957 -0.0077421706541559807 0.0096755928557495288 0.00029534225754734145 -0.013303940941720254 -0.010987747091184085 -0.004780009878458313 -0.0053832177071973146 -0.025276878035642283 -0.0090063668964172772 -0.012870137290789499 -0.012375815163774931 0.00463112563904683 0.0021383912953893336 -0.016288811794382473 -0.005747592354591019 -0.015318447371338343 0.0024705129664719921 -0.0046336913493931018 0.0033845615423668163\u000aleaf_count=291 1295 58 121 149 703 213 54 56 82 443 436 45 369 137 114 139 94 165 20 298 82 74 115 228 508 120 511 33 55 23\u000ainternal_value=0 -0.872232 0.730754 -0.924131 -0.877959 0.29549 -1.06165 -0.0337501 -1.12796 0.906315 0.582549 1.02187 0.73225 -0.181642 -0.601843 -0.439992 -1.24523 -1.29722 -0.722804 -0.534843 -0.413302 -0.328541 0.143386 0.577845 -1.38324 -1.23266 -1.3568 -0.85977 -1.16427 -0.870788\u000ainternal_count=7031 3467 3564 3409 3260 1069 1989 110 1879 2495 649 1824 529 420 1271 299 1588 1494 185 1157 859 777 160 671 1309 801 681 170 137 162\u000ashrinkage=0.01\u000a\u000a\u000aTree=5\u000anum_leaves=31\u000anum_cat=0\u000asplit_feature=15 1 9 18 3 26 36 7 11 2 9 0 14 24 23 29 6 2 28 32 8 20 8 19 27 1 7 5 0 6\u000asplit_gain=1306.01 116.601 85.6764 46.6426 44.3065 35.7633 49.0421 34.6699 34.1122 32.0675 29.3099 20.3505 17.0354 16.4259 19.0436 16.6992 14.6164 14.2239 17.7806 17.4429 13.4115 14.444 12.3769 16.9827 15.2041 15.393 13.1201 12.1541 12.0963 12.0036\u000athreshold=-1.0000000180025095e-35 6.5000000000000009 4875.5000000000009 -1.0000000180025095e-35 1.5000000000000002 1.5000000000000002 1.0000000180025095e-35 2034.5000000000002 29.500000000000004 1618.5000000000002 5540.0000000000009 1538049600.0000002 26.500000000000004 -1.0000000180025095e-35 27.500000000000004 1.0000000180025095e-35 74021.500000000015 2536.0000000000005 114.50000000000001 38931.500000000007 3820.0000000000005 15.500000000000002 4136.5000000000009 1.0000000180025095e-35 15.500000000000002 3.5000000000000004 14230.500000000002 865.00000000000011 1502452800.0000002 5175.0000000000009\u000adecision_type=2 2 2 2 2 2 2 2 2 2 2 2 2 2 2 2 2 2 2 2 2 2 2 2 2 2 2 2 2 2\u000aleft_child=1 3 8 4 5 7 -7 -1 9 -2 16 28 17 14 22 -16 20 18 19 -6 -4 -22 23 24 25 26 -9 -26 -11 -20\u000aright_child=2 -3 10 -5 12 6 -8 13 -10 11 -12 -13 -14 -15 15 -17 -18 -19 29 -21 21 -23 -24 -25 27 -27 -28 -29 -30 -31\u000aleaf_value=-0.0052168614077152979 0.010758188052506099 0.01524460049751783 0.0022249746774148254 -0.020085661647115956 -0.0023836418767404282 0.011235145254961647 -0.01333983667100877 -0.01665673064225533 -0.008338143784398247 0.0052417260286846245 0.0050192559026150194 0.0039016218381975223 -0.013134899941898237 -0.0047273583891111548 -0.0053231359571334789 -0.024895600265618257 -0.019650611530266354 -0.0088990268925846546 0.0044883521007299376 -0.012220590366869389 -0.010222000914248176 0.00080943560825038317 -0.016072340066436694 -0.0056829094620564746 -0.017065618431210485 0.0024471715075853502 -0.0045826715187422505 -0.010433403243611097 0.0094964485875347789 -0.015907966686843762\u000aleaf_count=291 1299 58 151 149 703 52 58 82 43 293 349 477 114 94 165 20 19 298 11 74 99 71 508 120 367 33 55 144 763 71\u000ainternal_value=0 -0.861971 0.724819 -0.913145 -0.867592 -1.04874 -0.0334036 -1.11408 0.854709 0.876477 0.143986 0.70091 -0.595052 -1.22963 -1.28083 -0.71447 -0.250558 -0.528879 -0.408799 -0.325017 -0.164205 -0.5332 -1.36553 -1.21725 -1.33952 -0.849612 -1.14976 -1.51184 0.835333 -1.27076\u000ainternal_count=7031 3467 3564 3409 3260 1989 110 1879 2875 2832 689 1533 1271 1588 1494 185 340 1157 859 777 321 170 1309 801 681 170 137 511 1056 82\u000ashrinkage=0.01\u000a\u000a\u000aTree=6\u000anum_leaves=31\u000anum_cat=0\u000asplit_feature=15 1 4 18 10 3 26 28 7 0 21 12 5 17 2 14 24 23 29 2 28 32 12 2 35 8 19 27 1 7\u000asplit_gain=1279.94 114.263 84.5214 45.4158 43.7751 43.2189 34.886 48.0805 33.7945 30.1354 25.6686 19.4942 23.1214 18.1113 16.7434 16.6168 16.0063 18.5456 16.251 13.8872 17.3611 17.0347 13.4157 12.4256 12.2058 12.032 16.5476 14.7994 15.0319 12.7746\u000athreshold=-1.0000000180025095e-35 6.5000000000000009 1924.0000000000002 -1.0000000180025095e-35 1.0000000180025095e-35 1.5000000000000002 1.5000000000000002 -1.0000000180025095e-35 2034.5000000000002 1538481600.0000002 8.5000000000000018 4.5000000000000009 527.50000000000011 1.5000000000000002 1910.5000000000002 26.500000000000004 -1.0000000180025095e-35 27.500000000000004 1.0000000180025095e-35 2536.0000000000005 114.50000000000001 38931.500000000007 4.5000000000000009 2413.5000000000005 1.0000000180025095e-35 4136.5000000000009 1.0000000180025095e-35 15.500000000000002 3.5000000000000004 14230.500000000002\u000adecision_type=2 2 2 2 2 2 2 2 2 2 2 2 2 2 2 2 2 2 2 2 2 2 2 2 2 2 2 2 2 2\u000aleft_child=1 3 9 5 13 6 8 -8 -1 11 -6 -2 24 -4 -15 19 17 25 -19 20 21 -7 -11 -24 -13 26 27 28 29 -10\u000aright_child=2 -3 4 -5 10 15 7 -9 16 22 -12 12 -14 14 -16 -17 -18 18 -20 -21 -22 -23 23 -25 -26 -27 -28 -29 -30 -31\u000aleaf_value=-0.0051588567410827194 0.011205816650522877 0.01515562073194994 0.0039912164298369713 -0.019813056954445987 0.00047337969630051097 -0.0023585191159004779 0.010751202172008456 -0.013646250973658141 -0.016434370630351153 0.0071178967045944595 0.0081329328187662829 -0.011292712506603853 0.011198571123048694 0.00026924309646100158 -0.0085910639282492426 -0.012969544751620085 -0.0046753907555549317 -0.0052638654870494255 -0.02452937669238656 -0.0087935064291287009 -0.012549989510801289 -0.012068575505347567 0.0069236339483147932 -0.0029618777587419403 0.0046546953664709607 -0.015861436284985909 -0.0056191223625499569 -0.014923403896220622 0.0024240439289156348 -0.0045323092884654503\u000aleaf_count=291 1295 58 121 149 213 703 54 56 82 498 436 19 234 137 162 114 94 165 20 298 82 74 70 103 276 508 120 511 33 55\u000ainternal_value=0 -0.851904 0.718926 -0.902369 0.289589 -0.857418 -1.0361 -0.0330627 -1.10049 0.892605 0.573951 1.00734 0.718844 -0.18195 -0.435739 -0.588366 -1.21437 -1.26481 -0.706273 -0.523002 -0.404358 -0.321536 0.567138 0.12621 0.376056 -1.34824 -1.20218 -1.32265 -0.839647 -1.13557\u000ainternal_count=7031 3467 3564 3409 1069 3260 1989 110 1879 2495 649 1824 529 420 299 1271 1588 1494 185 1157 859 777 671 173 295 1309 801 681 170 137\u000ashrinkage=0.01\u000a\u000a\u000aTree=7\u000anum_leaves=31\u000anum_cat=0\u000asplit_feature=15 1 4 18 10 3 26 36 7 0 21 12 16 17 2 14 24 23 29 6 2 39 32 12 2 30 22 8 19 27\u000asplit_gain=1254.48 111.982 83.2563 44.2433 42.9789 42.1708 34.0343 47.1333 32.9516 29.7377 25.252 19.2567 22.8319 17.7434 16.3662 16.2124 15.6026 18.0669 15.8239 13.7687 13.5605 17.0556 16.3981 13.1954 12.1949 11.9578 11.8836 11.7026 16.1293 14.4101\u000athreshold=-1.0000000180025095e-35 6.5000000000000009 1924.0000000000002 -1.0000000180025095e-35 1.0000000180025095e-35 1.5000000000000002 1.5000000000000002 1.0000000180025095e-35 2034.5000000000002 1538481600.0000002 8.5000000000000018 4.5000000000000009 10.500000000000002 1.5000000000000002 1910.5000000000002 26.500000000000004 -1.0000000180025095e-35 27.500000000000004 1.0000000180025095e-35 72075.500000000015 2536.0000000000005 56.500000000000007 38931.500000000007 4.5000000000000009 2413.5000000000005 5.5000000000000009 1.0000000180025095e-35 4136.5000000000009 1.0000000180025095e-35 15.500000000000002\u000adecision_type=2 2 2 2 2 2 2 2 2 2 2 2 2 2 2 2 2 2 2 2 2 2 2 2 2 2 2 2 2 2\u000aleft_child=1 3 9 5 13 6 8 -8 -1 11 -6 -2 19 -4 -15 20 17 27 -19 -13 21 22 -7 -11 -25 -16 -24 28 29 -10\u000aright_child=2 -3 4 -5 10 15 7 -9 16 23 -12 12 -14 14 25 -17 -18 18 -20 -21 -22 -23 26 24 -26 -27 -28 -29 -30 -31\u000aleaf_value=-0.0051016267921633694 0.01112731214594128 0.01506840113457133 0.0039552286229855155 -0.019548875658579185 0.00046869848662170954 -0.0021936551636325473 0.011080314946530209 -0.013012748019897725 -0.0082986882703356482 0.0070595854005244922 0.0080686249743015751 -0.0077389052011003472 0.0094659339456527932 0.00026656711327199454 -0.010731816559346408 -0.012807741181903974 -0.0046240937669784167 -0.005205391518527132 -0.024177347315107036 0.0044740111867655041 -0.008689755638457905 -0.01118813055569933 -0.0059254843771224851 0.006866664064091259 -0.0029302127799215811 0.0034375008864901803 -0.022438427448244706 -0.015655867980146919 -0.0055562128662137071 -0.01473294018714753\u000aleaf_count=291 1295 58 121 149 213 681 52 58 170 498 436 45 369 137 139 114 94 165 20 115 298 108 42 70 103 23 28 508 120 511\u000ainternal_value=0 -0.84202 0.713112 -0.891789 0.286926 -0.847424 -1.02372 -0.0327282 -1.08717 0.885786 0.569058 0.999963 0.713009 -0.180066 -0.430985 -0.581775 -1.19943 -1.24914 -0.69821 0.130788 -0.517205 -0.399972 -0.30377 0.56229 0.124997 -0.848974 -1.19692 -1.33134 -1.18743 -1.30615\u000ainternal_count=7031 3467 3564 3409 1069 3260 1989 110 1879 2495 649 1824 529 420 299 1271 1588 1494 185 160 1157 859 751 671 173 162 70 1309 801 681\u000ashrinkage=0.01\u000a\u000a\u000aTree=8\u000anum_leaves=31\u000anum_cat=0\u000asplit_feature=15 1 9 18 3 26 28 11 7 2 9 0 33 35 14 24 23 29 0 28 5 6 4 13 3 8 19 27 1 7\u000asplit_gain=1229.59 109.757 82.2038 43.1224 41.1582 33.2075 46.1996 33.0201 32.1383 31.2445 27.9491 19.1028 16.3157 15.9201 29.4046 15.2132 17.6055 15.4166 14.3824 13.7318 15.1319 13.4821 11.4996 11.3981 12.0371 11.3897 15.7253 14.0414 14.6587 12.4267\u000athreshold=-1.0000000180025095e-35 6.5000000000000009 4875.5000000000009 -1.0000000180025095e-35 1.5000000000000002 1.5000000000000002 -1.0000000180025095e-35 29.500000000000004 2034.5000000000002 1581.0000000000002 5846.5000000000009 1538049600.0000002 -1.0000000180025095e-35 1.5000000000000002 21.500000000000004 -1.0000000180025095e-35 27.500000000000004 1.0000000180025095e-35 1502712000.0000002 114.50000000000001 151.50000000000003 74021.500000000015 7570.0000000000009 77.500000000000014 1.0000000180025095e-35 4136.5000000000009 1.0000000180025095e-35 15.500000000000002 3.5000000000000004 14230.500000000002\u000adecision_type=2 2 2 2 2 2 2 2 2 2 2 2 2 2 2 2 2 2 2 2 2 2 2 2 2 2 2 2 2 2\u000aleft_child=1 3 7 4 5 8 -7 9 -1 -2 12 18 -4 14 22 16 25 -18 -11 -15 -21 -14 -6 -9 -25 26 27 28 29 -10\u000aright_child=2 -3 10 -5 13 6 -8 23 15 11 -12 -13 21 19 -16 -17 17 -19 -20 20 -22 -23 -24 24 -26 -27 -28 -29 -30 -31\u000aleaf_value=-0.0050451567773655741 0.010620922555748214 0.014982888391649107 0.0099694657740992173 -0.019292712395649132 -0.005072750039085804 0.010601552117195901 -0.013312472369655994 -0.025657667748867474 -0.016109561663452735 0.0048981219205974612 0.0050762681940531365 0.0039196639808802679 -0.0027603279477888326 -0.0035944868599616341 -0.017037812394541208 -0.0045734568702525333 -0.0051476980592498715 -0.023838718092794666 0.0094272432452206373 -0.00069557278261140904 -0.019357358251297689 -0.021673506049366211 -0.025459654861433562 -0.015251778650249815 0.0079798119346650744 -0.015455415262187092 -0.0054941653990002726 -0.014546970065897658 0.0024795521482637111 -0.0043918045153560868\u000aleaf_count=291 1246 58 30 149 293 54 56 12 82 313 331 490 312 773 123 94 165 20 783 23 47 16 12 16 15 508 120 511 33 55\u000ainternal_value=0 -0.83231 0.707362 -0.881397 -0.8376 -1.01156 -0.0323989 0.835272 -1.0741 0.85685 0.138196 0.689583 -0.226946 -0.575277 -0.876774 -1.1848 -1.2338 -0.690278 0.817584 -0.428447 -1.25136 -0.354881 -0.574892 -0.8246 -0.271284 -1.3148 -1.17295 -1.28998 -0.820172 -1.11153\u000ainternal_count=7031 3467 3564 3409 3260 1989 110 2875 1879 2832 689 1586 358 1271 428 1588 1494 185 1096 843 70 328 305 43 31 1309 801 681 170 137\u000ashrinkage=0.01\u000a\u000a\u000aTree=9\u000anum_leaves=31\u000anum_cat=0\u000asplit_feature=15 1 4 18 10 3 26 36 14 0 21 12 5 30 23 2 24 1 1 14 22 22 3 32 22 2 39 12 2 35\u000asplit_gain=1205.23 107.585 80.9511 42.0501 41.9232 40.1879 32.405 45.3146 31.3774 29.1348 24.5677 19.0406 22.6349 17.4243 17.2584 17.9508 16.8876 17.5479 18.1884 15.6664 15.2304 16.8327 15.0187 13.2741 16.1479 15.6287 18.001 12.9226 11.9221 11.8553\u000athreshold=-1.0000000180025095e-35 6.5000000000000009 1924.0000000000002 -1.0000000180025095e-35 1.0000000180025095e-35 1.5000000000000002 1.5000000000000002 1.0000000180025095e-35 10.500000000000002 1538481600.0000002 8.5000000000000018 4.5000000000000009 527.50000000000011 5.5000000000000009 9.5000000000000018 1910.5000000000002 -1.0000000180025095e-35 1.5000000000000002 5.5000000000000009 26.500000000000004 -1.0000000180025095e-35 1.0000000180025095e-35 1.5000000000000002 39049.000000000007 1.0000000180025095e-35 2536.0000000000005 66.500000000000014 4.5000000000000009 2413.5000000000005 1.0000000180025095e-35\u000adecision_type=2 2 2 2 2 2 2 2 2 2 2 2 2 2 2 2 2 2 2 2 2 2 2 2 2 2 2 2 2 2\u000aleft_child=1 3 9 5 13 6 8 -8 -1 11 -6 -2 29 14 -4 -16 17 20 -19 23 -10 -22 -17 25 -25 26 -7 -11 -29 -13\u000aright_child=2 -3 4 -5 10 19 7 -9 16 27 -12 12 -14 -15 15 22 -18 18 -20 -21 21 -23 -24 24 -26 -27 -28 28 -30 -31\u000aleaf_value=-0.0064179995495142932 0.010984085612055853 0.014899037635397516 0.0012070426693470333 -0.01904418902470403 0.00045586563111281209 -0.0021328008136168989 0.010929165897385015 -0.0126994481539535 -0.015639098606598106 0.0069442500142423451 0.0079573610466365362 -0.011219970903988959 0.010987232840058257 0.0070569929476971827 -0.00098105656918572384 -0.016710477494874667 -0.0041421542906728845 -0.0065411641783829425 -0.01775451324825035 -0.012545900532314745 0.0095043744869560184 -0.011498687536851047 -0.0017765233916841358 -0.0061482285850738482 -0.022668630223379064 -0.0083285543145994404 -0.011112606860934102 0.0067560837014805329 -0.0029408848560024143 0.0044899627854849827\u000aleaf_count=469 1295 58 152 149 213 686 52 58 675 498 436 19 234 59 91 85 87 253 71 114 12 312 33 60 37 281 93 70 103 276\u000ainternal_value=0 -0.822766 0.701644 -0.871183 0.281224 -0.827939 -0.999655 -0.0320757 -1.0613 0.872499 0.560464 0.9859 0.700005 -0.179805 -0.339992 -0.700124 -1.20776 -1.26398 -0.881369 -0.568848 -1.39372 -1.05474 -1.21085 -0.505395 -1.1902 -0.446577 -0.313261 0.551878 0.118885 0.36041\u000ainternal_count=7031 3467 3564 3409 1069 3260 1989 110 1879 2495 649 1824 529 420 361 209 1410 1323 324 1271 999 324 118 1157 97 1060 779 671 173 295\u000ashrinkage=0.01\u000a\u000a\u000aTree=10\u000anum_leaves=31\u000anum_cat=0\u000asplit_feature=15 1 9 18 3 11 26 36 7 2 9 0 33 35 14 23 24 29 39 16 6 2 25 36 0 4 8 19 27 1\u000asplit_gain=1181.41 105.465 79.9507 41.024 39.2362 32.1459 31.6224 44.4206 30.8709 30.656 27.0709 18.998 15.9117 15.4798 28.4994 14.4999 16.7372 15.1449 13.3065 15.8766 13.0955 12.1835 12.0858 11.8326 11.7155 11.1864 11.0602 15.2607 13.6049 14.195\u000athreshold=-1.0000000180025095e-35 6.5000000000000009 4875.5000000000009 -1.0000000180025095e-35 1.5000000000000002 29.500000000000004 1.5000000000000002 1.0000000180025095e-35 2034.5000000000002 1618.5000000000002 5846.5000000000009 1538049600.0000002 -1.0000000180025095e-35 1.5000000000000002 21.500000000000004 27.500000000000004 -1.0000000180025095e-35 1.0000000180025095e-35 33.500000000000007 4.5000000000000009 74021.500000000015 2536.0000000000005 8.5000000000000018 1962.5000000000002 1502452800.0000002 7570.0000000000009 4136.5000000000009 1.0000000180025095e-35 15.500000000000002 3.5000000000000004\u000adecision_type=2 2 2 2 2 2 2 2 2 2 2 2 2 2 2 2 2 2 2 2 2 2 2 2 2 2 2 2 2 2\u000aleft_child=1 3 5 4 6 9 8 -8 -1 -2 12 24 -4 14 25 16 26 22 21 -20 -14 -15 -17 -23 -11 -6 27 28 29 -10\u000aright_child=2 -3 10 -5 13 -7 7 -9 15 11 -12 -13 20 18 -16 17 -18 -19 19 -21 -22 23 -24 -25 -26 -27 -28 -29 -30 -31\u000aleaf_value=-0.0049108095761185187 0.010404109825236688 0.014816795247451733 0.0098656117416176369 -0.018802948868340427 -0.0049547535275016406 -0.0081355197520052401 0.010853530258680709 -0.012544538896452368 -0.010832547670994237 0.0049511841366316348 0.0049889428595513829 0.0037090681527303759 -0.0027264799058532943 -0.0018674760959564046 -0.016713214668663781 -0.011727074968614628 -0.0045769348470085297 -0.023405948667472802 -0.00044357088379365031 -0.014796528682023167 -0.021321725489630742 -0.0095521904782538119 -0.0012064359120579355 0.0042943556141142192 0.0091590879008083478 -0.025001062231401305 -0.015105030536448226 -0.0053092175628966596 -0.01420874885805668 0.0025327196103997391\u000aleaf_count=291 1299 58 30 149 293 43 52 58 137 293 331 477 312 539 123 63 92 20 39 87 16 155 104 23 763 12 508 120 511 33\u000ainternal_value=0 -0.813377 0.696008 -0.861137 -0.818431 0.822615 -0.98792 -0.0317572 -1.04869 0.844022 0.134563 0.671716 -0.224452 -0.562534 -0.859341 -1.15689 -1.22571 -0.665241 -0.417839 -0.993782 -0.350497 -0.322493 -0.493448 -0.754209 0.802595 -0.562222 -1.28369 -1.14417 -1.25916 -0.797523\u000ainternal_count=7031 3467 3564 3409 3260 2875 1989 110 1879 2832 689 1533 358 1271 428 1588 1401 187 843 126 328 717 167 178 1056 305 1309 801 681 170\u000ashrinkage=0.01\u000a\u000a\u000aTree=11\u000anum_leaves=31\u000anum_cat=0\u000asplit_feature=15 1 4 18 3 11 26 28 2 7 4 0 14 1 1 29 37 1 8 5 10 32 22 2 39 30 0 19 37 35\u000asplit_gain=1158.12 103.396 78.7283 40.0394 38.328 33.6843 30.8652 43.5589 30.4599 30.1344 22.9606 19.3055 15.1204 14.3 25.1234 20.7506 20.3024 15.7038 14.2291 13.1469 14.0182 12.9788 15.7033 15.0098 17.4041 12.5997 12.5788 11.9908 12.2417 11.7704\u000athreshold=-1.0000000180025095e-35 6.5000000000000009 4703.5000000000009 -1.0000000180025095e-35 1.5000000000000002 29.500000000000004 1.5000000000000002 -1.0000000180025095e-35 1581.0000000000002 2034.5000000000002 5581.0000000000009 1538049600.0000002 26.500000000000004 1.0000000180025095e-35 1.5000000000000002 1.0000000180025095e-35 -1.0000000180025095e-35 5.5000000000000009 3820.0000000000005 444.50000000000006 1.0000000180025095e-35 39049.000000000007 1.0000000180025095e-35 2536.0000000000005 66.500000000000014 5.5000000000000009 1502712000.0000002 2.5000000000000004 2.5000000000000004 2.5000000000000004\u000adecision_type=2 2 2 2 2 2 2 2 2 2 2 2 2 2 2 2 2 2 2 2 2 2 2 2 2 2 2 2 2 2\u000aleft_child=1 3 5 4 6 8 9 -8 -2 -1 18 26 21 15 19 16 -11 27 -4 25 -21 23 -23 24 -6 -15 -10 -16 -29 -20\u000aright_child=2 -3 10 -5 12 -7 7 -9 11 13 -12 -13 -14 14 17 -17 -18 -19 29 20 -22 22 -24 -25 -26 -27 -28 28 -30 -31\u000aleaf_value=-0.0048568452266961049 0.010452317081866705 0.014736118932421532 0.0018131397715421857 -0.01856865914820037 -0.0020688064399331076 -0.0083736879339453528 0.010384984916712027 -0.012840585250214238 0.0049220808205105958 -0.002709025734479834 0.0046678734645081849 0.0037484248361211187 -0.012286968938504681 -0.020545005396053525 -0.0087593835470295041 -0.017434982654220534 -0.010331425264193665 -0.017056271008289797 -0.0078954975042387979 -0.021553488817665469 -0.010026162764092628 -0.0060276403292054068 -0.022288422707349775 -0.0081372079420493782 -0.010883919863779045 -0.0095963773078454259 0.00922131923007459 -0.014925556418892243 0.0079619091240991161 0.0039198473567362835\u000aleaf_count=291 1239 58 173 149 686 44 54 56 303 166 352 488 114 247 213 110 456 75 153 54 181 60 37 281 93 46 778 12 28 34\u000ainternal_value=0 -0.804163 0.690403 -0.851278 -0.809096 0.818934 -0.976452 -0.0314441 0.841318 -1.03637 0.144756 0.674683 -0.556291 -1.14313 -1.31461 -0.948899 -0.819182 -0.905546 -0.188395 -1.58395 -1.24775 -0.493973 -1.1701 -0.435845 -0.305221 -1.86835 0.805202 -0.68874 0.210516 -0.554274\u000ainternal_count=7031 3467 3564 3409 3260 2852 1989 110 2808 1879 712 1569 1271 1588 856 732 622 328 360 528 235 1157 97 1060 779 293 1081 253 40 187\u000ashrinkage=0.01\u000a\u000a\u000aTree=12\u000anum_leaves=31\u000anum_cat=0\u000asplit_feature=15 1 4 10 18 3 26 36 27 12 5 21 0 19 7 30 23 2 0 35 14 3 3 28 6 22 5 4 17 4\u000asplit_gain=1135.33 101.377 77.6559 40.7054 39.0953 37.4409 30.1272 42.7269 29.6002 28.5825 25.2966 23.6832 19.6933 18.8455 17.847 17.072 16.4613 17.4067 15.1483 15.0576 27.6425 14.6431 13.953 12.8971 14.8159 12.1346 11.784 10.8904 10.184 9.99304\u000athreshold=-1.0000000180025095e-35 6.5000000000000009 1924.0000000000002 1.0000000180025095e-35 -1.0000000180025095e-35 1.5000000000000002 1.5000000000000002 1.0000000180025095e-35 15.500000000000002 4.5000000000000009 99.500000000000014 8.5000000000000018 1538827200.0000002 1.0000000180025095e-35 14255.500000000002 5.5000000000000009 9.5000000000000018 1910.5000000000002 1533470400.0000002 1.5000000000000002 21.500000000000004 1.5000000000000002 1.5000000000000002 114.50000000000001 6050.0000000000009 -1.0000000180025095e-35 527.50000000000011 7570.0000000000009 3.5000000000000004 5000.5000000000009\u000adecision_type=2 2 2 2 2 2 2 2 2 2 2 2 2 2 2 2 2 2 2 2 2 2 2 2 2 2 2 2 2 2\u000aleft_child=1 4 9 15 5 6 8 -8 -1 12 22 -5 -2 14 -10 16 -4 29 26 20 27 -19 -11 -21 -25 -16 -12 -7 -9 -18\u000aright_child=2 -3 3 11 -6 19 7 28 13 10 18 -13 -14 -15 25 -17 17 21 -20 23 -22 -23 -24 24 -26 -27 -28 -29 -30 -31\u000aleaf_value=-0.006998285718509396 0.010808205661807315 0.014656964759015083 0.001111350594696162 0.00043453711774110753 -0.018341001850193616 -0.0048400016549209526 0.01070757330949669 0.00091110405594338614 -0.010280059406597986 -0.011856360726722246 0.005480369085162232 0.0078073383133986998 0.0066344740809228262 -0.006174228767347658 -0.017053300060408196 0.0069657481351234679 -0.0079787882241321179 -0.016458450729714653 0.0024466826100598966 -0.0034067279167660355 -0.016401374480518763 -0.0017249752602004353 0.010480380852219955 0.0028240616314704902 -0.017318903459880446 -0.010781559965680445 0.011365016745082947 -0.024564590209060384 -0.017213936967101363 0.0043492271035666672\u000aleaf_count=647 1302 58 152 213 149 293 52 14 479 46 229 436 491 167 429 59 42 85 217 773 123 33 11 16 54 157 199 12 44 49\u000ainternal_value=0 -0.795103 0.684852 0.27282 -0.841586 -0.799914 -0.965166 -0.0311366 -1.02425 0.853075 0.544306 0.548763 0.969434 -1.20195 -1.29913 -0.181341 -0.339748 -0.69081 0.639717 -0.550155 -0.842434 -1.19267 -0.673329 -0.407531 -1.20216 -1.53054 0.829618 -0.549903 -1.22502 -0.0976177\u000ainternal_count=7031 3467 3564 1069 3409 3260 1989 110 1879 2495 702 649 1793 1232 1065 420 361 209 645 1271 428 118 57 843 70 586 428 305 58 91\u000ashrinkage=0.01\u000a\u000a\u000aTree=13\u000anum_leaves=31\u000anum_cat=0\u000asplit_feature=15 1 9 18 3 11 2 26 28 38 9 0 33 24 14 0 21 19 7 31 6 1 16 2 28 32 17 31 6 13\u000asplit_gain=1113.04 99.4033 76.7105 38.1909 36.5844 30.6475 29.7365 29.4091 41.9028 29.1812 25.7917 17.8391 15.4556 14.7995 15.8359 13.8642 13.326 15.0405 14.9239 13.1212 12.6704 12.4741 11.4681 11.4635 13.7726 14.021 11.3549 16.9088 11.3341 11.331\u000athreshold=-1.0000000180025095e-35 6.5000000000000009 4875.5000000000009 -1.0000000180025095e-35 1.5000000000000002 29.500000000000004 1581.0000000000002 1.5000000000000002 -1.0000000180025095e-35 10.500000000000002 5846.5000000000009 1538049600.0000002 -1.0000000180025095e-35 -1.0000000180025095e-35 26.500000000000004 1502712000.0000002 6.5000000000000009 1.0000000180025095e-35 18701.000000000004 2.5000000000000004 74021.500000000015 1.5000000000000002 30.500000000000004 2503.0000000000005 114.50000000000001 38931.500000000007 4.5000000000000009 7.5000000000000009 5175.0000000000009 79.500000000000014\u000adecision_type=2 2 2 2 2 2 2 2 2 2 2 2 2 2 2 2 2 2 2 2 2 2 2 2 2 2 2 2 2 2\u000aleft_child=1 3 5 4 7 6 -2 9 -9 -1 12 15 -4 14 23 -8 17 18 19 -11 -14 26 -18 24 25 -6 27 -21 -26 -27\u000aright_child=2 -3 10 -5 13 -7 11 8 -10 16 -12 -13 20 -15 -16 -17 22 -19 -20 21 -22 -23 -24 -25 28 29 -28 -29 -30 -31\u000aleaf_value=-0.0062671553389587447 0.010270297351517861 0.014579288018797217 0.0097541643437685076 -0.01811968057383748 -0.0025208909389938588 -0.0079003082274232937 0.0046307406573757532 0.010244905665157329 -0.012542543466282712 0.0087355082815900806 0.0048595414831359819 0.0037328724731076502 -0.0026787542041842509 0.0015456966102011525 -0.013039313295911611 0.0090989137574028472 -0.019104556073128783 -0.0057772934747823881 -0.014936415273129626 -0.010427988380196746 -0.020921916847617059 -0.0052006856140733851 -0.0062279075815433703 -0.0086369007971622731 0.0049290521228504223 0.0013969966735503877 -0.013528294965572783 0.0064152046403835204 -0.014774192208100969 -0.015775151126593525\u000aleaf_count=502 1246 58 30 149 629 43 313 54 56 11 331 490 312 92 110 783 145 172 372 111 16 125 30 284 11 17 388 23 71 57\u000ainternal_value=0 -0.786175 0.679378 -0.832036 -0.79086 0.804085 0.825177 -0.954065 -0.0308308 -1.01233 0.12923 0.661416 -0.220701 -0.54408 -0.602663 0.786076 -1.15947 -1.08908 -1.17903 -1.00845 -0.344586 -1.04711 -1.66804 -0.534975 -0.420354 -0.338849 -1.18107 -0.711804 -1.16942 -1.13317\u000ainternal_count=7031 3467 3564 3409 3260 2875 2832 1989 110 1879 689 1586 358 1271 1179 1096 1377 1202 1030 658 328 647 175 1069 785 703 522 134 82 74\u000ashrinkage=0.01\u000a\u000a\u000aTree=14\u000anum_leaves=31\u000anum_cat=0\u000asplit_feature=15 1 9 18 3 2 26 36 7 9 11 0 33 35 14 24 23 29 0 39 16 6 2 36 23 6 25 4 8 19\u000asplit_gain=1091.22 97.4775 75.5361 37.3211 35.7481 30.2492 28.7103 41.1096 28.5994 25.3055 23.1558 17.5813 15.1656 14.6587 26.7888 13.8814 15.9438 14.4313 13.6766 12.4923 15.3823 12.3564 11.4516 11.5205 10.8773 10.6967 10.6747 10.6039 10.6013 14.1578\u000athreshold=-1.0000000180025095e-35 6.5000000000000009 4875.5000000000009 -1.0000000180025095e-35 1.5000000000000002 1581.0000000000002 1.5000000000000002 1.0000000180025095e-35 2034.5000000000002 5846.5000000000009 29.500000000000004 1538049600.0000002 -1.0000000180025095e-35 1.5000000000000002 21.500000000000004 -1.0000000180025095e-35 27.500000000000004 1.0000000180025095e-35 1502712000.0000002 33.500000000000007 4.5000000000000009 74021.500000000015 2536.0000000000005 1962.5000000000002 29.500000000000004 5375.0000000000009 8.5000000000000018 7570.0000000000009 4136.5000000000009 1.0000000180025095e-35\u000adecision_type=2 2 2 2 2 2 2 2 2 2 2 2 2 2 2 2 2 2 2 2 2 2 2 2 2 2 2 2 2 2\u000aleft_child=1 3 5 4 6 24 8 -8 -1 12 11 18 -4 14 27 16 28 26 25 22 -21 -14 -15 -24 -2 -7 -18 -6 29 -10\u000aright_child=2 -3 9 -5 13 10 7 -9 15 -11 -12 -13 21 19 -16 -17 17 -19 -20 20 -22 -23 23 -25 -26 -27 -28 -29 -30 -31\u000aleaf_value=-0.0046506539238792737 0.01021584198800031 0.01450304871434911 0.0096814282614970121 -0.017904420389315629 -0.0047311585655434923 -0.0086985176718388912 0.010564850338706876 -0.011967285369762366 -0.012014196910203723 0.0048172170099332933 -0.014030314017883521 0.003699172574313563 -0.0026503570534276133 -0.0017356559409521795 -0.016095683984350264 -0.0041213892389316675 -0.011070362950770274 -0.022637597120437451 0.0090319036426116401 -0.00020740692293363822 -0.0142997724381224 -0.020632534452482313 -0.0092006763358571716 0.0044391951357628107 -0.0023785791457000189 0.0054293739501700576 -0.0011488001964174875 -0.024145373918043209 -0.014485148175072099 -0.0050191448862869229\u000aleaf_count=291 1244 58 30 149 293 21 52 58 681 331 21 490 312 539 123 94 62 20 783 39 87 16 155 23 24 292 103 12 508 120\u000ainternal_value=0 -0.77741 0.673934 -0.822661 -0.78197 0.797925 -0.94316 -0.030533 -1.00062 0.127995 0.633355 0.65604 -0.218396 -0.538121 -0.826093 -1.10429 -1.15076 -0.635757 0.779993 -0.39748 -0.953775 -0.340885 -0.305134 -0.722481 1.00005 0.459037 -0.466379 -0.538188 -1.22731 -1.09119\u000ainternal_count=7031 3467 3564 3409 3260 2875 1989 110 1879 689 1607 1586 358 1271 428 1588 1494 185 1096 843 126 328 717 178 1268 313 165 305 1309 801\u000ashrinkage=0.01\u000a\u000a\u000aTree=15\u000anum_leaves=31\u000anum_cat=0\u000asplit_feature=15 1 4 10 18 3 12 26 36 27 5 21 0 19 7 30 23 2 3 0 24 14 3 22 5 2 28 32 13 6\u000asplit_gain=1069.89 95.5968 74.5263 39.468 36.4851 34.947 28.2084 28.0327 40.3134 28.1735 24.8853 22.7946 19.2611 17.8547 17.0194 16.7438 15.6835 16.9526 14.8899 14.7511 14.4207 15.3034 13.6868 11.7294 11.6506 11.0078 13.3574 13.6841 11.0494 11.0053\u000athreshold=-1.0000000180025095e-35 6.5000000000000009 1924.0000000000002 1.0000000180025095e-35 -1.0000000180025095e-35 1.5000000000000002 4.5000000000000009 1.5000000000000002 1.0000000180025095e-35 15.500000000000002 99.500000000000014 8.5000000000000018 1538827200.0000002 1.0000000180025095e-35 14255.500000000002 5.5000000000000009 9.5000000000000018 1970.0000000000002 1.5000000000000002 1533470400.0000002 -1.0000000180025095e-35 26.500000000000004 1.5000000000000002 -1.0000000180025095e-35 527.50000000000011 2503.0000000000005 114.50000000000001 38931.500000000007 79.500000000000014 5175.0000000000009\u000adecision_type=2 2 2 2 2 2 2 2 2 2 2 2 2 2 2 2 2 2 2 2 2 2 2 2 2 2 2 2 2 2\u000aleft_child=1 4 6 15 5 7 12 9 -9 -1 22 -5 -2 14 -11 16 -4 -18 -19 24 21 25 -8 -16 -12 26 27 -7 -29 -28\u000aright_child=2 -3 3 11 -6 20 10 8 -10 13 19 -13 -14 -15 23 -17 17 18 -20 -21 -22 -23 -24 -25 -26 -27 29 28 -30 -31\u000aleaf_value=-0.0067326258112564196 0.010611297364090744 0.014428205944440895 0.0010184634725174805 0.00041648228526227786 -0.017694954637788397 -0.0024520531487936055 -0.011883844367910021 0.010493342181087249 -0.01182704061632683 -0.0099213323712605689 0.0052946050813330193 0.0076573938575657165 0.0064702437231041326 -0.0059408500839220604 -0.016529433311205443 0.0068832682718902747 -0.0011244225699590796 -0.016615214467436065 -0.001677719088736944 0.0023141864044266022 0.0015728833000821741 -0.012781723826777888 0.010295482248289512 -0.010379544988059054 0.011167816299814783 -0.008450366004167249 0.0049106161759662368 0.001424563745466001 -0.01552276820609594 -0.014503523788508468\u000aleaf_count=647 1302 58 152 213 149 629 46 52 58 479 229 436 491 167 429 59 94 82 33 217 92 110 11 157 199 284 11 17 57 71\u000ainternal_value=0 -0.768791 0.668545 0.264633 -0.813443 -0.773225 0.834227 -0.932474 -0.0302393 -0.989144 0.526661 0.537162 0.950364 -1.16204 -1.25633 -0.182436 -0.339173 -0.681221 -1.19024 0.621778 -0.532221 -0.58995 -0.682001 -1.48163 0.810091 -0.523434 -0.411151 -0.330901 -1.11461 -1.14781\u000ainternal_count=7031 3467 3564 1069 3409 3260 2495 1989 110 1879 702 649 1793 1232 1065 420 361 209 115 645 1271 1179 57 586 428 1069 785 703 74 82\u000ashrinkage=0.01\u000a\u000a\u000aTree=16\u000anum_leaves=31\u000anum_cat=0\u000asplit_feature=15 1 9 18 3 2 26 28 38 9 11 0 33 35 14 0 21 19 7 31 1 39 16 6 16 17 31 2 23 17\u000asplit_gain=1049.02 93.7597 73.4904 35.681 34.1615 29.6909 27.3719 39.5531 27.6715 24.5078 22.4556 17.1479 14.793 14.2752 25.9796 13.5117 12.9071 14.1481 14.1724 12.7421 12.1666 12.0487 14.9532 12.0174 11.1384 11.0317 16.4861 10.9988 11.3525 10.7242\u000athreshold=-1.0000000180025095e-35 6.5000000000000009 4875.5000000000009 -1.0000000180025095e-35 1.5000000000000002 1581.0000000000002 1.5000000000000002 -1.0000000180025095e-35 10.500000000000002 5846.5000000000009 29.500000000000004 1538049600.0000002 -1.0000000180025095e-35 1.5000000000000002 21.500000000000004 1502712000.0000002 6.5000000000000009 1.0000000180025095e-35 18701.000000000004 2.5000000000000004 1.5000000000000002 33.500000000000007 4.5000000000000009 74021.500000000015 30.500000000000004 4.5000000000000009 7.5000000000000009 2536.0000000000005 17.500000000000004 3.5000000000000004\u000adecision_type=2 2 2 2 2 2 2 2 2 2 2 2 2 2 2 2 2 2 2 2 2 2 2 2 2 2 2 2 2 2\u000aleft_child=1 3 5 4 6 -2 8 -8 -1 12 11 15 -4 14 -6 -7 17 18 19 -10 25 27 -23 -14 -18 26 -21 -15 -29 -9\u000aright_child=2 -3 9 -5 13 10 7 29 16 -11 -12 -13 23 21 -16 -17 24 -19 -20 20 -22 22 -24 -25 -26 -27 -28 28 -30 -31\u000aleaf_value=-0.0060298026230089456 0.0098690734019692781 0.014354723112262397 0.0095825125690403041 -0.017491038324532762 -0.0052678804892862877 0.0044847154459960008 0.010040133511698206 0.0012597310480060577 0.0088076135763047615 0.0047341328449378803 -0.013792590421411649 0.0036238820920288231 -0.0026178945229829026 -0.0016807381806273442 -0.015801642274574201 0.0089082125015847533 -0.018579191828429514 -0.0055642580462565358 -0.014442750521293291 -0.010066878890194333 -0.0049117585897305027 -0.00013422524269013502 -0.014014849340829012 -0.020318356240253056 -0.0059176587631910539 -0.013113889561404329 0.0065423732280195561 0.00095414770021315907 -0.0098827145254473999 -0.017423146189397311\u000aleaf_count=502 1268 58 30 149 305 313 54 14 11 331 21 490 312 539 123 783 145 172 372 111 125 39 87 16 30 388 23 43 135 42\u000ainternal_value=0 -0.760312 0.663226 -0.804377 -0.764618 0.785993 -0.921947 -0.0299501 -0.977843 0.124593 0.622716 0.645181 -0.215994 -0.526426 -0.810231 0.767986 -1.12073 -1.05159 -1.13856 -0.97267 -1.01062 -0.387711 -0.93322 -0.336692 -1.61985 -1.14257 -0.68094 -0.297027 -0.705428 -1.21161\u000ainternal_count=7031 3467 3564 3409 3260 2875 1989 110 1879 689 1607 1586 358 1271 428 1096 1377 1202 1030 658 647 843 126 328 175 522 134 717 178 56\u000ashrinkage=0.01\u000a\u000a\u000aTree=17\u000anum_leaves=31\u000anum_cat=0\u000asplit_feature=15 1 4 10 18 3 12 26 36 27 5 21 0 19 30 7 23 2 3 8 24 14 3 22 4 7 2 32 39 36\u000asplit_gain=1028.58 91.9641 72.5632 38.543 34.9082 33.4058 27.8497 26.7286 38.8045 27.2038 24.4476 22.17 18.9503 17.178 16.4269 16.3643 15.1787 16.4741 14.5215 14.4911 14.0253 14.7949 13.4058 11.4024 10.6898 14.5861 10.5705 13.1954 13.3725 10.8086\u000athreshold=-1.0000000180025095e-35 6.5000000000000009 1924.0000000000002 1.0000000180025095e-35 -1.0000000180025095e-35 1.5000000000000002 4.5000000000000009 1.5000000000000002 1.0000000180025095e-35 15.500000000000002 99.500000000000014 8.5000000000000018 1538827200.0000002 1.0000000180025095e-35 5.5000000000000009 14255.500000000002 9.5000000000000018 1970.0000000000002 1.5000000000000002 2152.5000000000005 -1.0000000180025095e-35 26.500000000000004 1.5000000000000002 -1.0000000180025095e-35 1705.0000000000002 18137.500000000004 2503.0000000000005 80198.500000000015 56.500000000000007 3850.0000000000005\u000adecision_type=2 2 2 2 2 2 2 2 2 2 2 2 2 2 2 2 2 2 2 2 2 2 2 2 2 2 2 2 2 2\u000aleft_child=1 4 6 14 5 7 12 9 -9 -1 22 -5 -2 15 16 -11 -4 -18 -19 -12 21 26 -8 -17 25 -23 27 28 -7 -28\u000aright_child=2 -3 3 11 -6 20 10 8 -10 13 19 -13 -14 -15 -16 23 17 18 -20 -21 -22 24 -24 -25 -26 -27 29 -29 -30 -31\u000aleaf_value=-0.0065671541092991535 0.010480844118832813 0.01428256118142926 0.00096815059040415534 0.00040589649635748218 -0.017292431896124325 -0.0027690662499942303 -0.011816579301397786 0.010355203157506106 -0.01156073673098835 -0.0096993457152573966 0.012773300252846509 0.0075522577563014717 0.0063643674216887058 -0.0057986344889468435 0.0068115809444028877 -0.016177880158027534 -0.001126250736601403 -0.016389249070273712 -0.0016468848517129024 0.0050180191825247369 0.0015921924776873973 0.003669541433132778 0.010169816860324334 -0.010123807534968769 -0.017339721860562891 -0.019599523286160145 -0.0093553505482112456 -0.023515273232715073 -0.010016402877549815 0.0043015185222365681\u000aleaf_count=647 1302 58 152 213 149 664 46 52 58 479 85 436 491 167 59 429 94 82 33 560 92 23 11 157 70 17 264 14 107 20\u000ainternal_value=0 -0.751958 0.657933 0.259186 -0.795445 -0.756136 0.822007 -0.911605 -0.0296646 -0.966743 0.5159 0.529086 0.937788 -1.13636 -0.182481 -1.22868 -0.337572 -0.673657 -1.1746 0.610542 -0.520685 -0.577522 -0.681955 -1.4492 -1.25318 -0.500741 -0.512146 -0.402151 -0.372238 -0.826825\u000ainternal_count=7031 3467 3564 1069 3409 3260 2495 1989 110 1879 702 649 1793 1232 420 1065 361 209 115 645 1271 1179 57 586 110 40 1069 785 771 284\u000ashrinkage=0.01\u000a\u000a\u000aTree=18\u000anum_leaves=31\u000anum_cat=0\u000asplit_feature=15 1 9 18 3 2 26 28 7 9 11 0 33 35 14 24 23 29 0 6 28 6 23 6 17 25 4 8 19 27\u000asplit_gain=1008.59 90.2099 71.5038 34.1638 32.6706 29.1244 26.1031 38.0649 26.8685 23.734 21.7798 16.8125 14.4305 13.8399 25.1934 13.4962 15.1856 14.0677 13.3465 11.6931 11.6638 14.1254 10.6222 10.4782 10.4604 10.361 10.3367 10.2516 13.1442 12.1131\u000athreshold=-1.0000000180025095e-35 6.5000000000000009 4875.5000000000009 -1.0000000180025095e-35 1.5000000000000002 1581.0000000000002 1.5000000000000002 -1.0000000180025095e-35 2034.5000000000002 5846.5000000000009 29.500000000000004 1538049600.0000002 -1.0000000180025095e-35 1.5000000000000002 21.500000000000004 -1.0000000180025095e-35 27.500000000000004 1.0000000180025095e-35 1502712000.0000002 74021.500000000015 114.50000000000001 6050.0000000000009 29.500000000000004 5375.0000000000009 3.5000000000000004 8.5000000000000018 7570.0000000000009 4136.5000000000009 1.0000000180025095e-35 15.500000000000002\u000adecision_type=2 2 2 2 2 2 2 2 2 2 2 2 2 2 2 2 2 2 2 2 2 2 2 2 2 2 2 2 2 2\u000aleft_child=1 3 5 4 6 22 8 -8 -1 12 11 18 -4 14 26 16 27 25 23 -14 -15 -22 -2 -7 -9 -18 -6 28 29 -10\u000aright_child=2 -3 9 -5 13 10 7 24 15 -11 -12 -13 19 20 -16 -17 17 -19 -20 -21 21 -23 -24 -25 -26 -27 -28 -29 -30 -31\u000aleaf_value=-0.004378992183609565 0.0099542252617934764 0.014211684144738307 0.0094852427854639574 -0.017098919023132653 -0.0045090075508581731 -0.0087792243205660255 0.009906160763937898 0.0013609101375506014 -0.0071553551655699375 0.0046523822460500146 -0.013562320702009465 0.0035431022174769932 -0.0025857864868931101 -0.003149463914714479 -0.015508229030157656 -0.0037553855575603685 -0.010626054809109957 -0.022037137715313748 0.008790087855797768 -0.020015757194810191 0.0031589784173235301 -0.016446281509186957 -0.0025119519333069141 0.0052206459904371883 -0.017072216322133769 -0.00087973564092571374 -0.023619790676478541 -0.013930470797611153 -0.0047604994055079342 -0.012999560203215941\u000aleaf_count=291 1244 58 30 149 293 21 54 14 170 331 21 490 312 773 123 94 62 20 783 16 16 54 24 292 42 103 12 508 120 511\u000ainternal_value=0 -0.74374 0.652711 -0.786659 -0.747789 0.774271 -0.901435 -0.0293839 -0.95583 0.121268 0.612335 0.634579 -0.213615 -0.51503 -0.794105 -1.05598 -1.10168 -0.600389 0.756547 -0.332553 -0.378507 -1.13082 0.97393 0.438521 -1.18441 -0.433625 -0.515098 -1.17616 -1.04268 -1.1485\u000ainternal_count=7031 3467 3564 3409 3260 2875 1989 110 1879 689 1607 1586 358 1271 428 1588 1494 185 1096 328 843 70 1268 313 56 165 305 1309 801 681\u000ashrinkage=0.01\u000a\u000a\u000aTree=19\u000anum_leaves=31\u000anum_cat=0\u000asplit_feature=15 1 4 10 18 3 12 26 36 38 5 21 0 30 23 2 0 3 24 14 3 21 19 7 31 1 5 16 17 31\u000asplit_gain=989.019 88.4968 70.5533 37.6056 33.4456 31.9668 27.5011 25.4958 37.3621 26.2837 24.0262 21.5782 18.6469 16.1091 14.653 16.0557 14.3587 14.1703 13.6671 14.3496 13.1305 12.5104 13.3373 13.4436 12.393 11.8674 11.5093 10.826 10.7398 16.0855\u000athreshold=-1.0000000180025095e-35 6.5000000000000009 1924.0000000000002 1.0000000180025095e-35 -1.0000000180025095e-35 1.5000000000000002 4.5000000000000009 1.5000000000000002 1.0000000180025095e-35 10.500000000000002 99.500000000000014 8.5000000000000018 1538827200.0000002 5.5000000000000009 9.5000000000000018 1970.0000000000002 1533470400.0000002 1.5000000000000002 -1.0000000180025095e-35 26.500000000000004 1.5000000000000002 6.5000000000000009 1.0000000180025095e-35 18701.000000000004 2.5000000000000004 1.5000000000000002 527.50000000000011 30.500000000000004 4.5000000000000009 7.5000000000000009\u000adecision_type=2 2 2 2 2 2 2 2 2 2 2 2 2 2 2 2 2 2 2 2 2 2 2 2 2 2 2 2 2 2\u000aleft_child=1 4 6 13 5 7 12 9 -9 -1 20 -5 -2 14 -4 -16 26 -17 19 -7 -8 22 23 24 -11 28 -12 -23 29 -26\u000aright_child=2 -3 3 11 -6 18 10 8 -10 21 16 -13 -14 -15 15 17 -18 -19 -20 -21 -22 27 -24 -25 25 -27 -28 -29 -30 -31\u000aleaf_value=-0.0058037658278560665 0.010351994042755228 0.014142059574284271 0.00091946020926391293 0.00039580752504536919 -0.016910284752747456 -0.0050110683469304128 -0.011753083915762083 0.010219936523688321 -0.011304599214664779 0.0088771382822788493 0.0050658041084837829 0.0074513715622205766 0.006259540489535643 0.0067441211944315772 -0.0011110799292211111 -0.016166168914735834 0.0021350410283442096 -0.001612093974541842 0.0016160250672235697 -0.012300166021057169 0.010043892608527779 -0.018083744029810084 -0.005360673143144732 -0.013974181768072545 -0.0097255847144826438 -0.0046425623716104536 0.010931403109885815 -0.0056250291469606807 -0.012725903499169269 0.0066615946767232606\u000aleaf_count=502 1302 58 152 213 149 1069 46 52 58 11 229 436 491 59 94 82 217 33 92 110 11 145 172 372 111 125 199 30 388 23\u000ainternal_value=0 -0.735664 0.647521 0.254165 -0.778026 -0.739584 0.809904 -0.891478 -0.0291077 -0.945147 0.505218 0.521338 0.925353 -0.181946 -0.33537 -0.665151 0.599401 -1.15893 -0.509436 -0.565457 -0.682198 -1.08409 -1.01614 -1.10037 -0.939082 -0.976386 0.786333 -1.57434 -1.10641 -0.651705\u000ainternal_count=7031 3467 3564 1069 3409 3260 2495 1989 110 1879 702 649 1793 420 361 209 645 115 1271 1179 57 1377 1202 1030 658 647 428 175 522 134\u000ashrinkage=0.01\u000a\u000a\u000aTree=20\u000anum_leaves=31\u000anum_cat=0\u000asplit_feature=15 1 9 18 3 2 26 36 7 9 11 0 33 35 14 24 23 29 0 39 16 6 2 36 23 6 5 2 25 4\u000asplit_gain=969.861 86.8202 69.5777 32.7553 31.2821 28.5975 24.9037 36.6501 25.8953 22.9852 21.1251 16.4012 14.0777 13.5052 24.4634 13.1934 14.649 13.7238 13.1888 11.4456 14.5563 11.3824 10.5153 11.0771 10.4042 10.262 10.1557 12.0906 10.0971 10.0787\u000athreshold=-1.0000000180025095e-35 6.5000000000000009 4875.5000000000009 -1.0000000180025095e-35 1.5000000000000002 1581.0000000000002 1.5000000000000002 1.0000000180025095e-35 2034.5000000000002 5846.5000000000009 29.500000000000004 1538049600.0000002 -1.0000000180025095e-35 1.5000000000000002 21.500000000000004 -1.0000000180025095e-35 27.500000000000004 1.0000000180025095e-35 1502712000.0000002 33.500000000000007 4.5000000000000009 74021.500000000015 2536.0000000000005 1962.5000000000002 29.500000000000004 5375.0000000000009 211.00000000000003 2137.5000000000005 8.5000000000000018 7570.0000000000009\u000adecision_type=2 2 2 2 2 2 2 2 2 2 2 2 2 2 2 2 2 2 2 2 2 2 2 2 2 2 2 2 2 2\u000aleft_child=1 3 5 4 6 24 8 -8 -1 12 11 18 -4 14 29 16 26 28 25 22 -21 -14 -15 -24 -2 -7 -10 -28 -18 -6\u000aright_child=2 -3 9 -5 13 10 7 -9 15 -11 -12 -13 21 19 -16 -17 17 -19 -20 20 -22 -23 23 -25 -26 -27 27 -29 -30 -31\u000aleaf_value=-0.0042658990373258881 0.0098269339389098175 0.014073653119470498 0.0093895449742030963 -0.016726334348959166 -0.0044102685972902704 -0.0087386963618793622 0.010152082797740327 -0.01117678330001254 -0.013836343982842746 0.0045721255049967491 -0.013339195471157875 0.0034708438118464854 -0.0025540748776216272 -0.0015480702315899611 -0.015236632091419218 -0.0036076873049663599 -0.010412500112824881 -0.021675317051319566 0.0086709929969545595 6.6867518094129822e-05 -0.013602070682743238 -0.019724158474639385 -0.0087212867653084745 0.0046262038045584127 -0.0025118717641734673 0.0051134519158212467 -0.0085741071191831972 -0.013331075649443882 -0.00080223071238051354 -0.023243248190062706\u000aleaf_count=291 1244 58 30 149 293 21 52 58 462 331 21 490 312 539 123 94 62 20 783 39 87 16 155 23 24 292 535 312 103 12\u000ainternal_value=0 -0.727686 0.642401 -0.769499 -0.731476 0.762779 -0.88165 -0.0288353 -0.934606 0.118025 0.602085 0.62411 -0.211261 -0.503898 -0.779262 -1.03278 -1.0779 -0.586008 0.744971 -0.369116 -0.89958 -0.328471 -0.280797 -0.679309 0.961296 0.428332 -1.15094 -1.02801 -0.421395 -0.504438\u000ainternal_count=7031 3467 3564 3409 3260 2875 1989 110 1879 689 1607 1586 358 1271 428 1588 1494 185 1096 843 126 328 717 178 1268 313 1309 847 165 305\u000ashrinkage=0.01\u000a\u000a\u000aTree=21\u000anum_leaves=31\u000anum_cat=0\u000asplit_feature=15 1 4 10 18 3 12 26 28 27 5 21 0 19 30 7 8 23 2 3 24 14 3 22 4 32 22 2 39 0\u000asplit_gain=951.102 85.183 68.605 36.6917 32.0881 30.6118 27.1573 24.3275 35.9671 25.4168 23.6125 21.0032 18.3537 16.3007 15.798 15.5693 14.1927 14.1464 15.652 13.8331 13.3234 13.8918 12.8608 11.0342 10.4967 10.4051 14.8742 12.2206 13.7411 11.8128\u000athreshold=-1.0000000180025095e-35 6.5000000000000009 1924.0000000000002 1.0000000180025095e-35 -1.0000000180025095e-35 1.5000000000000002 4.5000000000000009 1.5000000000000002 -1.0000000180025095e-35 15.500000000000002 99.500000000000014 8.5000000000000018 1538827200.0000002 1.0000000180025095e-35 5.5000000000000009 14255.500000000002 2152.5000000000005 9.5000000000000018 1970.0000000000002 1.5000000000000002 -1.0000000180025095e-35 26.500000000000004 1.5000000000000002 -1.0000000180025095e-35 5000.5000000000009 39049.000000000007 1.0000000180025095e-35 2503.0000000000005 66.500000000000014 1515672000.0000002\u000adecision_type=2 2 2 2 2 2 2 2 2 2 2 2 2 2 2 2 2 2 2 2 2 2 2 2 2 2 2 2 2 2\u000aleft_child=1 4 6 14 5 7 12 9 -9 -1 22 -5 -2 15 17 -11 -12 -4 24 -20 21 25 -8 -17 -19 27 -27 28 -7 -29\u000aright_child=2 -3 3 11 -6 20 10 8 -10 13 16 -13 -14 -15 -16 23 -18 18 19 -21 -22 -23 -24 -25 -26 26 -28 29 -30 -31\u000aleaf_value=-0.0062521424442186328 0.010225741213167041 0.014006431024480976 0.00087188986938577218 0.00038601681981028431 -0.016546878696690304 -0.002101985477485109 -0.011689232634709931 0.0097118212201972882 -0.011457156676723368 -0.0092568928431916268 0.012529602929838481 0.007352194380177343 0.0061564888181177072 -0.0054694864506825529 0.0066776464228604712 -0.015574588329768229 0.0048073096344579073 -0.0082222603831737032 -0.015949467488353117 -0.0015778140638446007 0.0016397370682846104 -0.012067703120356918 0.0099205070057755106 -0.0096339391326511967 0.0042288490072429413 -0.0054023960408103354 -0.021138572956588417 -0.01144195621122218 -0.0099431736448296216 -0.0034635048884485292\u000aleaf_count=647 1302 58 152 213 149 612 46 54 56 479 85 436 491 167 59 429 560 43 82 33 92 110 11 157 51 60 37 150 93 117\u000ainternal_value=0 -0.71985 0.637305 0.24925 -0.761124 -0.72351 0.798029 -0.871987 -0.0285669 -0.924243 0.494748 0.513728 0.913152 -1.08777 -0.181391 -1.17748 0.58848 -0.333172 -0.656801 -1.14365 -0.498465 -0.553694 -0.682337 -1.39203 -0.1096 -0.490413 -1.09034 -0.433817 -0.307709 -0.779873\u000ainternal_count=7031 3467 3564 1069 3409 3260 2495 1989 110 1879 702 649 1793 1232 420 1065 645 361 209 115 1271 1179 57 586 94 1069 97 972 705 267\u000ashrinkage=0.01\u000a\u000a\u000aTree=22\u000anum_leaves=31\u000anum_cat=0\u000asplit_feature=15 1 9 18 3 2 26 36 7 9 11 0 33 35 14 0 24 23 29 28 6 6 23 6 5 2 25 4 8 0\u000asplit_gain=932.751 83.5825 67.7636 31.4441 29.957 28.0746 23.7656 35.2987 25.0405 22.2845 20.4723 16.0846 13.7366 13.1332 23.7839 13.0288 12.878 14.2464 13.4301 11.1139 13.7345 11.0769 10.1372 10.0508 9.88728 11.7707 9.85938 9.85688 9.84708 10.3262\u000athreshold=-1.0000000180025095e-35 6.5000000000000009 4875.5000000000009 -1.0000000180025095e-35 1.5000000000000002 1581.0000000000002 1.5000000000000002 1.0000000180025095e-35 2034.5000000000002 5846.5000000000009 29.500000000000004 1538049600.0000002 -1.0000000180025095e-35 1.5000000000000002 21.500000000000004 1502712000.0000002 -1.0000000180025095e-35 27.500000000000004 1.0000000180025095e-35 114.50000000000001 6050.0000000000009 74021.500000000015 29.500000000000004 5375.0000000000009 211.00000000000003 2137.5000000000005 8.5000000000000018 7570.0000000000009 8735.0000000000018 1509019200.0000002\u000adecision_type=2 2 2 2 2 2 2 2 2 2 2 2 2 2 2 2 2 2 2 2 2 2 2 2 2 2 2 2 2 2\u000aleft_child=1 3 5 4 6 22 8 -8 -1 12 11 15 -4 14 27 23 17 24 26 -15 -21 -14 -2 -7 -10 -26 -19 -6 -27 -30\u000aright_child=2 -3 9 -5 13 10 7 -9 16 -11 -12 -13 21 19 -16 -17 -18 18 -20 20 -22 -23 -24 -25 25 28 -28 -29 29 -31\u000aleaf_value=-0.0041492904230788601 0.0097016561522000663 0.01394036398781922 0.0092924806249773204 -0.016371737700956807 -0.0043078959518064253 -0.0086932075341085054 0.010020882299103164 -0.010933365686749408 -0.013562348044738473 0.0044926928093228808 -0.013111635581619126 0.0033931004649461992 -0.0025274695970170249 -0.002982667529910922 -0.014972419342665 0.0085572597283662209 -0.0034718475563570422 -0.010192130826715587 -0.021332698492121962 0.003320207415791694 -0.015983530210161915 -0.019441611938103467 -0.0024746846984587067 0.0050125164888549538 -0.0083758338728142975 -0.015153016143938535 -0.00070697082067213671 -0.02290102735627118 -0.00057305961347231527 -0.014109156156476475\u000aleaf_count=291 1244 58 30 149 293 21 52 58 462 331 21 490 312 773 123 783 94 62 20 16 54 16 24 292 535 232 103 12 37 43\u000ainternal_value=0 -0.712133 0.632275 -0.752878 -0.715663 0.751534 -0.862468 -0.0283029 -0.914037 0.114621 0.592095 0.613892 -0.209373 -0.493112 -0.76436 0.733955 -1.01046 -1.05499 -0.570381 -0.360256 -1.09317 -0.3249 0.94891 0.418772 -1.12693 -1.00575 -0.4077 -0.493504 -1.30643 -0.741792\u000ainternal_count=7031 3467 3564 3409 3260 2875 1989 110 1879 689 1607 1586 358 1271 428 1096 1588 1494 185 843 70 328 1268 313 1309 847 165 305 312 80\u000ashrinkage=0.01\u000a\u000a\u000aTree=23\u000anum_leaves=31\u000anum_cat=0\u000asplit_feature=15 1 4 18 3 11 2 26 28 38 33 23 0 2 5 24 14 21 29 31 4 4 1 1 5 31 3 37 0 19\u000asplit_gain=914.767 82.0173 66.789 30.8224 29.3271 28.6716 27.2685 23.2195 34.6338 24.5879 20.5376 19.1496 16.814 14.4951 16.7383 12.9879 13.4849 12.0851 12.9144 12.2811 11.9962 11.83 11.5634 22.3633 15.2721 15.2276 13.9998 12.8595 11.5098 11.2324\u000athreshold=-1.0000000180025095e-35 6.5000000000000009 4703.5000000000009 -1.0000000180025095e-35 1.5000000000000002 29.500000000000004 1581.0000000000002 1.5000000000000002 -1.0000000180025095e-35 10.500000000000002 -1.0000000180025095e-35 4.5000000000000009 1538049600.0000002 1946.5000000000002 527.50000000000011 -1.0000000180025095e-35 26.500000000000004 6.5000000000000009 1.0000000180025095e-35 2.5000000000000004 5000.5000000000009 5412.0000000000009 1.5000000000000002 1.0000000180025095e-35 549.50000000000011 7.5000000000000009 1.0000000180025095e-35 2.5000000000000004 1502712000.0000002 2.5000000000000004\u000adecision_type=2 2 2 2 2 2 2 2 2 2 2 2 2 2 2 2 2 2 2 2 2 2 2 2 2 2 2 2 2 2\u000aleft_child=1 3 5 4 7 6 -2 9 -9 -1 -4 -12 28 20 21 16 -6 18 19 -11 -13 -15 23 25 -25 27 -27 -21 -8 -24\u000aright_child=2 -3 10 -5 15 -7 12 8 -10 17 11 13 -14 14 -16 -17 -18 -19 -20 22 -22 -23 29 24 -26 26 -28 -29 -30 -31\u000aleaf_value=-0.0055185658439470984 0.0096670263174317393 0.013875421203795811 0.0099882609347111354 -0.016200742396248805 -0.0047995260729635112 -0.0077210343341823509 0.0043284392646931241 0.009584386302945655 -0.011208461820856426 0.009002389910545458 0.0054659459711480568 -0.0077815829560861664 0.0032959541059507866 -0.00064150490240279603 0.0013571827372367215 0.0016612795231731004 -0.011850354428828608 -0.015187676047454593 -0.017964429022041817 -0.0044651730002410817 0.0033626279006041728 -0.012073294783128264 -0.0079634471967218543 -0.016628528725496642 -0.0094441926488130368 -0.0085276812412079482 0.0030397154412622257 -0.013579209640563384 0.0084892241213828153 0.0017008309645437454\u000aleaf_count=502 1239 58 74 149 1069 44 303 54 56 11 161 42 488 43 87 92 110 175 70 84 188 117 233 267 187 73 69 160 778 48\u000ainternal_value=0 -0.704529 0.627271 -0.744752 -0.707929 0.748398 0.769755 -0.853117 -0.028042 -0.904013 0.123881 0.0133931 0.610736 -0.177004 -0.497383 -0.487809 -0.542266 -1.03807 -0.971425 -0.924173 0.148499 -0.87481 -0.945657 -1.05968 -1.3557 -0.730787 -0.257919 -1.02675 0.734886 -0.618203\u000ainternal_count=7031 3467 3564 3409 3260 2852 2808 1989 110 1879 712 638 1569 477 247 1271 1179 1377 1202 1132 230 160 1121 840 454 386 142 244 1081 281\u000ashrinkage=0.01\u000a\u000a\u000aTree=24\u000anum_leaves=31\u000anum_cat=0\u000asplit_feature=15 1 4 10 18 3 12 5 26 36 27 21 0 30 8 19 23 2 3 7 35 14 3 39 16 22 4 2 36 5\u000asplit_gain=897.145 80.4856 65.8187 35.564 30.2229 28.7184 26.8271 23.2276 22.687 34.0047 24.2678 20.2195 17.9837 15.4596 13.9515 13.5977 13.5127 15.144 13.5051 12.892 12.8232 23.1213 12.6125 10.8868 14.1819 10.5331 10.1953 10.0879 10.7979 9.97712\u000athreshold=-1.0000000180025095e-35 6.5000000000000009 1924.0000000000002 1.0000000180025095e-35 -1.0000000180025095e-35 1.5000000000000002 4.5000000000000009 99.500000000000014 1.5000000000000002 1.0000000180025095e-35 14.500000000000002 8.5000000000000018 1538827200.0000002 5.5000000000000009 2152.5000000000005 1.0000000180025095e-35 9.5000000000000018 1970.0000000000002 1.5000000000000002 14242.500000000002 1.5000000000000002 21.500000000000004 1.5000000000000002 33.500000000000007 4.5000000000000009 -1.0000000180025095e-35 5000.5000000000009 2536.0000000000005 1962.5000000000002 527.50000000000011\u000adecision_type=2 2 2 2 2 2 2 2 2 2 2 2 2 2 2 2 2 2 2 2 2 2 2 2 2 2 2 2 2 2\u000aleft_child=1 4 6 13 5 8 12 22 10 -10 -1 -5 -2 16 -9 19 -4 26 -19 -12 21 -7 -8 27 -25 -21 -18 -22 -29 -16\u000aright_child=2 -3 3 11 -6 20 7 14 9 -11 15 -13 -14 -15 29 -17 17 18 -20 25 23 -23 -24 24 -26 -27 -28 28 -30 -31\u000aleaf_value=-0.0058024244564290539 0.010045829940879509 0.013811574383392904 0.00079629756628011293 0.00037170093670475839 -0.016033735077087156 -0.0048338509937869865 -0.011707074384959335 0.012343943676151877 0.0098922341276904534 -0.010698350769767327 -0.008945355955470571 0.007214292391208286 0.0060041796890666337 0.0065950412103412126 0.0022786902360630965 -0.0055805865503410013 -0.0081033129731436886 -0.015710007551767619 -0.001519289574959696 -0.01468201636939631 -0.0014196855768873549 -0.014719405805504309 0.0097517359166095722 0.00025749630682825851 -0.013212263422236583 -0.0091410896468654308 0.004165989324275028 -0.0084480586689648588 0.0047171817448142103 0.0071308316226603797\u000aleaf_count=586 1302 58 152 213 149 305 46 85 52 58 494 436 491 59 292 174 43 82 33 451 539 123 11 39 87 174 51 155 23 268\u000ainternal_value=0 -0.697022 0.62231 0.241961 -0.736732 -0.700292 0.780624 0.478373 -0.843907 -0.0277855 -0.894141 0.50313 0.895622 -0.181915 0.571832 -1.04245 -0.33193 -0.6478 -1.12592 -1.12174 -0.482552 -0.750317 -0.689972 -0.351346 -0.867693 -1.30825 -0.109206 -0.265276 -0.654918 0.464926\u000ainternal_count=7031 3467 3564 1069 3409 3260 2495 702 1989 110 1879 649 1793 420 645 1293 361 209 115 1119 1271 428 57 843 126 625 94 717 178 560\u000ashrinkage=0.01\u000a\u000a\u000aTree=25\u000anum_leaves=31\u000anum_cat=0\u000asplit_feature=15 1 9 18 3 2 26 36 7 9 11 0 8 0 24 14 24 23 29 20 4 7 32 22 2 39 0 6 35 23\u000asplit_gain=879.912 78.9886 65.0701 29.6425 28.1183 27.2337 22.1675 33.3656 23.909 21.3116 19.5722 15.5646 13.2713 12.7034 12.6636 13.0671 12.501 13.6204 13.0988 11.9065 10.295 13.9936 10.2032 14.4883 11.7419 13.1559 11.4908 9.85165 9.77892 9.67311\u000athreshold=-1.0000000180025095e-35 6.5000000000000009 4875.5000000000009 -1.0000000180025095e-35 1.5000000000000002 1581.0000000000002 1.5000000000000002 1.0000000180025095e-35 2034.5000000000002 5846.5000000000009 29.500000000000004 1538049600.0000002 3820.0000000000005 1502712000.0000002 -1.0000000180025095e-35 26.500000000000004 -1.0000000180025095e-35 27.500000000000004 1.0000000180025095e-35 26.500000000000004 1705.0000000000002 18137.500000000004 39049.000000000007 1.0000000180025095e-35 2503.0000000000005 66.500000000000014 1515672000.0000002 5375.0000000000009 1.5000000000000002 29.500000000000004\u000adecision_type=2 2 2 2 2 2 2 2 2 2 2 2 2 2 2 2 2 2 2 2 2 2 2 2 2 2 2 2 2 2\u000aleft_child=1 3 5 4 6 29 8 -8 -1 12 11 13 28 27 15 22 17 -10 -19 -14 21 -17 24 -24 25 -6 -26 -7 -4 -2\u000aright_child=2 -3 9 -5 14 10 7 -9 16 -11 -12 -13 19 -15 -16 20 -18 18 -20 -21 -22 -23 23 -25 26 -27 -28 -29 -30 -31\u000aleaf_value=-0.0039736482748089792 0.0095140716555554613 0.013748794200698539 0.011987586536918306 -0.015870559724993946 -0.0019505289943247729 -0.0086934602629971745 0.0098276253548863976 -0.010581189113159608 -0.010925422881618036 0.0043814945922835066 -0.012799385899608029 0.0032869777671491276 -0.0072848314556715832 0.008386426255312808 0.0016823556021869556 0.004202716771707915 -0.0032595895560784604 -0.0038867654963201802 -0.020911189463536588 0.0072200277040894668 -0.01632636720596577 -0.018490740844911285 -0.0052055759099752233 -0.020709629358544052 -0.011108940268988258 -0.0096089631315197412 -0.0032533980106632505 0.0048801077799727772 -0.00025769649689615033 -0.0023694083668180607\u000aleaf_count=291 1244 58 23 149 612 21 52 58 1309 331 21 490 169 783 92 23 94 165 20 20 70 17 60 37 150 93 117 292 146 24\u000ainternal_value=0 -0.689637 0.617417 -0.728843 -0.692777 0.734975 -0.834826 -0.0275318 -0.884409 0.109947 0.577636 0.599112 -0.206575 0.717783 -0.477395 -0.531096 -0.978494 -1.0223 -0.549073 -0.554197 -1.16323 -0.427508 -0.469793 -1.06295 -0.413834 -0.290373 -0.75242 0.405971 0.158994 0.930427\u000ainternal_count=7031 3467 3564 3409 3260 2875 1989 110 1879 689 1607 1586 358 1096 1271 1179 1588 1494 185 189 110 40 1069 97 972 705 267 313 169 1268\u000ashrinkage=0.01\u000a\u000a\u000aTree=26\u000anum_leaves=31\u000anum_cat=0\u000asplit_feature=15 1 4 18 3 2 26 28 27 11 33 23 0 19 7 2 5 35 14 4 4 0 0 28 6 22 5 6 17 8\u000asplit_gain=863.024 77.5252 64.0923 29.0804 27.5321 27.4375 21.6616 32.7511 23.5073 21.101 20.0237 18.4441 16.288 15.5182 14.7061 13.8199 16.2314 12.4589 22.4741 11.6009 11.5928 11.5611 11.2132 10.5979 13.3738 10.4559 10.4321 10.1827 10.163 10.0396\u000athreshold=-1.0000000180025095e-35 6.5000000000000009 4703.5000000000009 -1.0000000180025095e-35 1.5000000000000002 1581.0000000000002 1.5000000000000002 -1.0000000180025095e-35 15.500000000000002 29.500000000000004 -1.0000000180025095e-35 4.5000000000000009 1538049600.0000002 1.0000000180025095e-35 14255.500000000002 1946.5000000000002 527.50000000000011 1.5000000000000002 21.500000000000004 5000.5000000000009 5412.0000000000009 1547380800.0000002 1502712000.0000002 114.50000000000001 6050.0000000000009 -1.0000000180025095e-35 394.50000000000006 6095.0000000000009 3.5000000000000004 4761.0000000000009\u000adecision_type=2 2 2 2 2 2 2 2 2 2 2 2 2 2 2 2 2 2 2 2 2 2 2 2 2 2 2 2 2 2\u000aleft_child=1 3 5 4 6 21 8 -8 -1 12 -4 -12 22 14 -10 19 20 18 -6 -13 26 -2 29 -19 -25 -16 -17 -23 -9 -7\u000aright_child=2 -3 10 -5 17 9 7 28 13 -11 11 15 -14 -15 25 16 -18 23 -20 -21 -22 27 -24 24 -26 -27 -28 -29 -30 -31\u000aleaf_value=-0.0058795402237289485 0.0096475443497385464 0.013687052054979758 0.0098584450454974448 -0.015711071965118607 -0.0047297374047109353 0.001284829635397101 0.0093993347791400325 0.0021060002675220122 -0.0087500385846477711 -0.013133327942568147 0.0053488835998821887 -0.0076806067818008137 0.0031891166116498689 -0.0050553968432763231 -0.014879265183582289 0.0048372288692988428 0.0013519498861869108 -0.0028256254663223618 -0.014466163331373771 0.0032726088062792007 -0.011882267624310579 -0.0081753057322939676 0.0083186303055387996 0.0034749278424278897 -0.015550002229330475 -0.0091089155832073457 -0.015662042979895551 0.00775827290190397 -0.015984475864780877 0.0079781691446719222\u000aleaf_count=647 1204 58 74 149 305 176 54 14 479 22 161 42 488 167 429 30 87 773 123 188 117 26 778 16 54 157 13 31 42 127\u000ainternal_value=0 -0.682369 0.612542 -0.721081 -0.685381 0.731907 -0.825889 -0.0272815 -0.874832 0.572854 0.119228 0.0102675 0.595934 -1.03175 -1.11912 -0.17637 -0.488777 -0.47232 -0.736003 0.142015 -0.859707 0.928745 0.71872 -0.343039 -1.05761 -1.32722 -0.057396 0.109024 -1.08534 0.420021\u000ainternal_count=7031 3467 3564 3409 3260 2852 1989 110 1879 1591 712 638 1569 1232 1065 477 247 1271 428 230 160 1261 1081 843 70 586 43 57 56 303\u000ashrinkage=0.01\u000a\u000a\u000aTree=27\u000anum_leaves=31\u000anum_cat=0\u000asplit_feature=15 1 4 10 18 3 12 5 26 36 38 21 0 30 0 23 2 3 3 24 14 21 29 31 5 1 1 31 5 3\u000asplit_gain=846.478 76.0928 63.232 34.5552 28.5373 26.968 26.5069 22.8231 21.1675 32.1539 23.176 19.4637 17.5728 15.0828 13.7724 12.9235 14.4613 13.1921 12.3668 12.3469 12.699 11.7705 12.642 11.9183 11.2836 11.2319 21.494 14.8574 14.8497 13.6549\u000athreshold=-1.0000000180025095e-35 6.5000000000000009 1924.0000000000002 1.0000000180025095e-35 -1.0000000180025095e-35 1.5000000000000002 4.5000000000000009 99.500000000000014 1.5000000000000002 1.0000000180025095e-35 10.500000000000002 8.5000000000000018 1538827200.0000002 5.5000000000000009 1533470400.0000002 9.5000000000000018 1970.0000000000002 1.5000000000000002 1.5000000000000002 -1.0000000180025095e-35 26.500000000000004 6.5000000000000009 1.0000000180025095e-35 2.5000000000000004 527.50000000000011 1.5000000000000002 1.0000000180025095e-35 7.5000000000000009 549.50000000000011 1.0000000180025095e-35\u000adecision_type=2 2 2 2 2 2 2 2 2 2 2 2 2 2 2 2 2 2 2 2 2 2 2 2 2 2 2 2 2 2\u000aleft_child=1 4 6 13 5 8 12 18 10 -10 -1 -5 -2 15 24 -4 -17 -18 -8 20 -7 22 23 -12 -9 26 27 -25 -28 -29\u000aright_child=2 -3 3 11 -6 19 7 14 9 -11 21 -13 -14 -15 -16 16 17 -19 -20 -21 -22 -23 -24 25 -26 -27 28 29 -30 -31\u000aleaf_value=-0.0052411720784204243 0.0098703141425461171 0.013626323858416514 0.00071966530335414159 0.00035893964889070719 -0.015555135025629867 -0.0045985131456854986 -0.011712037996392439 0.0046230468568135303 0.0097026006981419961 -0.010359037260001862 0.0091240606533844471 0.0070798751989931408 0.0058617947798752955 0.0064958204049130001 0.0017597264687982115 -0.0011278468051691005 -0.015452636554871882 -0.0014382619192133308 0.0095928569203890118 0.0017013223181565743 -0.011429509865383767 -0.014689427804843325 -0.01744407678612003 -0.0098618135942017578 0.010488853824623128 -0.0058197977053167614 -0.01608450561219036 -0.0081426666522607678 -0.0090118661409986107 0.0032643833381230006\u000aleaf_count=502 1302 58 152 213 149 1069 46 229 52 58 11 436 491 59 217 94 82 33 11 92 110 175 70 244 199 281 267 73 187 69\u000ainternal_value=0 -0.675195 0.607712 0.234639 -0.713418 -0.678078 0.76376 0.4625 -0.817094 -0.027036 -0.865407 0.492833 0.878653 -0.183172 0.555649 -0.331212 -0.639785 -1.10613 -0.696359 -0.467282 -0.520246 -0.995348 -0.929684 -0.883004 0.741006 -0.904118 -1.01632 -0.694429 -1.30606 -0.227971\u000ainternal_count=7031 3467 3564 1069 3409 3260 2495 702 1989 110 1879 649 1793 420 645 361 209 115 57 1271 1179 1377 1202 1132 428 1121 840 386 454 142\u000ashrinkage=0.01\u000a\u000a\u000aTree=28\u000anum_leaves=31\u000anum_cat=0\u000asplit_feature=15 1 9 18 2 3 26 28 7 9 11 0 33 0 35 14 24 23 29 6 28 5 17 6 4 6 8 19 2 37\u000asplit_gain=830.279 74.6906 62.4214 28.0122 26.4272 26.4227 20.6873 31.5553 22.8726 20.3571 18.6121 14.9691 12.7865 12.4032 12.1703 21.8722 12.1595 13.0562 12.7908 10.6519 10.3604 13.2512 9.94037 9.64699 9.63524 9.60951 9.56317 11.8816 11.6026 13.0371\u000athreshold=-1.0000000180025095e-35 6.5000000000000009 4875.5000000000009 -1.0000000180025095e-35 1581.0000000000002 1.5000000000000002 1.5000000000000002 -1.0000000180025095e-35 2034.5000000000002 5846.5000000000009 29.500000000000004 1538049600.0000002 -1.0000000180025095e-35 1502712000.0000002 1.5000000000000002 21.500000000000004 -1.0000000180025095e-35 27.500000000000004 1.0000000180025095e-35 74021.500000000015 114.50000000000001 151.50000000000003 3.5000000000000004 5375.0000000000009 7570.0000000000009 73755.000000000015 4136.5000000000009 1.0000000180025095e-35 2413.5000000000005 2.5000000000000004\u000adecision_type=2 2 2 2 2 2 2 2 2 2 2 2 2 2 2 2 2 2 2 2 2 2 2 2 2 2 2 2 2 2\u000aleft_child=1 3 4 5 -2 6 8 -8 -1 12 11 13 -4 23 15 24 17 26 -19 -14 25 -22 -9 -6 -7 -16 27 -10 -28 -30\u000aright_child=2 -3 9 -5 10 14 7 22 16 -11 -12 -13 19 -15 20 -17 -18 18 -20 -21 21 -23 -24 -25 -26 -27 28 -29 29 -31\u000aleaf_value=-0.0038035996618216998 0.0091237888797975897 0.013566583288585446 0.0090212032433387122 -0.015402614835089317 -0.0086914103508379317 -0.0040146425803155696 0.0092777362938539793 0.0021868716838032553 -0.010318783268489336 0.0042741813548485197 -0.012445237003471735 0.003191578619136617 -0.0024324221083064429 0.0082161980103212934 -0.0022108704179918644 -0.014229939348300955 -0.0030535819180295704 -0.0037023280867180854 -0.020514393973148339 -0.018988179738863124 0.00056744406189245282 -0.016708578960917077 -0.015695298994769815 0.004744263434861281 -0.022352133657704904 -0.010648023412499104 -0.01825069072045421 -0.0039620929310153217 -0.015649809290142688 -0.0084388031981161467\u000aleaf_count=291 1268 58 30 149 21 293 54 14 681 331 21 490 312 783 720 123 94 165 20 16 23 47 42 292 12 53 115 120 154 239\u000ainternal_value=0 -0.668111 0.602949 -0.705853 0.718785 -0.670864 -0.80843 -0.0267924 -0.856127 0.105731 0.563487 0.584593 -0.203294 0.701565 -0.462287 -0.722676 -0.948053 -0.991219 -0.528442 -0.314043 -0.334577 -1.04064 -1.06264 0.392842 -0.463339 -0.274819 -1.05991 -0.931679 -1.26845 -1.11537\u000ainternal_count=7031 3467 3564 3409 2875 3260 1989 110 1879 689 1607 1586 358 1096 1271 428 1588 1494 185 328 843 70 56 313 305 773 1309 801 508 393\u000ashrinkage=0.01\u000a\u000a\u000aTree=29\u000anum_leaves=31\u000anum_cat=0\u000asplit_feature=15 1 4 10 18 12 3 5 26 36 27 21 0 19 30 7 8 23 2 3 3 24 14 22 4 4 7 32 22 2\u000asplit_gain=814.408 73.3208 61.5615 33.7458 27.5016 26.1897 25.8912 22.4277 20.2192 30.9924 22.5488 18.9412 17.3131 14.9803 14.8001 14.321 13.6479 12.5091 14.061 12.8948 12.111 12.0346 12.3392 10.1458 10.0398 10.0198 13.5869 9.99731 14.1218 11.4198\u000athreshold=-1.0000000180025095e-35 6.5000000000000009 1924.0000000000002 1.0000000180025095e-35 -1.0000000180025095e-35 4.5000000000000009 1.5000000000000002 99.500000000000014 1.5000000000000002 1.0000000180025095e-35 15.500000000000002 8.5000000000000018 1538827200.0000002 1.0000000180025095e-35 5.5000000000000009 14255.500000000002 2152.5000000000005 9.5000000000000018 1970.0000000000002 1.5000000000000002 1.5000000000000002 -1.0000000180025095e-35 26.500000000000004 -1.0000000180025095e-35 5000.5000000000009 1705.0000000000002 18137.500000000004 39049.000000000007 1.0000000180025095e-35 2503.0000000000005\u000adecision_type=2 2 2 2 2 2 2 2 2 2 2 2 2 2 2 2 2 2 2 2 2 2 2 2 2 2 2 2 2 2\u000aleft_child=1 4 5 14 6 12 8 20 10 -10 -1 -5 -2 15 17 -12 -9 -4 24 -20 -7 22 27 -17 -19 26 -24 29 -29 -8\u000aright_child=2 -3 3 11 -6 7 21 16 9 -11 13 -13 -14 -15 -16 23 -18 18 19 -21 -22 -23 25 -25 -26 -27 -28 28 -30 -31\u000aleaf_value=-0.0056642434613863027 0.0097540178984342456 0.013507803694280372 0.00067652393952952476 0.00035006595054448561 -0.015253389011551207 -0.011643450114026245 -0.0027320699352597843 0.012068123692970223 0.009579855853817168 -0.010144405580750452 -0.0084576206881930779 0.0069854140516131839 0.0057661743945690456 -0.0048422839588075891 0.006431232111579829 -0.014498030039009926 0.0043960749140802289 -0.0080841938977100486 -0.015255952827999341 -0.0014061852686286342 0.0094787141389588766 0.0017184880615451579 0.0043719175634492936 -0.0088190080041212048 0.0040973406817595998 -0.015852194249061285 -0.017959498313986272 -0.0050152100339351767 -0.02029946406606831 -0.0072823103784104698\u000aleaf_count=647 1302 58 152 213 149 46 705 85 52 58 479 436 491 167 59 429 560 43 82 33 11 92 23 157 51 70 17 60 37 267\u000ainternal_value=0 -0.661155 0.598196 0.229903 -0.698427 0.752754 -0.663782 0.452801 -0.799926 -0.026554 -0.847017 0.485609 0.867369 -1.00058 -0.182899 -1.08636 0.545506 -0.32942 -0.632741 -1.09207 -0.695889 -0.45738 -0.509608 -1.29158 -0.112852 -1.12301 -0.39788 -0.450117 -1.03647 -0.394803\u000ainternal_count=7031 3467 3564 1069 3409 2495 3260 702 1989 110 1879 649 1793 1232 420 1065 645 361 209 115 57 1271 1179 586 94 110 40 1069 97 972\u000ashrinkage=0.01\u000a\u000a\u000aTree=30\u000anum_leaves=31\u000anum_cat=0\u000asplit_feature=15 1 9 18 2 3 26 36 7 9 11 0 8 0 24 23 29 35 14 20 39 16 10 35 2 23 25 6 6 23\u000asplit_gain=798.874 71.9798 60.8041 27.0073 25.9545 25.3679 19.7629 30.417 22.166 19.7354 18.0409 14.6838 12.4818 12.2567 11.8915 12.7289 12.5447 11.8516 21.2682 11.5574 10.2453 13.6559 9.57948 9.52118 9.50518 10.5717 9.50288 9.45066 9.44818 9.44783\u000athreshold=-1.0000000180025095e-35 6.5000000000000009 4875.5000000000009 -1.0000000180025095e-35 1581.0000000000002 1.5000000000000002 1.5000000000000002 1.0000000180025095e-35 2034.5000000000002 5846.5000000000009 29.500000000000004 1538049600.0000002 3820.0000000000005 1502712000.0000002 -1.0000000180025095e-35 27.500000000000004 1.0000000180025095e-35 1.5000000000000002 21.500000000000004 26.500000000000004 33.500000000000007 4.5000000000000009 1.0000000180025095e-35 1.5000000000000002 2536.0000000000005 17.500000000000004 8.5000000000000018 6290.0000000000009 5375.0000000000009 29.500000000000004\u000adecision_type=2 2 2 2 2 2 2 2 2 2 2 2 2 2 2 2 2 2 2 2 2 2 2 2 2 2 2 2 2 2\u000aleft_child=1 3 4 5 29 6 8 -8 -1 12 11 13 23 28 15 -10 26 18 22 -14 24 -22 -7 -4 -19 -26 -17 -16 -6 -2\u000aright_child=2 -3 9 -5 10 17 7 -9 14 -11 -12 -13 19 -15 27 16 -18 20 -20 -21 21 -23 -24 -25 25 -27 -28 -29 -30 -31\u000aleaf_value=-0.0037000789491255228 0.0092185768506221327 0.01344996487250129 0.011835277853159507 -0.015107335135476841 -0.0086436256628391415 -0.0083341040805376063 0.0095181443985415792 -0.010036425820504196 -0.010389226130116072 0.0041997909564584586 -0.012243037869517415 0.0031194615198173077 -0.0070919670869269511 0.0081102470391562764 -0.01248601579333896 -0.009562179939213572 -0.02022520206421461 -0.0012363182319397367 -0.013992895842908627 0.0072051427851415138 0.00049022123078044575 -0.012703040563927567 -0.0016702119867793319 -0.00028253146413207808 0.0014930453036526617 -0.0089148894287576462 -0.00028215538754212006 0.00064767275856667124 0.0046499705241622585 -0.0025529479820654332\u000aleaf_count=291 1244 58 23 149 21 136 52 58 1309 331 21 490 169 783 28 62 20 539 123 20 39 87 169 146 43 135 103 66 292 24\u000ainternal_value=0 -0.654288 0.593512 -0.691095 0.708292 -0.656789 -0.791518 -0.0263168 -0.838014 0.10262 0.554178 0.575058 -0.201459 0.691285 -0.928461 -0.971128 -0.514535 -0.452545 -0.709307 -0.537953 -0.326573 -0.826433 -0.453716 0.153712 -0.24319 -0.620568 -0.358056 -0.29336 0.383938 0.900841\u000ainternal_count=7031 3467 3564 3409 2875 3260 1989 110 1879 689 1607 1586 358 1096 1588 1494 185 1271 428 189 843 126 305 169 717 178 165 94 313 1268\u000ashrinkage=0.01\u000a\u000a\u000aTree=31\u000anum_leaves=31\u000anum_cat=0\u000asplit_feature=15 1 9 18 2 3 9 26 28 27 11 19 0 7 33 0 24 14 6 22 32 22 2 39 0 4 7 17 16 28\u000asplit_gain=783.64 70.6677 59.8885 26.5277 25.653 24.8588 19.3623 19.3183 29.8638 21.8287 17.694 14.6984 14.4774 13.9899 12.4086 12.0953 11.7234 11.9721 10.3631 9.92896 9.78974 13.8129 11.0053 12.5053 11.1569 9.77601 13.2614 9.72585 9.37167 16.0291\u000athreshold=-1.0000000180025095e-35 6.5000000000000009 4875.5000000000009 -1.0000000180025095e-35 1581.0000000000002 1.5000000000000002 5846.5000000000009 1.5000000000000002 -1.0000000180025095e-35 15.500000000000002 29.500000000000004 1.0000000180025095e-35 1538049600.0000002 14255.500000000002 -1.0000000180025095e-35 1502712000.0000002 -1.0000000180025095e-35 26.500000000000004 74021.500000000015 -1.0000000180025095e-35 39049.000000000007 1.0000000180025095e-35 2503.0000000000005 66.500000000000014 1515672000.0000002 1705.0000000000002 18137.500000000004 3.5000000000000004 27.500000000000004 145.50000000000003\u000adecision_type=2 2 2 2 2 2 2 2 2 2 2 2 2 2 2 2 2 2 2 2 2 2 2 2 2 2 2 2 2 2\u000aleft_child=1 3 4 5 -2 7 14 9 -9 -1 12 13 15 28 -4 -6 17 20 -16 -15 22 -22 23 -7 -24 26 -19 -10 29 -11\u000aright_child=2 -3 6 -5 10 16 -8 8 27 11 -12 -13 -14 19 18 -17 -18 25 -20 -21 21 -23 24 -25 -26 -27 -28 -29 -30 -31\u000aleaf_value=-0.0055328975698524206 0.0089479882379845128 0.013393039457687786 0.0089223056390742728 -0.014964342592103955 0.0038058703520656972 -0.0017387911415350818 0.0041630801863954429 0.0091009929000349776 0.0023632472991110668 -0.010847696659077722 -0.012103062360433205 -0.0046916789339149882 0.0030911004323247344 -0.014243995747284416 -0.0023831928603749168 0.0080521760222069909 0.001732236181726412 0.0043842346371469896 -0.018694710815677668 -0.0086287103974265304 -0.0049163620104953239 -0.020020090201366227 -0.010652639523697705 -0.0091906173714249324 -0.0029293942793293943 -0.015592609076206297 -0.017668772363025512 -0.015310843744810343 -0.0042266845286739428 0.010351807298293247\u000aleaf_count=647 1268 58 30 149 313 612 331 54 14 330 21 167 490 429 312 783 92 23 16 157 60 37 150 93 117 70 17 42 138 11\u000ainternal_value=0 -0.64752 0.588843 -0.68387 0.702996 -0.649895 0.101644 -0.783238 -0.0260825 -0.82915 0.549692 -0.980174 0.570426 -1.06513 -0.199379 0.686032 -0.44777 -0.499264 -0.308187 -1.26791 -0.440704 -1.02051 -0.385994 -0.266654 -0.713004 -1.10315 -0.386951 -1.03013 -0.827497 -1.00067\u000ainternal_count=7031 3467 3564 3409 2875 3260 689 1989 110 1879 1607 1232 1586 1065 358 1096 1271 1179 328 586 1069 97 972 705 267 110 40 56 479 341\u000ashrinkage=0.01\u000a\u000a\u000aTree=32\u000anum_leaves=31\u000anum_cat=0\u000asplit_feature=15 1 4 10 18 12 3 5 26 36 38 21 0 30 0 23 2 3 35 14 21 29 31 1 1 31 5 3 37 10\u000asplit_gain=768.719 69.3845 59.1735 32.8248 26.0616 25.8927 24.3601 22.0947 18.8831 29.3263 21.5238 18.2399 16.9864 14.4782 13.3454 11.9484 13.5582 12.6262 11.5236 20.7059 11.4538 12.334 11.5541 10.9075 20.5291 14.4798 14.3993 13.2949 12.222 10.8851\u000athreshold=-1.0000000180025095e-35 6.5000000000000009 1924.0000000000002 1.0000000180025095e-35 -1.0000000180025095e-35 4.5000000000000009 1.5000000000000002 130.50000000000003 1.5000000000000002 1.0000000180025095e-35 10.500000000000002 8.5000000000000018 1538827200.0000002 5.5000000000000009 1533470400.0000002 9.5000000000000018 1970.0000000000002 1.5000000000000002 1.5000000000000002 21.500000000000004 6.5000000000000009 1.0000000180025095e-35 2.5000000000000004 1.5000000000000002 1.0000000180025095e-35 7.5000000000000009 549.50000000000011 1.0000000180025095e-35 2.5000000000000004 1.0000000180025095e-35\u000adecision_type=2 2 2 2 2 2 2 2 2 2 2 2 2 2 2 2 2 2 2 2 2 2 2 2 2 2 2 2 2 2\u000aleft_child=1 4 5 13 6 12 8 -7 10 -10 -1 -5 -2 15 -9 -4 -17 -18 19 -8 21 22 -12 24 25 28 -26 -27 -24 -28\u000aright_child=2 -3 3 11 -6 7 18 14 9 -11 20 -13 -14 -15 -16 16 17 -19 -20 -21 -22 -23 23 -25 26 27 29 -29 -30 -31\u000aleaf_value=-0.004921293370773701 0.0095883312948448415 0.013337006446238038 0.00059643570981701157 0.00033804800738729621 -0.014824299534316375 -0.0042292872092398104 -0.0044404372022966033 0.0075146092059598622 0.0093986393801260368 -0.0098321679601134082 0.0093061100192614304 0.0068568943336707712 0.0056247555266753669 0.0063423847295317332 0.0017934164637303344 -0.0011433448540176152 -0.015042561176012917 -0.0013443768699690395 -0.0031889590329676511 -0.013764100998202543 -0.014120623586101428 -0.016842987978957887 -0.0037576877608101618 -0.0053866660052391954 -0.015463129157304236 -0.0076955798835596414 -0.017901360759946625 0.0035439170512017609 -0.012611947018869979 -0.0062793545627777315\u000aleaf_count=502 1302 58 152 213 149 93 305 401 52 58 11 436 491 59 208 94 82 33 843 123 175 70 84 281 267 73 39 69 160 148\u000ainternal_value=0 -0.640858 0.584208 0.222856 -0.67676 0.736603 -0.643109 0.437546 -0.775084 -0.025854 -0.820417 0.475788 0.851159 -0.18429 0.560211 -0.329109 -0.62527 -1.07577 -0.443074 -0.696075 -0.945483 -0.880816 -0.834774 -0.855529 -0.965977 -0.651935 -1.24883 -0.192057 -0.939434 -0.850753\u000ainternal_count=7031 3467 3564 1069 3409 2495 3260 702 1989 110 1879 649 1793 420 609 361 209 115 1271 428 1377 1202 1132 1121 840 386 454 142 244 187\u000ashrinkage=0.01\u000a\u000a\u000aTree=33\u000anum_leaves=31\u000anum_cat=0\u000asplit_feature=15 1 4 10 24 12 13 14 5 19 22 21 0 8 3 32 20 35 30 8 13 3 23 2 3 2 6 27 4 5\u000asplit_gain=754.101 68.1267 58.3148 32.2254 25.7694 25.5731 25.3665 24.443 21.7518 18.5692 21.2383 17.949 16.8152 15.4135 14.3105 17.6103 16.0416 14.2608 14.1993 13.4206 12.9505 11.8621 11.6969 13.262 11.8573 11.6592 11.354 10.7079 13.6654 13.9097\u000athreshold=-1.0000000180025095e-35 6.5000000000000009 1924.0000000000002 1.0000000180025095e-35 -1.0000000180025095e-35 4.5000000000000009 213.50000000000003 12.500000000000002 99.500000000000014 1.0000000180025095e-35 -1.0000000180025095e-35 8.5000000000000018 1538827200.0000002 1672.0000000000002 4.5000000000000009 33504.500000000007 5.5000000000000009 4.5000000000000009 5.5000000000000009 2152.5000000000005 161.50000000000003 1.5000000000000002 9.5000000000000018 1910.5000000000002 1.5000000000000002 268.00000000000006 73484.500000000015 11.500000000000002 1430.5000000000002 59.500000000000007\u000adecision_type=2 2 2 2 2 2 2 2 2 2 2 2 2 2 2 2 2 2 2 2 2 2 2 2 2 2 2 2 2 2\u000aleft_child=1 4 5 18 6 12 7 20 21 14 27 -5 -2 25 26 16 -16 -18 22 -10 -1 -7 -4 -24 -25 -8 -9 -11 -29 -30\u000aright_child=2 -3 3 11 -6 8 13 9 19 10 -12 -13 -14 -15 15 -17 17 -19 -20 -21 -22 -23 23 24 -26 -27 -28 28 29 -31\u000aleaf_value=-0.0039760493147199313 0.0095270785498913733 0.013281844557311224 0.00059056735964857097 0.00033469488388165538 -0.00026136375098004494 -0.01159689744020693 -0.01486653388439853 -0.008454780410923287 0.011864059896209247 -0.015956058984888281 0.012049307303288103 0.0068038949766508986 0.0055789099368598214 -0.01072086503493124 0.0098721163062880299 -0.01695308344436466 -0.0084684632018609783 0.0022277408905270334 0.0062903581475523482 0.004207321397441322 0.0037016591860160476 0.0093526405589061511 -0.00098179648521884151 -0.014521130379024409 -0.0013306182032017597 -0.0038287793069810422 -0.01514536255029895 -0.015861432251369462 -0.015881486589691639 0.0033521619327426108\u000aleaf_count=568 1302 58 152 213 195 46 43 920 85 27 28 436 491 854 28 36 116 66 59 560 81 11 91 85 33 219 108 24 17 79\u000ainternal_value=0 -0.634261 0.57964 0.220842 -0.669719 0.731223 -0.711355 -0.591166 0.433851 -0.729657 -0.169694 0.471776 0.845314 -0.945019 -0.811277 -0.410464 -0.217946 -0.432925 -0.182436 0.525846 -0.295255 -0.697449 -0.325693 -0.618529 -1.05087 -0.549635 -0.911963 -0.468614 -0.244816 0.0428098\u000ainternal_count=7031 3467 3564 1069 3409 2495 3214 2098 702 1449 175 649 1793 1116 1274 246 210 182 420 645 649 57 361 209 118 262 1028 147 120 96\u000ashrinkage=0.01\u000a\u000a\u000aTree=34\u000anum_leaves=31\u000anum_cat=0\u000asplit_feature=15 1 9 18 2 3 9 7 26 28 6 12 0 7 4 33 24 23 29 24 14 7 6 4 7 13 8 0 6 39\u000asplit_gain=739.718 66.8885 57.5977 25.5513 25.0721 23.7028 18.5015 18.4464 20.2123 26.0935 17.2404 15.3364 16.2926 14.4768 15.3885 12.0392 11.275 12.1118 12.2445 11.2326 11.6107 10.8823 10.0854 9.52018 12.9367 9.46995 12.702 16.2727 16.1808 10.5702\u000athreshold=-1.0000000180025095e-35 6.5000000000000009 4875.5000000000009 -1.0000000180025095e-35 1581.0000000000002 1.5000000000000002 5846.5000000000009 2034.5000000000002 1.5000000000000002 -1.0000000180025095e-35 5135.0000000000009 4.5000000000000009 1548417600.0000002 3963.5000000000005 1756.0000000000002 -1.0000000180025095e-35 -1.0000000180025095e-35 27.500000000000004 1.0000000180025095e-35 -1.0000000180025095e-35 26.500000000000004 2122.5000000000005 74021.500000000015 1705.0000000000002 18137.500000000004 213.50000000000003 1649.5000000000002 1543665600.0000002 72472.000000000015 33.500000000000007\u000adecision_type=2 2 2 2 2 2 2 2 2 2 2 2 2 2 2 2 2 2 2 2 2 2 2 2 2 2 2 2 2 2\u000aleft_child=1 3 4 5 -2 7 15 -1 16 -10 -6 12 -12 14 21 -4 17 -9 -19 20 25 -13 -17 24 -22 29 28 -28 -27 -7\u000aright_child=2 -3 6 -5 10 19 -8 8 9 -11 11 13 -14 -15 -16 22 -18 18 -20 -21 23 -23 -24 -25 -26 26 27 -29 -30 -31\u000aleaf_value=-0.003344561760725678 0.008783633049444857 0.013227531694054415 0.0088126321944330607 -0.014609410897630345 -0.010655340411796525 -0.0019970493580956485 0.0040555656798593569 -0.0099974530250299103 0.0086633490989272404 -0.0098419654038463741 0.0073200396683189145 0.00075783196348414461 -0.0091717634415199572 0.0045196257406001483 0.0042298713668940087 -0.0023488424141584925 -0.0027435386003831423 -0.0033464698580734182 -0.019789393454049356 0.0017551785706615074 0.0044483865527010788 -0.017002567409476789 -0.018427358766961485 -0.015266214642917296 -0.017322687987031449 0.0013084259768330777 -0.010340685482709128 0.010318582793780904 -0.020214434956396868 -0.0079297793705853954\u000aleaf_count=295 1268 58 30 149 25 582 331 1309 51 55 956 19 23 500 47 312 94 165 20 92 23 37 16 70 17 89 240 12 16 130\u000ainternal_value=0 -0.627656 0.575113 -0.66267 0.687733 -0.629404 0.0970707 -0.759557 -0.837547 -0.0500795 0.535837 0.558178 0.697932 0.327278 -0.320655 -0.196946 -0.892142 -0.933653 -0.488833 -0.432242 -0.482562 -1.03623 -0.303856 -1.07694 -0.370346 -0.424974 -0.676578 -0.914009 -0.145966 -0.303265\u000ainternal_count=7031 3467 3564 3409 2875 3260 689 1989 1694 106 1607 1582 979 603 103 358 1588 1494 185 1271 1179 56 328 110 40 1069 357 252 105 712\u000ashrinkage=0.01\u000a\u000a\u000aTree=35\u000anum_leaves=31\u000anum_cat=0\u000asplit_feature=15 1 4 10 18 12 3 5 7 26 28 21 0 30 0 23 2 3 35 14 1 1 29 37 1 10 5 30 3 31\u000asplit_gain=725.657 65.6832 56.8248 31.4754 25.1167 25.0257 23.2378 21.3277 18.0812 19.7623 25.6071 17.4691 16.6719 13.9457 13.1033 11.3436 12.9247 12.0507 11.2221 20.0631 11.1508 20.4248 17.6133 17.1234 14.4599 11.959 14.0099 11.5438 10.6063 13.8603\u000athreshold=-1.0000000180025095e-35 6.5000000000000009 1924.0000000000002 1.0000000180025095e-35 -1.0000000180025095e-35 4.5000000000000009 1.5000000000000002 130.50000000000003 2034.5000000000002 1.5000000000000002 -1.0000000180025095e-35 8.5000000000000018 1538827200.0000002 5.5000000000000009 1533470400.0000002 9.5000000000000018 1970.0000000000002 1.5000000000000002 1.5000000000000002 21.500000000000004 1.0000000180025095e-35 1.5000000000000002 1.0000000180025095e-35 -1.0000000180025095e-35 5.5000000000000009 1.0000000180025095e-35 444.50000000000006 5.5000000000000009 1.0000000180025095e-35 7.5000000000000009\u000adecision_type=2 2 2 2 2 2 2 2 2 2 2 2 2 2 2 2 2 2 2 2 2 2 2 2 2 2 2 2 2 2\u000aleft_child=1 4 5 13 6 12 8 -7 -1 20 -11 -5 -2 15 -9 -4 -17 -18 19 -8 22 25 23 -10 -23 -22 27 -27 -25 -30\u000aright_child=2 -3 3 11 -6 7 18 14 9 10 -12 -13 -14 -15 -16 16 17 -19 -20 -21 21 24 -24 28 -26 26 -28 -29 29 -31\u000aleaf_value=-0.0033095465136673058 0.0094150664795009092 0.013174047386768724 0.00055109264422528498 0.00032501578343344751 -0.014476503263487456 -0.004185187125140254 -0.0042933794815323044 0.0073781023089701725 -0.00097476836089196691 0.0086052047448426199 -0.0097402635182616826 0.006712310079956563 0.005473916355343683 0.0062297111597192836 0.0016965785537356754 -0.0011322958056865782 -0.014689674808887263 -0.00131524297545538 -0.0030527537939296413 -0.013463604956939348 -0.018301411242649501 -0.004628250213284911 -0.014366343247162332 -0.010975350195020812 -0.014268480638530619 -0.016523280841418964 -0.0073418760209615214 -0.0050164422458596324 -0.0077488073489255316 0.0027842753445908915\u000aleaf_count=295 1302 58 152 213 149 93 305 401 166 51 55 436 491 59 208 94 82 33 843 123 119 253 110 219 75 191 181 37 184 53\u000ainternal_value=0 -0.621235 0.570583 0.216217 -0.655819 0.720788 -0.622864 0.426263 -0.75172 -0.828929 -0.049645 0.464754 0.834115 -0.182272 0.547445 -0.324138 -0.612321 -1.05142 -0.427702 -0.677142 -0.882854 -1.03246 -0.713393 -0.595307 -0.668224 -1.2725 -1.1202 -1.44835 -0.78932 -0.519571\u000ainternal_count=7031 3467 3564 1069 3409 2495 3260 702 1989 1694 106 649 1793 420 609 361 209 115 1271 428 1588 856 732 622 328 528 409 228 456 237\u000ashrinkage=0.01\u000a\u000a\u000aTree=36\u000anum_leaves=31\u000anum_cat=0\u000asplit_feature=15 1 9 18 2 3 9 7 26 36 6 0 12 5 8 20 6 35 14 12 1 1 29 37 1 10 5 30 15 2\u000asplit_gain=711.907 64.5035 56.0555 24.6938 24.6712 22.7923 17.9146 17.7286 19.3261 25.1535 16.7727 14.8858 16.7799 15.4357 11.8132 11.2532 11.1039 10.9876 19.6472 10.9316 10.931 20.0283 17.2573 16.769 14.1577 11.72 13.7381 11.3147 10.7223 10.4525\u000athreshold=-1.0000000180025095e-35 6.5000000000000009 4875.5000000000009 -1.0000000180025095e-35 1581.0000000000002 1.5000000000000002 5846.5000000000009 2034.5000000000002 1.5000000000000002 1.0000000180025095e-35 5135.0000000000009 1548417600.0000002 4.5000000000000009 518.50000000000011 3820.0000000000005 15.500000000000002 73484.500000000015 1.5000000000000002 21.500000000000004 4.5000000000000009 1.0000000180025095e-35 1.5000000000000002 1.0000000180025095e-35 -1.0000000180025095e-35 5.5000000000000009 1.0000000180025095e-35 444.50000000000006 5.5000000000000009 1.0000000180025095e-35 1870.5000000000002\u000adecision_type=2 2 2 2 2 2 2 2 2 2 2 2 2 2 2 2 2 2 2 2 2 2 2 2 2 2 2 2 2 2\u000aleft_child=1 3 4 5 -2 7 14 -1 20 -10 -6 12 -12 16 -4 -16 -14 18 -7 -17 22 25 23 -9 -23 -22 27 -27 -21 -29\u000aright_child=2 -3 6 -5 10 17 -8 8 9 -11 11 -13 13 -15 15 19 -18 -19 -20 28 21 24 -24 -25 -26 26 -28 29 -30 -31\u000aleaf_value=-0.0032749303602788316 0.0086746989893310786 0.013121370888723101 0.0015123352598784387 -0.014346197305437656 -0.010513455455559236 -0.0042477675848593506 0.0039853313541372377 -0.00096492178421822322 0.0089123335767301581 -0.0092932616780440746 0.0072102959273557523 -0.0079617217161997034 -0.0012714934173638751 0.0067882453859879266 -0.0094883706472010335 0.0062170898575274703 0.0060082596496647232 -0.0030207980287217905 -0.013319283460742824 -0.013311702391513736 -0.018115614873583274 -0.0045804010805280725 -0.014217813531188417 -0.0078107005512048459 -0.014116582243089898 -0.016357067248051766 -0.0072662983749661016 0.0033528524789765719 0.0067893941029299526 -0.016821815470157864\u000aleaf_count=295 1268 58 169 149 25 305 331 166 49 57 956 30 258 242 105 40 96 843 123 32 119 253 110 456 75 191 181 20 12 17\u000ainternal_value=0 -0.614907 0.56613 -0.649068 0.677681 -0.616418 0.0943926 -0.74403 -0.820484 -0.0492157 0.526793 0.548937 0.572319 0.329776 -0.19474 -0.52168 0.0796838 -0.423199 -0.669931 -0.0310552 -0.873757 -1.02186 -0.706008 -0.589143 -0.661272 -1.25956 -1.1088 -1.43377 -0.701155 -0.496565\u000ainternal_count=7031 3467 3564 3409 2875 3260 689 1989 1694 106 1607 1582 1552 